  0.100000000000000E+001 -0.157842460811347E+000  0.193107232613650E+000  0.187247000674725E+001
  0.100000000000000E+001  0.301021232976502E+001  0.474615314233964E+000  0.144073088260916E+001
  0.100000000000000E+001  0.317985915408528E+001  0.478574895847844E+000  0.143440602212107E+001
  0.100000000000000E+001 -0.118634081498126E+000  0.222354081070032E+000  0.177099378156780E+001
  0.100000000000000E+001  0.565689910868492E+001  0.465741307877126E+000  0.134215282378029E+001
  0.100000000000000E+001 -0.240451043141081E-001  0.136711597948527E+000  0.228357725505674E+001
  0.100000000000000E+001 -0.349894083883967E+001  0.250137572166642E+000  0.204027004155093E+001
  0.100000000000000E+001  0.354179093737750E+001  0.118381741387201E+000  0.235512038351611E+001
  0.100000000000000E+001  0.391642978598014E+001  0.436522055593892E+000  0.161613648146792E+001
  0.100000000000000E+001  0.144023836582394E+001  0.196158127919404E+000  0.236052763695498E+001
  0.100000000000000E+001 -0.349004634475969E+001  0.166821027279388E+000  0.227738204562263E+001
  0.100000000000000E+001  0.100547162479362E+001  0.333538498903020E+000  0.185272810455163E+001
  0.100000000000000E+001 -0.256952424094364E+000  0.396150492253509E+000  0.159697292829985E+001
  0.100000000000000E+001 -0.341797618935776E+000  0.360348075156744E+000  0.173574612654990E+001
  0.100000000000000E+001 -0.357938528423408E+000  0.313877989020050E+000  0.159386825105544E+001
  0.100000000000000E+001 -0.386472610549006E+000  0.370442796577422E+000  0.154700814527588E+001
  0.100000000000000E+001 -0.413827306061039E+000  0.137098712485498E+000  0.233925563890348E+001
  0.100000000000000E+001 -0.447576365163864E+000  0.334328187914444E+000  0.157301765151575E+001
  0.100000000000000E+001 -0.344004628866812E+001  0.165262304654416E+000  0.227562474979354E+001
  0.100000000000000E+001 -0.928976973209585E+000  0.364327914219114E+000  0.157079159312848E+001
  0.100000000000000E+001 -0.113205167406054E+001  0.292696887539597E+000  0.194568269649063E+001
  0.100000000000000E+001 -0.128110575726944E+001  0.144281106191943E+000  0.227282750627236E+001
  0.100000000000000E+001 -0.137427296638090E+001  0.371247853448143E+000  0.162282683844200E+001
  0.100000000000000E+001 -0.163903815549143E+001  0.191648791652520E+000  0.192027432412090E+001
  0.100000000000000E+001 -0.188868120717678E+001  0.221098117724448E+000  0.181928500528371E+001
  0.100000000000000E+001 -0.190353186331314E+001  0.152848691262736E+000  0.219460121075929E+001
  0.100000000000000E+001 -0.194931567697780E+001  0.307093502131590E+000  0.187408801916332E+001
  0.100000000000000E+001 -0.200024608941880E+001  0.336236948278497E+000  0.176411045434994E+001
  0.100000000000000E+001 -0.200757109741164E+001  0.185897258023406E+000  0.195887787999731E+001
  0.100000000000000E+001 -0.217884598527173E+001  0.351270565814710E+000  0.165751921064454E+001
  0.100000000000000E+001 -0.222359153291576E+001  0.347363773152355E+000  0.164493399346680E+001
  0.100000000000000E+001 -0.235863471712958E+001  0.251586709640784E+000  0.175182102806363E+001
  0.100000000000000E+001 -0.249694217573996E+001  0.217877669487872E+000  0.184712215865425E+001
  0.100000000000000E+001 -0.263103999473028E+001  0.154539424739582E+000  0.228920074067136E+001
  0.100000000000000E+001 -0.275982095348293E+001  0.160137848569895E+000  0.232643276346802E+001
  0.100000000000000E+001 -0.281478316616513E+001  0.225432851947537E+000  0.183331550334486E+001
  0.100000000000000E+001 -0.284647640268288E+001  0.231001422728512E+000  0.181811034063661E+001
  0.100000000000000E+001 -0.285522563883478E+001  0.330277003744504E+000  0.167826259466192E+001
  0.100000000000000E+001 -0.285923561943869E+001  0.164082771545450E+000  0.232623554591737E+001
  0.100000000000000E+001 -0.294011813212447E+001  0.322415065323379E+000  0.177418500851057E+001
  0.100000000000000E+001 -0.295712542544244E+001  0.164813111071604E+000  0.214160581323615E+001
  0.100000000000000E+001 -0.305935704921980E+001  0.328301901284727E+000  0.172296721510003E+001
  0.100000000000000E+001 -0.313850608491733E+001  0.250770182328984E+000  0.177754256370444E+001
  0.100000000000000E+001 -0.320497237200710E+001  0.188949694618670E+000  0.198894874161020E+001
  0.100000000000000E+001 -0.321526387226534E+001  0.262795388171123E+000  0.175506362138593E+001
  0.100000000000000E+001 -0.323019233893998E+001  0.278353066613104E+000  0.172871480610252E+001
  0.100000000000000E+001 -0.330076919643591E+001  0.242806754971874E+000  0.180168690123980E+001
  0.100000000000000E+001 -0.335212254152954E+001  0.165312493811649E+000  0.217201433613064E+001
  0.100000000000000E+001 -0.350861255371493E+001  0.310857340110235E+000  0.179014027473760E+001
  0.100000000000000E+001 -0.358046305922158E+001  0.294459231351024E+000  0.172463206869397E+001
  0.100000000000000E+001 -0.363676516739973E+001  0.201192849003003E+000  0.194941890270034E+001
  0.100000000000000E+001 -0.374920895767997E+001  0.259292949983752E+000  0.199655994429523E+001
  0.100000000000000E+001 -0.386585211101336E+001  0.289002707652125E+000  0.174481010895009E+001
  0.100000000000000E+001 -0.387271082822696E+001  0.292022410654418E+000  0.185732447502683E+001
  0.100000000000000E+001 -0.397433418319789E+001  0.189056601150186E+000  0.202565293195896E+001
  0.100000000000000E+001 -0.399095504498241E+001  0.276371863436652E+000  0.191866253449321E+001
  0.100000000000000E+001 -0.401729950317669E+001  0.298321479904934E+000  0.181222863397382E+001
  0.100000000000000E+001 -0.404797382007873E+001  0.231443359682323E+000  0.185956122087440E+001
  0.100000000000000E+001 -0.415550929279265E+001  0.292125358678061E+000  0.176622078425511E+001
  0.100000000000000E+001 -0.415959083960074E+001  0.297120662315852E+000  0.178369205690874E+001
  0.100000000000000E+001 -0.419726701513088E+001  0.194681331608257E+000  0.200729308079652E+001
  0.100000000000000E+001 -0.426943739871875E+001  0.222798224053554E+000  0.189540731521125E+001
  0.100000000000000E+001 -0.429113507447935E+001  0.289427879183845E+000  0.183587810809552E+001
  0.100000000000000E+001 -0.433766360207835E+001  0.235433728608699E+000  0.186109706809360E+001
  0.100000000000000E+001 -0.440315589000217E+001  0.228837748204310E+000  0.188281138326856E+001
  0.100000000000000E+001 -0.441447297465041E+001  0.271290403199553E+000  0.191748007634568E+001
  0.100000000000000E+001 -0.441531416797501E+001  0.255091106400451E+000  0.198542250826306E+001
  0.100000000000000E+001 -0.451680130105502E+001  0.263405824591100E+000  0.194567198589774E+001
  0.100000000000000E+001 -0.457736792120930E+001  0.199141401386527E+000  0.200709440863799E+001
  0.100000000000000E+001 -0.461488960434664E+001  0.269852365215155E+000  0.181065423777100E+001
  0.100000000000000E+001 -0.466068248153351E+001  0.272392123825667E+000  0.189381359756285E+001
  0.100000000000000E+001 -0.474243563803742E+001  0.208632321471394E+000  0.197286432469015E+001
  0.100000000000000E+001 -0.474895033615796E+001  0.276765597227485E+000  0.183344973710692E+001
  0.100000000000000E+001 -0.478713634641767E+001  0.275535879206299E+000  0.184038077743930E+001
  0.100000000000000E+001 -0.478959780087756E+001  0.248259329296397E+000  0.185435159195666E+001
  0.100000000000000E+001 -0.479658768274450E+001  0.211511797109671E+000  0.196414553421612E+001
  0.100000000000000E+001 -0.480351143772981E+001  0.265281092406382E+000  0.183045628606728E+001
  0.100000000000000E+001 -0.375777119523397E+001  0.187552963554316E+000  0.224852330802126E+001
  0.100000000000000E+001 -0.377901274291346E+001  0.169052664341670E+000  0.224964644105128E+001
  0.100000000000000E+001 -0.391836744678572E+001  0.241776956077129E+000  0.205778900650106E+001
  0.100000000000000E+001 -0.405785191374278E+001  0.181881798306310E+000  0.224146814132212E+001
  0.100000000000000E+001 -0.441524297475711E+001  0.194980106644821E+000  0.219580418998393E+001
  0.100000000000000E+001 -0.451932586618937E+001  0.184806073615380E+000  0.220132248989141E+001
  0.100000000000000E+001 -0.457549360706326E+001  0.181134041870855E+000  0.217835083097263E+001
  0.100000000000000E+001 -0.459056433648734E+001  0.227656300287984E+000  0.208306461788521E+001
  0.100000000000000E+001 -0.463612218555621E+001  0.183410741408024E+000  0.218174156777257E+001
  0.100000000000000E+001 -0.465752144209564E+001  0.206536886706115E+000  0.215087641455018E+001
  0.100000000000000E+001 -0.471798026803522E+001  0.186809162295214E+000  0.217879777418894E+001
  0.100000000000000E+001 -0.474447108281989E+001  0.238443536968438E+000  0.203472009675176E+001
  0.100000000000000E+001 -0.474934201058845E+001  0.189588411530533E+000  0.217720877145398E+001
  0.100000000000000E+001 -0.475189954941909E+001  0.232222772180768E+000  0.205802968849174E+001
  0.100000000000000E+001 -0.477031561286133E+001  0.214426095590127E+000  0.211990267768050E+001
  0.100000000000000E+001 -0.480795043289353E+001  0.221126875957349E+000  0.209519858056806E+001
  0.100000000000000E+001 -0.483958462770158E+001  0.260026844442395E+000  0.193894919958422E+001
  0.100000000000000E+001 -0.485807718179135E+001  0.270132196909659E+000  0.188302452316593E+001
  0.100000000000000E+001 -0.486220256225415E+001  0.270935242723374E+000  0.187632021452478E+001
  0.100000000000000E+001 -0.491156374230476E+001  0.248372445288886E+000  0.186230277668479E+001
  0.100000000000000E+001 -0.498032536833000E+001  0.224057753927632E+000  0.192973383488550E+001
  0.100000000000000E+001 -0.501545448673569E+001  0.205728204414016E+000  0.200619146261043E+001
  0.100000000000000E+001 -0.507020044300543E+001  0.249183427539524E+000  0.196932968665180E+001
  0.100000000000000E+001 -0.514213295290962E+001  0.208590359483346E+000  0.200361452319532E+001
  0.100000000000000E+001 -0.522020008907338E+001  0.252180348763495E+000  0.193733283997590E+001
  0.100000000000000E+001 -0.526205610671046E+001  0.246726569759226E+000  0.189801309332522E+001
  0.100000000000000E+001 -0.487168411484640E+001  0.190554865203185E+000  0.208953729821077E+001
  0.100000000000000E+001 -0.492988625391280E+001  0.198545235497438E+000  0.215099719768806E+001
  0.100000000000000E+001 -0.507797903685114E+001  0.228987228471171E+000  0.205040310472293E+001
  0.100000000000000E+001 -0.521417005079865E+001  0.201088050166907E+000  0.205744757695083E+001
  0.100000000000000E+001 -0.522023870207733E+001  0.225070922444388E+000  0.205365111051625E+001
  0.100000000000000E+001 -0.523758149467190E+001  0.207566749390758E+000  0.210293095440329E+001
  0.100000000000000E+001 -0.524652501412221E+001  0.204354499804520E+000  0.203960975536210E+001
  0.100000000000000E+001 -0.527566960073345E+001  0.234211172793788E+000  0.192342918473249E+001
  0.100000000000000E+001 -0.528844683679941E+001  0.224701094290267E+000  0.195234658653415E+001
  0.100000000000000E+001 -0.529203217161093E+001  0.248351286727529E+000  0.190157859299225E+001
  0.100000000000000E+001 -0.534475538091148E+001  0.242019918452850E+000  0.191597891414567E+001
  0.100000000000000E+001 -0.540101942475474E+001  0.215277389625367E+000  0.200274981416485E+001
  0.100000000000000E+001 -0.541623669586927E+001  0.226163651214726E+000  0.196258963304371E+001
  0.100000000000000E+001 -0.543089608157699E+001  0.220136278192970E+000  0.198631332731653E+001
  0.100000000000000E+001 -0.538352517609251E+001  0.208153003352358E+000  0.207767859638516E+001
  0.100000000000000E+001 -0.543222041039848E+001  0.209439833257217E+000  0.205978356903378E+001
  0.100000000000000E+001 -0.544652886092374E+001  0.211958114002619E+000  0.205930501120644E+001
  0.100000000000000E+001 -0.546886887082210E+001  0.224358243925787E+000  0.197715661968488E+001
  0.100000000000000E+001 -0.551343450693923E+001  0.217669943900285E+000  0.202585297367655E+001
  0.100000000000000E+001 -0.551385362139082E+001  0.220982506611247E+000  0.200192613868752E+001
  0.100000000000000E+001 -0.552804310534044E+001  0.229183454486487E+000  0.198681847546663E+001
