  0.200602923561976E+000  0.311775461725371E+002 -0.139602919115264E+002  0.102518992698966E+002  0.332238696024831E+001 -0.128396986973783E+002
  0.200602923561976E+000  0.308800384036965E+002 -0.767740892535577E+001  0.122553611227450E+001 -0.183342973846155E+001 -0.171489286142880E+002
  0.200602923561976E+000  0.224533684404173E+002 -0.436445048182907E+001  0.330055169973244E+001  0.227235570055472E+001 -0.688742323522057E+001
  0.200602923561976E+000  0.224657147977769E+002 -0.399553965101308E+001  0.830156196897504E+001  0.488748303555541E+001 -0.133836460890842E+002
  0.200602923561976E+000  0.214120800171008E+002  0.414491256180525E+001  0.591440659221825E+001 -0.248179325689076E+001 -0.116061066981430E+002
  0.200602923561976E+000  0.293334446240370E+002 -0.723286310642035E+001  0.117370411521251E+002  0.841755951626136E+001 -0.165286498446331E+002
  0.200602923561976E+000  0.253093794818824E+002 -0.934815603492193E+001  0.111934752000042E+002  0.278179501211283E+001 -0.160471858272182E+001
  0.200602923561976E+000  0.253469039731125E+002 -0.627314940754356E+001  0.409794594485973E+001  0.737556255885642E+001 -0.186346602171357E+002
  0.200602923561976E+000  0.214251442466073E+002 -0.106681930372138E+002 -0.183588064083127E+002  0.805914556289338E+000 -0.530054512723810E+001
  0.200602923561976E+000  0.283767648239153E+002  0.288482889557006E+000  0.312891702224872E+001  0.434798255192147E+001  0.254650784774323E+001
  0.200602923561976E+000  0.214795400217453E+002  0.403207355926918E+001  0.468510814170797E+001 -0.744965684717677E+000 -0.416419309097051E+001
  0.200602923561976E+000  0.281899502555020E+002 -0.779573712903431E+001  0.177960005421438E+002  0.569734287128924E+001 -0.328410400379722E+001
  0.200602923561976E+000  0.215962572101077E+002 -0.993750539024272E+001  0.337416781675957E+001  0.426575994168559E-001 -0.146056230571105E+002
  0.200602923561976E+000  0.279799684052926E+002 -0.933367151251997E+001 -0.136457443161692E+002 -0.226886408314492E+001 -0.111091088954576E+002
  0.200602923561976E+000  0.255541224817468E+002  0.125772843077573E+002 -0.653694539025324E+000 -0.123654778577723E+002 -0.696778931661295E+001
  0.200602923561976E+000  0.215972414148221E+002 -0.217182683427790E+001 -0.192728869924042E+001  0.377482426692326E+001 -0.540839145719168E+001
  0.200602923561976E+000  0.275964951913126E+002 -0.743606116264553E+001  0.128831625295357E+001 -0.468050326153195E+001 -0.558869407126633E+001
  0.200602923561976E+000  0.273025703187551E+002 -0.104417921281167E+001 -0.106830068669414E+001  0.116236403980005E+001  0.220901253108156E+001
  0.200602923561976E+000  0.259479075057934E+002 -0.162759348481855E+002 -0.143082606035391E+002  0.873036722950815E+000 -0.162512996888058E+002
  0.200602923561976E+000  0.224668885800238E+002 -0.301246000490127E+001  0.581230174788403E+001 -0.625423697699393E+000 -0.904944485550777E+001
  0.200602923561976E+000  0.270949564936649E+002 -0.579091094830678E+001  0.110295768647393E+002  0.852075909328203E+001 -0.139002912857357E+002
  0.200602923561976E+000  0.262664652544918E+002 -0.376177627077742E+001  0.303664695464969E+001  0.376492322626593E+000 -0.100697625670518E+002
  0.200602923561976E+000  0.262992354974920E+002 -0.547180074665779E+001  0.110993791273578E+002 -0.858410679490874E+001 -0.102160033421801E+002
  0.200602923561976E+000  0.264689889244048E+002  0.912664466552341E+001  0.553029277489519E+001  0.867325535896741E+001 -0.524772035688958E+001
  0.200602923561976E+000  0.216447446559917E+002 -0.358673039992949E+001  0.159605691924949E+002 -0.164399428947019E+001 -0.129716224605086E+001
  0.200602923561976E+000  0.263858207584543E+002 -0.981906519542686E+001  0.125116227173075E+002 -0.977177170070043E-001 -0.456349481963596E+001
  0.200602923561976E+000  0.250642902934830E+002 -0.116672537259266E+001 -0.355748220441299E+001  0.474591756520185E+001  0.371740858302594E+001
  0.200602923561976E+000  0.225747604937855E+002 -0.116382138458860E+002  0.187044508046502E+001  0.266699408918750E+001 -0.123539331201296E+002
  0.200602923561976E+000  0.248639986286793E+002 -0.480574879802927E+001  0.127469419175923E+002 -0.160555337501604E+001  0.191291740351573E+001
  0.200602923561976E+000  0.216576859368403E+002 -0.395515845191691E+001  0.411762083366001E+001 -0.263638001171116E+001 -0.723001176377321E+001
  0.200602923561976E+000  0.226038359091796E+002 -0.102548129422857E+001 -0.984072310585464E+001 -0.174637047877365E+001  0.220227605984782E+001
  0.200602923561976E+000  0.226048857543529E+002  0.106337974474360E+002 -0.231821714330899E+001  0.298196681595311E+001 -0.185517089541060E+002
  0.200602923561976E+000  0.244793880100801E+002 -0.306044493783262E+001  0.676214437530949E+001 -0.606333789397260E+001 -0.107197838168070E+001
  0.200602923561976E+000  0.226224261258486E+002 -0.301593959422100E+001  0.151266661518563E+002 -0.112315306778321E+001  0.994342456208603E+000
  0.200602923561976E+000  0.243864889761201E+002  0.383513427674488E+001 -0.174235095850070E+001  0.329296370802394E+001 -0.769591114864595E+001
  0.200602923561976E+000  0.242311426907573E+002  0.154856426177392E+001 -0.254665248347669E+001  0.137194172184971E+002 -0.179974947702025E+001
  0.200602923561976E+000  0.240389347404152E+002 -0.862035440061383E+000  0.669746128168034E+001  0.416622287631221E+001 -0.487400386288054E+001
  0.200602923561976E+000  0.239072685425954E+002 -0.641603063570248E+001  0.456942571902337E+001 -0.546002721047297E+001 -0.484736333069773E+001
  0.200602923561976E+000  0.238933299195410E+002  0.388968856036736E+001  0.508139773495873E+000  0.122238233071131E+002 -0.728912214326627E+001
  0.200602923561976E+000  0.238829916850603E+002 -0.342105796448612E+001 -0.379631893296571E+001 -0.105722842897152E+001 -0.285295590725243E+001
  0.200602923561976E+000  0.218031154740809E+002 -0.548939147078528E+001  0.472396540217183E+001 -0.278171804850832E+000 -0.786625040567344E+001
  0.200602923561976E+000  0.237420063472203E+002 -0.588380566546455E+001  0.262433848689819E+001  0.689204728333694E+001 -0.167923346440461E+002
  0.200602923561976E+000  0.227656885138633E+002 -0.306511692039537E+001  0.154488101266113E+002 -0.182331104283526E+001 -0.263822894980255E+001
  0.200602923561976E+000  0.236335455137188E+002 -0.473202915730571E+000 -0.266622230816998E+001 -0.159148624856467E+000 -0.115929924434647E+002
  0.200602923561976E+000  0.236085486759718E+002  0.613971058226958E+001  0.551490507240252E+001 -0.205967221561492E+001 -0.579156786799863E+001
  0.200602923561976E+000  0.218109061137964E+002 -0.403969428118410E+001  0.711330540830511E+001  0.579081024004008E+001 -0.152970231208166E+002
  0.200602923561976E+000  0.227814994401436E+002 -0.107566323071698E+002  0.801912496690576E+001  0.163075811526626E+001 -0.133809295188821E+002
  0.200602923561976E+000  0.235601603894338E+002  0.637899635838519E+001  0.308259632649300E+001 -0.336181763906115E+000 -0.816256561095524E+001
  0.200602923561976E+000  0.218287870615008E+002  0.309522652514062E+001  0.640979927975002E+001  0.567351441725144E+001 -0.513815190669587E+001
  0.200602923561976E+000  0.232537228425131E+002 -0.993257137849680E+001 -0.140202365633152E+002 -0.738191694262035E+000 -0.958248568420370E+001
  0.200602923561976E+000  0.218406940848785E+002 -0.435581813251035E+001 -0.196381141548416E+001  0.337959575034479E+001 -0.282486724269912E+001
  0.200602923561976E+000  0.231470274026452E+002 -0.108918223408633E+002  0.951646401212853E+001 -0.446246945242954E+000 -0.119250962792971E+002
  0.200602923561976E+000  0.231020518516217E+002 -0.639521561357929E+001 -0.134003835701350E+000 -0.450767743762381E+001 -0.763795826866238E+001
  0.200602923561976E+000  0.230968081439323E+002  0.665241969834246E+001  0.408408943134270E+001  0.624510034882558E+000 -0.586565166234497E+001
  0.200602923561976E+000  0.228466299625018E+002 -0.962389608240037E+001  0.107581526671565E+002  0.265339170986685E+000 -0.503332944173805E+001
  0.200602923561976E+000  0.230815505189442E+002 -0.693041436223968E+001  0.569113200464099E+001 -0.635402430904546E+001 -0.688390939409375E+001
  0.200602923561976E+000  0.230407285978677E+002  0.531668886377676E+001  0.971588522565455E+001  0.423307416391406E+000 -0.797638366176745E+001
  0.200602923561976E+000  0.229049372740255E+002  0.502446569132711E+001 -0.335878148538893E+001  0.109824598972379E+002 -0.223541825122439E+001
  0.200602923561976E+000  0.218615600638145E+002  0.100236641094054E+002 -0.101837078661254E+001  0.140710223986125E+001 -0.178245267250359E+002
  0.200602923561976E+000  0.218946642771284E+002 -0.115808110700611E+002 -0.174163262233262E+002  0.337108244034900E+001 -0.433544763867909E+001
  0.200602923561976E+000  0.223231738245474E+002 -0.945665614270903E+001  0.489560502318032E+001 -0.807100793592987E+000 -0.629149815121411E+001
  0.200602923561976E+000  0.222758377466788E+002 -0.438544754229877E+001 -0.921373706028380E+001 -0.348702516011467E+001 -0.496984916430668E+001
  0.200602923561976E+000  0.222600403925801E+002 -0.643387128397573E+001  0.136274404196360E+002 -0.377573325866094E+001 -0.430453330535977E+001
  0.200602923561976E+000  0.221625481956622E+002 -0.385263471871536E+000 -0.189326631014882E+001  0.547679782937771E+001 -0.185236745815174E+001
  0.200602923561976E+000  0.221522152112495E+002 -0.855031928498196E+000 -0.331954994518611E+000  0.810663278543601E+000 -0.168631087055689E+002
  0.200602923561976E+000  0.220784312418642E+002 -0.101743269905028E+002  0.835341241457514E+001  0.418500798872066E+001 -0.101374278989573E+002
  0.200602923561976E+000  0.220369558725184E+002 -0.881596536165787E+001  0.125342882883836E+002  0.488195370859512E+001 -0.509255444767731E+001
  0.200602923561976E+000  0.220273760897689E+002 -0.244642645417396E+001  0.327561354087897E+001  0.337645158143324E+000 -0.388602622612861E+001
  0.200602923561976E+000  0.219674511232782E+002 -0.144506357959364E+001 -0.831295938490122E+000  0.579362016472941E+001  0.526379905073922E+001
  0.200602923561976E+000  0.220161187597382E+002  0.518800399164303E+001 -0.238107099297667E+001 -0.356746022733534E+001 -0.988154322369956E+001
  0.200602923561976E+000  0.219850699626666E+002 -0.110947374232724E+002 -0.452392440359936E+001  0.120448090555045E+001 -0.120505635941084E+002
  0.200602923561976E+000  0.213437246122686E+002 -0.415462015205035E+001 -0.745794057193581E+001  0.226460127629093E+000 -0.336490339409529E+001
  0.200602923561976E+000  0.213142936392382E+002  0.510538287883717E+001  0.302696572617620E+001  0.823228490115464E+001 -0.897468848372220E+001
  0.200602923561976E+000  0.212422678936813E+002 -0.263000691395462E+001  0.589380620019952E+001  0.323590904504172E+000 -0.620877792592393E+001
  0.200602923561976E+000  0.212372182384975E+002  0.251292196200369E+001  0.219286597772027E+001  0.524189657792977E+001 -0.986103640825615E+001
  0.200602923561976E+000  0.212341593579088E+002 -0.167620160248284E+001  0.108698900183213E+001 -0.115245000560201E+000 -0.507486091102621E+001
  0.200602923561976E+000  0.212328673275042E+002 -0.114791370497569E+002 -0.118243785642696E+002  0.620060635263134E+001 -0.467096323091197E+001
  0.200602923561976E+000  0.211849039479818E+002 -0.913902382851693E+001  0.692078173115062E+001  0.247411509838503E+001 -0.110204548460374E+002
  0.200602923561976E+000  0.211720085806710E+002 -0.436957301462165E+001  0.904513535331054E+001 -0.169416457299334E+001 -0.738653182918444E+001
  0.200602923561976E+000  0.210986980198501E+002 -0.741390951185187E+001  0.129164921424414E+002  0.248107566533464E+001 -0.137605567023537E+001
  0.200602923561976E+000  0.210736984001344E+002 -0.103458256221247E+002 -0.397565928483302E+001  0.698600755727437E+001 -0.321859729411948E+001
  0.200602923561976E+000  0.210732278972281E+002 -0.432291655662019E+001  0.667242568325601E+001  0.530946360098362E+001 -0.143168217902846E+002
  0.200602923561976E+000  0.210410190884454E+002  0.535674376131233E+001  0.729285011280218E+000  0.723111392951994E+001 -0.876512436174031E+001
  0.200602923561976E+000  0.210211376797884E+002  0.139932947785204E+001  0.452138889469972E+001  0.282762745033045E+001 -0.104526940097482E+002
  0.200602923561976E+000  0.210048688368551E+002 -0.195259847001177E+001  0.944996998494467E+001 -0.673630421534297E+001 -0.337483436994684E+001
  0.200602923561976E+000  0.209877843756746E+002  0.244401634014668E+001 -0.207727120839856E+001 -0.120553419616553E+002 -0.516444816015920E+000
  0.200602923561976E+000  0.209803724017814E+002 -0.612306839170821E+001  0.929368360284574E+001  0.142925778597862E+001 -0.126468734438518E+001
  0.200602923561976E+000  0.209782651014853E+002 -0.121634123761086E+002 -0.129880766023818E+002  0.516348739179404E+001 -0.356622045805075E+001
  0.200602923561976E+000  0.209433932875908E+002  0.107232798333274E+001 -0.319062414852972E+001  0.870795495240431E+001 -0.228891569542114E+001
  0.200602923561976E+000  0.208844570404553E+002 -0.875549752650023E+001  0.723378358364381E+001 -0.423913184388988E+001 -0.991588885227227E+001
  0.200602923561976E+000  0.208418993281299E+002 -0.112537491462905E+002 -0.159480839620142E+002  0.178172312733118E+001 -0.707655749121991E+001
  0.200602923561976E+000  0.208218756137988E+002  0.880639763155994E+000 -0.125719413665207E+001  0.877575872770721E+001 -0.184194685223918E+001
  0.200602923561976E+000  0.208017728620499E+002  0.217103559691482E+001  0.548116577060714E+001 -0.235034614239079E+001 -0.143613445795791E+002
  0.200602923561976E+000  0.207631463337091E+002 -0.536308292775718E+001  0.101613710568922E+002 -0.136493637945124E+001 -0.689754797736274E+000
  0.200602923561976E+000  0.207355118151772E+002 -0.661427903685840E+001 -0.268057199758219E+001  0.454934766478310E+001 -0.424693690067320E+001
  0.200602923561976E+000  0.206795128346115E+002 -0.544451887221922E+001 -0.128572241625956E+002  0.375191787644689E+001  0.280172618853189E+001
  0.200602923561976E+000  0.206621890021181E+002 -0.348757168085822E+001  0.560583724472938E+001 -0.784569821914999E+001 -0.922117579864089E+001
  0.200602923561976E+000  0.206482526981684E+002 -0.312797417046750E+001  0.103045942107766E+002 -0.197335406084180E+001 -0.288058289887088E+001
  0.200602923561976E+000  0.206260909400196E+002  0.712416227700062E+001  0.494690559120524E+001  0.162134301807455E+001 -0.796769815457360E+001
  0.200602923561976E+000  0.206193838341923E+002 -0.658329684692761E+001  0.154738156181180E+002  0.100877054104785E+000 -0.366474626549024E+001
  0.200602923561976E+000  0.205650786817399E+002 -0.719769938437025E+001  0.126976868562602E+002 -0.106292145130321E+001 -0.885211144607153E+001
  0.200602923561976E+000  0.205629337763704E+002 -0.467063585162684E+001  0.131272916772079E+002 -0.130917757445811E+001 -0.101640966568372E+000
  0.200602923561976E+000  0.204811902518383E+002 -0.101410692177956E+002 -0.166770799858766E+002  0.225077335003369E+001 -0.401949408136230E+001
  0.200602923561976E+000  0.204753737556673E+002 -0.282928636798248E+001  0.465507231311057E+001  0.188581890051237E+001 -0.159387819318158E+002
  0.200602923561976E+000  0.204348635874702E+002 -0.668962753177224E+001  0.126362870244725E+002 -0.648186441672340E+000 -0.830291622205503E+001
  0.200602923561976E+000  0.204047214841327E+002 -0.268378605533120E+001  0.694949229065332E+001 -0.586299528984255E+001 -0.396987643963272E+001
  0.200602923561976E+000  0.203979686987081E+002 -0.406993116888639E+001  0.551306885866170E+001 -0.275639323784026E+001 -0.403499056818006E+001
  0.200602923561976E+000  0.203560662813383E+002 -0.656541020395389E+001  0.949190107719357E+000 -0.389658986548111E+001 -0.118648040099202E+002
  0.200602923561976E+000  0.203459540330131E+002 -0.122373164653001E+002 -0.866504059074431E+001  0.707870018251425E+001 -0.620419005219911E+001
  0.200602923561976E+000  0.203306141361647E+002  0.482595284760898E+001  0.341691933121968E+000 -0.610300726745516E+001 -0.136586527782334E+002
  0.200602923561976E+000  0.202668851298081E+002 -0.684124283393992E+001  0.110219929151715E+002 -0.368562453699182E+001 -0.100772107432064E+002
  0.200602923561976E+000  0.202360022337750E+002 -0.178411947143281E+001  0.611170785627061E+001  0.382762082018933E+001 -0.103458080230237E+002
  0.200602923561976E+000  0.201683373031825E+002  0.538905415329330E+001  0.477252801400454E+001  0.395309498133841E+001 -0.487374444204104E+001
  0.200602923561976E+000  0.201676523665784E+002  0.186506214217597E+001 -0.528645006666586E+000  0.329813908741038E+001 -0.395468501958993E+001
  0.200602923561976E+000  0.201674853386888E+002  0.150182358339929E+001  0.623246733240673E+000  0.316392692787731E+001 -0.329757074495776E+001
  0.200602923561976E+000  0.201644221616382E+002 -0.633351872576517E+001  0.739836345491114E+001 -0.207841382222011E+000 -0.925774994442637E+001
  0.200602923561976E+000  0.201408416447116E+002 -0.126420876549320E+002 -0.153557824797972E+002  0.916543315366226E+000 -0.100497878976861E+002
  0.200602923561976E+000  0.201403110317750E+002  0.615201202194184E+001 -0.106889403437804E+002  0.221227174632204E+001 -0.852484459170576E+001
  0.200602923561976E+000  0.201188058587314E+002 -0.141314935942590E+001 -0.767839474638623E+001  0.125277700258422E+001  0.269780433409871E+001
  0.200602923561976E+000  0.200797563716477E+002  0.165663369125690E+001  0.619957255221274E+001 -0.197014354633769E+001 -0.666873011002078E+001
  0.200602923561976E+000  0.200383179769599E+002 -0.497220034190777E+001  0.129878284573830E+002 -0.245912077869245E+001 -0.131057328032862E+001
  0.200602923561976E+000  0.200381545941889E+002 -0.930395804171464E+001 -0.170047992851248E+002  0.275072511479024E+000 -0.406084578024640E+001
  0.200602923561976E+000  0.200213069993289E+002  0.466038852015699E+001  0.585261549428114E+001  0.189717976498988E+001 -0.103662873153565E+002
  0.200602923561976E+000  0.200200216948426E+002 -0.119877217666849E+002 -0.734877937869179E+001  0.236525947667775E+001 -0.114941908568463E+002
  0.200602923561976E+000  0.199849748244210E+002 -0.373839992540124E+001  0.141780692814466E+002 -0.315776208223529E+001 -0.194166300856497E+001
  0.200602923561976E+000  0.199732376802101E+002 -0.670968610200390E+000  0.282180671885462E+001  0.483856150776676E+001 -0.838290116026846E+001
  0.200602923561976E+000  0.199289386287762E+002 -0.564675108223748E+001 -0.809384832701222E+001  0.636809277123810E+001  0.247548869561330E+001
  0.200602923561976E+000  0.198998910048502E+002 -0.107486677280414E+002  0.628583583548444E+001  0.217098738796267E+001 -0.876771947214233E+001
  0.200602923561976E+000  0.198555511286787E+002  0.318862656281634E+001  0.161863258876148E+001  0.764494696763459E+001 -0.291961993555731E+001
  0.200602923561976E+000  0.198511163587091E+002 -0.623732519610956E+001  0.757385633689146E+001 -0.570683310988856E+001 -0.645303440672737E+001
  0.200602923561976E+000  0.198397178495853E+002 -0.143827329392049E+002 -0.817573727663795E+001  0.731765858144340E+001 -0.726480139165428E+001
  0.200602923561976E+000  0.198242047915883E+002 -0.676073422440739E+001  0.183232966555716E+001 -0.391935799493151E+001 -0.123930840782783E+002
  0.200602923561976E+000  0.198101028328567E+002 -0.643105572151503E+001 -0.635209281315804E+001  0.597258969672777E+001  0.205487309432044E+001
  0.200602923561976E+000  0.196843753880816E+002 -0.811137798783948E+001 -0.117841121797561E+002  0.559921363197890E+001  0.113131988436847E+001
  0.200602923561976E+000  0.196719305268317E+002  0.361218132915041E+001  0.737386435259572E+001  0.277429490968799E+001 -0.918645066133113E+001
  0.200602923561976E+000  0.196613397365527E+002  0.582498665172534E+001 -0.226327789730168E+001 -0.450948465851774E+001 -0.924485609190783E+001
  0.200602923561976E+000  0.196165547718334E+002  0.627838528823340E+001  0.754969439463014E+000  0.782170713487782E+001 -0.733965208346499E+001
  0.200602923561976E+000  0.196108389690390E+002 -0.849429614323897E+001  0.116314354232483E+002  0.313722175050364E+001 -0.592153590919398E+001
  0.200602923561976E+000  0.196091255615618E+002 -0.109194104211554E+000  0.694821880645474E+001 -0.162418383654406E+001 -0.847271372001462E+001
  0.200602923561976E+000  0.196083796736633E+002 -0.608914092276948E+001  0.125773093769533E+002  0.183738844671757E+001 -0.278968057934475E+001
  0.200602923561976E+000  0.196035882010414E+002  0.436333953709190E+001 -0.353672100016580E+001 -0.545082770524173E+001 -0.126967324981988E+002
  0.200602923561976E+000  0.196010745156890E+002 -0.526006593870136E+001  0.825166616875143E+001 -0.523259013943483E+001 -0.104655370963114E+002
  0.200602923561976E+000  0.195871622132953E+002 -0.678992704092518E+001  0.143051551365820E+002  0.925002030269155E+000 -0.413768198424804E+001
  0.200602923561976E+000  0.195782179036648E+002 -0.938472482714996E+000  0.443998631294176E+001  0.448553877650991E+001 -0.739274970314828E+001
  0.200602923561976E+000  0.195373965315047E+002  0.318600551066843E+001  0.335458878088670E+001  0.779527996204691E+001 -0.793810682247027E+001
  0.200602923561976E+000  0.195195125455008E+002  0.654002237177891E+001  0.590423751498629E+001  0.301050951243236E+001 -0.876251184375291E+001
  0.200602923561976E+000  0.195069797588729E+002  0.420872699185754E+001  0.529186808917033E+001  0.276702692144110E+001 -0.100697556330416E+002
  0.200602923561976E+000  0.195010864288737E+002 -0.356922956457713E+001  0.115492534290303E+002 -0.286707101627135E+001 -0.130955456790871E+001
  0.200602923561976E+000  0.194989534284842E+002 -0.843912047211823E+001  0.105722133859886E+002  0.334331162953127E+001 -0.591281127442689E+001
  0.200602923561976E+000  0.194764110239350E+002  0.351900482801852E-001  0.451239757934108E+000  0.160618289423014E+001 -0.120548921935298E+002
  0.200602923561976E+000  0.194595593022352E+002  0.543964894455944E+001 -0.414976551881295E+001 -0.537555718096006E+001 -0.589278967766619E+001
  0.200602923561976E+000  0.194010112244102E+002 -0.755816975444796E+001  0.913247813549143E+001 -0.218690800590739E+001 -0.484050749519658E+001
  0.200602923561976E+000  0.193994670553158E+002 -0.903707114545301E+001  0.703662300789845E+001  0.739238668716798E+000 -0.115569251870728E+002
  0.200602923561976E+000  0.193844488414303E+002  0.542474972255701E+001  0.344813749813757E+001  0.813249021224291E+001 -0.747639603984667E+001
  0.200602923561976E+000  0.193577516803239E+002 -0.580170494238705E+001  0.130116150654503E+002 -0.268429925896385E+001 -0.695745358291162E+001
  0.200602923561976E+000  0.193340636283307E+002 -0.492223701171930E+001  0.105799754161902E+002 -0.404758118328677E+001 -0.845786196323215E+001
  0.200602923561976E+000  0.193293129223162E+002 -0.591719392437727E+001  0.423515654390329E+001 -0.129664591680108E+001 -0.569603681857323E+001
  0.200602923561976E+000  0.193275970909321E+002 -0.693600026870334E+001  0.128815852365453E+002 -0.136809042849500E+001 -0.749241640315444E+001
  0.200602923561976E+000  0.192195322682417E+002 -0.169919910295572E+001  0.274122284058260E+001  0.488335157585157E+001 -0.664015323374848E+001
  0.200602923561976E+000  0.192010448284231E+002 -0.460907558196255E+001 -0.230555602164081E+001  0.212289879009096E+001 -0.271811550724517E+001
  0.200602923561976E+000  0.191793437917154E+002 -0.470572419739859E+001  0.108128784715449E+002 -0.144209290948528E+000 -0.249399693586329E+001
  0.200602923561976E+000  0.191686362035186E+002  0.475865608025115E+001  0.731256432918266E+001  0.201788999693028E+001 -0.864229017152392E+001
  0.200602923561976E+000  0.191588413999382E+002 -0.129981606822220E+000  0.199207789192274E+001  0.456668142775644E+001 -0.827612801827280E+001
  0.200602923561976E+000  0.191291080948729E+002 -0.864944292040807E+001 -0.133846637724850E+002  0.435843375456476E+001 -0.105615547081558E+001
  0.200602923561976E+000  0.190876588324097E+002  0.167578051951678E+001  0.300227522663031E+001  0.795105564091701E+001 -0.668962612163903E+001
  0.200602923561976E+000  0.193927622353996E+002  0.318440162172276E+001  0.732697745726190E+001 -0.253362804185816E+001 -0.115664823759449E+002
  0.200602923561976E+000  0.193610061596036E+002  0.127680637193069E+001  0.443162670373220E+001 -0.160763830545892E+001 -0.811614193297889E+001
  0.200602923561976E+000  0.193209384276994E+002  0.572675900494447E+001  0.456786996957728E+001  0.447961282793698E+001 -0.566722992352913E+001
  0.200602923561976E+000  0.193175375498347E+002  0.206542941087036E+001 -0.180374965942152E+001  0.705144679259019E+001 -0.597420503061594E+001
  0.200602923561976E+000  0.192961208249090E+002  0.129217186375368E+001 -0.231721461068928E+001  0.854127947542459E+001 -0.385742820285629E+001
  0.200602923561976E+000  0.192436145489300E+002  0.216214056051448E+001 -0.227419841506518E+001  0.780690041030406E+001 -0.416741507717327E+001
  0.200602923561976E+000  0.192246803277581E+002 -0.285785685115321E+001  0.401093780074283E+001  0.363772642626035E+001 -0.149997971499573E+002
  0.200602923561976E+000  0.192065304033351E+002  0.268820403709320E+000 -0.175257266772338E+001  0.648687810184547E+001 -0.377987306604132E+001
  0.200602923561976E+000  0.192024473688904E+002 -0.616280315461985E+000  0.403839033153863E+001  0.199626924102613E+001 -0.481107872337366E+001
  0.200602923561976E+000  0.190916747128806E+002  0.165647352250229E+001  0.452265585429371E+001  0.552779462371376E+000 -0.114939817932936E+002
  0.200602923561976E+000  0.190842068542185E+002  0.437836608584817E+001  0.427803018167679E+001  0.335295136836684E+001 -0.507096357418067E+001
  0.200602923561976E+000  0.190758847550254E+002  0.281790813560388E+001  0.350254659040380E+001 -0.412840365318132E+001 -0.109176596652986E+002
  0.200602923561976E+000  0.190425937156588E+002  0.187959473526706E+001 -0.200666067865614E+001  0.717074066234663E+001 -0.417970178659913E+001
  0.200602923561976E+000  0.189964112780584E+002 -0.558099019344237E+001 -0.128756600418184E+002 -0.247455607852906E+000 -0.228570678303962E+001
  0.200602923561976E+000  0.189945614037588E+002 -0.128373306273929E+002 -0.905126892083025E+001  0.649369378629103E+001 -0.543683978217561E+001
  0.200602923561976E+000  0.189810724615493E+002 -0.112014840844437E+002 -0.144811543148050E+002  0.403295194671864E+001 -0.404727954339902E+001
  0.200602923561976E+000  0.189672573261112E+002  0.299470676122642E+001 -0.757551410982451E-001 -0.167441371346408E+001 -0.114345913794598E+002
  0.200602923561976E+000  0.189343637981708E+002  0.389288550123843E+001  0.214174185620845E+001  0.689122939753102E+001 -0.387840584818790E+001
  0.200602923561976E+000  0.189297651500343E+002 -0.895928151286583E+000  0.159818360054808E+001  0.461124653088697E+001 -0.731462776997768E+001
  0.200602923561976E+000  0.189052895121688E+002  0.743765337037844E+001  0.112449856520314E+001 -0.610816604297557E+001 -0.383532818664540E+001
  0.200602923561976E+000  0.189040482810465E+002 -0.634762307157802E+001 -0.261428945134971E+001  0.408058165921378E+001 -0.374475408980833E+001
  0.200602923561976E+000  0.188751361968328E+002 -0.222557201705477E+001  0.509916383309966E+001  0.288963482907251E+001 -0.128933129025945E+002
  0.200602923561976E+000  0.188640320797171E+002 -0.669870433866479E+001 -0.512899567050599E+001  0.695059807857892E+001  0.152673297412363E+001
  0.200602923561976E+000  0.187992244325386E+002  0.158276160111540E+001  0.327953660118570E+001  0.737768332646381E+001 -0.612478687492833E+001
  0.200602923561976E+000  0.187704873416192E+002 -0.920348641613463E+001 -0.663215933592596E+001  0.250042826950413E+001 -0.788268785235126E+001
  0.200602923561976E+000  0.187627655805685E+002 -0.102093868852542E+002 -0.133392458402825E+002  0.104474931847349E+001 -0.548335324247646E+001
  0.200602923561976E+000  0.187551822443085E+002  0.258871064304373E+001  0.560743358751114E+001 -0.320995981644998E+000 -0.587974198482294E+001
  0.200602923561976E+000  0.187377100392583E+002 -0.218170544999831E+001  0.318269207153306E+001  0.236508736464354E+001 -0.153983002133180E+002
  0.200602923561976E+000  0.185847033528452E+002  0.170239194683372E+001 -0.136772025216974E+000  0.470990743313642E+001 -0.403109394648438E+001
  0.200602923561976E+000  0.185515714621371E+002 -0.350202285376682E+001 -0.349806121885346E+001  0.272110374003420E+001 -0.230860186934581E+000
  0.200602923561976E+000  0.185511739630563E+002  0.389406402232943E+001  0.282823960447039E+001  0.379062356768370E+001 -0.882690408676234E+001
  0.200602923561976E+000  0.185014437351491E+002  0.496855535081367E+001  0.232224450714078E-001  0.747052559967985E+001 -0.612394117091133E+001
  0.200602923561976E+000  0.184725526634045E+002 -0.142150173868124E+001  0.116235125234536E+001  0.489187479568665E+001 -0.499263623608166E+001
  0.200602923561976E+000  0.184658163789430E+002  0.558246623573820E+001  0.470987760890871E+001 -0.127269636663423E+002 -0.653897276014207E+001
  0.200602923561976E+000  0.184553094947925E+002  0.150589283043783E+001  0.667498185933085E+001  0.918034347856882E+000 -0.105409099114489E+002
  0.200602923561976E+000  0.184276922432591E+002  0.390690876352148E+001  0.491647040382183E+000 -0.501499067216645E+001 -0.934826942074830E+001
  0.200602923561976E+000  0.184193120874504E+002 -0.985179064231080E+000  0.380363635042454E+001  0.272330593826477E+001 -0.564193166838155E+001
  0.200602923561976E+000  0.184114390245994E+002 -0.902494842993340E+001 -0.126580992112829E+002  0.427768252516646E+001 -0.126338138238160E+001
  0.200602923561976E+000  0.184056266061788E+002  0.560431236459152E+000  0.555611766229246E+001  0.198329596435459E+001 -0.104158149408263E+002
  0.200602923561976E+000  0.183810306062562E+002  0.992453939675798E+000 -0.126421252565719E+001  0.623683590081921E+001 -0.460647995422055E+001
  0.200602923561976E+000  0.183587819765948E+002  0.976924671196560E+000  0.386940493779430E+001 -0.184397541125720E+001 -0.142004874749804E+002
  0.200602923561976E+000  0.183580303796638E+002  0.569478300505079E+001  0.606268090314964E+001 -0.338459590658040E+001 -0.522978017814981E+001
  0.200602923561976E+000  0.183264386865353E+002  0.193643989022997E+001 -0.132189276934650E+001  0.776007207542457E+001 -0.421493950218835E+001
  0.200602923561976E+000  0.183256041211449E+002 -0.100982988959736E+002 -0.816492577669414E+001  0.141486619409150E+001 -0.925854717009597E+001
  0.200602923561976E+000  0.182686070236021E+002  0.318320316673901E+001  0.475974784854670E+001  0.582583406099728E+001 -0.679027053183720E+001
  0.200602923561976E+000  0.182668933851986E+002 -0.114584164999200E+002 -0.642158062241137E+001  0.652844801631095E+001 -0.482664074486228E+001
  0.200602923561976E+000  0.182606949237687E+002  0.460765250372248E+001  0.228759235339206E+001  0.316248887537282E+001 -0.617656663575080E+001
  0.200602923561976E+000  0.182467909624928E+002 -0.709389512413127E+001 -0.865577622887804E+001 -0.514746109499857E+000 -0.567291075202429E+001
  0.200602923561976E+000  0.182125392083542E+002  0.770210420645363E+001  0.505372471671431E+001 -0.638699655045995E+001 -0.684087079995722E+001
  0.200602923561976E+000  0.182048395733839E+002  0.465125805268767E+001  0.511226728820101E+001  0.461716829723463E+001 -0.661585865649201E+001
  0.200602923561976E+000  0.181294845262125E+002 -0.908200599163657E+001 -0.107852475490811E+002  0.266101021537555E+001 -0.323136474867684E+001
  0.200602923561976E+000  0.181272144268168E+002 -0.102001865332963E+002 -0.102786124704599E+002  0.629690150663567E+001 -0.206077223284593E+001
  0.200602923561976E+000  0.181134785451959E+002  0.426366697820549E+001  0.444001531407757E+001 -0.152605308488335E+001 -0.639561186823084E+001
  0.200602923561976E+000  0.180906249854132E+002  0.840426689344209E+000  0.609716511318008E+001  0.234290478779753E+001 -0.738020017453841E+001
  0.200602923561976E+000  0.180732891402533E+002  0.526015938238555E+001  0.333718497135270E+001  0.652711133352544E+001 -0.703581814767346E+001
  0.200602923561976E+000  0.180675051240032E+002  0.128898829499327E+001  0.315240022558951E+001  0.239181819200020E+000 -0.673778615618779E+001
  0.200602923561976E+000  0.180631540044427E+002 -0.751660780728671E+001 -0.464443934214122E+001  0.669558885791393E+001 -0.131839176232359E+001
  0.200602923561976E+000  0.180521818655951E+002 -0.499904222932415E+000  0.155549419001916E+001  0.413225682934354E+001 -0.452849278780942E+001
  0.200602923561976E+000  0.180375146433581E+002  0.251520567563802E+001  0.767537367963505E+001 -0.180349849868016E+001 -0.894217864857472E+001
  0.200602923561976E+000  0.180332045244425E+002  0.269689219317045E+001  0.255229838188795E+001  0.383167314754624E+001 -0.848179333114767E+001
  0.200602923561976E+000  0.180188376870000E+002 -0.644052801690734E+001 -0.121304223995242E+002  0.724616333420474E+000 -0.159385554629751E+001
  0.200602923561976E+000  0.180154081414762E+002 -0.134939981232314E+000  0.384547858268132E+001 -0.605556899546364E+000 -0.138354410777625E+002
  0.200602923561976E+000  0.192244759489872E+002 -0.771255313250819E+001 -0.115795976739265E+002  0.292319148419609E+001 -0.267934609842727E+001
  0.200602923561976E+000  0.190698236577652E+002 -0.997571503834835E+001 -0.702495808639029E+001  0.207908010750042E+001 -0.867634243553464E+001
  0.200602923561976E+000  0.190479818134916E+002 -0.775699419002714E+001 -0.130434519340709E+002 -0.445080744816060E+000 -0.474668262835709E+001
  0.200602923561976E+000  0.190308645613528E+002 -0.100241668741812E+002 -0.402879392743838E+001  0.551436992564660E+001 -0.553305039432528E+001
  0.200602923561976E+000  0.189977311888355E+002 -0.115115598823012E+002 -0.688990954862911E+001  0.436971608702758E+001 -0.843078856606764E+001
  0.200602923561976E+000  0.189669266867624E+002 -0.750929481212332E+001 -0.101261809442947E+002  0.486432408314864E+001 -0.462193904122206E+000
  0.200602923561976E+000  0.188038469384651E+002 -0.822511920397967E+001 -0.589938973231645E+001  0.537588120815743E+001 -0.173666795092663E+001
  0.200602923561976E+000  0.186204257307254E+002 -0.112979140802164E+002 -0.120930111374166E+002  0.380538336102200E+001 -0.507846081411239E+001
  0.200602923561976E+000  0.184475666095113E+002 -0.626138493882954E+001 -0.111463195197042E+002  0.480016561145352E+000 -0.251049592530386E+001
  0.200602923561976E+000  0.183261965034181E+002 -0.859569005124458E+001 -0.699886883372586E+001  0.223652642043147E+001 -0.535907832002238E+001
  0.200602923561976E+000  0.182945098667750E+002 -0.667420284767543E+001 -0.731175365940580E+001  0.858471001012578E+000 -0.460549906441603E+001
  0.200602923561976E+000  0.181923336629425E+002 -0.960548956381730E+001 -0.676827101071214E+001  0.475540570027390E+001 -0.405264675802894E+001
  0.200602923561976E+000  0.181654584493054E+002 -0.779864508412118E+001 -0.100975414202058E+002  0.359238525827020E+001 -0.134449579567673E+001
  0.200602923561976E+000  0.180415502009712E+002 -0.117287154152126E+002 -0.841488519752868E+001  0.375253443867295E+001 -0.779340173880278E+001
  0.200602923561976E+000  0.179136925392113E+002 -0.986353672804835E+001 -0.109340320285060E+002  0.250818711132733E+001 -0.618167190617307E+001
  0.200602923561976E+000  0.178786315588888E+002 -0.115481303078806E+002 -0.109015835202344E+002  0.345381972064214E+001 -0.661784065806796E+001
  0.200602923561976E+000  0.176965570050558E+002 -0.713124194822988E+001 -0.603931857642138E+001  0.322961784406613E+001 -0.296974380046688E+001
  0.200602923561976E+000  0.176317178924153E+002 -0.936504249231563E+001 -0.115687603445932E+002  0.169791310666493E+001 -0.527290065228929E+001
  0.200602923561976E+000  0.176194817364069E+002 -0.719958942090980E+001 -0.982952640876799E+001  0.107105731309937E+001 -0.397981337589302E+001
  0.200602923561976E+000  0.175454513954121E+002 -0.890800796995597E+001 -0.872850179892578E+001  0.486917141659059E+001 -0.286204831686604E+001
  0.200602923561976E+000  0.175241608800795E+002 -0.972771248802896E+001 -0.894248765454152E+001  0.491502885567130E+001 -0.364566059220051E+001
  0.200602923561976E+000  0.174579789027094E+002 -0.922473980504827E+001 -0.937240039943413E+001  0.449361288770343E+001 -0.314743090677936E+001
  0.200602923561976E+000  0.171312946328420E+002 -0.742177579435316E+001 -0.798743314340641E+001  0.285973474152530E+001 -0.332724391156979E+001
