  0.227122877516341E+000  0.314481204005323E+002 -0.139602919115264E+002  0.102518992698966E+002  0.332238696024831E+001 -0.128396986973783E+002
  0.227122877516341E+000  0.311506126316916E+002 -0.767740892535577E+001  0.122553611227450E+001 -0.183342973846155E+001 -0.171489286142880E+002
  0.227122877516341E+000  0.227239426684125E+002 -0.436445048182907E+001  0.330055169973244E+001  0.227235570055472E+001 -0.688742323522057E+001
  0.227122877516341E+000  0.227362890257721E+002 -0.399553965101308E+001  0.830156196897504E+001  0.488748303555541E+001 -0.133836460890842E+002
  0.227122877516341E+000  0.216826542450959E+002  0.414491256180525E+001  0.591440659221825E+001 -0.248179325689076E+001 -0.116061066981430E+002
  0.227122877516341E+000  0.193582330604049E+002  0.167578051951678E+001  0.300227522663031E+001  0.795105564091701E+001 -0.668962612163903E+001
  0.227122877516341E+000  0.255799537098776E+002 -0.934815603492193E+001  0.111934752000042E+002  0.278179501211283E+001 -0.160471858272182E+001
  0.227122877516341E+000  0.256174782011077E+002 -0.627314940754356E+001  0.409794594485973E+001  0.737556255885642E+001 -0.186346602171357E+002
  0.227122877516341E+000  0.216957184746025E+002 -0.106681930372138E+002 -0.183588064083127E+002  0.805914556289338E+000 -0.530054512723810E+001
  0.227122877516341E+000  0.286473390519104E+002  0.288482889557006E+000  0.312891702224872E+001  0.434798255192147E+001  0.254650784774323E+001
  0.227122877516341E+000  0.217501142497405E+002  0.403207355926918E+001  0.468510814170797E+001 -0.744965684717677E+000 -0.416419309097051E+001
  0.227122877516341E+000  0.284605244834971E+002 -0.779573712903431E+001  0.177960005421438E+002  0.569734287128924E+001 -0.328410400379722E+001
  0.227122877516341E+000  0.218668314381029E+002 -0.993750539024272E+001  0.337416781675957E+001  0.426575994168559E-001 -0.146056230571105E+002
  0.227122877516341E+000  0.282505426332878E+002 -0.933367151251997E+001 -0.136457443161692E+002 -0.226886408314492E+001 -0.111091088954576E+002
  0.227122877516341E+000  0.258246967097420E+002  0.125772843077573E+002 -0.653694539025324E+000 -0.123654778577723E+002 -0.696778931661295E+001
  0.227122877516341E+000  0.218678156428173E+002 -0.217182683427790E+001 -0.192728869924042E+001  0.377482426692326E+001 -0.540839145719168E+001
  0.227122877516341E+000  0.278670694193078E+002 -0.743606116264553E+001  0.128831625295357E+001 -0.468050326153195E+001 -0.558869407126633E+001
  0.227122877516341E+000  0.275731445467502E+002 -0.104417921281167E+001 -0.106830068669414E+001  0.116236403980005E+001  0.220901253108156E+001
  0.227122877516341E+000  0.262184817337886E+002 -0.162759348481855E+002 -0.143082606035391E+002  0.873036722950815E+000 -0.162512996888058E+002
  0.227122877516341E+000  0.227374628080190E+002 -0.301246000490127E+001  0.581230174788403E+001 -0.625423697699393E+000 -0.904944485550777E+001
  0.227122877516341E+000  0.273655307216601E+002 -0.579091094830678E+001  0.110295768647393E+002  0.852075909328203E+001 -0.139002912857357E+002
  0.227122877516341E+000  0.265370394824869E+002 -0.376177627077742E+001  0.303664695464969E+001  0.376492322626593E+000 -0.100697625670518E+002
  0.227122877516341E+000  0.265698097254872E+002 -0.547180074665779E+001  0.110993791273578E+002 -0.858410679490874E+001 -0.102160033421801E+002
  0.227122877516341E+000  0.267395631524000E+002  0.912664466552341E+001  0.553029277489519E+001  0.867325535896741E+001 -0.524772035688958E+001
  0.227122877516341E+000  0.219153188839869E+002 -0.358673039992949E+001  0.159605691924949E+002 -0.164399428947019E+001 -0.129716224605086E+001
  0.227122877516341E+000  0.266563949864495E+002 -0.981906519542686E+001  0.125116227173075E+002 -0.977177170070043E-001 -0.456349481963596E+001
  0.227122877516341E+000  0.253348645214782E+002 -0.116672537259266E+001 -0.355748220441299E+001  0.474591756520185E+001  0.371740858302594E+001
  0.227122877516341E+000  0.228453347217807E+002 -0.116382138458860E+002  0.187044508046502E+001  0.266699408918750E+001 -0.123539331201296E+002
  0.227122877516341E+000  0.251345728566745E+002 -0.480574879802927E+001  0.127469419175923E+002 -0.160555337501604E+001  0.191291740351573E+001
  0.227122877516341E+000  0.219282601648355E+002 -0.395515845191691E+001  0.411762083366001E+001 -0.263638001171116E+001 -0.723001176377321E+001
  0.227122877516341E+000  0.228744101371748E+002 -0.102548129422857E+001 -0.984072310585464E+001 -0.174637047877365E+001  0.220227605984782E+001
  0.227122877516341E+000  0.228754599823481E+002  0.106337974474360E+002 -0.231821714330899E+001  0.298196681595311E+001 -0.185517089541060E+002
  0.227122877516341E+000  0.247499622380753E+002 -0.306044493783262E+001  0.676214437530949E+001 -0.606333789397260E+001 -0.107197838168070E+001
  0.227122877516341E+000  0.228930003538437E+002 -0.301593959422100E+001  0.151266661518563E+002 -0.112315306778321E+001  0.994342456208603E+000
  0.227122877516341E+000  0.246570632041153E+002  0.383513427674488E+001 -0.174235095850070E+001  0.329296370802394E+001 -0.769591114864595E+001
  0.227122877516341E+000  0.245017169187525E+002  0.154856426177392E+001 -0.254665248347669E+001  0.137194172184971E+002 -0.179974947702025E+001
  0.227122877516341E+000  0.243095089684103E+002 -0.862035440061383E+000  0.669746128168034E+001  0.416622287631221E+001 -0.487400386288054E+001
  0.227122877516341E+000  0.241778427705906E+002 -0.641603063570248E+001  0.456942571902337E+001 -0.546002721047297E+001 -0.484736333069773E+001
  0.227122877516341E+000  0.241639041475362E+002  0.388968856036736E+001  0.508139773495873E+000  0.122238233071131E+002 -0.728912214326627E+001
  0.227122877516341E+000  0.241535659130554E+002 -0.342105796448612E+001 -0.379631893296571E+001 -0.105722842897152E+001 -0.285295590725243E+001
  0.227122877516341E+000  0.220736897020761E+002 -0.548939147078528E+001  0.472396540217183E+001 -0.278171804850832E+000 -0.786625040567344E+001
  0.227122877516341E+000  0.240125805752155E+002 -0.588380566546455E+001  0.262433848689819E+001  0.689204728333694E+001 -0.167923346440461E+002
  0.227122877516341E+000  0.230362627418585E+002 -0.306511692039537E+001  0.154488101266113E+002 -0.182331104283526E+001 -0.263822894980255E+001
  0.227122877516341E+000  0.239041197417140E+002 -0.473202915730571E+000 -0.266622230816998E+001 -0.159148624856467E+000 -0.115929924434647E+002
  0.227122877516341E+000  0.238791229039670E+002  0.613971058226958E+001  0.551490507240252E+001 -0.205967221561492E+001 -0.579156786799863E+001
  0.227122877516341E+000  0.220814803417916E+002 -0.403969428118410E+001  0.711330540830511E+001  0.579081024004008E+001 -0.152970231208166E+002
  0.227122877516341E+000  0.230520736681388E+002 -0.107566323071698E+002  0.801912496690576E+001  0.163075811526626E+001 -0.133809295188821E+002
  0.227122877516341E+000  0.238307346174289E+002  0.637899635838519E+001  0.308259632649300E+001 -0.336181763906115E+000 -0.816256561095524E+001
  0.227122877516341E+000  0.220993612894959E+002  0.309522652514062E+001  0.640979927975002E+001  0.567351441725144E+001 -0.513815190669587E+001
  0.227122877516341E+000  0.235242970705083E+002 -0.993257137849680E+001 -0.140202365633152E+002 -0.738191694262035E+000 -0.958248568420370E+001
  0.227122877516341E+000  0.221112683128737E+002 -0.435581813251035E+001 -0.196381141548416E+001  0.337959575034479E+001 -0.282486724269912E+001
  0.227122877516341E+000  0.234176016306404E+002 -0.108918223408633E+002  0.951646401212853E+001 -0.446246945242954E+000 -0.119250962792971E+002
  0.227122877516341E+000  0.233726260796168E+002 -0.639521561357929E+001 -0.134003835701350E+000 -0.450767743762381E+001 -0.763795826866238E+001
  0.227122877516341E+000  0.233673823719274E+002  0.665241969834246E+001  0.408408943134270E+001  0.624510034882558E+000 -0.586565166234497E+001
  0.227122877516341E+000  0.231172041904970E+002 -0.962389608240037E+001  0.107581526671565E+002  0.265339170986685E+000 -0.503332944173805E+001
  0.227122877516341E+000  0.233521247469394E+002 -0.693041436223968E+001  0.569113200464099E+001 -0.635402430904546E+001 -0.688390939409375E+001
  0.227122877516341E+000  0.233113028258629E+002  0.531668886377676E+001  0.971588522565455E+001  0.423307416391406E+000 -0.797638366176745E+001
  0.227122877516341E+000  0.231755115020207E+002  0.502446569132711E+001 -0.335878148538893E+001  0.109824598972379E+002 -0.223541825122439E+001
  0.227122877516341E+000  0.221321342918096E+002  0.100236641094054E+002 -0.101837078661254E+001  0.140710223986125E+001 -0.178245267250359E+002
  0.227122877516341E+000  0.221652385051236E+002 -0.115808110700611E+002 -0.174163262233262E+002  0.337108244034900E+001 -0.433544763867909E+001
  0.227122877516341E+000  0.225937480525426E+002 -0.945665614270903E+001  0.489560502318032E+001 -0.807100793592987E+000 -0.629149815121411E+001
  0.227122877516341E+000  0.225464119746739E+002 -0.438544754229877E+001 -0.921373706028380E+001 -0.348702516011467E+001 -0.496984916430668E+001
  0.227122877516341E+000  0.225306146205752E+002 -0.643387128397573E+001  0.136274404196360E+002 -0.377573325866094E+001 -0.430453330535977E+001
  0.227122877516341E+000  0.224331224236574E+002 -0.385263471871536E+000 -0.189326631014882E+001  0.547679782937771E+001 -0.185236745815174E+001
  0.227122877516341E+000  0.224227894392447E+002 -0.855031928498196E+000 -0.331954994518611E+000  0.810663278543601E+000 -0.168631087055689E+002
  0.227122877516341E+000  0.223490054698593E+002 -0.101743269905028E+002  0.835341241457514E+001  0.418500798872066E+001 -0.101374278989573E+002
  0.227122877516341E+000  0.223075301005135E+002 -0.881596536165787E+001  0.125342882883836E+002  0.488195370859512E+001 -0.509255444767731E+001
  0.227122877516341E+000  0.222979503177640E+002 -0.244642645417396E+001  0.327561354087897E+001  0.337645158143324E+000 -0.388602622612861E+001
  0.227122877516341E+000  0.222380253512733E+002 -0.144506357959364E+001 -0.831295938490122E+000  0.579362016472941E+001  0.526379905073922E+001
  0.227122877516341E+000  0.222866929877334E+002  0.518800399164303E+001 -0.238107099297667E+001 -0.356746022733534E+001 -0.988154322369956E+001
  0.227122877516341E+000  0.222556441906618E+002 -0.110947374232724E+002 -0.452392440359936E+001  0.120448090555045E+001 -0.120505635941084E+002
  0.227122877516341E+000  0.216142988402638E+002 -0.415462015205035E+001 -0.745794057193581E+001  0.226460127629093E+000 -0.336490339409529E+001
  0.227122877516341E+000  0.215848678672334E+002  0.510538287883717E+001  0.302696572617620E+001  0.823228490115464E+001 -0.897468848372220E+001
  0.227122877516341E+000  0.215128421216765E+002 -0.263000691395462E+001  0.589380620019952E+001  0.323590904504172E+000 -0.620877792592393E+001
  0.227122877516341E+000  0.215077924664927E+002  0.251292196200369E+001  0.219286597772027E+001  0.524189657792977E+001 -0.986103640825615E+001
  0.227122877516341E+000  0.215047335859039E+002 -0.167620160248284E+001  0.108698900183213E+001 -0.115245000560201E+000 -0.507486091102621E+001
  0.227122877516341E+000  0.215034415554994E+002 -0.114791370497569E+002 -0.118243785642696E+002  0.620060635263134E+001 -0.467096323091197E+001
  0.227122877516341E+000  0.193996823228681E+002 -0.864944292040807E+001 -0.133846637724850E+002  0.435843375456476E+001 -0.105615547081558E+001
  0.227122877516341E+000  0.214425828086662E+002 -0.436957301462165E+001  0.904513535331054E+001 -0.169416457299334E+001 -0.738653182918444E+001
  0.227122877516341E+000  0.213692722478453E+002 -0.741390951185187E+001  0.129164921424414E+002  0.248107566533464E+001 -0.137605567023537E+001
  0.227122877516341E+000  0.213442726281296E+002 -0.103458256221247E+002 -0.397565928483302E+001  0.698600755727437E+001 -0.321859729411948E+001
  0.227122877516341E+000  0.213438021252232E+002 -0.432291655662019E+001  0.667242568325601E+001  0.530946360098362E+001 -0.143168217902846E+002
  0.227122877516341E+000  0.213115933164406E+002  0.535674376131233E+001  0.729285011280218E+000  0.723111392951994E+001 -0.876512436174031E+001
  0.227122877516341E+000  0.212917119077835E+002  0.139932947785204E+001  0.452138889469972E+001  0.282762745033045E+001 -0.104526940097482E+002
  0.227122877516341E+000  0.212754430648502E+002 -0.195259847001177E+001  0.944996998494467E+001 -0.673630421534297E+001 -0.337483436994684E+001
  0.227122877516341E+000  0.212583586036697E+002  0.244401634014668E+001 -0.207727120839856E+001 -0.120553419616553E+002 -0.516444816015920E+000
  0.227122877516341E+000  0.212509466297765E+002 -0.612306839170821E+001  0.929368360284574E+001  0.142925778597862E+001 -0.126468734438518E+001
  0.227122877516341E+000  0.212488393294804E+002 -0.121634123761086E+002 -0.129880766023818E+002  0.516348739179404E+001 -0.356622045805075E+001
  0.227122877516341E+000  0.212139675155859E+002  0.107232798333274E+001 -0.319062414852972E+001  0.870795495240431E+001 -0.228891569542114E+001
  0.227122877516341E+000  0.211550312684505E+002 -0.875549752650023E+001  0.723378358364381E+001 -0.423913184388988E+001 -0.991588885227227E+001
  0.227122877516341E+000  0.211124735561251E+002 -0.112537491462905E+002 -0.159480839620142E+002  0.178172312733118E+001 -0.707655749121991E+001
  0.227122877516341E+000  0.210924498417940E+002  0.880639763155994E+000 -0.125719413665207E+001  0.877575872770721E+001 -0.184194685223918E+001
  0.227122877516341E+000  0.210723470900450E+002  0.217103559691482E+001  0.548116577060714E+001 -0.235034614239079E+001 -0.143613445795791E+002
  0.227122877516341E+000  0.210337205617043E+002 -0.536308292775718E+001  0.101613710568922E+002 -0.136493637945124E+001 -0.689754797736274E+000
  0.227122877516341E+000  0.210060860431724E+002 -0.661427903685840E+001 -0.268057199758219E+001  0.454934766478310E+001 -0.424693690067320E+001
  0.227122877516341E+000  0.209500870626066E+002 -0.544451887221922E+001 -0.128572241625956E+002  0.375191787644689E+001  0.280172618853189E+001
  0.227122877516341E+000  0.209327632301133E+002 -0.348757168085822E+001  0.560583724472938E+001 -0.784569821914999E+001 -0.922117579864089E+001
  0.227122877516341E+000  0.209188269261635E+002 -0.312797417046750E+001  0.103045942107766E+002 -0.197335406084180E+001 -0.288058289887088E+001
  0.227122877516341E+000  0.208966651680148E+002  0.712416227700062E+001  0.494690559120524E+001  0.162134301807455E+001 -0.796769815457360E+001
  0.227122877516341E+000  0.208899580621875E+002 -0.658329684692761E+001  0.154738156181180E+002  0.100877054104785E+000 -0.366474626549024E+001
  0.227122877516341E+000  0.208356529097351E+002 -0.719769938437025E+001  0.126976868562602E+002 -0.106292145130321E+001 -0.885211144607153E+001
  0.227122877516341E+000  0.208335080043656E+002 -0.467063585162684E+001  0.131272916772079E+002 -0.130917757445811E+001 -0.101640966568372E+000
  0.227122877516341E+000  0.207517644798335E+002 -0.101410692177956E+002 -0.166770799858766E+002  0.225077335003369E+001 -0.401949408136230E+001
  0.227122877516341E+000  0.207459479836625E+002 -0.282928636798248E+001  0.465507231311057E+001  0.188581890051237E+001 -0.159387819318158E+002
  0.227122877516341E+000  0.207054378154653E+002 -0.668962753177224E+001  0.126362870244725E+002 -0.648186441672340E+000 -0.830291622205503E+001
  0.227122877516341E+000  0.206752957121278E+002 -0.268378605533120E+001  0.694949229065332E+001 -0.586299528984255E+001 -0.396987643963272E+001
  0.227122877516341E+000  0.206685429267033E+002 -0.406993116888639E+001  0.551306885866170E+001 -0.275639323784026E+001 -0.403499056818006E+001
  0.227122877516341E+000  0.206266405093334E+002 -0.656541020395389E+001  0.949190107719357E+000 -0.389658986548111E+001 -0.118648040099202E+002
  0.227122877516341E+000  0.206165282610083E+002 -0.122373164653001E+002 -0.866504059074431E+001  0.707870018251425E+001 -0.620419005219911E+001
  0.227122877516341E+000  0.206011883641599E+002  0.482595284760898E+001  0.341691933121968E+000 -0.610300726745516E+001 -0.136586527782334E+002
  0.227122877516341E+000  0.194294156279333E+002 -0.129981606822220E+000  0.199207789192274E+001  0.456668142775644E+001 -0.827612801827280E+001
  0.227122877516341E+000  0.205065764617702E+002 -0.178411947143281E+001  0.611170785627061E+001  0.382762082018933E+001 -0.103458080230237E+002
  0.227122877516341E+000  0.204389115311777E+002  0.538905415329330E+001  0.477252801400454E+001  0.395309498133841E+001 -0.487374444204104E+001
  0.227122877516341E+000  0.204382265945735E+002  0.186506214217597E+001 -0.528645006666586E+000  0.329813908741038E+001 -0.395468501958993E+001
  0.227122877516341E+000  0.204380595666840E+002  0.150182358339929E+001  0.623246733240673E+000  0.316392692787731E+001 -0.329757074495776E+001
  0.227122877516341E+000  0.204349963896334E+002 -0.633351872576517E+001  0.739836345491114E+001 -0.207841382222011E+000 -0.925774994442637E+001
  0.227122877516341E+000  0.204114158727068E+002 -0.126420876549320E+002 -0.153557824797972E+002  0.916543315366226E+000 -0.100497878976861E+002
  0.227122877516341E+000  0.204108852597702E+002  0.615201202194184E+001 -0.106889403437804E+002  0.221227174632204E+001 -0.852484459170576E+001
  0.227122877516341E+000  0.203893800867265E+002 -0.141314935942590E+001 -0.767839474638623E+001  0.125277700258422E+001  0.269780433409871E+001
  0.227122877516341E+000  0.203503305996429E+002  0.165663369125690E+001  0.619957255221274E+001 -0.197014354633769E+001 -0.666873011002078E+001
  0.227122877516341E+000  0.203088922049550E+002 -0.497220034190777E+001  0.129878284573830E+002 -0.245912077869245E+001 -0.131057328032862E+001
  0.227122877516341E+000  0.203087288221841E+002 -0.930395804171464E+001 -0.170047992851248E+002  0.275072511479024E+000 -0.406084578024640E+001
  0.227122877516341E+000  0.202918812273240E+002  0.466038852015699E+001  0.585261549428114E+001  0.189717976498988E+001 -0.103662873153565E+002
  0.227122877516341E+000  0.202905959228378E+002 -0.119877217666849E+002 -0.734877937869179E+001  0.236525947667775E+001 -0.114941908568463E+002
  0.227122877516341E+000  0.202555490524162E+002 -0.373839992540124E+001  0.141780692814466E+002 -0.315776208223529E+001 -0.194166300856497E+001
  0.227122877516341E+000  0.202438119082053E+002 -0.670968610200390E+000  0.282180671885462E+001  0.483856150776676E+001 -0.838290116026846E+001
  0.227122877516341E+000  0.201995128567713E+002 -0.564675108223748E+001 -0.809384832701222E+001  0.636809277123810E+001  0.247548869561330E+001
  0.227122877516341E+000  0.201704652328454E+002 -0.107486677280414E+002  0.628583583548444E+001  0.217098738796267E+001 -0.876771947214233E+001
  0.227122877516341E+000  0.201261253566739E+002  0.318862656281634E+001  0.161863258876148E+001  0.764494696763459E+001 -0.291961993555731E+001
  0.227122877516341E+000  0.201216905867043E+002 -0.623732519610956E+001  0.757385633689146E+001 -0.570683310988856E+001 -0.645303440672737E+001
  0.227122877516341E+000  0.201102920775805E+002 -0.143827329392049E+002 -0.817573727663795E+001  0.731765858144340E+001 -0.726480139165428E+001
  0.227122877516341E+000  0.200947790195835E+002 -0.676073422440739E+001  0.183232966555716E+001 -0.391935799493151E+001 -0.123930840782783E+002
  0.227122877516341E+000  0.200806770608519E+002 -0.643105572151503E+001 -0.635209281315804E+001  0.597258969672777E+001  0.205487309432044E+001
  0.227122877516341E+000  0.199549496160767E+002 -0.811137798783948E+001 -0.117841121797561E+002  0.559921363197890E+001  0.113131988436847E+001
  0.227122877516341E+000  0.199425047548269E+002  0.361218132915041E+001  0.737386435259572E+001  0.277429490968799E+001 -0.918645066133113E+001
  0.227122877516341E+000  0.199319139645479E+002  0.582498665172534E+001 -0.226327789730168E+001 -0.450948465851774E+001 -0.924485609190783E+001
  0.227122877516341E+000  0.198871289998286E+002  0.627838528823340E+001  0.754969439463014E+000  0.782170713487782E+001 -0.733965208346499E+001
  0.227122877516341E+000  0.198814131970341E+002 -0.849429614323897E+001  0.116314354232483E+002  0.313722175050364E+001 -0.592153590919398E+001
  0.227122877516341E+000  0.198796997895569E+002 -0.109194104211554E+000  0.694821880645474E+001 -0.162418383654406E+001 -0.847271372001462E+001
  0.227122877516341E+000  0.198789539016584E+002 -0.608914092276948E+001  0.125773093769533E+002  0.183738844671757E+001 -0.278968057934475E+001
  0.227122877516341E+000  0.198741624290366E+002  0.436333953709190E+001 -0.353672100016580E+001 -0.545082770524173E+001 -0.126967324981988E+002
  0.227122877516341E+000  0.198716487436842E+002 -0.526006593870136E+001  0.825166616875143E+001 -0.523259013943483E+001 -0.104655370963114E+002
  0.227122877516341E+000  0.198577364412905E+002 -0.678992704092518E+001  0.143051551365820E+002  0.925002030269155E+000 -0.413768198424804E+001
  0.227122877516341E+000  0.198487921316599E+002 -0.938472482714996E+000  0.443998631294176E+001  0.448553877650991E+001 -0.739274970314828E+001
  0.227122877516341E+000  0.198079707594999E+002  0.318600551066843E+001  0.335458878088670E+001  0.779527996204691E+001 -0.793810682247027E+001
  0.227122877516341E+000  0.197900867734959E+002  0.654002237177891E+001  0.590423751498629E+001  0.301050951243236E+001 -0.876251184375291E+001
  0.227122877516341E+000  0.197775539868681E+002  0.420872699185754E+001  0.529186808917033E+001  0.276702692144110E+001 -0.100697556330416E+002
  0.227122877516341E+000  0.197716606568688E+002 -0.356922956457713E+001  0.115492534290303E+002 -0.286707101627135E+001 -0.130955456790871E+001
  0.227122877516341E+000  0.197695276564794E+002 -0.843912047211823E+001  0.105722133859886E+002  0.334331162953127E+001 -0.591281127442689E+001
  0.227122877516341E+000  0.197469852519302E+002  0.351900482801852E-001  0.451239757934108E+000  0.160618289423014E+001 -0.120548921935298E+002
  0.227122877516341E+000  0.197301335302304E+002  0.543964894455944E+001 -0.414976551881295E+001 -0.537555718096006E+001 -0.589278967766619E+001
  0.227122877516341E+000  0.196715854524054E+002 -0.755816975444796E+001  0.913247813549143E+001 -0.218690800590739E+001 -0.484050749519658E+001
  0.227122877516341E+000  0.196700412833109E+002 -0.903707114545301E+001  0.703662300789845E+001  0.739238668716798E+000 -0.115569251870728E+002
  0.227122877516341E+000  0.196550230694254E+002  0.542474972255701E+001  0.344813749813757E+001  0.813249021224291E+001 -0.747639603984667E+001
  0.227122877516341E+000  0.196283259083191E+002 -0.580170494238705E+001  0.130116150654503E+002 -0.268429925896385E+001 -0.695745358291162E+001
  0.227122877516341E+000  0.196046378563258E+002 -0.492223701171930E+001  0.105799754161902E+002 -0.404758118328677E+001 -0.845786196323215E+001
  0.227122877516341E+000  0.195998871503113E+002 -0.591719392437727E+001  0.423515654390329E+001 -0.129664591680108E+001 -0.569603681857323E+001
  0.227122877516341E+000  0.195981713189273E+002 -0.693600026870334E+001  0.128815852365453E+002 -0.136809042849500E+001 -0.749241640315444E+001
  0.227122877516341E+000  0.194901064962368E+002 -0.169919910295572E+001  0.274122284058260E+001  0.488335157585157E+001 -0.664015323374848E+001
  0.227122877516341E+000  0.194716190564183E+002 -0.460907558196255E+001 -0.230555602164081E+001  0.212289879009096E+001 -0.271811550724517E+001
  0.227122877516341E+000  0.194499180197105E+002 -0.470572419739859E+001  0.108128784715449E+002 -0.144209290948528E+000 -0.249399693586329E+001
  0.227122877516341E+000  0.194392104315138E+002  0.475865608025115E+001  0.731256432918266E+001  0.201788999693028E+001 -0.864229017152392E+001
  0.227122877516341E+000  0.206677532145158E+002 -0.514289318751585E+001  0.556081742796701E+001 -0.591657818541355E+001 -0.608719095823511E+001
  0.227122877516341E+000  0.205977482296698E+002 -0.601184690113414E+001  0.618371906955175E+001 -0.275861115709550E+001 -0.415373524773278E+001
  0.227122877516341E+000  0.205907513465207E+002 -0.698977474780215E+001  0.128473510631670E+002 -0.631536557986895E+000 -0.705636773002428E+001
  0.227122877516341E+000  0.205666020691782E+002 -0.629671493251333E+001  0.266296468213020E+001 -0.506681336197824E+001 -0.116993904857700E+002
  0.227122877516341E+000  0.204823645032009E+002 -0.331974812761642E+001  0.889961664462141E+001 -0.402175246115876E+001 -0.478682891468423E+001
  0.227122877516341E+000  0.204238279066923E+002 -0.654351184906099E+001  0.311463580973180E+001 -0.217866506833488E+001 -0.704750091681438E+001
  0.227122877516341E+000  0.204103150704912E+002 -0.676714263303436E+001  0.123296052630302E+002  0.107237830914488E+001 -0.271216720704566E+001
  0.227122877516341E+000  0.203822417652447E+002 -0.546126610022286E+001  0.333858722286499E+001 -0.415644406278971E+001 -0.705884761826953E+001
  0.227122877516341E+000  0.203670882495499E+002 -0.461614827652510E+001  0.776741771999414E+001 -0.350110658718163E+001 -0.314880944692683E+001
  0.227122877516341E+000  0.203547929970204E+002 -0.509728982798734E+001  0.964778043415303E+001 -0.574906707862314E+001 -0.837061612793464E+001
  0.227122877516341E+000  0.202750984066643E+002 -0.496223730832523E+001  0.121273603435130E+002 -0.440347794850418E+001 -0.541617995361288E+001
  0.227122877516341E+000  0.202667808569465E+002 -0.744086337134716E+001  0.602426852021583E+001 -0.134563565911552E+001 -0.518399151321948E+001
  0.227122877516341E+000  0.202646508597879E+002 -0.764356067893363E+001  0.993577599369365E+001 -0.167336417070182E+001 -0.511791253085977E+001
  0.227122877516341E+000  0.201156137933715E+002 -0.541846653739505E+001  0.338708626564591E+001 -0.577837387436128E+001 -0.898024821157671E+001
  0.227122877516341E+000  0.199894977370196E+002 -0.582791115353613E+001  0.110731617562316E+002 -0.375184527023147E+001 -0.799780722805530E+001
  0.227122877516341E+000  0.199857378070428E+002 -0.689502911056606E+001  0.694041544236407E+001 -0.521164689879864E+000 -0.945337922748518E+001
  0.227122877516341E+000  0.199394410531483E+002 -0.553439804633699E+001  0.896633420693495E+001 -0.194452972874454E+001 -0.284255105047576E+001
  0.227122877516341E+000  0.197381972999232E+002 -0.632440080507401E+001  0.958585728938301E+001 -0.852872894401933E+000 -0.816163819575564E+001
  0.227122877516341E+000  0.197003539396054E+002 -0.732369348351663E+001  0.544786133867763E+001  0.249815479619908E+000 -0.832911472269586E+001
  0.227122877516341E+000  0.194923926857841E+002 -0.875178606391239E+001  0.840230859669203E+001  0.186909357355605E+001 -0.662404099898747E+001
  0.227122877516341E+000  0.194428314265319E+002 -0.712340981514165E+001  0.122025251409363E+002 -0.350885192569272E-001 -0.525485437078957E+001
  0.227122877516341E+000  0.192965334858664E+002 -0.666100586450166E+001  0.105747977905360E+002 -0.180370651617429E+001 -0.443245794454491E+001
  0.227122877516341E+000  0.192907081415549E+002 -0.855921569829750E+001  0.555487324083768E+001 -0.117250768760830E+000 -0.105888956583418E+002
  0.227122877516341E+000  0.192404838988227E+002 -0.827197608493119E+001  0.728986648188575E+001 -0.177741337268981E+001 -0.109577878433089E+002
  0.227122877516341E+000  0.191882495160648E+002 -0.605285333599977E+001  0.472937657882644E+001 -0.535389323070059E+001 -0.958875276182487E+001
  0.227122877516341E+000  0.191799750895354E+002 -0.573124725957070E+001  0.881086768657964E+001 -0.285866565229278E+001 -0.410869372433222E+001
  0.227122877516341E+000  0.190149907746865E+002 -0.479004689011854E+001  0.977756708013648E+001 -0.216027594620210E+001 -0.520791467120680E+001
  0.227122877516341E+000  0.189962533370002E+002 -0.646423463679251E+001  0.777819101068543E+001 -0.509044077104797E+000 -0.459884424054615E+001
  0.227122877516341E+000  0.187827181360944E+002 -0.877776412656457E+001  0.601908916203693E+001 -0.793563432055734E+000 -0.866434922203190E+001
  0.227122877516341E+000  0.187486386924035E+002 -0.831807203216576E+001  0.472139232177787E+001 -0.212685152387401E+001 -0.952479134611309E+001
  0.227122877516341E+000  0.187172532869297E+002 -0.796946827788529E+001  0.666734365936220E+001 -0.291432240100305E+001 -0.100358580925075E+002
  0.227122877516341E+000  0.186726791957812E+002 -0.842353713679743E+001  0.694674156318916E+001 -0.145373944000423E+001 -0.102172503980785E+002
  0.227122877516341E+000  0.186586589598005E+002 -0.558836697346172E+001  0.108416541116685E+002 -0.292919863911624E+001 -0.558474438893656E+001
  0.227122877516341E+000  0.185853766552911E+002 -0.706476003511950E+001  0.885698862055450E+001 -0.148672088130376E+001 -0.540513297254338E+001
  0.227122877516341E+000  0.185703871327118E+002 -0.518880692080085E+001  0.750423808794709E+001 -0.382689891792696E+001 -0.771775243097880E+001
  0.227122877516341E+000  0.185202140697353E+002 -0.617329060461319E+001  0.557105171477907E+001 -0.451317471009412E+001 -0.861997572535568E+001
  0.227122877516341E+000  0.184623509396209E+002 -0.713860303249719E+001  0.654621410757253E+001 -0.102113526431010E+001 -0.627265269471285E+001
  0.227122877516341E+000  0.184594289375007E+002 -0.642630798302552E+001  0.784893751402272E+001 -0.401073818182401E+001 -0.875399546675028E+001
  0.227122877516341E+000  0.184521278010597E+002 -0.562046737358773E+001  0.734513650733832E+001 -0.464967249505460E+001 -0.759021449061144E+001
  0.227122877516341E+000  0.184386190267445E+002 -0.833786095803074E+001  0.563307983852467E+001 -0.142763879413116E+001 -0.100075706054231E+002
  0.227122877516341E+000  0.183750509687092E+002 -0.549952432388580E+001  0.750753650470092E+001 -0.444848535333977E+001 -0.712106095970463E+001
  0.227122877516341E+000  0.182673871008603E+002 -0.614634511546301E+001  0.974416800046244E+001 -0.254738342818710E+001 -0.563952362353192E+001
  0.227122877516341E+000  0.182072997475766E+002 -0.568758401424320E+001  0.708678553427558E+001 -0.384079078307562E+001 -0.676755497173405E+001
  0.227122877516341E+000  0.181914817834992E+002 -0.672235976900584E+001  0.597864673917925E+001 -0.187092455672114E+001 -0.835150995157013E+001
  0.227122877516341E+000  0.180387402592763E+002 -0.709991302957519E+001  0.588888723665816E+001 -0.193608848409454E+001 -0.779822725721974E+001
  0.227122877516341E+000  0.179259184811558E+002 -0.649727578625156E+001  0.787882330255412E+001 -0.302748798254951E+001 -0.724014649533886E+001
