  0.581988556619703E-001  0.371584327972329E+001  0.126023088776871E+001  0.209754120187280E+001
  0.581988556619703E-001  0.817462655612229E+001  0.184403791758738E+001  0.182140452300783E+001
  0.581988556619703E-001  0.372258380021696E+001 -0.172558126774502E+000  0.527056015161747E+000
  0.581988556619703E-001  0.207030352369465E+001 -0.137294229099170E+001  0.210019266777272E+001
  0.581988556619703E-001  0.863145055871794E+001  0.139935483132369E+001  0.373110686401100E+001
  0.581988556619703E-001  0.398976631214687E+001  0.135128373715726E+001  0.127957959062117E+001
  0.581988556619703E-001  0.210670215810014E+001  0.943276245694094E-001  0.319534518102048E+000
  0.581988556619703E-001  0.893030658966938E+001 -0.153266378425921E+001  0.424355883688806E+001
  0.581988556619703E-001  0.233716444275950E+001  0.422640735699656E+000  0.518290561048611E+000
  0.581988556619703E-001  0.234505885788698E+001  0.180501155070069E+001  0.359382643039702E+001
  0.581988556619703E-001  0.117846368388032E+002 -0.392998923775896E+000 -0.374875449632161E+001
  0.581988556619703E-001  0.242951804979305E+001 -0.302566284444895E+000 -0.236815942488493E+000
  0.581988556619703E-001  0.243693434740830E+001  0.156605294305607E+001  0.280192870831325E+001
  0.581988556619703E-001  0.124390202855204E+002 -0.253828757611967E+001  0.185623289058440E+001
  0.581988556619703E-001  0.102775158191879E+002 -0.178917530204556E+000  0.270799062130231E+001
  0.581988556619703E-001  0.105621800339253E+002  0.697388050937766E-001 -0.287004286670613E+001
  0.581988556619703E-001  0.125788719724938E+002 -0.274126912800152E+001  0.276521043488267E+001
  0.581988556619703E-001  0.768680431253101E+001 -0.578870933755045E+000  0.172515015292796E+001
  0.581988556619703E-001  0.486503174869150E+001 -0.179215977820310E+001  0.383784744671999E+001
  0.581988556619703E-001  0.744051136123956E+001 -0.216135826333339E+001  0.339502170382241E+001
  0.581988556619703E-001  0.518368091207842E+001  0.202742683913057E+000  0.780275773252461E+000
  0.581988556619703E-001  0.719808012239315E+001  0.735886801511981E+000 -0.695408148641466E+000
  0.581988556619703E-001  0.706669237407953E+001  0.171920399484928E+001  0.415047496603210E+001
  0.581988556619703E-001  0.303010304794791E+001  0.154689889865778E+001  0.280400179272506E+001
  0.581988556619703E-001  0.684603141917080E+001  0.481393774931873E+000  0.136282255352900E+001
  0.581988556619703E-001  0.323157367451577E+001 -0.574179447118719E+000  0.737735117256216E+000
  0.581988556619703E-001  0.616185218505379E+001 -0.838384935249683E+000  0.163772488338416E+001
  0.581988556619703E-001  0.356428393216096E+001 -0.651819225251399E+000 -0.228304942781783E-001
  0.581988556619703E-001  0.344458805708121E+001  0.117226290927401E+001  0.183638307099004E+001
  0.581988556619703E-001  0.343018274986985E+001 -0.159680515857868E+000  0.471428460598514E+000
  0.581988556619703E-001  0.336201603272229E+001 -0.893770961193223E+000  0.120991027410846E+001
  0.581988556619703E-001  0.199774795644120E+001  0.196044532300349E+001  0.354436115405546E+001
  0.581988556619703E-001  0.194194844742250E+001  0.184180124062474E+001  0.368979126236131E+001
  0.581988556619703E-001  0.190799545902103E+001  0.194607054959425E+001  0.407856554799820E+001
  0.581988556619703E-001  0.189857762394356E+001 -0.105189688194582E+001  0.880082135376155E+000
  0.581988556619703E-001  0.176575857368470E+001  0.128714512427188E+000 -0.264731971250598E+000
  0.581988556619703E-001  0.175455139658446E+001 -0.133210529253730E+001  0.195281075335618E+001
  0.581988556619703E-001  0.156863626963966E+001 -0.906618114917588E+000  0.102515735895688E+001
  0.581988556619703E-001  0.146842702115779E+001  0.871919569484164E+000  0.489697237045038E+000
  0.581988556619703E-001  0.146203477439623E+001  0.445272024801792E+000  0.462872959876751E+000
  0.581988556619703E-001  0.139436077168190E+001  0.316944500876533E+000  0.356702147925740E+000
  0.581988556619703E-001  0.136562430461411E+001 -0.135487150607333E+001  0.171850715257275E+001
  0.581988556619703E-001  0.128658739671323E+001  0.154607732716661E+001  0.264161742767261E+001
  0.581988556619703E-001  0.127273428836176E+001  0.830616915638549E+000  0.434380993880743E+000
  0.581988556619703E-001  0.121797588982580E+001  0.965721776632594E+000  0.680554831461967E+000
  0.581988556619703E-001  0.114450171159330E+001 -0.126938188312379E+001  0.151440760943213E+001
  0.581988556619703E-001  0.111371273324431E+001 -0.449090986598258E+000  0.467184888601935E-002
  0.581988556619703E-001  0.104661579844755E+001 -0.130910037281011E+001  0.164901936710646E+001
  0.581988556619703E-001  0.100339914156398E+001 -0.112275233537991E+001  0.115566895275153E+001
  0.581988556619703E-001  0.982450732226931E+000 -0.131862191270096E+001  0.177897748279656E+001
  0.581988556619703E-001  0.970243231290676E+000  0.101034100377166E+001  0.125526350524697E+001
  0.581988556619703E-001  0.802326817799221E+000 -0.122969022703739E+001  0.150653507548148E+001
  0.581988556619703E-001  0.713769021508981E+000 -0.896461792970554E+000  0.909441230529630E+000
  0.581988556619703E-001  0.658083479682906E+000 -0.100360988106671E+001  0.108102132713203E+001
  0.581988556619703E-001  0.646309613284551E+000  0.199574291313117E+001  0.417100026651874E+001
  0.581988556619703E-001  0.509235023317055E+000 -0.366968232144643E+000  0.286046882037959E+000
  0.581988556619703E-001  0.464630516159332E+000  0.150808827785438E+001  0.246896489315747E+001
  0.581988556619703E-001  0.462909317192436E+000  0.116929378992339E-001 -0.174944001050820E+000
  0.581988556619703E-001  0.435244879665209E+000 -0.982369843091324E+000  0.944308345176927E+000
  0.581988556619703E-001  0.401740502278864E+000  0.106004453593221E+001  0.132083895803726E+001
  0.581988556619703E-001  0.364409728534350E+000  0.125785148408967E+001  0.138897327628296E+001
  0.581988556619703E-001  0.339184871533058E+000  0.115799409367157E+001  0.153368466221755E+001
  0.581988556619703E-001  0.331159741769866E+000 -0.223154034778172E-002 -0.164802993191138E+000
  0.581988556619703E-001  0.252770150060343E+000  0.184292454589839E+001  0.322818444280895E+001
  0.581988556619703E-001  0.240548194093594E+000  0.125909443713760E+001  0.139972770844618E+001
  0.581988556619703E-001  0.211139346576400E+000  0.205331746012169E+001  0.436895903379857E+001
  0.581988556619703E-001  0.189507783676633E+000  0.207596793011852E+001  0.415997154900673E+001
  0.581988556619703E-001  0.851764465115248E-001  0.419536063980937E+000  0.756519585424087E-002
  0.581988556619703E-001  0.366442402454665E-001  0.220959955559025E+001  0.475540051945486E+001
  0.581988556619703E-001  0.320438320056922E-001 -0.401468912523834E+000  0.266094847101739E+000
  0.581988556619703E-001 -0.206736049539993E-001 -0.553514370144205E+000  0.232504463549673E+000
  0.581988556619703E-001 -0.293601841721136E-001  0.154759717583783E+001  0.223251108347104E+001
  0.581988556619703E-001 -0.453934028980205E-001  0.695271815953616E+000  0.315544430430607E+000
  0.581988556619703E-001 -0.691483561562927E-001 -0.546567083939754E+000  0.229999571917986E+000
  0.581988556619703E-001 -0.127905443357955E+000  0.809343912200786E+000  0.490231415708745E+000
  0.581988556619703E-001 -0.128356346018403E+000  0.222356114319351E+001  0.483221930217158E+001
  0.581988556619703E-001 -0.143155233536927E+000  0.181750890477329E+001  0.344671338807851E+001
  0.581988556619703E-001 -0.188245971856718E+000  0.724139575087750E+000  0.364227078764402E+000
  0.581988556619703E-001 -0.218892960052185E+000 -0.705022597356617E-001  0.124953611929072E+000
  0.581988556619703E-001 -0.271193879663135E+000 -0.303569199896829E-001 -0.118718914175826E+000
  0.581988556619703E-001 -0.290176569920094E+000  0.220355157217912E+001  0.475506685739997E+001
  0.581988556619703E-001 -0.306977237285924E+000 -0.124727880502609E+000  0.123541591569198E+000
  0.581988556619703E-001 -0.332252048897448E+000  0.139419435938425E+001  0.209319687805663E+001
  0.581988556619703E-001 -0.359747386832097E+000  0.535647270185592E+000  0.141106126334182E+000
  0.581988556619703E-001 -0.362212442350297E+000  0.112901948123363E+001  0.142703233497509E+001
  0.581988556619703E-001 -0.409394935900972E+000  0.180602938266504E+001  0.313485174540494E+001
  0.581988556619703E-001 -0.416076484078827E+000  0.136582483703379E+001  0.201091133520964E+001
  0.581988556619703E-001 -0.497622774960125E+000  0.176784327311641E+001  0.300159525658992E+001
  0.581988556619703E-001 -0.515343973657861E+000  0.149222785609055E+001  0.236273368082817E+001
  0.581988556619703E-001 -0.531157022294217E+000 -0.112209604349553E+000  0.103709082646311E+000
  0.581988556619703E-001 -0.587648550000739E+000  0.190925029825182E+001  0.375271226538035E+001
  0.581988556619703E-001 -0.676484216554752E+000  0.144563395313640E+001  0.221845371266391E+001
  0.581988556619703E-001 -0.717402605612961E+000 -0.932528877749634E-001  0.861120588460320E-001
  0.581988556619703E-001 -0.742514169291729E+000 -0.234967168076045E+000  0.103636105454418E+000
  0.581988556619703E-001 -0.756811518292495E+000  0.149820664052349E+001  0.236676197020620E+001
  0.581988556619703E-001 -0.757245196283734E+000 -0.314938241333661E+000  0.109355975028484E+000
  0.581988556619703E-001 -0.837280687824836E+000  0.159791265288806E+001  0.266621618165806E+001
  0.581988556619703E-001 -0.853617433683149E+000  0.218019390928692E+001  0.470658971112741E+001
  0.581988556619703E-001 -0.866663625882913E+000  0.223039576230089E+001  0.494643642636355E+001
  0.581988556619703E-001 -0.872725326083794E+000 -0.254936430151895E+000  0.754070832193658E-001
  0.581988556619703E-001 -0.879073523372216E+000 -0.255517232547885E+000  0.618338991540570E-001
  0.581988556619703E-001 -0.910146113904017E+000  0.175680594962237E+001  0.318460290633240E+001
  0.581988556619703E-001 -0.928630721809583E+000  0.131084231797550E+001  0.159923567608139E+001
  0.581988556619703E-001 -0.602648498202552E+000  0.878593321069950E+000  0.892022151745947E+000
  0.581988556619703E-001 -0.616968880858870E+000  0.119444054675644E+001  0.130829457195262E+001
  0.581988556619703E-001 -0.725122968876211E+000  0.134547599684356E+001  0.191947254583680E+001
  0.581988556619703E-001 -0.737109805046804E+000  0.153131662333216E+001  0.224418402190120E+001
  0.581988556619703E-001 -0.791307240197141E+000  0.950130565668842E+000  0.791690441482603E+000
  0.581988556619703E-001 -0.939119838499926E+000  0.183033156706609E+001  0.341233346315109E+001
  0.581988556619703E-001 -0.987173271719614E+000  0.138072091162585E+001  0.200032286386361E+001
  0.581988556619703E-001 -0.104062392257360E+001  0.148124982199186E+001  0.228025314967711E+001
  0.581988556619703E-001 -0.113780442524508E+001  0.112486256229390E+001  0.135830039690311E+001
  0.581988556619703E-001 -0.114249490518446E+001  0.193582441135761E+001  0.374798877074803E+001
  0.581988556619703E-001 -0.117998109771234E+001  0.864090066239116E+000  0.655959981177475E+000
  0.581988556619703E-001 -0.121352929292943E+001  0.179738684869946E+001  0.327237512573999E+001
  0.581988556619703E-001 -0.123000369185738E+001  0.172442030187446E+001  0.292159552991094E+001
  0.581988556619703E-001 -0.125340236808484E+001  0.177190899680920E+001  0.309738051932896E+001
  0.581988556619703E-001 -0.133378739265743E+001  0.182418742409267E+001  0.331171769428312E+001
  0.581988556619703E-001 -0.141004429904193E+001  0.117204758859976E+001  0.145188285311650E+001
  0.581988556619703E-001  0.605326570689297E+000  0.157668676238285E+001  0.247148741482474E+001
