  0.721439076931265E-001  0.388550960143072E+001  0.126023088776871E+001  0.209754120187280E+001
  0.721439076931265E-001  0.834429287782972E+001  0.184403791758738E+001  0.182140452300783E+001
  0.721439076931265E-001  0.389225012192439E+001 -0.172558126774502E+000  0.527056015161747E+000
  0.721439076931265E-001  0.223996984540208E+001 -0.137294229099170E+001  0.210019266777272E+001
  0.721439076931265E-001  0.880111688042537E+001  0.139935483132369E+001  0.373110686401100E+001
  0.721439076931265E-001  0.415943263385430E+001  0.135128373715726E+001  0.127957959062117E+001
  0.721439076931265E-001  0.227636847980757E+001  0.943276245694094E-001  0.319534518102048E+000
  0.721439076931265E-001  0.909997291137681E+001 -0.153266378425921E+001  0.424355883688806E+001
  0.721439076931265E-001  0.250683076446693E+001  0.422640735699656E+000  0.518290561048611E+000
  0.721439076931265E-001  0.251472517959441E+001  0.180501155070069E+001  0.359382643039702E+001
  0.721439076931265E-001  0.119543031605107E+002 -0.392998923775896E+000 -0.374875449632161E+001
  0.721439076931265E-001  0.259918437150048E+001 -0.302566284444895E+000 -0.236815942488493E+000
  0.721439076931265E-001  0.260660066911573E+001  0.156605294305607E+001  0.280192870831325E+001
  0.721439076931265E-001  0.126086866072278E+002 -0.253828757611967E+001  0.185623289058440E+001
  0.721439076931265E-001  0.104471821408953E+002 -0.178917530204556E+000  0.270799062130231E+001
  0.721439076931265E-001  0.107318463556328E+002  0.697388050937766E-001 -0.287004286670613E+001
  0.721439076931265E-001  0.127485382942012E+002 -0.274126912800152E+001  0.276521043488267E+001
  0.721439076931265E-001  0.785647063423844E+001 -0.578870933755045E+000  0.172515015292796E+001
  0.721439076931265E-001  0.503469807039893E+001 -0.179215977820310E+001  0.383784744671999E+001
  0.721439076931265E-001  0.761017768294699E+001 -0.216135826333339E+001  0.339502170382241E+001
  0.721439076931265E-001  0.535334723378585E+001  0.202742683913057E+000  0.780275773252461E+000
  0.721439076931265E-001  0.736774644410058E+001  0.735886801511981E+000 -0.695408148641466E+000
  0.721439076931265E-001  0.723635869578696E+001  0.171920399484928E+001  0.415047496603210E+001
  0.721439076931265E-001  0.319976936965534E+001  0.154689889865778E+001  0.280400179272506E+001
  0.721439076931265E-001  0.701569774087823E+001  0.481393774931873E+000  0.136282255352900E+001
  0.721439076931265E-001  0.340123999622319E+001 -0.574179447118719E+000  0.737735117256216E+000
  0.721439076931265E-001  0.633151850676122E+001 -0.838384935249683E+000  0.163772488338416E+001
  0.721439076931265E-001  0.373395025386839E+001 -0.651819225251399E+000 -0.228304942781783E-001
  0.721439076931265E-001  0.361425437878863E+001  0.117226290927401E+001  0.183638307099004E+001
  0.721439076931265E-001  0.359984907157728E+001 -0.159680515857868E+000  0.471428460598514E+000
  0.721439076931265E-001  0.353168235442972E+001 -0.893770961193223E+000  0.120991027410846E+001
  0.721439076931265E-001  0.216741427814863E+001  0.196044532300349E+001  0.354436115405546E+001
  0.721439076931265E-001  0.211161476912993E+001  0.184180124062474E+001  0.368979126236131E+001
  0.721439076931265E-001  0.207766178072846E+001  0.194607054959425E+001  0.407856554799820E+001
  0.721439076931265E-001  0.206824394565099E+001 -0.105189688194582E+001  0.880082135376155E+000
  0.721439076931265E-001  0.193542489539213E+001  0.128714512427188E+000 -0.264731971250598E+000
  0.721439076931265E-001  0.192421771829189E+001 -0.133210529253730E+001  0.195281075335618E+001
  0.721439076931265E-001  0.173830259134708E+001 -0.906618114917588E+000  0.102515735895688E+001
  0.721439076931265E-001  0.163809334286522E+001  0.871919569484164E+000  0.489697237045038E+000
  0.721439076931265E-001  0.163170109610366E+001  0.445272024801792E+000  0.462872959876751E+000
  0.721439076931265E-001  0.156402709338933E+001  0.316944500876533E+000  0.356702147925740E+000
  0.721439076931265E-001  0.153529062632154E+001 -0.135487150607333E+001  0.171850715257275E+001
  0.721439076931265E-001  0.145625371842066E+001  0.154607732716661E+001  0.264161742767261E+001
  0.721439076931265E-001  0.144240061006919E+001  0.830616915638549E+000  0.434380993880743E+000
  0.721439076931265E-001  0.138764221153323E+001  0.965721776632594E+000  0.680554831461967E+000
  0.721439076931265E-001  0.131416803330073E+001 -0.126938188312379E+001  0.151440760943213E+001
  0.721439076931265E-001  0.128337905495174E+001 -0.449090986598258E+000  0.467184888601935E-002
  0.721439076931265E-001  0.121628212015498E+001 -0.130910037281011E+001  0.164901936710646E+001
  0.721439076931265E-001  0.117306546327141E+001 -0.112275233537991E+001  0.115566895275153E+001
  0.721439076931265E-001  0.115211705393436E+001 -0.131862191270096E+001  0.177897748279656E+001
  0.721439076931265E-001  0.113990955299811E+001  0.101034100377166E+001  0.125526350524697E+001
  0.721439076931265E-001  0.971993139506650E+000 -0.122969022703739E+001  0.150653507548148E+001
  0.721439076931265E-001  0.883435343216410E+000 -0.896461792970554E+000  0.909441230529630E+000
  0.721439076931265E-001  0.827749801390335E+000 -0.100360988106671E+001  0.108102132713203E+001
  0.721439076931265E-001  0.815975934991980E+000  0.199574291313117E+001  0.417100026651874E+001
  0.721439076931265E-001  0.678901345024484E+000 -0.366968232144643E+000  0.286046882037959E+000
  0.721439076931265E-001  0.634296837866761E+000  0.150808827785438E+001  0.246896489315747E+001
  0.721439076931265E-001  0.632575638899865E+000  0.116929378992339E-001 -0.174944001050820E+000
  0.721439076931265E-001  0.604911201372638E+000 -0.982369843091324E+000  0.944308345176927E+000
  0.721439076931265E-001  0.571406823986293E+000  0.106004453593221E+001  0.132083895803726E+001
  0.721439076931265E-001  0.534076050241779E+000  0.125785148408967E+001  0.138897327628296E+001
  0.721439076931265E-001  0.508851193240487E+000  0.115799409367157E+001  0.153368466221755E+001
  0.721439076931265E-001  0.500826063477295E+000 -0.223154034778172E-002 -0.164802993191138E+000
  0.721439076931265E-001  0.422436471767772E+000  0.184292454589839E+001  0.322818444280895E+001
  0.721439076931265E-001  0.410214515801023E+000  0.125909443713760E+001  0.139972770844618E+001
  0.721439076931265E-001  0.380805668283829E+000  0.205331746012169E+001  0.436895903379857E+001
  0.721439076931265E-001  0.359174105384062E+000  0.207596793011852E+001  0.415997154900673E+001
  0.721439076931265E-001  0.254842768218954E+000  0.419536063980937E+000  0.756519585424087E-002
  0.721439076931265E-001  0.206310561952896E+000  0.220959955559025E+001  0.475540051945486E+001
  0.721439076931265E-001  0.201710153713121E+000 -0.401468912523834E+000  0.266094847101739E+000
  0.721439076931265E-001  0.148992716753430E+000 -0.553514370144205E+000  0.232504463549673E+000
  0.721439076931265E-001  0.140306137535315E+000  0.154759717583783E+001  0.223251108347104E+001
  0.721439076931265E-001  0.124272918809408E+000  0.695271815953616E+000  0.315544430430607E+000
  0.721439076931265E-001  0.100517965551136E+000 -0.546567083939754E+000  0.229999571917986E+000
  0.721439076931265E-001  0.417608783494741E-001  0.809343912200786E+000  0.490231415708745E+000
  0.721439076931265E-001  0.413099756890256E-001  0.222356114319351E+001  0.483221930217158E+001
  0.721439076931265E-001  0.265110881705017E-001  0.181750890477329E+001  0.344671338807851E+001
  0.721439076931265E-001 -0.185796501492885E-001  0.724139575087750E+000  0.364227078764402E+000
  0.721439076931265E-001 -0.492266383447557E-001 -0.705022597356617E-001  0.124953611929072E+000
  0.721439076931265E-001 -0.101527557955706E+000 -0.303569199896829E-001 -0.118718914175826E+000
  0.721439076931265E-001 -0.120510248212665E+000  0.220355157217912E+001  0.475506685739997E+001
  0.721439076931265E-001 -0.137310915578495E+000 -0.124727880502609E+000  0.123541591569198E+000
  0.721439076931265E-001 -0.162585727190019E+000  0.139419435938425E+001  0.209319687805663E+001
  0.721439076931265E-001 -0.190081065124668E+000  0.535647270185592E+000  0.141106126334182E+000
  0.721439076931265E-001 -0.192546120642868E+000  0.112901948123363E+001  0.142703233497509E+001
  0.721439076931265E-001 -0.239728614193543E+000  0.180602938266504E+001  0.313485174540494E+001
  0.721439076931265E-001 -0.246410162371398E+000  0.136582483703379E+001  0.201091133520964E+001
  0.721439076931265E-001 -0.327956453252696E+000  0.176784327311641E+001  0.300159525658992E+001
  0.721439076931265E-001 -0.345677651950432E+000  0.149222785609055E+001  0.236273368082817E+001
  0.721439076931265E-001 -0.361490700586788E+000 -0.112209604349553E+000  0.103709082646311E+000
  0.721439076931265E-001 -0.417982228293310E+000  0.190925029825182E+001  0.375271226538035E+001
  0.721439076931265E-001 -0.506817894847323E+000  0.144563395313640E+001  0.221845371266391E+001
  0.721439076931265E-001 -0.547736283905532E+000 -0.932528877749634E-001  0.861120588460320E-001
  0.721439076931265E-001 -0.572847847584300E+000 -0.234967168076045E+000  0.103636105454418E+000
  0.721439076931265E-001 -0.587145196585066E+000  0.149820664052349E+001  0.236676197020620E+001
  0.721439076931265E-001 -0.587578874576305E+000 -0.314938241333661E+000  0.109355975028484E+000
  0.721439076931265E-001 -0.667614366117407E+000  0.159791265288806E+001  0.266621618165806E+001
  0.721439076931265E-001 -0.683951111975720E+000  0.218019390928692E+001  0.470658971112741E+001
  0.721439076931265E-001 -0.696997304175484E+000  0.223039576230089E+001  0.494643642636355E+001
  0.721439076931265E-001 -0.703059004376365E+000 -0.254936430151895E+000  0.754070832193658E-001
  0.721439076931265E-001 -0.709407201664787E+000 -0.255517232547885E+000  0.618338991540570E-001
  0.721439076931265E-001 -0.740479792196588E+000  0.175680594962237E+001  0.318460290633240E+001
  0.721439076931265E-001 -0.758964400102154E+000  0.131084231797550E+001  0.159923567608139E+001
  0.721439076931265E-001 -0.432982176495123E+000  0.878593321069950E+000  0.892022151745947E+000
  0.721439076931265E-001 -0.447302559151441E+000  0.119444054675644E+001  0.130829457195262E+001
  0.721439076931265E-001 -0.555456647168782E+000  0.134547599684356E+001  0.191947254583680E+001
  0.721439076931265E-001 -0.567443483339375E+000  0.153131662333216E+001  0.224418402190120E+001
  0.721439076931265E-001 -0.621640918489712E+000  0.950130565668842E+000  0.791690441482603E+000
  0.721439076931265E-001 -0.769453516792497E+000  0.183033156706609E+001  0.341233346315109E+001
  0.721439076931265E-001 -0.817506950012185E+000  0.138072091162585E+001  0.200032286386361E+001
  0.721439076931265E-001 -0.870957600866167E+000  0.148124982199186E+001  0.228025314967711E+001
  0.721439076931265E-001 -0.968138103537654E+000  0.112486256229390E+001  0.135830039690311E+001
  0.721439076931265E-001 -0.972828583477026E+000  0.193582441135761E+001  0.374798877074803E+001
  0.721439076931265E-001 -0.101031477600491E+001  0.864090066239116E+000  0.655959981177475E+000
  0.721439076931265E-001 -0.104386297122200E+001  0.179738684869946E+001  0.327237512573999E+001
  0.721439076931265E-001 -0.106033737014995E+001  0.172442030187446E+001  0.292159552991094E+001
  0.721439076931265E-001 -0.108373604637741E+001  0.177190899680920E+001  0.309738051932896E+001
  0.721439076931265E-001 -0.116412107095000E+001  0.182418742409267E+001  0.331171769428312E+001
  0.721439076931265E-001 -0.124037797733451E+001  0.117204758859976E+001  0.145188285311650E+001
  0.721439076931265E-001 -0.139158224276303E+001  0.101074067396587E+001  0.954461329937296E+000
  0.721439076931265E-001 -0.140829591413641E+001  0.115215336640204E+001  0.139192495311365E+001
  0.721439076931265E-001 -0.143478764634022E+001  0.957936590806439E+000  0.852985247006762E+000
  0.721439076931265E-001 -0.145291449332110E+001  0.847146872194307E+000  0.655718247359786E+000
  0.721439076931265E-001 -0.149433897129962E+001  0.119844693935634E+001  0.137806928583517E+001
  0.721439076931265E-001 -0.150070231290393E+001  0.140968893551970E+001  0.203260455759969E+001
  0.721439076931265E-001 -0.152003915033439E+001  0.973122148010884E+000  0.886978906334508E+000
  0.721439076931265E-001 -0.164907147955513E+001  0.948210778380388E+000  0.951342221763628E+000
  0.721439076931265E-001 -0.171373787796712E+001  0.148326181042196E+001  0.220386439688518E+001
  0.721439076931265E-001 -0.171915860177137E+001  0.109385281393274E+001  0.114930868335770E+001
  0.721439076931265E-001 -0.174366079703800E+001  0.146144748367162E+001  0.214192107161385E+001
  0.721439076931265E-001 -0.177053636237198E+001  0.143866436261539E+001  0.207868786260448E+001
  0.721439076931265E-001 -0.189108726349157E+001  0.132866165455943E+001  0.175045228755769E+001
  0.721439076931265E-001 -0.192932436966155E+001  0.988102718663916E+000  0.100930822535278E+001
  0.721439076931265E-001 -0.194859563204717E+001  0.118625425264235E+001  0.138200734634477E+001
  0.721439076931265E-001 -0.198278729646069E+001  0.839190237688198E+000  0.681071462457262E+000
  0.721439076931265E-001 -0.199336421657609E+001  0.126299823741122E+001  0.158832570860278E+001
