  0.100000000000000E+001  0.240149934713653E+002  0.126354470290187E+002  0.223447134456536E+001 -0.110503240930188E+002 -0.352462312213771E+001
  0.100000000000000E+001  0.230009512549704E+002  0.414491256180525E+001  0.591440659221825E+001 -0.248179325689076E+001 -0.116061066981430E+002
  0.100000000000000E+001  0.268155811315336E+002 -0.879161107535821E+001  0.162421326649183E+001 -0.594790194569402E+001 -0.102151831241156E+002
  0.100000000000000E+001  0.344895066849124E+002  0.556993104491978E+001 -0.367390485213460E+001 -0.308943654238831E+001 -0.108442891786410E+002
  0.100000000000000E+001  0.413547320405818E+002 -0.945271494526157E+001  0.585525560286975E+000  0.113300226282438E+002 -0.214586639695307E+002
  0.100000000000000E+001  0.230033199339793E+002  0.126743759361174E+001 -0.875007061528308E-001  0.113536153236765E+002 -0.322394822449830E+001
  0.100000000000000E+001  0.230140154844769E+002 -0.106681930372138E+002 -0.183588064083127E+002  0.805914556289338E+000 -0.530054512723810E+001
  0.100000000000000E+001  0.269830444623108E+002 -0.627314940754356E+001  0.409794594485973E+001  0.737556255885642E+001 -0.186346602171357E+002
  0.100000000000000E+001  0.319059397634536E+002 -0.622868072159530E+001  0.140351207251837E+001 -0.100052421340764E+002 -0.179652689574165E+002
  0.100000000000000E+001  0.309979869843368E+002  0.103100301946759E+002 -0.912953951404344E+001 -0.121376139904090E+002 -0.950567857385576E+001
  0.100000000000000E+001  0.206765300702793E+002  0.167578051951678E+001  0.300227522663031E+001  0.795105564091701E+001 -0.668962612163903E+001
  0.100000000000000E+001  0.270895665985256E+002 -0.489498641922691E+001  0.134535535659404E+002 -0.669960470451473E+001 -0.348252910124115E+001
  0.100000000000000E+001  0.305328270007316E+002  0.913764739878415E+001 -0.412978128277505E+001  0.121462270163033E+002 -0.327816409963054E+001
  0.100000000000000E+001  0.230684112596149E+002  0.403207355926918E+001  0.468510814170797E+001 -0.744965684717677E+000 -0.416419309097051E+001
  0.100000000000000E+001  0.274264901768586E+002  0.787362286553564E+001  0.315265686089208E+001 -0.564713396070415E+001 -0.345075062397278E+000
  0.100000000000000E+001  0.231851284479774E+002 -0.993750539024272E+001  0.337416781675957E+001  0.426575994168559E-001 -0.146056230571105E+002
  0.100000000000000E+001  0.302064970487175E+002 -0.111850095503049E+002  0.869690758453373E+001 -0.979945646477614E+000 -0.726890003862122E+001
  0.100000000000000E+001  0.300219900300553E+002 -0.687968473746140E+001  0.204002977965834E+002  0.213368448678337E+001 -0.209554420567601E+001
  0.100000000000000E+001  0.275840479949917E+002 -0.162759348481855E+002 -0.143082606035391E+002  0.873036722950815E+000 -0.162512996888058E+002
  0.100000000000000E+001  0.207179793327425E+002 -0.864944292040807E+001 -0.133846637724850E+002  0.435843375456476E+001 -0.105615547081558E+001
  0.100000000000000E+001  0.298260907447003E+002 -0.779573712903431E+001  0.177960005421438E+002  0.569734287128924E+001 -0.328410400379722E+001
  0.100000000000000E+001  0.295929452004891E+002  0.117255795302014E+001 -0.726128616979977E-001 -0.508876287684254E+001 -0.173011214313512E+002
  0.100000000000000E+001  0.279026057436901E+002 -0.376177627077742E+001  0.303664695464969E+001  0.376492322626593E+000 -0.100697625670518E+002
  0.100000000000000E+001  0.231861126526917E+002 -0.217182683427790E+001 -0.192728869924042E+001  0.377482426692326E+001 -0.540839145719168E+001
  0.100000000000000E+001  0.250168697836920E+002  0.126254090606651E+002  0.458171530832718E+001 -0.106554682507127E+002 -0.260533925174957E+001
  0.100000000000000E+001  0.289240658310467E+002  0.115326336003093E+001 -0.119452805718928E+002 -0.353214390899808E+001  0.386707999856913E+001
  0.100000000000000E+001  0.287736182391483E+002  0.789944416061687E+001  0.313659621383232E+001  0.550735651071815E+000 -0.544109711585832E+001
  0.100000000000000E+001  0.258288928848224E+002  0.149434599567482E+002  0.217565453052448E+000 -0.142872746319492E+002 -0.181049463489170E+000
  0.100000000000000E+001  0.260572697128562E+002  0.147202072726988E+002 -0.273394708832417E+001 -0.139643880427416E+002 -0.106176162797434E+001
  0.100000000000000E+001  0.285519167508093E+002 -0.554505066417533E+001  0.826450665447894E+000 -0.662223076673237E+001 -0.552314485001877E+001
  0.100000000000000E+001  0.266531615313526E+002 -0.116672537259266E+001 -0.355748220441299E+001  0.474591756520185E+001  0.371740858302594E+001
  0.100000000000000E+001  0.265782466936418E+002 -0.118280181358445E+002  0.889770667425140E+001  0.461475126930074E+001 -0.601303291877415E+001
  0.100000000000000E+001  0.265303019553839E+002  0.578306994382883E+001 -0.262747835807478E+001  0.931670016043674E+001 -0.782634910916973E+001
  0.100000000000000E+001  0.264528698665489E+002 -0.480574879802927E+001  0.127469419175923E+002 -0.160555337501604E+001  0.191291740351573E+001
  0.100000000000000E+001  0.264351450083384E+002  0.962994322996252E+001  0.193596180531557E+001  0.104979803110762E+002 -0.746459849495503E+001
  0.100000000000000E+001  0.263325019016532E+002 -0.902539957777261E+001 -0.338113252424455E+001 -0.339117515107215E+001 -0.152023058895818E+002
  0.100000000000000E+001  0.262980950670328E+002 -0.157566218578392E+001  0.620393370110606E+001 -0.648350135416034E+001 -0.795159744561040E+001
  0.100000000000000E+001  0.240422396782870E+002 -0.436445048182907E+001  0.330055169973244E+001  0.227235570055472E+001 -0.688742323522057E+001
  0.100000000000000E+001  0.232336158938613E+002 -0.358673039992949E+001  0.159605691924949E+002 -0.164399428947019E+001 -0.129716224605086E+001
  0.100000000000000E+001  0.260682592479497E+002 -0.306044493783262E+001  0.676214437530949E+001 -0.606333789397260E+001 -0.107197838168070E+001
  0.100000000000000E+001  0.260661797003967E+002  0.575264176377960E+001 -0.339144533061020E+001  0.139544636881798E+002 -0.500612645616878E+001
  0.100000000000000E+001  0.260131298602230E+002 -0.472617312331001E+001 -0.134641666521707E+002 -0.515117109030739E+001 -0.523198469969623E+001
  0.100000000000000E+001  0.240545860356465E+002 -0.399553965101308E+001  0.830156196897504E+001  0.488748303555541E+001 -0.133836460890842E+002
  0.100000000000000E+001  0.256830510334803E+002 -0.663644421149760E+001  0.530897780631848E+001  0.697625493591715E+001 -0.185006697343630E+002
  0.100000000000000E+001  0.232465571747099E+002 -0.395515845191691E+001  0.411762083366001E+001 -0.263638001171116E+001 -0.723001176377321E+001
  0.100000000000000E+001  0.256278059782848E+002 -0.862035440061383E+000  0.669746128168034E+001  0.416622287631221E+001 -0.487400386288054E+001
  0.100000000000000E+001  0.233454604652218E+002 -0.688583779849551E+001  0.668722327234314E+001 -0.113245124241575E+001 -0.255652754096919E+001
  0.100000000000000E+001  0.254961397804650E+002 -0.641603063570248E+001  0.456942571902337E+001 -0.546002721047297E+001 -0.484736333069773E+001
  0.100000000000000E+001  0.233919867119505E+002 -0.548939147078528E+001  0.472396540217183E+001 -0.278171804850832E+000 -0.786625040567344E+001
  0.100000000000000E+001  0.254659860911403E+002 -0.697987729869208E+001  0.372216891414964E+001 -0.308034704008190E+000 -0.315930472974456E+001
  0.100000000000000E+001  0.253308775850900E+002 -0.588380566546455E+001  0.262433848689819E+001  0.689204728333694E+001 -0.167923346440461E+002
  0.100000000000000E+001  0.252886723264778E+002 -0.358938795634393E+001  0.126921766272169E+001 -0.712651208852009E+001 -0.102928356829460E+002
  0.100000000000000E+001  0.251990700285860E+002 -0.569343577359888E+001  0.328274205912383E+000 -0.212724282597295E+001 -0.766244481164807E+001
  0.100000000000000E+001  0.251837539926683E+002 -0.889208741319397E+001  0.134329349878839E+002  0.487988645473181E+001 -0.181399191744791E+001
  0.100000000000000E+001  0.251815750113212E+002 -0.954517318302699E-001  0.473675031804579E+001 -0.193203484617339E+001 -0.424853478432532E+001
  0.100000000000000E+001  0.251490316273034E+002  0.637899635838519E+001  0.308259632649300E+001 -0.336181763906115E+000 -0.816256561095524E+001
  0.100000000000000E+001  0.250869837276056E+002  0.469542442078675E+001 -0.108520217107613E+001 -0.757429861774611E+001 -0.105697553878474E+002
  0.100000000000000E+001  0.233997773516660E+002 -0.403969428118410E+001  0.711330540830511E+001  0.579081024004008E+001 -0.152970231208166E+002
  0.100000000000000E+001  0.234176582993704E+002  0.309522652514062E+001  0.640979927975002E+001  0.567351441725144E+001 -0.513815190669587E+001
  0.100000000000000E+001  0.234295653227482E+002 -0.435581813251035E+001 -0.196381141548416E+001  0.337959575034479E+001 -0.282486724269912E+001
  0.100000000000000E+001  0.246909230894913E+002 -0.639521561357929E+001 -0.134003835701350E+000 -0.450767743762381E+001 -0.763795826866238E+001
  0.100000000000000E+001  0.246803497045444E+002  0.117407403087155E+002 -0.475438676878601E+001  0.278128154141582E+001 -0.176847694273896E+002
  0.100000000000000E+001  0.240557598178934E+002 -0.301246000490127E+001  0.581230174788403E+001 -0.625423697699393E+000 -0.904944485550777E+001
  0.100000000000000E+001  0.241378111355885E+002 -0.179015198490744E+001  0.631704236176463E+001  0.495244863776432E+001 -0.942497572868226E+001
  0.100000000000000E+001  0.244577460900829E+002 -0.762327281825332E+001  0.824076620295232E+001 -0.428715371869595E+001 -0.138480028025688E+002
  0.100000000000000E+001  0.244355012003714E+002 -0.962389608240037E+001  0.107581526671565E+002  0.265339170986685E+000 -0.503332944173805E+001
  0.100000000000000E+001  0.243770819384139E+002  0.517366207551407E+001  0.361477400981131E+001 -0.263512990998497E+001 -0.290816335041255E+001
  0.100000000000000E+001  0.243703706780132E+002 -0.107566323071698E+002  0.801912496690576E+001  0.163075811526626E+001 -0.133809295188821E+002
  0.100000000000000E+001  0.241636317316551E+002 -0.116382138458860E+002  0.187044508046502E+001  0.266699408918750E+001 -0.123539331201296E+002
  0.100000000000000E+001  0.242112973637182E+002 -0.301593959422100E+001  0.151266661518563E+002 -0.112315306778321E+001  0.994342456208603E+000
  0.100000000000000E+001  0.241937569922225E+002  0.106337974474360E+002 -0.231821714330899E+001  0.298196681595311E+001 -0.185517089541060E+002
  0.100000000000000E+001  0.241752421838863E+002 -0.730132998548426E+001  0.141727491587526E+002  0.221571382351095E+001 -0.686183862814702E+001
  0.100000000000000E+001  0.239120450624170E+002 -0.945665614270903E+001  0.489560502318032E+001 -0.807100793592987E+000 -0.629149815121411E+001
  0.100000000000000E+001  0.238647089845484E+002 -0.438544754229877E+001 -0.921373706028380E+001 -0.348702516011467E+001 -0.496984916430668E+001
  0.100000000000000E+001  0.234504313016841E+002  0.100236641094054E+002 -0.101837078661254E+001  0.140710223986125E+001 -0.178245267250359E+002
  0.100000000000000E+001  0.238055979525599E+002 -0.156778232871338E+002 -0.143850762543388E+002  0.928871130387776E+000 -0.127960565646353E+002
  0.100000000000000E+001  0.237514194335318E+002 -0.385263471871536E+000 -0.189326631014882E+001  0.547679782937771E+001 -0.185236745815174E+001
  0.100000000000000E+001  0.237410864491191E+002 -0.855031928498196E+000 -0.331954994518611E+000  0.810663278543601E+000 -0.168631087055689E+002
  0.100000000000000E+001  0.236673024797338E+002 -0.101743269905028E+002  0.835341241457514E+001  0.418500798872066E+001 -0.101374278989573E+002
  0.100000000000000E+001  0.236258271103880E+002 -0.881596536165787E+001  0.125342882883836E+002  0.488195370859512E+001 -0.509255444767731E+001
  0.100000000000000E+001  0.236108367945036E+002 -0.383971299744052E+001  0.105583291684023E+001  0.466415342456936E+001 -0.162275617460181E+002
  0.100000000000000E+001  0.235739412005362E+002 -0.110947374232724E+002 -0.452392440359936E+001  0.120448090555045E+001 -0.120505635941084E+002
  0.100000000000000E+001  0.235563223611478E+002 -0.144506357959364E+001 -0.831295938490122E+000  0.579362016472941E+001  0.526379905073922E+001
  0.100000000000000E+001  0.235237951044204E+002 -0.345581512055660E+001  0.134004192352561E+001  0.413235012160649E+001 -0.976111732144304E+000
  0.100000000000000E+001  0.234835355149980E+002 -0.115808110700611E+002 -0.174163262233262E+002  0.337108244034900E+001 -0.433544763867909E+001
  0.100000000000000E+001  0.229325958501382E+002 -0.415462015205035E+001 -0.745794057193581E+001  0.226460127629093E+000 -0.336490339409529E+001
  0.100000000000000E+001  0.229031648771078E+002  0.510538287883717E+001  0.302696572617620E+001  0.823228490115464E+001 -0.897468848372220E+001
  0.100000000000000E+001  0.228311391315509E+002 -0.263000691395462E+001  0.589380620019952E+001  0.323590904504172E+000 -0.620877792592393E+001
  0.100000000000000E+001  0.228230305957784E+002 -0.167620160248284E+001  0.108698900183213E+001 -0.115245000560201E+000 -0.507486091102621E+001
  0.100000000000000E+001  0.228217385653738E+002 -0.114791370497569E+002 -0.118243785642696E+002  0.620060635263134E+001 -0.467096323091197E+001
  0.100000000000000E+001  0.227737751858514E+002 -0.913902382851693E+001  0.692078173115062E+001  0.247411509838503E+001 -0.110204548460374E+002
  0.100000000000000E+001  0.226875692577198E+002 -0.741390951185187E+001  0.129164921424414E+002  0.248107566533464E+001 -0.137605567023537E+001
  0.100000000000000E+001  0.226625696380040E+002 -0.103458256221247E+002 -0.397565928483302E+001  0.698600755727437E+001 -0.321859729411948E+001
  0.100000000000000E+001  0.226620991350977E+002 -0.432291655662019E+001  0.667242568325601E+001  0.530946360098362E+001 -0.143168217902846E+002
  0.100000000000000E+001  0.226298903263150E+002  0.535674376131233E+001  0.729285011280218E+000  0.723111392951994E+001 -0.876512436174031E+001
  0.100000000000000E+001  0.226100089176580E+002  0.139932947785204E+001  0.452138889469972E+001  0.282762745033045E+001 -0.104526940097482E+002
  0.100000000000000E+001  0.225937400747247E+002 -0.195259847001177E+001  0.944996998494467E+001 -0.673630421534297E+001 -0.337483436994684E+001
  0.100000000000000E+001  0.225766556135442E+002  0.244401634014668E+001 -0.207727120839856E+001 -0.120553419616553E+002 -0.516444816015920E+000
  0.100000000000000E+001  0.225692436396510E+002 -0.612306839170821E+001  0.929368360284574E+001  0.142925778597862E+001 -0.126468734438518E+001
  0.100000000000000E+001  0.224733282783249E+002 -0.875549752650023E+001  0.723378358364381E+001 -0.423913184388988E+001 -0.991588885227227E+001
  0.100000000000000E+001  0.224307705659995E+002 -0.112537491462905E+002 -0.159480839620142E+002  0.178172312733118E+001 -0.707655749121991E+001
  0.100000000000000E+001  0.224107468516684E+002  0.880639763155994E+000 -0.125719413665207E+001  0.877575872770721E+001 -0.184194685223918E+001
  0.100000000000000E+001  0.223906440999195E+002  0.217103559691482E+001  0.548116577060714E+001 -0.235034614239079E+001 -0.143613445795791E+002
  0.100000000000000E+001  0.223520175715788E+002 -0.536308292775718E+001  0.101613710568922E+002 -0.136493637945124E+001 -0.689754797736274E+000
  0.100000000000000E+001  0.223243830530468E+002 -0.661427903685840E+001 -0.268057199758219E+001  0.454934766478310E+001 -0.424693690067320E+001
  0.100000000000000E+001  0.222938404768923E+002  0.515353203889085E+001 -0.757518303022436E+001 -0.113949949175915E+001 -0.753838823775869E+001
  0.100000000000000E+001  0.222683840724811E+002 -0.544451887221922E+001 -0.128572241625956E+002  0.375191787644689E+001  0.280172618853189E+001
  0.100000000000000E+001  0.222510602399877E+002 -0.348757168085822E+001  0.560583724472938E+001 -0.784569821914999E+001 -0.922117579864089E+001
  0.100000000000000E+001  0.222371239360380E+002 -0.312797417046750E+001  0.103045942107766E+002 -0.197335406084180E+001 -0.288058289887088E+001
  0.100000000000000E+001  0.222149621778892E+002  0.712416227700062E+001  0.494690559120524E+001  0.162134301807455E+001 -0.796769815457360E+001
  0.100000000000000E+001  0.222082550720620E+002 -0.658329684692761E+001  0.154738156181180E+002  0.100877054104785E+000 -0.366474626549024E+001
  0.100000000000000E+001  0.221539499196095E+002 -0.719769938437025E+001  0.126976868562602E+002 -0.106292145130321E+001 -0.885211144607153E+001
  0.100000000000000E+001  0.221518050142400E+002 -0.467063585162684E+001  0.131272916772079E+002 -0.130917757445811E+001 -0.101640966568372E+000
  0.100000000000000E+001  0.220986018163284E+002 -0.344701395657734E+001  0.122346945142132E+001  0.327474574026558E+001 -0.466666785212811E+001
  0.100000000000000E+001  0.220700614897079E+002 -0.101410692177956E+002 -0.166770799858766E+002  0.225077335003369E+001 -0.401949408136230E+001
  0.100000000000000E+001  0.220642449935370E+002 -0.282928636798248E+001  0.465507231311057E+001  0.188581890051237E+001 -0.159387819318158E+002
  0.100000000000000E+001  0.220237348253398E+002 -0.668962753177224E+001  0.126362870244725E+002 -0.648186441672340E+000 -0.830291622205503E+001
  0.100000000000000E+001  0.219935927220023E+002 -0.268378605533120E+001  0.694949229065332E+001 -0.586299528984255E+001 -0.396987643963272E+001
  0.100000000000000E+001  0.219868399365777E+002 -0.406993116888639E+001  0.551306885866170E+001 -0.275639323784026E+001 -0.403499056818006E+001
  0.100000000000000E+001  0.207575074413883E+002  0.475865608025115E+001  0.731256432918266E+001  0.201788999693028E+001 -0.864229017152392E+001
  0.100000000000000E+001  0.219449375192079E+002 -0.656541020395389E+001  0.949190107719357E+000 -0.389658986548111E+001 -0.118648040099202E+002
  0.100000000000000E+001  0.219348252708827E+002 -0.122373164653001E+002 -0.866504059074431E+001  0.707870018251425E+001 -0.620419005219911E+001
  0.100000000000000E+001  0.219194853740343E+002  0.482595284760898E+001  0.341691933121968E+000 -0.610300726745516E+001 -0.136586527782334E+002
  0.100000000000000E+001  0.218621205193610E+002  0.165439955254811E-001 -0.107719719764532E+001  0.284110143281000E+001 -0.466314769251356E+001
  0.100000000000000E+001  0.218557563676777E+002 -0.684124283393992E+001  0.110219929151715E+002 -0.368562453699182E+001 -0.100772107432064E+002
  0.100000000000000E+001  0.218248734716446E+002 -0.178411947143281E+001  0.611170785627061E+001  0.382762082018933E+001 -0.103458080230237E+002
  0.100000000000000E+001  0.217572085410522E+002  0.538905415329330E+001  0.477252801400454E+001  0.395309498133841E+001 -0.487374444204104E+001
  0.100000000000000E+001  0.217565236044480E+002  0.186506214217597E+001 -0.528645006666586E+000  0.329813908741038E+001 -0.395468501958993E+001
  0.100000000000000E+001  0.217563565765584E+002  0.150182358339929E+001  0.623246733240673E+000  0.316392692787731E+001 -0.329757074495776E+001
  0.100000000000000E+001  0.217532933995078E+002 -0.633351872576517E+001  0.739836345491114E+001 -0.207841382222011E+000 -0.925774994442637E+001
  0.100000000000000E+001  0.217291822696447E+002  0.615201202194184E+001 -0.106889403437804E+002  0.221227174632204E+001 -0.852484459170576E+001
  0.100000000000000E+001  0.217076770966010E+002 -0.141314935942590E+001 -0.767839474638623E+001  0.125277700258422E+001  0.269780433409871E+001
  0.100000000000000E+001  0.216686276095173E+002  0.165663369125690E+001  0.619957255221274E+001 -0.197014354633769E+001 -0.666873011002078E+001
  0.100000000000000E+001  0.216271892148295E+002 -0.497220034190777E+001  0.129878284573830E+002 -0.245912077869245E+001 -0.131057328032862E+001
  0.100000000000000E+001  0.216270258320585E+002 -0.930395804171464E+001 -0.170047992851248E+002  0.275072511479024E+000 -0.406084578024640E+001
  0.100000000000000E+001  0.216101782371985E+002  0.466038852015699E+001  0.585261549428114E+001  0.189717976498988E+001 -0.103662873153565E+002
  0.100000000000000E+001  0.216088929327123E+002 -0.119877217666849E+002 -0.734877937869179E+001  0.236525947667775E+001 -0.114941908568463E+002
  0.100000000000000E+001  0.215621089180797E+002 -0.670968610200390E+000  0.282180671885462E+001  0.483856150776676E+001 -0.838290116026846E+001
  0.100000000000000E+001  0.215178098666458E+002 -0.564675108223748E+001 -0.809384832701222E+001  0.636809277123810E+001  0.247548869561330E+001
  0.100000000000000E+001  0.214887622427198E+002 -0.107486677280414E+002  0.628583583548444E+001  0.217098738796267E+001 -0.876771947214233E+001
  0.100000000000000E+001  0.214876606363381E+002  0.713180709864417E+001  0.538193491729877E+001  0.453797786115987E+001 -0.846359737025684E+001
  0.100000000000000E+001  0.214399875965788E+002 -0.623732519610956E+001  0.757385633689146E+001 -0.570683310988856E+001 -0.645303440672737E+001
  0.100000000000000E+001  0.207682150295850E+002 -0.470572419739859E+001  0.108128784715449E+002 -0.144209290948528E+000 -0.249399693586329E+001
  0.100000000000000E+001  0.213989740707263E+002 -0.643105572151503E+001 -0.635209281315804E+001  0.597258969672777E+001  0.205487309432044E+001
  0.100000000000000E+001  0.213388325956668E+002 -0.266484834189680E+001  0.113217408235484E+002 -0.516232171991063E+001 -0.339590411340092E+001
  0.100000000000000E+001  0.212732466259512E+002 -0.811137798783948E+001 -0.117841121797561E+002  0.559921363197890E+001  0.113131988436847E+001
  0.100000000000000E+001  0.212608017647013E+002  0.361218132915041E+001  0.737386435259572E+001  0.277429490968799E+001 -0.918645066133113E+001
  0.100000000000000E+001  0.212502109744223E+002  0.582498665172534E+001 -0.226327789730168E+001 -0.450948465851774E+001 -0.924485609190783E+001
  0.100000000000000E+001  0.212054260097030E+002  0.627838528823340E+001  0.754969439463014E+000  0.782170713487782E+001 -0.733965208346499E+001
  0.100000000000000E+001  0.211997102069086E+002 -0.849429614323897E+001  0.116314354232483E+002  0.313722175050364E+001 -0.592153590919398E+001
  0.100000000000000E+001  0.211979967994314E+002 -0.109194104211554E+000  0.694821880645474E+001 -0.162418383654406E+001 -0.847271372001462E+001
  0.100000000000000E+001  0.211972509115329E+002 -0.608914092276948E+001  0.125773093769533E+002  0.183738844671757E+001 -0.278968057934475E+001
  0.100000000000000E+001  0.211924594389111E+002  0.436333953709190E+001 -0.353672100016580E+001 -0.545082770524173E+001 -0.126967324981988E+002
  0.100000000000000E+001  0.211899457535586E+002 -0.526006593870136E+001  0.825166616875143E+001 -0.523259013943483E+001 -0.104655370963114E+002
  0.100000000000000E+001  0.211760334511649E+002 -0.678992704092518E+001  0.143051551365820E+002  0.925002030269155E+000 -0.413768198424804E+001
  0.100000000000000E+001  0.211670891415344E+002 -0.938472482714996E+000  0.443998631294176E+001  0.448553877650991E+001 -0.739274970314828E+001
  0.100000000000000E+001  0.211262677693743E+002  0.318600551066843E+001  0.335458878088670E+001  0.779527996204691E+001 -0.793810682247027E+001
  0.100000000000000E+001  0.211083837833704E+002  0.654002237177891E+001  0.590423751498629E+001  0.301050951243236E+001 -0.876251184375291E+001
  0.100000000000000E+001  0.210958509967426E+002  0.420872699185754E+001  0.529186808917033E+001  0.276702692144110E+001 -0.100697556330416E+002
  0.100000000000000E+001  0.210899576667433E+002 -0.356922956457713E+001  0.115492534290303E+002 -0.286707101627135E+001 -0.130955456790871E+001
  0.100000000000000E+001  0.210878246663538E+002 -0.843912047211823E+001  0.105722133859886E+002  0.334331162953127E+001 -0.591281127442689E+001
  0.100000000000000E+001  0.210652822618046E+002  0.351900482801852E-001  0.451239757934108E+000  0.160618289423014E+001 -0.120548921935298E+002
  0.100000000000000E+001  0.210484305401048E+002  0.543964894455944E+001 -0.414976551881295E+001 -0.537555718096006E+001 -0.589278967766619E+001
  0.100000000000000E+001  0.209898824622799E+002 -0.755816975444796E+001  0.913247813549143E+001 -0.218690800590739E+001 -0.484050749519658E+001
  0.100000000000000E+001  0.209883382931854E+002 -0.903707114545301E+001  0.703662300789845E+001  0.739238668716798E+000 -0.115569251870728E+002
  0.100000000000000E+001  0.209733200792999E+002  0.542474972255701E+001  0.344813749813757E+001  0.813249021224291E+001 -0.747639603984667E+001
  0.100000000000000E+001  0.209466229181935E+002 -0.580170494238705E+001  0.130116150654503E+002 -0.268429925896385E+001 -0.695745358291162E+001
  0.100000000000000E+001  0.209229348662003E+002 -0.492223701171930E+001  0.105799754161902E+002 -0.404758118328677E+001 -0.845786196323215E+001
  0.100000000000000E+001  0.209181841601858E+002 -0.591719392437727E+001  0.423515654390329E+001 -0.129664591680108E+001 -0.569603681857323E+001
  0.100000000000000E+001  0.209164683288018E+002 -0.693600026870334E+001  0.128815852365453E+002 -0.136809042849500E+001 -0.749241640315444E+001
  0.100000000000000E+001  0.208084035061113E+002 -0.169919910295572E+001  0.274122284058260E+001  0.488335157585157E+001 -0.664015323374848E+001
  0.100000000000000E+001  0.207899160662927E+002 -0.460907558196255E+001 -0.230555602164081E+001  0.212289879009096E+001 -0.271811550724517E+001
  0.100000000000000E+001  0.206702178164853E+002  0.318440162172276E+001  0.732697745726190E+001 -0.253362804185816E+001 -0.115664823759449E+002
  0.100000000000000E+001  0.206384617406893E+002  0.127680637193069E+001  0.443162670373220E+001 -0.160763830545892E+001 -0.811614193297889E+001
  0.100000000000000E+001  0.205983940087852E+002  0.572675900494447E+001  0.456786996957728E+001  0.447961282793698E+001 -0.566722992352913E+001
  0.100000000000000E+001  0.205949931309204E+002  0.206542941087036E+001 -0.180374965942152E+001  0.705144679259019E+001 -0.597420503061594E+001
  0.100000000000000E+001  0.205735764059947E+002  0.129217186375368E+001 -0.231721461068928E+001  0.854127947542459E+001 -0.385742820285629E+001
  0.100000000000000E+001  0.205210701300158E+002  0.216214056051448E+001 -0.227419841506518E+001  0.780690041030406E+001 -0.416741507717327E+001
  0.100000000000000E+001  0.205021359088439E+002 -0.285785685115321E+001  0.401093780074283E+001  0.363772642626035E+001 -0.149997971499573E+002
  0.100000000000000E+001  0.204839859844209E+002  0.268820403709320E+000 -0.175257266772338E+001  0.648687810184547E+001 -0.377987306604132E+001
  0.100000000000000E+001  0.204799029499762E+002 -0.616280315461985E+000  0.403839033153863E+001  0.199626924102613E+001 -0.481107872337366E+001
  0.100000000000000E+001  0.204734525377294E+002  0.418967663871170E+001  0.500227487314611E+001  0.338916601809142E+001 -0.960360600940335E+001
  0.100000000000000E+001  0.204626912374991E+002 -0.687751715481879E+001 -0.130842945208015E+002  0.132092142708626E+001 -0.265498396883012E+001
  0.100000000000000E+001  0.203691302939663E+002  0.165647352250229E+001  0.452265585429371E+001  0.552779462371376E+000 -0.114939817932936E+002
  0.100000000000000E+001  0.203616624353043E+002  0.437836608584817E+001  0.427803018167679E+001  0.335295136836684E+001 -0.507096357418067E+001
  0.100000000000000E+001  0.203533403361111E+002  0.281790813560388E+001  0.350254659040380E+001 -0.412840365318132E+001 -0.109176596652986E+002
  0.100000000000000E+001  0.203200492967445E+002  0.187959473526706E+001 -0.200666067865614E+001  0.717074066234663E+001 -0.417970178659913E+001
  0.100000000000000E+001  0.202738668591441E+002 -0.558099019344237E+001 -0.128756600418184E+002 -0.247455607852906E+000 -0.228570678303962E+001
  0.100000000000000E+001  0.202720169848446E+002 -0.128373306273929E+002 -0.905126892083025E+001  0.649369378629103E+001 -0.543683978217561E+001
  0.100000000000000E+001  0.202585280426350E+002 -0.112014840844437E+002 -0.144811543148050E+002  0.403295194671864E+001 -0.404727954339902E+001
  0.100000000000000E+001  0.202447129071969E+002  0.299470676122642E+001 -0.757551410982451E-001 -0.167441371346408E+001 -0.114345913794598E+002
  0.100000000000000E+001  0.202118193792566E+002  0.389288550123843E+001  0.214174185620845E+001  0.689122939753102E+001 -0.387840584818790E+001
  0.100000000000000E+001  0.202072207311200E+002 -0.895928151286583E+000  0.159818360054808E+001  0.461124653088697E+001 -0.731462776997768E+001
  0.100000000000000E+001  0.201827450932545E+002  0.743765337037844E+001  0.112449856520314E+001 -0.610816604297557E+001 -0.383532818664540E+001
  0.100000000000000E+001  0.201815038621322E+002 -0.634762307157802E+001 -0.261428945134971E+001  0.408058165921378E+001 -0.374475408980833E+001
  0.100000000000000E+001  0.201719025436839E+002 -0.542051008073312E+001 -0.465130654192483E+001  0.429661145638532E+001  0.617518635301838E+000
  0.100000000000000E+001  0.201525917779186E+002 -0.222557201705477E+001  0.509916383309966E+001  0.288963482907251E+001 -0.128933129025945E+002
  0.100000000000000E+001  0.201414876608029E+002 -0.669870433866479E+001 -0.512899567050599E+001  0.695059807857892E+001  0.152673297412363E+001
  0.100000000000000E+001  0.200766800136243E+002  0.158276160111540E+001  0.327953660118570E+001  0.737768332646381E+001 -0.612478687492833E+001
  0.100000000000000E+001  0.200479429227049E+002 -0.920348641613463E+001 -0.663215933592596E+001  0.250042826950413E+001 -0.788268785235126E+001
  0.100000000000000E+001  0.200326378253943E+002  0.258871064304373E+001  0.560743358751114E+001 -0.320995981644998E+000 -0.587974198482294E+001
  0.100000000000000E+001  0.200151656203440E+002 -0.218170544999831E+001  0.318269207153306E+001  0.236508736464354E+001 -0.153983002133180E+002
  0.100000000000000E+001  0.200080943254856E+002 -0.277825203420296E+000 -0.813869210521919E+000  0.722020861873218E+001 -0.395026607197325E+001
  0.100000000000000E+001  0.199616243127620E+002 -0.206015727593484E+001  0.300826596606222E+001  0.184136885730431E+001 -0.154821279418774E+002
  0.100000000000000E+001  0.199266976119347E+002 -0.499273405425383E+001 -0.514439564319345E+001  0.586311235831792E+001  0.152813313580174E+001
  0.100000000000000E+001  0.198621589339309E+002  0.170239194683372E+001 -0.136772025216974E+000  0.470990743313642E+001 -0.403109394648438E+001
  0.100000000000000E+001  0.198611582958554E+002  0.607470767103530E+001  0.567463706485632E+001 -0.128494042378729E+002 -0.777745681735487E+001
  0.100000000000000E+001  0.198290270432229E+002 -0.350202285376682E+001 -0.349806121885346E+001  0.272110374003420E+001 -0.230860186934581E+000
  0.100000000000000E+001  0.198286295441421E+002  0.389406402232943E+001  0.282823960447039E+001  0.379062356768370E+001 -0.882690408676234E+001
  0.100000000000000E+001  0.197788993162348E+002  0.496855535081367E+001  0.232224450714078E-001  0.747052559967985E+001 -0.612394117091133E+001
  0.100000000000000E+001  0.197500082444902E+002 -0.142150173868124E+001  0.116235125234536E+001  0.489187479568665E+001 -0.499263623608166E+001
  0.100000000000000E+001  0.197432719600288E+002  0.558246623573820E+001  0.470987760890871E+001 -0.127269636663423E+002 -0.653897276014207E+001
  0.100000000000000E+001  0.197327650758782E+002  0.150589283043783E+001  0.667498185933085E+001  0.918034347856882E+000 -0.105409099114489E+002
  0.100000000000000E+001  0.197051478243448E+002  0.390690876352148E+001  0.491647040382183E+000 -0.501499067216645E+001 -0.934826942074830E+001
  0.100000000000000E+001  0.196967676685361E+002 -0.985179064231080E+000  0.380363635042454E+001  0.272330593826477E+001 -0.564193166838155E+001
  0.100000000000000E+001  0.196830821872645E+002  0.560431236459152E+000  0.555611766229246E+001  0.198329596435459E+001 -0.104158149408263E+002
  0.100000000000000E+001  0.196584861873419E+002  0.992453939675798E+000 -0.126421252565719E+001  0.623683590081921E+001 -0.460647995422055E+001
  0.100000000000000E+001  0.196362375576805E+002  0.976924671196560E+000  0.386940493779430E+001 -0.184397541125720E+001 -0.142004874749804E+002
  0.100000000000000E+001  0.196354859607496E+002  0.569478300505079E+001  0.606268090314964E+001 -0.338459590658040E+001 -0.522978017814981E+001
  0.100000000000000E+001  0.196038942676211E+002  0.193643989022997E+001 -0.132189276934650E+001  0.776007207542457E+001 -0.421493950218835E+001
  0.100000000000000E+001  0.196030597022307E+002 -0.100982988959736E+002 -0.816492577669414E+001  0.141486619409150E+001 -0.925854717009597E+001
  0.100000000000000E+001  0.195460626046879E+002  0.318320316673901E+001  0.475974784854670E+001  0.582583406099728E+001 -0.679027053183720E+001
  0.100000000000000E+001  0.195443489662844E+002 -0.114584164999200E+002 -0.642158062241137E+001  0.652844801631095E+001 -0.482664074486228E+001
  0.100000000000000E+001  0.195381505048545E+002  0.460765250372248E+001  0.228759235339206E+001  0.316248887537282E+001 -0.617656663575080E+001
  0.100000000000000E+001  0.195242465435786E+002 -0.709389512413127E+001 -0.865577622887804E+001 -0.514746109499857E+000 -0.567291075202429E+001
  0.100000000000000E+001  0.194822951544696E+002  0.465125805268767E+001  0.511226728820101E+001  0.461716829723463E+001 -0.661585865649201E+001
  0.100000000000000E+001  0.194069401072983E+002 -0.908200599163657E+001 -0.107852475490811E+002  0.266101021537555E+001 -0.323136474867684E+001
  0.100000000000000E+001  0.193909341262816E+002  0.426366697820549E+001  0.444001531407757E+001 -0.152605308488335E+001 -0.639561186823084E+001
  0.100000000000000E+001  0.193680805664989E+002  0.840426689344209E+000  0.609716511318008E+001  0.234290478779753E+001 -0.738020017453841E+001
  0.100000000000000E+001  0.193507447213390E+002  0.526015938238555E+001  0.333718497135270E+001  0.652711133352544E+001 -0.703581814767346E+001
  0.100000000000000E+001  0.193449607050890E+002  0.128898829499327E+001  0.315240022558951E+001  0.239181819200020E+000 -0.673778615618779E+001
  0.100000000000000E+001  0.193296374466809E+002 -0.499904222932415E+000  0.155549419001916E+001  0.413225682934354E+001 -0.452849278780942E+001
  0.100000000000000E+001  0.193149702244438E+002  0.251520567563802E+001  0.767537367963505E+001 -0.180349849868016E+001 -0.894217864857472E+001
  0.100000000000000E+001  0.193106601055283E+002  0.269689219317045E+001  0.255229838188795E+001  0.383167314754624E+001 -0.848179333114767E+001
  0.100000000000000E+001  0.192962932680857E+002 -0.644052801690734E+001 -0.121304223995242E+002  0.724616333420474E+000 -0.159385554629751E+001
  0.100000000000000E+001  0.192928637225619E+002 -0.134939981232314E+000  0.384547858268132E+001 -0.605556899546364E+000 -0.138354410777625E+002
  0.100000000000000E+001  0.206677532145158E+002 -0.514289318751585E+001  0.556081742796701E+001 -0.591657818541355E+001 -0.608719095823511E+001
  0.100000000000000E+001  0.205977482296698E+002 -0.601184690113414E+001  0.618371906955175E+001 -0.275861115709550E+001 -0.415373524773278E+001
  0.100000000000000E+001  0.205907513465207E+002 -0.698977474780215E+001  0.128473510631670E+002 -0.631536557986895E+000 -0.705636773002428E+001
  0.100000000000000E+001  0.205666020691782E+002 -0.629671493251333E+001  0.266296468213020E+001 -0.506681336197824E+001 -0.116993904857700E+002
  0.100000000000000E+001  0.204987077628347E+002 -0.982063919156790E+001  0.830851779068112E+001  0.135525982507575E+001 -0.102532799610721E+002
  0.100000000000000E+001  0.204823645032009E+002 -0.331974812761642E+001  0.889961664462141E+001 -0.402175246115876E+001 -0.478682891468423E+001
  0.100000000000000E+001  0.204238279066923E+002 -0.654351184906099E+001  0.311463580973180E+001 -0.217866506833488E+001 -0.704750091681438E+001
  0.100000000000000E+001  0.204103150704912E+002 -0.676714263303436E+001  0.123296052630302E+002  0.107237830914488E+001 -0.271216720704566E+001
  0.100000000000000E+001  0.203822417652447E+002 -0.546126610022286E+001  0.333858722286499E+001 -0.415644406278971E+001 -0.705884761826953E+001
  0.100000000000000E+001  0.203670882495499E+002 -0.461614827652510E+001  0.776741771999414E+001 -0.350110658718163E+001 -0.314880944692683E+001
  0.100000000000000E+001  0.203547929970204E+002 -0.509728982798734E+001  0.964778043415303E+001 -0.574906707862314E+001 -0.837061612793464E+001
  0.100000000000000E+001  0.202750984066643E+002 -0.496223730832523E+001  0.121273603435130E+002 -0.440347794850418E+001 -0.541617995361288E+001
  0.100000000000000E+001  0.202667808569465E+002 -0.744086337134716E+001  0.602426852021583E+001 -0.134563565911552E+001 -0.518399151321948E+001
  0.100000000000000E+001  0.202646508597879E+002 -0.764356067893363E+001  0.993577599369365E+001 -0.167336417070182E+001 -0.511791253085977E+001
  0.100000000000000E+001  0.202000821754045E+002 -0.455831156526126E+001  0.106366009028148E+002 -0.555188604481242E+001 -0.557811719553971E+001
  0.100000000000000E+001  0.201174971489027E+002 -0.758571109140754E+001  0.964952419778874E+001 -0.521049311275139E+000 -0.415396458837940E+001
  0.100000000000000E+001  0.199894977370196E+002 -0.582791115353613E+001  0.110731617562316E+002 -0.375184527023147E+001 -0.799780722805530E+001
  0.100000000000000E+001  0.199857378070428E+002 -0.689502911056606E+001  0.694041544236407E+001 -0.521164689879864E+000 -0.945337922748518E+001
  0.100000000000000E+001  0.199394410531483E+002 -0.553439804633699E+001  0.896633420693495E+001 -0.194452972874454E+001 -0.284255105047576E+001
  0.100000000000000E+001  0.199241566396633E+002 -0.655397399008021E+001  0.823092168711818E+001 -0.245590251124414E+001 -0.425378228339848E+001
  0.100000000000000E+001  0.199039575942444E+002 -0.568798435317089E+001  0.310270426772011E+001 -0.486436199542345E+001 -0.922262259609317E+001
  0.100000000000000E+001  0.197381972999232E+002 -0.632440080507401E+001  0.958585728938301E+001 -0.852872894401933E+000 -0.816163819575564E+001
  0.100000000000000E+001  0.197003539396054E+002 -0.732369348351663E+001  0.544786133867763E+001  0.249815479619908E+000 -0.832911472269586E+001
  0.100000000000000E+001  0.196486800838158E+002 -0.605003050745586E+001  0.117597369922974E+002 -0.311589589173368E+001 -0.671004201188395E+001
  0.100000000000000E+001  0.195859764283893E+002 -0.660693882578958E+001  0.101441422574280E+002  0.782841416611408E+000 -0.610810598028198E+001
  0.100000000000000E+001  0.194923926857841E+002 -0.875178606391239E+001  0.840230859669203E+001  0.186909357355605E+001 -0.662404099898747E+001
  0.100000000000000E+001  0.192965334858664E+002 -0.666100586450166E+001  0.105747977905360E+002 -0.180370651617429E+001 -0.443245794454491E+001
  0.100000000000000E+001  0.192404838988227E+002 -0.827197608493119E+001  0.728986648188575E+001 -0.177741337268981E+001 -0.109577878433089E+002
  0.100000000000000E+001  0.191882495160648E+002 -0.605285333599977E+001  0.472937657882644E+001 -0.535389323070059E+001 -0.958875276182487E+001
  0.100000000000000E+001  0.191779791524286E+002 -0.593241440111317E+001  0.764611571039674E+001 -0.354243318853164E+001 -0.958079272253656E+001
  0.100000000000000E+001  0.190149907746865E+002 -0.479004689011854E+001  0.977756708013648E+001 -0.216027594620210E+001 -0.520791467120680E+001
  0.100000000000000E+001  0.189801795232961E+002 -0.777815342864754E+001  0.103648217980791E+002  0.899107602712235E+000 -0.635024805695498E+001
  0.100000000000000E+001  0.189762323249285E+002 -0.623417010321261E+001  0.723929313137933E+001 -0.122888247671524E+001 -0.473819345061298E+001
  0.100000000000000E+001  0.188088241730221E+002 -0.877345196630992E+001  0.764365141657795E+001  0.112952180278171E+000 -0.770768018104638E+001
  0.100000000000000E+001  0.187486386924035E+002 -0.831807203216576E+001  0.472139232177787E+001 -0.212685152387401E+001 -0.952479134611309E+001
  0.100000000000000E+001  0.187172532869297E+002 -0.796946827788529E+001  0.666734365936220E+001 -0.291432240100305E+001 -0.100358580925075E+002
  0.100000000000000E+001  0.186586589598005E+002 -0.558836697346172E+001  0.108416541116685E+002 -0.292919863911624E+001 -0.558474438893656E+001
  0.100000000000000E+001  0.186484974342281E+002 -0.511076683353833E+001  0.786478773393577E+001 -0.298525370339258E+001 -0.695991897997198E+001
  0.100000000000000E+001  0.186056511088403E+002 -0.605231555736145E+001  0.542897937526076E+001 -0.258159338581213E+001 -0.808997043888332E+001
  0.100000000000000E+001  0.185202140697353E+002 -0.617329060461319E+001  0.557105171477907E+001 -0.451317471009412E+001 -0.861997572535568E+001
  0.100000000000000E+001  0.192274332529514E+002  0.346095005149160E+001  0.516225844267091E+001 -0.535947596006991E-002 -0.751094064155787E+001
  0.100000000000000E+001  0.192107786128548E+002  0.948324008439410E+000  0.134620679803043E+001  0.753485492926671E+001 -0.500861124705621E+001
  0.100000000000000E+001  0.191750138270526E+002  0.303316952479981E+001  0.593793690639906E+001  0.299702870825400E+001 -0.765136331733448E+001
  0.100000000000000E+001  0.191711751458377E+002  0.599546346342931E+001  0.228127385357369E+001 -0.153911432967669E+002 -0.342825955149853E+001
  0.100000000000000E+001  0.191100158652531E+002 -0.862223456768238E+000  0.338019531669793E+001  0.160887884777358E+001 -0.140641388396906E+002
  0.100000000000000E+001  0.190908132843690E+002  0.162043933068426E+001  0.330904707099128E+001  0.225199717494397E+001 -0.518199632683972E+001
  0.100000000000000E+001  0.190842059470848E+002  0.355409279029912E+001  0.264526506550287E+001  0.642211306737617E+001 -0.480286303502413E+001
  0.100000000000000E+001  0.190604349958422E+002  0.288019583505114E+001  0.151711359655243E+001  0.816474277213087E+001 -0.522321453062340E+001
  0.100000000000000E+001  0.190208228064122E+002  0.443199237620946E+001  0.659944265087904E+001 -0.214440865333274E+001 -0.762066917800339E+001
  0.100000000000000E+001  0.189938825436019E+002  0.189733771049753E+001  0.787010299066960E+001  0.268527088477438E+000 -0.874051767006632E+001
  0.100000000000000E+001  0.189217237658567E+002  0.424498160384491E+001  0.158772619514869E+001  0.480388583606884E+001 -0.713731337586658E+001
  0.100000000000000E+001  0.189045039661771E+002  0.108179078589838E+000  0.277972033194630E+001  0.416740182639690E+001 -0.505153589142346E+001
  0.100000000000000E+001  0.188917440890918E+002 -0.136712142761375E+000  0.123001764119948E+001  0.575276419530192E+001 -0.570522243986159E+001
  0.100000000000000E+001  0.188885208060258E+002  0.332200063342117E+001  0.469829885822183E+001 -0.181463061870508E+001 -0.671870990803857E+001
  0.100000000000000E+001  0.188575337718966E+002  0.445021554162864E+001 -0.430714141940683E+000 -0.512188369544195E+001 -0.876562838671448E+001
  0.100000000000000E+001  0.188487818106301E+002  0.651817941757515E+001  0.536653708214437E+001 -0.454792494669233E+001 -0.568841292229623E+001
  0.100000000000000E+001  0.188392497437106E+002  0.294241324104309E+001  0.195755937289524E+001  0.596105721432916E+001 -0.450788828250385E+001
  0.100000000000000E+001  0.188217418172089E+002  0.326524162649061E+001 -0.721405117802334E-001 -0.364088753168555E+001 -0.128972856514757E+002
  0.100000000000000E+001  0.188106110658257E+002  0.458067976362932E+001  0.426298389499426E+001 -0.346895292209437E+001 -0.625351403745656E+001
  0.100000000000000E+001  0.187964169433393E+002  0.387006690090208E+001  0.154001511776092E+001  0.444468557325253E+001 -0.703449370731970E+001
  0.100000000000000E+001  0.187850039700586E+002  0.419953277441109E+001  0.429199157828920E+001  0.397957965775759E+001 -0.804278073107047E+001
  0.100000000000000E+001  0.187643671456870E+002  0.165911812884411E+001  0.392306763993057E+001  0.242064099783293E+001 -0.556755491961222E+001
  0.100000000000000E+001  0.187533490203451E+002  0.228494399681077E+001  0.267213656139966E+001 -0.773038503652366E-001 -0.790997079922242E+001
  0.100000000000000E+001  0.187354199946830E+002  0.311471216151642E+001  0.277108906190439E+001  0.489039056544366E+001 -0.492358684004255E+001
  0.100000000000000E+001  0.187069066236712E+002  0.230372020406623E+000  0.331271247865203E+001  0.351442517915730E+001 -0.729046897787788E+001
  0.100000000000000E+001  0.186882198732883E+002  0.651502955743219E+001  0.366579478626281E+001 -0.433465348196588E+001 -0.566382434672305E+001
  0.100000000000000E+001  0.186554774255816E+002  0.306951683520587E+001  0.356297402464120E+001 -0.309870519039303E+001 -0.125563109229190E+002
  0.100000000000000E+001  0.186459650140869E+002  0.417823515157518E+001  0.271362764240924E+001  0.478847106457613E+001 -0.558169204411960E+001
  0.100000000000000E+001  0.185919907654138E+002  0.283911744250521E+001  0.567529207193247E+001 -0.235698584545084E+001 -0.115061688856524E+002
  0.100000000000000E+001  0.185779419151047E+002  0.375446173660030E+001  0.196361872553899E+001  0.385522280285396E+001 -0.678266428973540E+001
  0.100000000000000E+001  0.185738373144827E+002  0.445025304606527E+001  0.400196894731566E+001 -0.483210836535225E+001 -0.110590350563213E+002
  0.100000000000000E+001  0.185659804140049E+002  0.173370389928086E+001  0.232078372079699E+001  0.365607542242480E+001 -0.767780340504500E+001
  0.100000000000000E+001  0.185496976536804E+002  0.591939662816305E+000  0.187386512970570E+001  0.586624926911263E+001 -0.546612711967624E+001
  0.100000000000000E+001  0.185362988248603E+002  0.934065828243604E+000  0.590186056860758E+001 -0.194195844847798E-001 -0.121811056572181E+002
  0.100000000000000E+001  0.184826398363737E+002  0.256281496880567E+001  0.940160044160372E+000  0.476214827547645E+001 -0.659970343336929E+001
  0.100000000000000E+001  0.190621551260173E+002 -0.644873005088759E+001 -0.437823760555272E+001  0.292250740762920E+001 -0.289687940456729E+001
  0.100000000000000E+001  0.190479818134916E+002 -0.775699419002714E+001 -0.130434519340709E+002 -0.445080744816060E+000 -0.474668262835709E+001
  0.100000000000000E+001  0.190308645613528E+002 -0.100241668741812E+002 -0.402879392743838E+001  0.551436992564660E+001 -0.553305039432528E+001
  0.100000000000000E+001  0.189977311888355E+002 -0.115115598823012E+002 -0.688990954862911E+001  0.436971608702758E+001 -0.843078856606764E+001
  0.100000000000000E+001  0.189669266867624E+002 -0.750929481212332E+001 -0.101261809442947E+002  0.486432408314864E+001 -0.462193904122206E+000
  0.100000000000000E+001  0.189204224035151E+002 -0.123759525250879E+002 -0.104599705753939E+002  0.472970372554526E+001 -0.748117016319797E+001
  0.100000000000000E+001  0.188597648398192E+002 -0.718829615125065E+001 -0.123426588793819E+002  0.211522273491520E+001 -0.124045360294125E+001
  0.100000000000000E+001  0.188038469384651E+002 -0.822511920397967E+001 -0.589938973231645E+001  0.537588120815743E+001 -0.173666795092663E+001
  0.100000000000000E+001  0.187377201388930E+002 -0.636681626305301E+001 -0.944118113895002E+001  0.286819359720842E+001 -0.257135825706278E+000
  0.100000000000000E+001  0.186204257307254E+002 -0.112979140802164E+002 -0.120930111374166E+002  0.380538336102200E+001 -0.507846081411239E+001
  0.100000000000000E+001  0.185596894604044E+002 -0.104907658852162E+002 -0.802867108081380E+001  0.644593206523671E+001 -0.329194175244382E+001
  0.100000000000000E+001  0.185123751911327E+002 -0.500915989717172E+001 -0.595322649352402E+001  0.169825337493207E+001 -0.197218891994341E+001
  0.100000000000000E+001  0.184521278010597E+002 -0.562046737358773E+001  0.734513650733832E+001 -0.464967249505460E+001 -0.759021449061144E+001
  0.100000000000000E+001  0.184035459843933E+002 -0.610408787594830E+001  0.680438928937308E+001 -0.257734339160339E+001 -0.583551809102549E+001
  0.100000000000000E+001  0.182072997475766E+002 -0.568758401424320E+001  0.708678553427558E+001 -0.384079078307562E+001 -0.676755497173405E+001
  0.100000000000000E+001  0.184533434982342E+002  0.183510401904988E+001  0.288039095290237E+000  0.587288368276420E+001 -0.508602277692041E+001
  0.100000000000000E+001  0.183967430419692E+002  0.111315370382352E+001  0.348994236025622E+001  0.228495179955403E+001 -0.777970716388962E+001
  0.100000000000000E+001  0.183657393685756E+002  0.184318867182670E+001  0.489824887771377E+000 -0.137157151985232E+001 -0.100191131133133E+002
  0.100000000000000E+001  0.183485245289418E+002  0.515534089691834E+001 -0.101752635999258E+001 -0.621090217389128E+001 -0.102653137459120E+002
  0.100000000000000E+001  0.182748443804103E+002  0.402766551677240E+001  0.681151306190635E+000 -0.280482694610512E+001 -0.765830970189404E+001
  0.100000000000000E+001  0.182447518954852E+002  0.845959606140028E+000  0.624007370668230E+001  0.462030856006969E+000 -0.999461070766245E+001
  0.100000000000000E+001  0.182429022918250E+002  0.360564936821192E+001  0.466570086326197E+001 -0.239974313002491E+001 -0.105880432798128E+002
  0.100000000000000E+001  0.181480643641430E+002  0.202845168419908E+001  0.430883945060244E+001  0.324884530102903E+001 -0.706823257239918E+001
  0.100000000000000E+001  0.181421857935300E+002  0.457718037008922E+001  0.219010639625751E+001 -0.137377947358963E+002 -0.308254537716158E+001
  0.100000000000000E+001  0.181263835927832E+002  0.702270911407675E+001 -0.254838941970247E+001 -0.958890416531873E+001 -0.521310879122832E+001
  0.100000000000000E+001  0.180996671320949E+002  0.311532324092257E+001  0.253700626683266E+001  0.389929989034319E+001 -0.707035073836545E+001
  0.100000000000000E+001  0.180719063488621E+002  0.828599993889719E+001  0.210364000581332E+001 -0.765476890670194E+001 -0.660792118392036E+001
  0.100000000000000E+001  0.180612685101745E+002  0.506892229075779E+001 -0.392247007501645E+001 -0.313946838300105E+001 -0.776942675828223E+001
  0.100000000000000E+001  0.179067774134020E+002  0.593008590818956E+001  0.505406953177502E+000 -0.469886756671431E+001 -0.105422430984849E+002
  0.100000000000000E+001  0.184140686906681E+002 -0.994886393382718E+001 -0.125857810507332E+002  0.991523131587403E+000 -0.613547055746621E+001
  0.100000000000000E+001  0.184055094998239E+002 -0.728483262064229E+001 -0.430840843571244E+001  0.440393715366745E+001 -0.356360853740982E+001
  0.100000000000000E+001  0.181654584493054E+002 -0.779864508412118E+001 -0.100975414202058E+002  0.359238525827020E+001 -0.134449579567673E+001
  0.100000000000000E+001  0.181629164417318E+002 -0.601182442785014E+001 -0.498877059712649E+001  0.469676891776663E+001 -0.512601884401384E+000
  0.100000000000000E+001  0.181269905846313E+002 -0.704553370205226E+001 -0.704579706282151E+001  0.486885992836839E+001 -0.147106456112576E+001
  0.100000000000000E+001  0.180694584266849E+002 -0.111728995666807E+002 -0.101235940840863E+002  0.298237291165107E+001 -0.668856686405150E+001
  0.100000000000000E+001  0.180181479887150E+002 -0.721197883472301E+001 -0.835024900604767E+001  0.458949202584527E+001 -0.483411295821757E+000
  0.100000000000000E+001  0.177795048889129E+002  0.773563502852693E+001 -0.761641578548296E+000 -0.695422400897105E+001 -0.903384256452278E+001
  0.100000000000000E+001  0.176692655206499E+002  0.334236497870778E+001  0.300713692227556E+001 -0.215672753291751E+001 -0.784315556457901E+001
  0.100000000000000E+001  0.175993554796076E+002  0.648413412807674E+001 -0.375626782050563E+000 -0.646485256654989E+001 -0.770537512148299E+001
  0.100000000000000E+001  0.175928280832917E+002  0.298848360029073E+001  0.166284262879793E+001 -0.162479015368259E+001 -0.952588532491941E+001
  0.100000000000000E+001  0.173706514268807E+002  0.418205719177545E+001 -0.262404920068931E+000 -0.385110387853068E+001 -0.984134071121673E+001
  0.100000000000000E+001  0.173262452544140E+002  0.542658224945080E+001  0.220009950933257E+001 -0.406520678031838E+001 -0.705176507285477E+001
  0.100000000000000E+001  0.171914653953985E+002  0.545524330572913E+001 -0.720173220222747E+001 -0.246465869026622E+001 -0.638721052299187E+001
  0.100000000000000E+001  0.171361768956465E+002  0.155336668422992E+001  0.390941667591595E+001 -0.899390838581468E+000 -0.111483207780750E+002
  0.100000000000000E+001  0.175981798096745E+002 -0.975442045283486E+001 -0.103322197020703E+002  0.385440581515306E+001 -0.388648211523709E+001
  0.100000000000000E+001  0.175454513954121E+002 -0.890800796995597E+001 -0.872850179892578E+001  0.486917141659059E+001 -0.286204831686604E+001
  0.100000000000000E+001  0.174576437791072E+002 -0.749297833249552E+001 -0.688559575476319E+001  0.375595750792450E+001 -0.246423457122645E+001
  0.100000000000000E+001  0.174000631435293E+002 -0.920576430202960E+001 -0.107468229983312E+002  0.233957573679433E+001 -0.465674373301456E+001
  0.100000000000000E+001  0.173807067462743E+002 -0.803400150878504E+001 -0.968004581906663E+001  0.188013833474042E+001 -0.401531328309818E+001
  0.100000000000000E+001  0.168532216987688E+002  0.418919683241840E+001  0.147287456200140E+001 -0.411750256409307E+001 -0.925537162382376E+001
  0.100000000000000E+001  0.167985441305042E+002  0.596690853629394E+001  0.829491665722802E+000 -0.571746260623682E+001 -0.101704201131106E+002
  0.100000000000000E+001  0.164539816041165E+002  0.383000995981509E+001  0.246340485282965E+001 -0.121015736779513E+002 -0.441054334761396E+001
  0.100000000000000E+001  0.163825154957226E+002  0.603591359266021E+001 -0.157901841235534E+001 -0.397591903847935E+001 -0.994548622329164E+001
  0.100000000000000E+001  0.161477175179586E+002  0.361617629235849E+001 -0.617214023758192E+001 -0.977221725485876E+001 -0.411199648803198E-001
  0.100000000000000E+001  0.160820704755957E+002  0.520892684201233E+001 -0.192919020126617E+001 -0.441683769139819E+001 -0.863412677599746E+001
  0.100000000000000E+001  0.158803237833511E+002  0.225879414137815E+001 -0.115551427210356E+001 -0.151558745177735E+002  0.194672008390269E+001
  0.100000000000000E+001  0.150692472717442E+002  0.594296527312581E+001 -0.540415923687409E+001 -0.766273190840042E+001 -0.401616754354904E+001
  0.100000000000000E+001  0.150234504653431E+002  0.581627081806209E+001 -0.359524446804989E+001 -0.370881208422381E+001 -0.822477509304462E+001
  0.100000000000000E+001  0.147710637628015E+002  0.543516289401357E+001  0.977100885183489E+000 -0.793789659141602E+001 -0.791805115446459E+001
  0.100000000000000E+001  0.143026336358810E+002  0.423984322033364E+001  0.649054426284369E+000 -0.126616778706076E+002 -0.309501195465845E+001
  0.100000000000000E+001  0.142860992382327E+002  0.384930902068138E+001 -0.359822780064641E+001 -0.673729109987060E+001 -0.437932075172763E+001
  0.100000000000000E+001  0.142793849523231E+002  0.410132726759424E+001  0.148985679128172E+001 -0.138969158063401E+002 -0.246927249636381E+001
  0.100000000000000E+001  0.141990904433767E+002  0.332880254256484E+001 -0.149061053811759E+001 -0.121089191234444E+002 -0.975316117578014E+000
  0.100000000000000E+001  0.141639245780967E+002  0.544466371321313E+001 -0.600612785471902E+001 -0.344290872773962E+001 -0.669330635339211E+001
  0.100000000000000E+001  0.138322959936115E+002  0.321235683765211E+001 -0.786770556633421E+000 -0.133714972516717E+002 -0.518328624342431E+000
  0.100000000000000E+001  0.136018394992196E+002  0.478708691899772E+001 -0.353461468004194E+001 -0.976442893918037E+001 -0.294460641745011E+001
  0.100000000000000E+001  0.134631474064381E+002  0.493905783739087E+001  0.363951073681378E+000 -0.922180349678682E+001 -0.610493367291568E+001
  0.100000000000000E+001  0.133780561267261E+002  0.495080706952529E+001  0.222669865674519E+000 -0.122203846909039E+002 -0.365677378027396E+001
  0.100000000000000E+001  0.133389460924803E+002  0.425621872320533E+001 -0.178002751526685E+001 -0.106667620795622E+002 -0.301553237151252E+001
  0.100000000000000E+001  0.130126009179737E+002  0.709170034620696E+001 -0.107466551833600E+001 -0.738045970207977E+001 -0.823482138065346E+001
  0.100000000000000E+001  0.129832860109313E+002  0.687220740895304E+001 -0.159048420657940E+001 -0.610276525547200E+001 -0.887003242504065E+001
  0.100000000000000E+001  0.128956630503097E+002  0.662596256314367E+001 -0.134156912739250E+001 -0.583093133154976E+001 -0.890425335054373E+001
  0.100000000000000E+001  0.128935664421387E+002  0.661255405462278E+001 -0.695513608637100E+000 -0.736506054084555E+001 -0.807335667780239E+001
  0.100000000000000E+001  0.127966738751623E+002  0.638882221668474E+001 -0.212418942608084E+001 -0.729026664943130E+001 -0.692118934425313E+001
  0.100000000000000E+001  0.126571998151905E+002  0.621727360321239E+001 -0.920727798121966E+000 -0.678789480342130E+001 -0.818936684492456E+001
  0.100000000000000E+001  0.125890611990769E+002  0.517990013429405E+001 -0.109379267418842E+001 -0.970149416359456E+001 -0.472638707191842E+001
  0.100000000000000E+001  0.123944407590587E+002  0.436486901659210E+001 -0.207059051867039E+001 -0.106017214224214E+002 -0.280556695835975E+001
  0.100000000000000E+001  0.122997443721103E+002  0.435234493072525E+001 -0.214784442480621E+001 -0.102489292847573E+002 -0.299586468452038E+001
  0.100000000000000E+001  0.121971164337583E+002  0.573844924103074E+001 -0.280399850312406E+001 -0.641413425665178E+001 -0.681096506488818E+001
  0.100000000000000E+001  0.120731612076736E+002  0.589452725826704E+001 -0.355836199981701E+001 -0.665499699639861E+001 -0.616265928663659E+001
  0.100000000000000E+001  0.120342602501275E+002  0.529583859804776E+001 -0.272246545802520E+001 -0.745555754611607E+001 -0.555362928436422E+001
