  0.100000000000000E+001 -0.176573347205432E+001  0.742440528571395E+000  0.886582450060979E+000
  0.100000000000000E+001  0.216930177917051E+001  0.110603575774770E+001  0.814021112185787E+000
  0.100000000000000E+001  0.190313413316486E+001  0.859485693532696E+000  0.730304255327050E+000
  0.100000000000000E+001  0.143603048223075E+001  0.718679375852371E+000  0.808091171457390E+000
  0.100000000000000E+001 -0.168201191718679E+001  0.109531621981961E+001  0.101942466203269E+001
  0.100000000000000E+001 -0.110171115191483E+001  0.104065905443468E+001  0.843335449836381E+000
  0.100000000000000E+001 -0.644630451327736E+000  0.822418823962177E+000  0.792923398224508E+000
  0.100000000000000E+001  0.717023578307544E+000  0.660322031263838E+000  0.107120793127986E+001
  0.100000000000000E+001  0.674632320738310E+000  0.112727236513494E+001  0.110217366414556E+001
  0.100000000000000E+001  0.503786169428539E+000  0.114232807406767E+001  0.104075326495528E+001
  0.100000000000000E+001  0.482190596355241E+000  0.685917884636339E+000  0.111973560972638E+001
  0.100000000000000E+001 -0.585257630132226E+000  0.949357881144635E+000  0.121692645218867E+001
  0.100000000000000E+001 -0.409779656321084E+000  0.111193878476780E+001  0.920438593906890E+000
  0.100000000000000E+001 -0.177863075531768E+001  0.858742158663300E+000  0.810639641512185E+000
  0.100000000000000E+001 -0.180479053218494E+001  0.830348206756640E+000  0.118012935565229E+001
  0.100000000000000E+001 -0.194803801525165E+001  0.933321194025436E+000  0.118642741286564E+001
  0.100000000000000E+001 -0.239514087527080E+001  0.775736465900357E+000  0.112630529573986E+001
  0.100000000000000E+001 -0.240527790194529E+001  0.103384147150958E+001  0.111566997828422E+001
  0.100000000000000E+001 -0.263664443784868E+001  0.780957148458147E+000  0.112168901967668E+001
  0.100000000000000E+001 -0.268111357218339E+001  0.735656966381649E+000  0.103906525273000E+001
  0.100000000000000E+001 -0.270032547469724E+001  0.731650903905905E+000  0.100109063692568E+001
  0.100000000000000E+001 -0.272250439870753E+001  0.984571245293673E+000  0.855194879669340E+000
  0.100000000000000E+001 -0.275991263941514E+001  0.106540314744585E+001  0.980288713577536E+000
  0.100000000000000E+001 -0.294887895986924E+001  0.102148419511210E+001  0.894649807162744E+000
  0.100000000000000E+001 -0.295445804982869E+001  0.756204111972338E+000  0.928417708337718E+000
  0.100000000000000E+001 -0.317413044089941E+001  0.746404400215759E+000  0.996401429519916E+000
  0.100000000000000E+001 -0.320858048719685E+001  0.102600520221588E+001  0.108592291041476E+001
  0.100000000000000E+001 -0.321740613718815E+001  0.822200860491570E+000  0.869160040845920E+000
  0.100000000000000E+001 -0.327500990275199E+001  0.777183710319493E+000  0.108667134678294E+001
  0.100000000000000E+001 -0.341824212374877E+001  0.103159786447165E+001  0.937988362216520E+000
  0.100000000000000E+001 -0.353363752210683E+001  0.102589958476862E+001  0.106448861702344E+001
  0.100000000000000E+001 -0.354996745125260E+001  0.103536052891813E+001  0.103903479332662E+001
  0.100000000000000E+001 -0.366375281947695E+001  0.102840408200116E+001  0.952875421251279E+000
  0.100000000000000E+001 -0.371002355790215E+001  0.787400585478057E+000  0.107461232245326E+001
  0.100000000000000E+001 -0.381057229716896E+001  0.836527394735787E+000  0.111494071428723E+001
  0.100000000000000E+001 -0.382064718814533E+001  0.837924444751835E+000  0.111526498145904E+001
  0.100000000000000E+001 -0.388883906318836E+001  0.913043077443602E+000  0.112762190207990E+001
  0.100000000000000E+001 -0.389721131639248E+001  0.950138910746193E+000  0.882272183164575E+000
  0.100000000000000E+001 -0.409131182092214E+001  0.836778999656858E+000  0.897843995291682E+000
  0.100000000000000E+001 -0.410583533626461E+001  0.100971210305833E+001  0.104744221191563E+001
  0.100000000000000E+001 -0.413022818773509E+001  0.821450396812898E+000  0.911267027811682E+000
  0.100000000000000E+001 -0.419652808438308E+001  0.968805124747738E+000  0.907013784052730E+000
  0.100000000000000E+001 -0.424221367601222E+001  0.985803530527893E+000  0.107457532956951E+001
  0.100000000000000E+001 -0.424927496330253E+001  0.957930464624059E+000  0.902546554565833E+000
  0.100000000000000E+001 -0.427092140693670E+001  0.101167747672548E+001  0.101283703682462E+001
  0.100000000000000E+001 -0.427245870603333E+001  0.992640296335736E+000  0.936446472748803E+000
  0.100000000000000E+001 -0.429640598452436E+001  0.799350652228206E+000  0.104745009314473E+001
  0.100000000000000E+001 -0.429677058326496E+001  0.931041165912151E+000  0.893160856528426E+000
  0.100000000000000E+001 -0.430183079218748E+001  0.991806662014750E+000  0.937557296027401E+000
  0.100000000000000E+001 -0.431690515331728E+001  0.929666800369647E+000  0.110628589659136E+001
  0.100000000000000E+001 -0.432397364910698E+001  0.100491138357619E+001  0.966837860493705E+000
  0.100000000000000E+001 -0.435118433501184E+001  0.816598977444372E+000  0.930155254470130E+000
  0.100000000000000E+001 -0.435243148081735E+001  0.100386594010584E+001  0.967853241697918E+000
  0.100000000000000E+001 -0.436715626009383E+001  0.998581145725201E+000  0.955772661190806E+000
  0.100000000000000E+001 -0.437062864016382E+001  0.934092804417247E+000  0.897641528553304E+000
  0.100000000000000E+001 -0.437344694139244E+001  0.998988603992871E+000  0.104257521881556E+001
  0.100000000000000E+001 -0.443700897322842E+001  0.891354932191696E+000  0.895591976065627E+000
  0.100000000000000E+001 -0.444764397478718E+001  0.986409181981992E+000  0.941665825514488E+000
  0.100000000000000E+001 -0.444862651716341E+001  0.802127784143422E+000  0.103578584333594E+001
  0.100000000000000E+001 -0.446129237833011E+001  0.995748465421284E+000  0.960437770819339E+000
  0.100000000000000E+001 -0.450064475523096E+001  0.810326949970698E+000  0.952060883010764E+000
  0.100000000000000E+001 -0.450422717700540E+001  0.833577094631961E+000  0.923243317789332E+000
  0.100000000000000E+001 -0.454608220014761E+001  0.913625841173627E+000  0.901514585636197E+000
  0.100000000000000E+001 -0.458953997743212E+001  0.954120666601031E+000  0.919244714947480E+000
  0.100000000000000E+001 -0.466731260887927E+001  0.880055668817905E+000  0.909033193106051E+000
  0.100000000000000E+001 -0.467750364676646E+001  0.971400974385086E+000  0.105892984626461E+001
  0.100000000000000E+001 -0.469246057493822E+001  0.910161217983478E+000  0.908796895385711E+000
  0.100000000000000E+001 -0.471698746352102E+001  0.978752279683202E+000  0.955569535214410E+000
  0.100000000000000E+001 -0.472622576033754E+001  0.977103946895592E+000  0.104624485010595E+001
  0.100000000000000E+001 -0.473158788475283E+001  0.888330902529960E+000  0.108884714800308E+001
  0.100000000000000E+001 -0.474878135462493E+001  0.814312452114020E+000  0.977291125465724E+000
  0.100000000000000E+001 -0.482197036155155E+001  0.906433339882994E+000  0.108417108122158E+001
  0.100000000000000E+001 -0.483952444561933E+001  0.981414958703550E+000  0.101795055527500E+001
  0.100000000000000E+001 -0.488758917159185E+001  0.856511278933373E+000  0.932333894632205E+000
  0.100000000000000E+001 -0.491697996357617E+001  0.926353431528781E+000  0.107403755400114E+001
  0.100000000000000E+001 -0.494091147330765E+001  0.976981613492618E+000  0.996747486729993E+000
  0.100000000000000E+001 -0.494688686292707E+001  0.973818508822289E+000  0.102068384677853E+001
  0.100000000000000E+001 -0.496223590683495E+001  0.943584344542988E+000  0.106183775734924E+001
  0.100000000000000E+001 -0.498270801389856E+001  0.833184651179093E+000  0.103247293356828E+001
  0.100000000000000E+001 -0.498896036753338E+001  0.851456787731184E+000  0.105567598457922E+001
  0.100000000000000E+001 -0.500932454715800E+001  0.892830893449737E+000  0.107211948995428E+001
  0.100000000000000E+001 -0.502184077161464E+001  0.971265646553799E+000  0.100697583663065E+001
  0.100000000000000E+001 -0.502267787795897E+001  0.872970296956883E+000  0.933754405690747E+000
  0.100000000000000E+001 -0.504325453023793E+001  0.917724896045609E+000  0.106781699749597E+001
  0.100000000000000E+001 -0.505254427049800E+001  0.968177666758245E+000  0.986876530870363E+000
  0.100000000000000E+001 -0.505390884953991E+001  0.841891103905674E+000  0.103781706084394E+001
  0.100000000000000E+001 -0.506026995870453E+001  0.938639999223293E+000  0.942990235357848E+000
  0.100000000000000E+001 -0.507345446395264E+001  0.881003769279270E+000  0.106519555943815E+001
  0.100000000000000E+001 -0.515158624728227E+001  0.902950208906150E+000  0.938183366428102E+000
  0.100000000000000E+001 -0.516398472433588E+001  0.888076958430818E+000  0.940301957921925E+000
  0.100000000000000E+001 -0.517394953060743E+001  0.946532762851946E+000  0.103796141550134E+001
  0.100000000000000E+001 -0.521082834637116E+001  0.956865144453849E+000  0.998016499532111E+000
  0.100000000000000E+001 -0.522078851751217E+001  0.849024323949708E+000  0.102322622801208E+001
  0.100000000000000E+001 -0.526228284182852E+001  0.940135765708810E+000  0.103334897725954E+001
  0.100000000000000E+001 -0.529092540484486E+001  0.884298069675447E+000  0.953201947399392E+000
  0.100000000000000E+001 -0.531130102063248E+001  0.856214135920909E+000  0.101776654980849E+001
  0.100000000000000E+001 -0.531545175762700E+001  0.942385245970882E+000  0.101987047405808E+001
  0.100000000000000E+001 -0.532262885424544E+001  0.854194160306606E+000  0.995374105588797E+000
  0.100000000000000E+001 -0.534110819388374E+001  0.925659751145270E+000  0.964273852378121E+000
  0.100000000000000E+001 -0.534378075607178E+001  0.920790921407276E+000  0.103841604375640E+001
  0.100000000000000E+001 -0.535081412802589E+001  0.925229477980833E+000  0.103465825373747E+001
  0.100000000000000E+001 -0.538452615445071E+001  0.892751203619113E+000  0.103805332834453E+001
  0.100000000000000E+001 -0.540619116820953E+001  0.882023986931937E+000  0.103099699442940E+001
  0.100000000000000E+001 -0.542415676914582E+001  0.897627967061916E+000  0.966853836423239E+000
  0.100000000000000E+001 -0.546733675428993E+001  0.901549637717130E+000  0.102588616371001E+001
  0.100000000000000E+001 -0.549097030611037E+001  0.914085402108668E+000  0.101541949343877E+001
  0.100000000000000E+001 -0.549540970116204E+001  0.891672180564178E+000  0.101795585707781E+001
  0.100000000000000E+001 -0.552765024397404E+001  0.893206723202172E+000  0.100481781508390E+001
