  0.111598473698766E+000  0.340661997141457E+002 -0.711007013889294E+000 -0.139899067502961E+001  0.447962126368900E+001 -0.194409675413985E+002 -0.142128230299708E+001  0.105861423145054E+001
  0.111598473698766E+000  0.312499135188929E+002  0.141773716980612E+002  0.116226754843958E+002 -0.123150729171988E+002 -0.959713156176656E+001  0.103607295256131E+002  0.240329390717918E+000
  0.111598473698766E+000  0.312561469619979E+002  0.143736373255592E+002  0.129888953327802E+002  0.673127142171716E+001  0.582969011637365E+001  0.474067432266163E+001  0.935311912038834E-001
  0.111598473698766E+000  0.379441346359965E+002 -0.141961234182606E+001 -0.283442201766364E+001  0.525268383965130E+001 -0.154804310776943E+002  0.150437723549281E+002  0.396659180448099E+001
  0.111598473698766E+000  0.343137232037226E+002  0.551710934340400E+001 -0.180537273889373E+002  0.878700331089058E+001  0.669244092104629E+001  0.172029584658557E+002  0.359664418142823E+001
  0.111598473698766E+000  0.382108473925505E+002 -0.647185002733371E+001 -0.171276058864467E+002  0.557638287074115E+001 -0.689576412465551E+001  0.241110422466761E+002  0.198804922494750E+001
  0.111598473698766E+000  0.312659324889623E+002  0.452261928421461E+000 -0.110650478913227E+002  0.459386321314307E+001 -0.132388369232214E+002  0.327189471547388E+001  0.396257121841055E+001
  0.111598473698766E+000  0.312675897781098E+002  0.275314955595552E+001 -0.128783519943743E+002  0.127170349524734E+002 -0.480427769472435E+001  0.333825973932517E+001 -0.206277584030746E+001
  0.111598473698766E+000  0.482350078218195E+002 -0.864307539644317E+001  0.142727308540187E+002 -0.573800326722477E+001  0.178731434491321E+002  0.869673899187193E+001 -0.342223341328230E+001
  0.111598473698766E+000  0.343385731372416E+002  0.126897962025351E+002 -0.106239016667769E+002  0.439155386703522E+001  0.562067317876858E+001  0.124766178621360E+002  0.112451047955556E+002
  0.111598473698766E+000  0.384432340024476E+002 -0.271224478606793E+001 -0.162674514869301E+002  0.293652326490589E+001 -0.567566018901931E+001  0.190607021848486E+002  0.313410278318075E+001
  0.111598473698766E+000  0.343592233560612E+002  0.185767021239395E+002  0.100775083879706E+002  0.367440188470760E+001 -0.415781334240232E+001  0.143163791094531E+001 -0.530307957941798E+001
  0.111598473698766E+000  0.343988616666619E+002  0.150791135632400E+002  0.424172055749111E+000  0.992766771339473E+001  0.937831811902434E+001  0.658839353937654E+001 -0.609225239329805E+001
  0.111598473698766E+000  0.312937978174899E+002  0.181933500370686E+001  0.904475629261771E+001  0.122072886625383E+002 -0.117888553758850E+001  0.856835786185833E+000 -0.622330078229102E+001
  0.111598473698766E+000  0.388208518187137E+002 -0.186923020085226E+002 -0.567754355655410E-001  0.950535755399155E+000  0.137892463227809E+002 -0.293958640846706E+001 -0.577146528667912E+001
  0.111598473698766E+000  0.390199432220953E+002  0.735103669568357E+001 -0.141394340246459E+002  0.774916393690468E+000 -0.459740628171629E+001  0.113452768239508E+002  0.151196298750743E+002
  0.111598473698766E+000  0.417672111713425E+002  0.107192751046692E+002 -0.462729766184705E+001  0.801413426870837E+001  0.880764771588595E+001  0.112692061262814E+002 -0.103958751026645E+001
  0.111598473698766E+000  0.313569156943933E+002  0.275758547097024E+001 -0.170122262996277E+002  0.651204184250137E+001 -0.118945619395606E+001  0.192133355087512E+002  0.784236239004621E+001
  0.111598473698766E+000  0.313882475505144E+002  0.454772842419748E+001 -0.366384405957617E+001  0.171844476043542E+001 -0.830447450523483E+001  0.110761304451111E+002  0.415757914992147E+001
  0.111598473698766E+000  0.416373047966810E+002 -0.849773971270589E+001  0.117395854223631E+002 -0.914351214825468E+001  0.990131123659607E+001  0.900503820043217E+001  0.296634443690753E+000
  0.111598473698766E+000  0.415294908845310E+002 -0.176012903666570E+002  0.504284283990643E+000 -0.143775283433919E+002  0.506438806163102E+001 -0.988743549624049E+001 -0.227664702995519E+001
  0.111598473698766E+000  0.392051141141509E+002  0.842549005363452E+001 -0.549724595360811E+000  0.512295310855322E+001 -0.794965374035527E+001 -0.179809281323752E+001  0.576883485593607E+001
  0.111598473698766E+000  0.413378548338011E+002 -0.560326802799545E+001  0.163920946990709E+001  0.366175712681482E+001 -0.121968748797852E+002 -0.169674455920500E+000 -0.113554334515553E+002
  0.111598473698766E+000  0.313915486894531E+002  0.524680106311172E+001  0.680364330938200E+000  0.650387836256343E+001 -0.765016728442306E+001  0.269256478057102E+001 -0.248467353055797E+001
  0.111598473698766E+000  0.344728275701308E+002  0.129086965804652E+002  0.414073701197327E+001  0.523803183325399E+001  0.235783641834112E+001  0.492695453649746E+001 -0.105932502439465E+002
  0.111598473698766E+000  0.346427459860142E+002  0.661041290131801E+001 -0.154958534139564E+002  0.543407968507086E+001 -0.181773680752933E+001  0.377353146842970E+001  0.526799040735546E+001
  0.111598473698766E+000  0.348521954795772E+002  0.549964139242577E+001 -0.128835264851532E+001  0.185397566641668E+001 -0.935460276288990E+001  0.209386994542264E+001  0.537834537981167E+001
  0.111598473698766E+000  0.399193093080673E+002 -0.301392690931664E+000  0.180408852841265E+002 -0.965735680828145E+001  0.724566668187070E+001  0.701126318211245E+001 -0.208476744801131E+001
  0.111598473698766E+000  0.313923692483096E+002  0.935168311512864E+001 -0.109134409757324E+002  0.723890941073379E+001  0.226791417459862E+001  0.322154329964266E+001  0.283016269017882E+001
  0.111598473698766E+000  0.402176899160028E+002 -0.116671459068812E+002  0.762200808988809E+001 -0.510308819495756E+001 -0.895156078828911E-001 -0.136443897325090E+002 -0.327356631476732E+001
  0.111598473698766E+000  0.349358599688882E+002 -0.298202964210232E+001 -0.813581724374809E+001  0.104040904208474E+002 -0.992523466802247E+001  0.657938827864516E+001 -0.623265862829544E+001
  0.111598473698766E+000  0.349986035437206E+002  0.136214697134102E+002 -0.457518569250452E+001  0.615326111937218E+001 -0.434028444792894E+001  0.161651008945507E+001  0.785854452042196E+001
  0.111598473698766E+000  0.350544326726104E+002  0.665339017496795E+001 -0.257615453758301E+001  0.956059484185320E+001 -0.123403840378912E+002 -0.586137322065850E+001  0.225698962980598E+001
  0.111598473698766E+000  0.316776222258287E+002  0.540952807254840E+001 -0.754359827511263E+001  0.516241136983824E+001 -0.102891595522560E+002 -0.162226819235887E+001  0.592681907446938E+001
  0.111598473698766E+000  0.377298141259195E+002  0.176610400470823E+002  0.618412362023774E+001  0.558295240578574E+001 -0.833737103171706E+001 -0.268554990077957E+001 -0.679115323625528E+001
  0.111598473698766E+000  0.376717031752016E+002  0.194274217126803E+001 -0.137862862334836E+002  0.928960471424959E+001 -0.427819332163243E+001  0.185365874154255E+002  0.622874855307129E+001
  0.111598473698766E+000  0.350725441104414E+002  0.497610845156510E+001  0.383161794534847E+001  0.203005774703690E+001 -0.144216963212735E+002 -0.446441133117510E-001  0.330213665076525E+001
  0.111598473698766E+000  0.351297250368221E+002 -0.207381410439606E+001 -0.106199834871689E+002  0.432921857822281E+001 -0.489175583881124E+001  0.247455452272424E+002  0.438690921213562E+001
  0.111598473698766E+000  0.352179697173434E+002  0.933781812464175E+001  0.351463710762356E+001  0.112988225146053E+002  0.806308063642001E+001  0.423973793380799E+001 -0.639944592732015E+001
  0.111598473698766E+000  0.372706430559180E+002  0.536967665478112E+001 -0.605898923448482E+000  0.576299728641196E+000 -0.142391740094242E+002  0.564214116594975E+000  0.792064015644371E+001
  0.111598473698766E+000  0.316852174871460E+002  0.589316567545693E+001 -0.813539037858439E+001  0.124180903358803E+002 -0.357661271787730E+001  0.282965799846484E+001 -0.201565931760527E+001
  0.111598473698766E+000  0.354013429477565E+002  0.171591248006683E+002 -0.351231639049548E+000  0.100447436319087E+002  0.379231951002046E+001  0.183269687569351E+001 -0.121680398549392E+002
  0.111598473698766E+000  0.370173957444499E+002  0.186634798744493E+002  0.586992055012093E+001  0.857204597775752E+000  0.170696488516452E+001  0.631681374909338E+001 -0.370349986749863E+001
  0.111598473698766E+000  0.354102140440066E+002  0.124402370753326E+002  0.538044741965325E+001  0.191116314948092E+001 -0.407934310656381E+001  0.449715983433538E+001 -0.267489879560775E+001
  0.111598473698766E+000  0.354575820929796E+002  0.776616956313705E+001  0.438168656447069E+001 -0.932937221492783E+001 -0.163475033092188E+002  0.122147807515655E+002 -0.215504543206395E+001
  0.111598473698766E+000  0.355991092075020E+002  0.681296777281592E+000 -0.242761650985537E+001  0.645822264728326E+001 -0.181195764418810E+002  0.484298063635769E+000 -0.142758674828899E+001
  0.111598473698766E+000  0.368293349923654E+002  0.795390711259817E+001 -0.325031928091756E+001  0.198263814892804E+001 -0.156168952893396E+001  0.442179156712272E+001  0.246913132766813E+001
  0.111598473698766E+000  0.367922552321881E+002 -0.497524434317663E+001 -0.136197910446820E+002  0.794010886781616E+001 -0.123074558881520E+002  0.511263361807645E+001  0.220111149712022E+000
  0.111598473698766E+000  0.356761924819076E+002  0.451705312115139E+001  0.843351625826106E+001  0.699085369617901E+001 -0.111765081155846E+002 -0.238763707906154E+001 -0.850685123036105E+001
  0.111598473698766E+000  0.366501719159095E+002  0.892660981673790E+001 -0.896469613821744E+001  0.266148314092758E+001  0.243358799342995E+001  0.223115229059468E+002  0.123238780486637E+002
  0.111598473698766E+000  0.317380328989711E+002  0.478800360990130E+001  0.154881093858846E+002  0.127601847577351E+002 -0.498370052049805E+001 -0.532572166688094E+001 -0.688989468621893E+001
  0.111598473698766E+000  0.364148724024245E+002  0.104505837301797E+002 -0.109654450452263E+001  0.197989524333823E+001 -0.876303412714442E+000  0.103712671027326E+002  0.352730666544559E+001
  0.111598473698766E+000  0.361368242391129E+002  0.771439096647653E+001 -0.111149999466698E+002  0.759224569457907E+001 -0.884976141861349E+001  0.344444426105512E+001  0.978566156013211E+001
  0.111598473698766E+000  0.361258231675379E+002 -0.195240598714053E+001 -0.970968782434544E+001  0.109349667027588E+002 -0.612058585691673E+001  0.135636886026236E+002 -0.389684485857896E+001
  0.111598473698766E+000  0.357854441557842E+002  0.859592997189780E+001  0.138478809904064E+002  0.263551678533101E+001 -0.478646889834473E+001  0.535930972361597E+001  0.237483535493832E+001
  0.111598473698766E+000  0.359969839477870E+002  0.125219275218764E+002 -0.914965540216471E+000  0.472898610222846E+001 -0.693316057974986E+001  0.286932719435423E+001  0.925526337906920E+001
  0.111598473698766E+000  0.359380311065502E+002  0.449124024102246E+001  0.839892704782269E+001 -0.189185986075016E+001 -0.870100744282293E+001  0.269537758320094E+001 -0.341813488588112E+001
  0.111598473698766E+000  0.359020810075149E+002 -0.604063262908893E+001 -0.113033216499413E+002  0.563830256167868E+001 -0.136276949414360E+002  0.181600811160478E+002  0.105113633310738E+001
  0.111598473698766E+000  0.358645267602978E+002 -0.493991245877034E+001 -0.141010487184641E+002  0.229311803882635E+001 -0.142194363264361E+002  0.161109326373866E+002  0.670214955181313E+001
  0.111598473698766E+000  0.340657895562173E+002 -0.487434451511501E+000 -0.128823512090506E+002  0.974209523487215E+001 -0.818697913501378E+001  0.130011519575675E+002 -0.115173090651641E+000
  0.111598473698766E+000  0.340260026728680E+002  0.142407528168492E+002  0.133345091001560E+002  0.271020496343343E+001 -0.666599633074398E+001 -0.109348844131153E+001 -0.536154330276422E+001
  0.111598473698766E+000  0.317597022205929E+002  0.876017981764005E+001  0.113448220422468E+002  0.525798476372903E+001 -0.960821726768598E+001 -0.106689948619214E+001 -0.612934971767799E+001
  0.111598473698766E+000  0.317733356334602E+002  0.602289090362827E+000  0.873238253354265E+001  0.699961468350480E+001 -0.310977558356178E+001  0.263493280907928E+001 -0.101806472349589E+002
  0.111598473698766E+000  0.339725036780404E+002 -0.656760142222107E+001 -0.901157886369030E+001  0.473333495413596E+001 -0.162052438113086E+002  0.137298999357788E+002  0.128131927788931E+001
  0.111598473698766E+000  0.339713199524840E+002  0.865574788711795E+001 -0.125925153830309E+002  0.307614994100473E+001  0.662157377835325E+001  0.216753359850772E+002  0.868679171889708E+001
  0.111598473698766E+000  0.339586544534459E+002  0.189608509244441E+001  0.119536384087959E+002 -0.408497746179407E+000 -0.109475695755041E+001  0.227379325592349E+001 -0.112198264079206E+002
  0.111598473698766E+000  0.335359341511306E+002  0.951293598143012E+001  0.424348727187424E+001  0.911783546514640E+001 -0.425544468039820E+001 -0.105825736598380E+001 -0.154429956167549E+002
  0.111598473698766E+000  0.317781814565150E+002  0.368841763135283E+001  0.133657067748006E+002  0.736626831256504E+001 -0.502025667775994E+001 -0.185543845712618E+001 -0.656070348553304E+001
  0.111598473698766E+000  0.334567828492342E+002  0.355787928412344E+001 -0.104276100797541E+002  0.498775864813697E+001 -0.143195635201422E+001  0.963454070806791E+001  0.447864586159816E+001
  0.111598473698766E+000  0.334310005817297E+002  0.109507825441016E+002  0.153483134229088E+002  0.578982238118634E+001 -0.329313319269205E+001  0.229355979640170E+001  0.222168832947399E+001
  0.111598473698766E+000  0.333476854285473E+002 -0.319530160577900E+001 -0.157805399728962E+002  0.794297658450997E+001 -0.644178998193953E+001  0.151568484288961E+002 -0.513386777384049E+000
  0.111598473698766E+000  0.333200919686617E+002  0.113689057338809E+002  0.204903694618012E+001 -0.920495778367743E+001 -0.450314488849159E+001  0.136068994798869E+002  0.220440014752660E+001
  0.111598473698766E+000  0.318424640152707E+002  0.537617483621173E+001  0.118956267989780E+002 -0.331739886821828E+001 -0.804874196720276E+001  0.147888142354765E+002 -0.117387120546712E+002
  0.111598473698766E+000  0.333000361175485E+002  0.177165811562279E+002  0.103721641357713E+002  0.199493949655888E+001 -0.153067781502836E+001  0.599545985072505E+001  0.172718963011292E+000
  0.111598473698766E+000  0.331696981170444E+002  0.114696653699983E+002  0.426706959931141E+001  0.138546125496612E+002 -0.267690603712200E+000 -0.174205139660134E+001 -0.102475990070521E+002
  0.111598473698766E+000  0.331556778683914E+002 -0.895756895390761E+000  0.893628026312137E+001  0.146705724848692E+002  0.724617421585259E+001  0.329593346266933E+001 -0.668475998314319E+001
  0.111598473698766E+000  0.330347522218545E+002  0.950012946351617E+001  0.147839250132715E+001 -0.856753774574367E+001 -0.679335889066324E+001  0.123313886384465E+002 -0.765655379908669E+000
  0.111598473698766E+000  0.330330426615780E+002  0.738059366204238E+001  0.581529160519111E+000  0.318974013705065E+001 -0.573788357657117E+001  0.133213280801880E+002  0.622066014523416E+001
  0.111598473698766E+000  0.329859087733998E+002  0.810780288757160E+001  0.858299118164766E+001  0.804399664538576E+001  0.755382303648954E+001  0.728062179783151E+001  0.159552701671306E+001
  0.111598473698766E+000  0.329787026388794E+002  0.281713834924599E+001  0.899590735978704E+001 -0.218025026877330E+001 -0.268498147682910E+001  0.567396433901126E+001 -0.100529158175268E+002
  0.111598473698766E+000  0.328739182774892E+002  0.967410616673210E+001 -0.554570656785395E+001  0.420529479172163E+001  0.109377882323540E+001  0.108454794181000E+002  0.795110518498457E+001
  0.111598473698766E+000  0.328275160139880E+002  0.149422168761826E+002  0.864589842130847E-001  0.803386712517206E+001 -0.183180586819623E+001  0.827771571601232E+000 -0.123433292461339E+002
  0.111598473698766E+000  0.318775105352660E+002  0.163113865994870E+002  0.386736373297345E+001  0.280393186315505E+001 -0.168020574002006E+001  0.595649752160348E+001 -0.193886342810187E+001
  0.111598473698766E+000  0.327974132244141E+002  0.213915418344630E+002  0.820616829081676E+001  0.578390534030652E+001  0.242213670467283E+001  0.301457374117111E+001 -0.632503519954195E+000
  0.111598473698766E+000  0.327708193079033E+002  0.716361541711861E+001 -0.139171785231640E+001 -0.654296615385931E+001 -0.585980309031785E+001  0.128170246894113E+002 -0.164849562553363E+001
  0.111598473698766E+000  0.326782663630605E+002  0.487851856761270E+001  0.931000869758445E+001  0.128224953552755E+002 -0.568635110329880E+001 -0.437390768894379E+001 -0.736109234817551E+001
  0.111598473698766E+000  0.319163588087577E+002  0.510123883134521E+001 -0.833006444269894E+001  0.673245614757032E+001 -0.570827582033735E+001 -0.195390973808621E+001  0.490843110389775E+000
  0.111598473698766E+000  0.326154507865322E+002  0.163067755949630E+000  0.140026179574817E+002  0.488777235142913E+001 -0.607926475941105E+001  0.187855490854130E+001 -0.606561120730364E+001
  0.111598473698766E+000  0.326120148105400E+002 -0.165159597853676E+001 -0.585429997361447E+001  0.307193688459540E+001 -0.182543072398415E+002  0.542674347788889E+001  0.444105456478198E+001
  0.111598473698766E+000  0.324750998081810E+002  0.107527562801337E+002  0.112491870025202E+002  0.556912070120057E+001 -0.237996397379302E+001  0.878028723886999E-001 -0.467131569558569E+001
  0.111598473698766E+000  0.324640496176261E+002  0.451150417173338E+001 -0.823097434215009E+001  0.583526612394382E+001 -0.455641882106212E+001  0.490314182996577E+001  0.459040802963962E+001
  0.111598473698766E+000  0.323553570052503E+002  0.328739661137737E+001 -0.931294555947204E+001 -0.240042202430441E+001 -0.546384673083417E+001 -0.724323908129822E+001  0.940817184359752E+001
  0.111598473698766E+000  0.323371461479819E+002  0.177185225473632E+002  0.464447261786858E+001  0.156992247550356E+001 -0.439653031939531E+001  0.481876837070683E+001 -0.385021841195396E+001
  0.111598473698766E+000  0.322889597188290E+002  0.430225681198475E+000 -0.929629945422969E+001  0.658052224905167E+001 -0.140431816959721E+002  0.974805246739905E+001  0.529081558930632E+001
  0.111598473698766E+000  0.322707537074507E+002  0.571448906673911E+000  0.681437196974935E+001  0.123069129060430E+002  0.460801338501695E+001  0.476563865413291E+001 -0.668852253537921E+001
  0.111598473698766E+000  0.322480650054295E+002  0.315246969982049E+001  0.104648696308081E+002 -0.199455356063825E+001 -0.626559900114940E+001  0.743929040027557E+001 -0.983370052921886E+001
  0.111598473698766E+000  0.319261068702193E+002  0.715083929597064E+000 -0.132842744353676E+002  0.864954747049008E+001 -0.114786078035050E+002  0.772761214816343E+001  0.317597496189119E+001
  0.111598473698766E+000  0.319449113111573E+002  0.188687157811258E+002  0.479631423532384E+001  0.383899238178979E+001  0.333401636037761E+001  0.814094502609468E+001 -0.143199056057132E+001
  0.111598473698766E+000  0.321419065970953E+002  0.588651575438431E+001  0.900277750447970E+001  0.652241031954213E+001 -0.827575471330387E+001 -0.527564809230281E+000 -0.102247019042761E+002
  0.111598473698766E+000  0.321414662387711E+002 -0.688568304520011E+000 -0.121088678099420E+002  0.589850990621420E+001 -0.144763892108254E+002  0.551217192929973E+001  0.350306528547055E+001
  0.111598473698766E+000  0.319460226501373E+002  0.769595773680875E+001 -0.922228984897042E+001  0.747822132170707E+001 -0.878160618197425E+001 -0.274275753652952E+001  0.385633236900063E+001
  0.111598473698766E+000  0.321266635834060E+002  0.654566272675321E+001 -0.640743246549307E+001  0.487148757932458E+001 -0.111832450742558E+002  0.486434431514223E+000  0.473960799515507E+001
  0.111598473698766E+000  0.319662282505824E+002  0.115246573745038E+002 -0.163123919430787E+001  0.731576325274215E+001 -0.447371065859599E+000  0.386544458141314E+001  0.866671765304201E+000
  0.111598473698766E+000  0.320932950120654E+002  0.947994154644560E+001  0.749812562069033E+001  0.965889157407950E+001 -0.716077456509662E+001 -0.500706595100801E+001 -0.153415812042842E+002
  0.111598473698766E+000  0.320309847623019E+002  0.575284640788942E+001  0.625500551611212E+001  0.139664865042952E+002  0.966020054139274E+001  0.447613729608810E+001 -0.467192437122052E+001
  0.111598473698766E+000  0.320233539988483E+002  0.387422624972764E+001 -0.134927636161145E+002  0.119577745893223E+002 -0.129709143233894E+001  0.612718769727979E+001  0.310593889643084E+000
  0.111598473698766E+000  0.312365343927141E+002  0.717765362010220E+001  0.305342182816957E+001  0.746105749254288E+001 -0.574847675953342E+001  0.326703800273119E+000 -0.116329312053453E+002
  0.111598473698766E+000  0.311971624332193E+002  0.111206600129143E+002  0.491750410865679E+001  0.890239578554883E+001 -0.760003183392644E+001 -0.364410147488560E+001 -0.121148628841584E+002
  0.111598473698766E+000  0.311844541675543E+002  0.195266299026697E+002  0.751435524291631E+001  0.311221549566003E+001 -0.269336317109738E+001  0.372739396826251E+001 -0.242764617636562E+001
  0.111598473698766E+000  0.310657342748334E+002  0.934444037682066E+001  0.973519996617044E+001  0.665490527383683E+001 -0.613519074933973E+001 -0.153378811263835E+000 -0.268305754148743E+001
  0.111598473698766E+000  0.310420296583300E+002  0.781024991100531E+001 -0.130733969787952E+002  0.598172787306954E+001  0.509076857451383E+000  0.160389154313723E+002  0.970238778232418E+001
  0.111598473698766E+000  0.309402275419878E+002 -0.178419764625497E+001 -0.166009494213597E+002  0.545672153787887E+001 -0.765928141274158E+001  0.116695935249866E+002  0.412121869196467E+001
  0.111598473698766E+000  0.309178884306287E+002  0.237195619623419E+001 -0.900468754807096E+001  0.736346137680616E+001 -0.981417485681960E+001  0.618645430759720E+001  0.533686388231874E+001
  0.111598473698766E+000  0.309117204488447E+002  0.172291220293869E+002  0.911822058502943E+001  0.364154669856293E+001  0.127234164837506E+001  0.376965678048301E+001 -0.416110934291617E+001
  0.111598473698766E+000  0.309071568860291E+002  0.133529533127294E+002 -0.562413081125829E+001  0.692242258476362E+001  0.110434390829393E+000  0.159828769200227E+001  0.618941774817595E+001
  0.111598473698766E+000  0.308577947252324E+002  0.785622642781721E+001  0.346285117588965E+001  0.715255776417804E+001 -0.368271508767592E+001  0.588432343830625E+000 -0.128868162558619E+002
  0.111598473698766E+000  0.308550967631951E+002  0.832078055901182E+001 -0.483830619096814E+001  0.804392891509926E+001 -0.790382791095770E+001 -0.223992001306724E+001  0.438546595772361E+001
  0.111598473698766E+000  0.308333253225724E+002  0.626043335374256E+001  0.935464148439845E+001  0.619950062857403E+001 -0.451898549448448E+000  0.599688908715392E+001 -0.134387251567375E+001
  0.111598473698766E+000  0.308291634897172E+002  0.135462478696158E+002  0.817568429643202E+001  0.842916497209632E+001  0.836139841221370E+001  0.605622456624725E+001  0.107489968321033E+000
  0.111598473698766E+000  0.308250250099098E+002  0.583053801403579E+001 -0.140455307876013E+002  0.109308616914022E+002  0.342797056466342E+000  0.916587693678525E+001  0.105076196328452E+001
  0.111598473698766E+000  0.307929763195584E+002  0.925193865941018E+001  0.134397668796991E+002  0.999407792427014E+000  0.363676297523752E+001  0.106687216402181E+002  0.540496066336999E+001
  0.111598473698766E+000  0.307816272615100E+002  0.841551010845656E+001  0.834783431366618E+001  0.739893018325174E+001  0.640972723161768E+001  0.622396659888568E+001 -0.536416554963265E+001
  0.111598473698766E+000  0.307547735048063E+002  0.105525447335722E+002  0.715447592277503E+001  0.519468852325714E+001 -0.769823226315378E+000  0.257411714036802E+001 -0.613511983815181E+001
  0.111598473698766E+000  0.307357465184788E+002  0.125160713811519E+002  0.181457405829058E+001  0.919137734599617E+001 -0.209418669505060E+001  0.961165934359176E+000 -0.993254666886371E+001
  0.111598473698766E+000  0.306865983259297E+002  0.438092916170660E+001  0.818975614605790E+001  0.961939278661750E+001 -0.889307679723271E+001 -0.487489850589358E+001 -0.148303568657156E+002
  0.111598473698766E+000  0.306649146327851E+002 -0.295709404494133E+000 -0.147852241935371E+002  0.415168250191186E+001 -0.816712936659607E+001  0.112882088548578E+002  0.681472032509200E+001
  0.111598473698766E+000  0.306182566868118E+002  0.390270983525368E+001 -0.999372836716785E+001  0.623062800620551E+001 -0.841995118460965E+001  0.119034675518430E+002  0.771105742244176E+001
  0.111598473698766E+000  0.305409317760034E+002  0.265103582682473E+001  0.170896616141002E+002  0.867561068255059E+001 -0.436730115707305E+001 -0.110175744876818E+001 -0.415015181073407E+001
  0.111598473698766E+000  0.305378292480343E+002  0.155646715546514E+002  0.532622777657878E+001  0.491002959580428E+001  0.800524838937471E+001  0.903271784184457E+001 -0.191878513037578E+001
  0.111598473698766E+000  0.304690006072909E+002  0.600339476358512E+001 -0.281998111839502E+001  0.112673793546742E+001 -0.775828384183565E+001  0.665257786396031E+001  0.525213770997336E+001
  0.111598473698766E+000  0.304522541752836E+002  0.106875065339949E+002  0.110734129810879E+002  0.108818366432366E+002 -0.607288502229012E+001 -0.593690856560136E+001 -0.104128785724617E+002
  0.111598473698766E+000  0.304049953410939E+002  0.817561396241828E-002 -0.954945598110616E+001  0.350621283909368E+001 -0.454788685129691E+001  0.176853131176052E+002  0.249596501613108E+001
  0.111598473698766E+000  0.303922497000376E+002  0.371309390021771E+001  0.131523729946706E+002  0.842428124843234E+001 -0.136543633890834E+001 -0.302761907972261E+000 -0.774486904350923E+001
  0.111598473698766E+000  0.303912531846195E+002  0.114530358271562E+001 -0.753197328799508E+001  0.269957919134323E+001 -0.122904743062204E+002  0.489980670139265E+001  0.419193064567934E+001
  0.111598473698766E+000  0.303637002891587E+002  0.519927675095075E+001 -0.162877737770838E+002  0.550081474093828E+001  0.192827147132997E+001  0.181582429646394E+002  0.755922010459264E+001
  0.111598473698766E+000  0.303436157289472E+002  0.680275658592873E+000  0.414920463370794E+001  0.259307901593216E+001 -0.182422271762935E+001  0.560138400962907E+001 -0.781034696620847E+001
  0.111598473698766E+000  0.303267572190068E+002  0.335207498574665E+001  0.415629970488545E+001 -0.203835553936874E+001 -0.254290790778528E+001  0.872884311821550E+001 -0.765282858395413E+001
  0.111598473698766E+000  0.303116918896866E+002  0.238647083782695E-001 -0.116740421205961E+002  0.956061711291238E+001 -0.638017302698363E+001  0.132196728586149E+002  0.610894942234758E+000
  0.111598473698766E+000  0.302965664311903E+002  0.909895008976782E+001 -0.117109056398766E+002  0.667978704857103E+001 -0.261838990622564E+001  0.841786818328305E+000  0.656693962633627E+001
  0.111598473698766E+000  0.302602091364571E+002  0.102817401364117E+001 -0.182038623497735E+002  0.811297774899175E+001 -0.168996861044042E+001  0.132315082518163E+002  0.323251578224867E+001
  0.111598473698766E+000  0.301758219143698E+002  0.619477940938470E+001 -0.825402552929128E+001  0.626917718663102E+001 -0.699745141108613E+001 -0.222445173208174E+001  0.318564169680590E+001
  0.111598473698766E+000  0.301636959512728E+002  0.448186372623233E+000  0.528243539853331E+001  0.139925272234317E+002  0.234039944512602E+001  0.542618492962255E+000 -0.105462050724083E+002
  0.111598473698766E+000  0.301578769241409E+002  0.354815270114102E+001 -0.239980577614013E+001  0.605488575212069E+001 -0.101099541240948E+002  0.102025824683094E+002  0.309872991970426E+001
  0.111598473698766E+000  0.301014259694054E+002  0.206744903509147E+002  0.792123942423306E+001  0.406798890633837E+001  0.283770524137055E+001  0.586278408282936E+001  0.986186449311482E+000
  0.111598473698766E+000  0.300453177869899E+002  0.114127975205805E+002  0.107086351343996E+002 -0.104134653884754E+002 -0.844146436085010E+001  0.104179558509504E+002 -0.195185509909022E+001
  0.111598473698766E+000  0.300396999248841E+002  0.440730986078173E+001 -0.115367863558139E+002  0.643227776722986E+001 -0.150904361459370E+001  0.176587836911713E+002  0.467657639507652E+001
  0.111598473698766E+000  0.300298222710692E+002  0.890586353904730E+000 -0.997155833451186E+001  0.617673724817937E+001 -0.672241522107084E+001  0.124220643850533E+002  0.449643601447598E+000
  0.111598473698766E+000  0.299729018025203E+002 -0.308065403888365E+001  0.105344173014103E+002  0.144856678134914E+002 -0.156571879564804E+001 -0.264703872088091E+001 -0.110996394603938E+002
  0.111598473698766E+000  0.299385035767863E+002 -0.370363624259793E+001 -0.103477100637389E+002  0.633077886013151E+001 -0.144497956786201E+002  0.829236054999511E+001  0.968355062831577E+000
  0.111598473698766E+000  0.298774221047180E+002  0.131317582790624E+001 -0.125948593187808E+002  0.502515533978366E+001 -0.372255685060143E+001  0.187665658702062E+002  0.676845090002739E+001
  0.111598473698766E+000  0.298755872908649E+002 -0.195963635445398E+000  0.329496475418133E+001  0.253432647366292E+001 -0.893775751472861E+001  0.690384175290674E+001 -0.747602872170568E+001
  0.111598473698766E+000  0.298754861894601E+002  0.414844293411137E+001  0.750385525359637E+001  0.893557008539122E+001 -0.519005580151028E+001  0.342341277043001E+000 -0.706477543069933E+001
  0.111598473698766E+000  0.298589972906941E+002  0.334462417083268E+001  0.774749637714897E+001 -0.240586385777217E+001 -0.115328673133322E+002  0.138075862233559E+002 -0.100488093502825E+002
  0.111598473698766E+000  0.298577447090814E+002  0.117125330949573E+002  0.619012479027468E+001  0.139502626318595E+002  0.600474386665129E+001  0.102328026939193E+001 -0.645949728658363E+001
  0.111598473698766E+000  0.298266488686582E+002  0.523637497062741E+001 -0.168808676352543E+002  0.828880422639718E+001 -0.300950625330063E+001  0.702214657889949E+001  0.672492751382074E+001
  0.111598473698766E+000  0.298234752063989E+002  0.649108293432112E+001  0.705468010480242E+001 -0.565389127269216E+001 -0.756084254801352E+001  0.140950627817856E+002 -0.789943552461395E+001
  0.111598473698766E+000  0.297959225636384E+002  0.776581472916676E+001  0.108942846887155E+002  0.585265583122149E+001  0.284075669886775E+001  0.489704716267466E+001 -0.874414453321020E+000
  0.111598473698766E+000  0.297876459664563E+002  0.296089762562165E+001  0.138034518418431E+002  0.520441701630209E+001 -0.611588741282172E+001  0.473970085717578E+000 -0.393194544632050E+001
  0.111598473698766E+000  0.297869784024090E+002 -0.114023429573709E+001 -0.187707412384334E+001  0.351560436682476E+000 -0.164769252013085E+002  0.838719586495684E+001 -0.602216138791229E+001
  0.111598473698766E+000  0.297868857353217E+002  0.571374529005364E+000  0.235471648449761E+001  0.104275929023276E+001 -0.871719210219621E+001  0.112878016906207E+002 -0.846892142108041E+001
  0.111598473698766E+000  0.297591441059900E+002  0.150960741246177E+002  0.102118026151344E+002  0.938630697931334E+001  0.734958535689998E-001 -0.142172983831850E+001 -0.535786170380958E+001
  0.111598473698766E+000  0.297247972915562E+002  0.938303513610335E+001 -0.102180466407307E+002  0.950954367295759E+001 -0.319501021180968E+001 -0.178464466272165E+001  0.299000619620168E+001
  0.111598473698766E+000  0.296143236189428E+002  0.145522415977364E+002  0.854360313286849E+001  0.455389184967324E+001 -0.340677814974248E+001  0.891351604416052E+000 -0.856076304659091E+001
  0.111598473698766E+000  0.296032085404898E+002  0.655691362417343E+001 -0.424671862212754E+001  0.441158388709118E+001 -0.250003445859587E+001  0.134329356572408E+002  0.285682169124834E+001
  0.111598473698766E+000  0.295825602423608E+002 -0.142079971659907E+001  0.292345375805354E+000  0.236610376924638E+001 -0.130161530946594E+002  0.791828062825320E+001 -0.784614914434890E+001
  0.111598473698766E+000  0.295528852126295E+002  0.525358458324438E+001  0.715058658492240E+001  0.658564191638585E+001  0.533586924445494E+000  0.635601763283982E+001 -0.251933535147922E+001
  0.111598473698766E+000  0.295102590622239E+002  0.164130626837540E+001  0.456598899320353E+001 -0.744246942373003E+000 -0.101430735275865E+002  0.128115776331031E+002 -0.101543652268825E+002
  0.111598473698766E+000  0.295078532481848E+002  0.699151958288551E+001  0.211108490698787E+001  0.895338682352913E+001 -0.201192270884935E+001  0.154866706358267E+001 -0.117739531497013E+002
  0.111598473698766E+000  0.294465353766311E+002  0.178123751162312E+001 -0.774157986012397E+001  0.949892192112775E+001 -0.751821346003907E+001  0.424308927972022E+001 -0.316015082950140E+001
  0.111598473698766E+000  0.293809117560885E+002 -0.166175789484337E+001 -0.614530243695756E+001  0.726324169575998E+001 -0.128555082252945E+002  0.858306309603090E+001 -0.102355052273829E+001
  0.111598473698766E+000  0.293644708881564E+002  0.113494334241472E+002  0.131090578799579E+002  0.630890695490136E+001  0.820100687375174E+000  0.396301375555829E+001  0.376412575805739E+001
  0.111598473698766E+000  0.293489996797757E+002  0.536586138531568E+000  0.584529808602767E+001 -0.154013463515082E+001 -0.118719686565548E+002  0.309935473872957E+001 -0.844765008008400E+001
  0.111598473698766E+000  0.293432484716671E+002  0.736877320987296E+001 -0.395854407711002E+001 -0.815170095563250E+001 -0.142904004529985E+002  0.696610261582221E+001  0.532172678046894E+001
  0.111598473698766E+000  0.293429705940653E+002  0.728601030836665E+001 -0.552361582794848E+001  0.245833345161346E+001 -0.479394321105799E+001  0.578862621504710E+001  0.543609556899628E+001
  0.111598473698766E+000  0.293253838711272E+002  0.836153933785506E+001  0.480986846950697E+001  0.772848125762236E+001 -0.208267186033600E+001  0.324312456341040E+001 -0.763309351976906E+001
  0.111598473698766E+000  0.293072379461214E+002  0.154447319454096E+001  0.126593953927477E+002  0.753815492146820E+001  0.209862540599859E+001  0.499433916810695E+001 -0.105304875273821E+001
  0.111598473698766E+000  0.292741256077487E+002  0.504242801780750E+001 -0.125012935843517E+002  0.458891769846040E+001 -0.602761483964386E+000  0.159396929679666E+002  0.553947416405002E+001
  0.111598473698766E+000  0.292655071806657E+002  0.100460472820441E+002  0.101510090906729E+002 -0.838404725783680E+001 -0.930137493183751E+001  0.107375288939201E+002 -0.392717317233210E+001
  0.111598473698766E+000  0.292396342922677E+002  0.451225799224020E+001  0.777106442296147E+001 -0.318971347547932E+001 -0.107792089967353E+002  0.151031783170428E+002 -0.964760305674426E+001
  0.111598473698766E+000  0.292192568677721E+002  0.339558707267808E+001 -0.782961151487710E+001  0.459923372673520E+001 -0.903877674712268E+001  0.359025532029111E+001  0.210597614645886E+001
  0.111598473698766E+000  0.292097327479425E+002  0.656291778615161E+001 -0.898060724111046E+001  0.589052972395563E+001 -0.346835544514914E+001  0.692291604036883E+001  0.679244400778984E+001
  0.111598473698766E+000  0.291839332700172E+002  0.691860479879604E+001  0.157331945224949E+002  0.795414768622547E+001 -0.581139415782312E+001 -0.225394669516270E+001 -0.220734552688038E+001
  0.111598473698766E+000  0.291814554330640E+002  0.716683106237163E+001  0.519669271103170E+001  0.736734342923206E+001 -0.108882976219998E+001  0.198254779859166E+001 -0.882224291523116E+001
  0.111598473698766E+000  0.291349636771256E+002  0.546811517559517E+001  0.158080393130017E+002  0.371180682287246E+001 -0.432067860875007E+001  0.342169042235766E+001 -0.801680820281057E-001
  0.111598473698766E+000  0.290357793172945E+002  0.249204928405257E+001 -0.440824794333354E+001  0.766984110615753E+001 -0.796488831606344E+001  0.337712401196369E+001 -0.246909306332224E+001
  0.111598473698766E+000  0.290342070611261E+002  0.508487212680232E+001  0.913457920539150E+001  0.158405396027938E+002  0.884860636021827E-001 -0.408415762781650E+001 -0.907663941800782E+001
  0.111598473698766E+000  0.290305756008899E+002 -0.584347525672509E+000 -0.977816388180158E+001  0.871837528162483E+001 -0.132456047875025E+002  0.514931058498116E+001  0.696495608023834E+000
  0.111598473698766E+000  0.290285596414874E+002  0.595606597143343E+001 -0.150903734554613E+002  0.740128731953236E+001 -0.509670027731424E+000  0.114400927796773E+002  0.513560012736541E+001
  0.111598473698766E+000  0.289218973391884E+002  0.816896054396560E+001 -0.596127483109340E+001  0.640940498085942E+001 -0.808719554366116E+001  0.230682958757848E+001  0.500856809962599E+001
  0.111598473698766E+000  0.289141424656751E+002  0.101437874463697E+002  0.104514796889374E+002  0.226721585299819E+001  0.466482897523352E+001  0.100318370105303E+002  0.285601368674435E+001
  0.111598473698766E+000  0.289061920470025E+002  0.159110206689625E+002  0.777762296291297E+001  0.645539871511268E+001  0.250675984413106E+001  0.405286515602821E+001  0.529961879877519E-001
  0.111598473698766E+000  0.288616598696908E+002  0.933975105123210E+000  0.860399233371589E+001  0.127012306878931E+002 -0.766572553219177E+000 -0.751088827152770E-001 -0.674235152793806E+001
  0.111598473698766E+000  0.288091010748235E+002  0.623474895112362E+001 -0.113124705844666E+002  0.989720664445163E+001 -0.248850997080566E+001  0.652570115832154E+001  0.127512044005680E+001
  0.111598473698766E+000  0.287870876722900E+002  0.287579961602620E+001 -0.482231984037093E+001  0.732202378426623E+001 -0.100585644910254E+002  0.408625888525379E+001 -0.124444776072916E+001
  0.111598473698766E+000  0.287777697546456E+002  0.516509671147049E+001 -0.377930205825520E+001  0.571730759708930E+001 -0.387225485556888E+001  0.847344263119044E+001  0.189388057247645E+001
  0.111598473698766E+000  0.287504928355209E+002  0.641411348663886E+001 -0.816986100585806E+001  0.728093281533597E+001 -0.504871330462689E+001  0.799528748389235E-001  0.294282035396000E+001
  0.111598473698766E+000  0.287339187001421E+002  0.927350368979445E+001  0.154668528794387E+002  0.313194150373756E+001 -0.692116437166139E+001  0.413942865714162E+000 -0.186273145713282E+001
  0.111598473698766E+000  0.287269249440461E+002  0.500528451958098E+001 -0.961609951258508E+001  0.958009746606029E+001 -0.280344506012113E+001  0.959920317854061E+001  0.739316079061723E+000
  0.111598473698766E+000  0.287011209802079E+002  0.863716420895299E+001  0.668190158659863E+001 -0.567250569637593E+001 -0.749359460215678E+001  0.109673623276635E+002 -0.208200589528748E+001
  0.111598473698766E+000  0.286844773490082E+002  0.958400890672727E+001 -0.580551067767844E+001  0.439438115965206E+001 -0.276007209234869E+000  0.950008567528187E+001  0.700412462841091E+001
  0.111598473698766E+000  0.286734596404048E+002 -0.128533927461500E+000 -0.624877679788528E+001  0.497369447206253E+001 -0.131218417882993E+002  0.418775556585683E+001  0.687038233875302E+000
  0.111598473698766E+000  0.286095066920612E+002  0.145323159116485E+002  0.137139922148230E+002  0.181640514695349E+001  0.168497417563477E+001  0.717457943425312E+001  0.267618321389670E+001
  0.111598473698766E+000  0.285829133810858E+002  0.227986814317209E+000 -0.736628099798538E+001  0.247659731221126E+001 -0.109138080336899E+002  0.121969453370228E+002  0.526620693356829E+001
  0.111598473698766E+000  0.285426921361700E+002  0.607027569809937E+000 -0.142803801229572E+002  0.910432832799681E+001 -0.467060432363061E+001  0.982800759424124E+001  0.149007403861002E+001
  0.111598473698766E+000  0.285233544346850E+002  0.139755571755311E+002  0.559757466129135E+001  0.467325551470565E+001  0.875075555853339E+000  0.419571391631023E+001 -0.740658037882726E+001
  0.111598473698766E+000  0.285112097084406E+002  0.902056164917348E+001  0.874652232687963E+001  0.984409166557140E+001  0.362232588130329E+001  0.297090159066992E+001 -0.138965609245166E+001
  0.111598473698766E+000  0.284531058653705E+002  0.677862643123393E+001  0.103972880520231E+002  0.640997764883058E+001 -0.508563759656312E+001  0.472092048344695E+000 -0.342251990515740E+001
  0.111598473698766E+000  0.284003432750793E+002 -0.292342658048110E+000 -0.819973079503196E+000  0.195765391673142E+000 -0.139147108567806E+002  0.964198982947128E+001 -0.652299801023690E+001
  0.111598473698766E+000  0.283579413893220E+002  0.574791942768158E+001 -0.803950567350320E+001  0.232907920728318E+001 -0.295876352706196E+001  0.131576951636294E+002  0.788313597547743E+001
  0.111598473698766E+000  0.283533235961090E+002  0.826669505712524E+001  0.117859239401604E+002  0.125778590871243E+002  0.146339698937364E+000 -0.145227805379169E+001 -0.535659519797684E+001
  0.111598473698766E+000  0.283488111598935E+002  0.125435279178075E+002  0.136992094733952E+001 -0.115060867882870E+002 -0.128906460040908E+002  0.117562853860001E+002  0.556338731225764E+001
  0.111598473698766E+000  0.283453340662854E+002  0.146386427637033E+002  0.631588811781491E+001  0.379634455634643E+001  0.615228914129953E+001  0.907200476971555E+001 -0.101671184883953E+001
  0.111598473698766E+000  0.283412399109863E+002  0.921867958514453E+001 -0.722115413876606E+001  0.541705950369630E+001  0.168390283486879E+001  0.126147318578210E+002  0.557237446030985E+001
  0.111598473698766E+000  0.283361902234165E+002  0.415199095747396E+001 -0.214530716891747E+001  0.275353767651582E+001 -0.102753492800630E+002  0.844416878525244E+001  0.504164788722181E+001
  0.111598473698766E+000  0.283185266963575E+002  0.865439864667200E+001  0.391886206082080E+001  0.880368956502302E+001 -0.383594278740719E+001 -0.558788078827671E+000 -0.133094872822884E+002
  0.111598473698766E+000  0.283111378421707E+002  0.751781038783346E+000 -0.937953382311328E+001  0.971410252488767E+001 -0.946069925105041E+001  0.544910871257477E+001  0.396741124037199E-001
  0.111598473698766E+000  0.282879946367628E+002  0.588341912671477E+001 -0.124119078308969E+002  0.105478380032854E+002 -0.370040036081414E+001  0.344430497338384E+001  0.242843286484952E+001
  0.111598473698766E+000  0.282530626699687E+002  0.988903976846514E+001  0.117889323640287E+002  0.710823448748246E+001 -0.808278939449584E+001 -0.348057591748427E+001 -0.792443909329036E+001
  0.111598473698766E+000  0.282525180947386E+002  0.473359834636229E+001 -0.144350021768773E+002  0.538963103623267E+001 -0.372547927207628E+001  0.110315697664717E+002  0.812474852510399E+001
  0.111598473698766E+000  0.282508477487849E+002  0.969745867184763E+001  0.116380220964532E+002  0.509257421696998E+001 -0.806098850746582E+001 -0.685004938851169E+000 -0.439252232801626E+001
  0.111598473698766E+000  0.282502431220490E+002  0.664430435485811E+001  0.772919546552357E+001  0.950034252426287E+001 -0.136075203677852E+001 -0.208223427150784E-001 -0.634534264082312E+001
  0.111598473698766E+000  0.282292599006493E+002  0.828380131526298E+001  0.761927847931855E+001  0.883163833897013E+001 -0.545079771983719E+001 -0.304628976430407E+001 -0.124811923164860E+002
  0.111598473698766E+000  0.281656515339446E+002  0.711560835765616E+001  0.702529151944410E+001 -0.421523016466436E+001 -0.261034146760464E+001  0.761884743791641E+001 -0.426933413036468E+001
  0.111598473698766E+000  0.281546246739517E+002 -0.159417799640429E+001  0.105964478509231E+001  0.312604442331346E+001 -0.687794170536372E+001  0.621023342686685E+001 -0.841682686340266E+001
  0.111598473698766E+000  0.281455529177166E+002  0.270261644199251E+001  0.898281710803908E+001  0.126791565988812E+002  0.197578572189630E+001  0.149073172354903E+001 -0.470034986728685E+001
  0.111598473698766E+000  0.281254102542743E+002  0.552355152458707E+001 -0.396704348245369E+001  0.806635034026883E+001 -0.569526261752863E+001  0.255533161806358E+001 -0.100090678619117E+001
  0.111598473698766E+000  0.281183905582460E+002  0.857683113715782E+001 -0.597094846840555E+001  0.378013520785575E+001 -0.458686248334264E+001  0.634272471090160E+001  0.775824936836968E+001
  0.111598473698766E+000  0.280060389971061E+002  0.184919994961870E+001 -0.116436336744825E+002  0.770447757909985E+001 -0.848893176160322E+001  0.907539867035663E+001  0.267616814831251E+001
  0.111598473698766E+000  0.279942117410115E+002  0.526061173973658E+001 -0.137681129376991E+002  0.953765491179141E+001 -0.177675622031265E+001  0.816968206372187E+001  0.381067406847123E+001
  0.111598473698766E+000  0.279629516852187E+002  0.676138525084822E+001  0.612085061707170E+001  0.700876436705297E+001 -0.204482211624184E+001  0.196906549805734E+001 -0.759044345583989E+001
  0.111598473698766E+000  0.279554702686019E+002  0.607851804560223E+001  0.124929536664870E+002  0.127392576776801E+002  0.143244108042538E+001 -0.129989420982963E+001 -0.703195845545310E+001
  0.111598473698766E+000  0.279530565933251E+002  0.920866888949084E+001  0.108335726143728E+002  0.101953071094964E+002 -0.178007931369063E+001 -0.122242815332426E+001 -0.328655537450453E+001
  0.111598473698766E+000  0.279257957651065E+002  0.120827158988123E+002  0.785428048934256E+001  0.175237606234843E+001  0.139772664592245E+001  0.846230953975155E+001  0.952240269201752E+000
  0.111598473698766E+000  0.279097090044960E+002  0.670131419067559E+001 -0.126867566217722E+002  0.879982682587339E+001 -0.886650524712927E+000  0.732534170440182E+001  0.471248019446702E+001
  0.111598473698766E+000  0.279011704511545E+002  0.134164355178954E+002  0.811253966857745E+001  0.446327905689103E+001 -0.398285481093377E+001  0.293191706369399E+001 -0.235156600723588E+001
  0.111598473698766E+000  0.278597060373643E+002  0.462867583423558E+001  0.411540544607173E+001 -0.530605442406353E+001 -0.127874543430621E+002  0.800911183113311E+001 -0.396383665536922E+001
  0.111598473698766E+000  0.278503252903335E+002 -0.208664673927423E+000 -0.104525678838418E+002  0.518778929800592E+001 -0.108048105303821E+002  0.702025900954902E+001  0.273136683328842E+001
  0.111598473698766E+000  0.278328793492737E+002  0.645965260445411E+001  0.610843348618948E+001 -0.603154828837048E+001 -0.135740421336482E+002  0.606829832436609E+001 -0.269578220221244E+001
  0.111598473698766E+000  0.278016932161891E+002  0.425597669807073E+001 -0.993558494371707E+001  0.959207443139054E+001 -0.788762914654334E+001  0.400000094400273E+001  0.176486947796895E+001
  0.111598473698766E+000  0.277927761470265E+002  0.977992248618699E+001  0.289413830523203E+001 -0.823437228808245E+001 -0.127922894468789E+002  0.973459567014145E+001  0.266258800252558E+001
  0.111598473698766E+000  0.277800479888298E+002  0.339979502596958E+001 -0.488872490608117E+001  0.702606588690931E+001 -0.650825346318627E+001  0.808710194977457E+001  0.128642360974429E+001
  0.111598473698766E+000  0.277485388169745E+002  0.735544948504936E+001  0.133093234660084E+002  0.300983951165544E+001 -0.458670719677911E+001  0.333478559421019E+001 -0.328472434366728E+001
  0.111598473698766E+000  0.277395209275988E+002  0.406948209858337E+001 -0.857566372962412E+001  0.819475576188325E+001 -0.706165174706380E+001  0.597782737465329E+001  0.679511984771636E+000
  0.111598473698766E+000  0.277319862949913E+002  0.125312403532517E+002  0.109236577152404E+002 -0.125399552585809E+002 -0.106984644726385E+002  0.925447401157770E+001 -0.792763649287675E+000
  0.111598473698766E+000  0.277205511187827E+002  0.208296432211224E+001  0.799451917209971E+001  0.145574114702801E+002 -0.167785414785262E+001 -0.325466814750322E+001 -0.131526348369450E+002
  0.111598473698766E+000  0.276951216191232E+002  0.111928513329203E+002  0.460742462135067E+001  0.102746625538326E+002  0.326057198448439E+000  0.167976722798718E+001 -0.712798860474886E+001
  0.111598473698766E+000  0.276819031491261E+002  0.865583838811660E+001  0.975961287136266E+001  0.938053795710242E+001 -0.399020871162772E+001 -0.762222475348523E+000 -0.717417456947172E+001
  0.111598473698766E+000  0.276513541206894E+002  0.748860257951834E+001  0.911767544621139E+001  0.347264949127119E+001 -0.165386989268466E+001  0.609425612670790E+001 -0.390818140828648E+001
  0.111598473698766E+000  0.276428142442810E+002  0.116455049766247E+002  0.139809251130628E+001 -0.122097386460118E+002 -0.138327714808528E+002  0.113703360272644E+002  0.325248243466757E+001
  0.111598473698766E+000  0.276051320571059E+002  0.545800113186131E+001 -0.892008338827744E+001  0.730950360007549E+001 -0.646563607754705E+001  0.761164166789236E+001  0.575186197912771E+001
  0.111598473698766E+000  0.275870061335719E+002  0.726077850504658E+001 -0.920446102544500E+001  0.512365603870665E+001 -0.173418616000788E+001  0.108898199377473E+002  0.751374703146856E+001
  0.111598473698766E+000  0.275575113446551E+002  0.999503659068650E+001  0.768596576345771E+001  0.900061912298361E+001 -0.485888743217414E+001 -0.191713351486467E+001 -0.724473780476180E+001
  0.111598473698766E+000  0.275278346652462E+002  0.116300783572968E+002  0.105045721589451E+002  0.954844805376978E+001  0.609415676220448E+001  0.421454110914632E+001 -0.300371291985329E+000
  0.111598473698766E+000  0.275086283278097E+002  0.217460037754186E+001  0.105953188954233E+002  0.103996067326013E+002 -0.617261658315588E+000  0.174187836982711E+001 -0.391278258011969E+001
  0.111598473698766E+000  0.275028912875179E+002  0.147224917801847E+002  0.110193504603000E+002  0.362902305679155E+001  0.154636780050651E+001  0.661571501435346E+001  0.362641460183690E+001
  0.111598473698766E+000  0.274965022696791E+002  0.108186769046691E+002  0.151937664082412E+002  0.365382880229578E+001 -0.345775215889967E+001  0.202216253347691E+001  0.567958478650727E+000
  0.111598473698766E+000  0.274557594399020E+002  0.468591517020520E+001 -0.112353592643658E+002  0.714801159624411E+001 -0.387990042499396E+001  0.412561291978434E+001  0.236951701986569E+001
  0.111598473698766E+000  0.274534498755091E+002 -0.839968149930741E+000  0.934263738242201E+000  0.108897049430091E+000 -0.115089449084149E+002  0.207301565664264E+001 -0.592025503702841E+001
  0.111598473698766E+000  0.274172152344087E+002  0.910564834751975E+001  0.491705389687038E+001  0.482511840574578E+001  0.100299013061959E+001  0.650654104720735E+001 -0.613974358394315E+001
  0.111598473698766E+000  0.273088995767102E+002  0.948201308848778E+001  0.128489436300123E+002  0.705128861679162E+001 -0.479624890896785E+001 -0.602863751633230E+000 -0.203130951585607E+001
  0.111598473698766E+000  0.272951311292870E+002  0.517342647441395E+001  0.132031763962919E+002  0.833252842657912E+001  0.469235985592480E+000  0.254483008920388E+001 -0.235389767982852E-001
  0.111598473698766E+000  0.272921235977246E+002  0.663032446103740E+001  0.748927208605622E+001  0.996563354625276E+001 -0.532223659102733E+000  0.158844113187214E+001 -0.903838246640461E+001
  0.111598473698766E+000  0.272550025989811E+002  0.135338577323251E+002  0.599766030642384E+001  0.304597356010093E+001  0.316912951545187E+001  0.877955151881658E+001 -0.201746928096210E+000
  0.111598473698766E+000  0.272536615167405E+002  0.410962825968143E+001  0.953812045786488E+001  0.121870231151138E+002 -0.340113361152733E+001 -0.400572369614182E+001 -0.116579956542944E+002
  0.111598473698766E+000  0.272195728826656E+002  0.893025486067403E+001 -0.898783020139066E+001  0.720371297195683E+001 -0.194513085799731E+001  0.419836101017077E+001  0.519698121510833E+001
  0.111598473698766E+000  0.271690215529856E+002  0.134492699586895E+002  0.106926902694882E+002  0.591198425355606E+001  0.236841997131208E+001  0.558311088351361E+001  0.514471615464942E+000
  0.111598473698766E+000  0.271664491577715E+002  0.288032431183747E+001 -0.510580914339556E+001  0.447871623685532E+001 -0.118491120612157E+002  0.486341836550811E+001  0.354220155779297E+001
  0.111598473698766E+000  0.271452207455125E+002  0.728135577742247E+001  0.748140241679430E+001  0.123443712520759E+002  0.271641479727688E+001  0.580634875198385E-001 -0.704292521525240E+001
  0.111598473698766E+000  0.271176668474027E+002  0.276235951813820E+001  0.142512532385039E+002  0.104764823397724E+002 -0.215099332644943E+001 -0.162975418410529E+001 -0.597542482833648E+001
  0.111598473698766E+000  0.271129162130076E+002  0.674122199707704E+001 -0.500233982832491E+001  0.382764199164841E+001 -0.429480767799822E+001  0.810446316062558E+001  0.529816938082111E+001
  0.111598473698766E+000  0.271039228787433E+002  0.102247980672558E+002  0.136661294259209E+002  0.176584485651880E+001 -0.389197654161653E+001  0.457204707891699E+001  0.130492647978472E+001
  0.111598473698766E+000  0.270243386375500E+002  0.765339893918230E+001 -0.389546336226496E+001  0.568117841303527E+001 -0.346161618923812E+001  0.791664047287351E+001  0.306736161730035E+001
  0.111598473698766E+000  0.269854421159154E+002  0.441317354818686E+001  0.293168908160106E+001 -0.394533359433059E+001 -0.136361528158145E+002  0.623991418225547E+001 -0.283256552086342E+001
  0.111598473698766E+000  0.269769270147751E+002  0.628883349289248E+001  0.451112721992800E+001 -0.612543286485592E+001 -0.110431479460241E+002  0.805564687610824E+001 -0.359729869339789E+001
  0.111598473698766E+000  0.269539067626858E+002 -0.642274012189056E+000 -0.324357677028285E+001  0.101433835137615E+001 -0.114659872333648E+002  0.597295344589640E+001 -0.374047577407946E+001
  0.111598473698766E+000  0.269184743812069E+002  0.930324425291408E+001  0.807473741430788E+001 -0.103155042345653E+002 -0.138479195944461E+002  0.845777586793816E+001 -0.203304036218303E+001
  0.111598473698766E+000  0.268741149441169E+002  0.564842101893278E+001 -0.116104555333468E+002  0.751760384489008E+001 -0.506366116381869E+001  0.507832553758539E+001  0.529633852127509E+001
  0.111598473698766E+000  0.268504008760077E+002  0.401850705836795E+001  0.743417782904917E+001  0.126853250593035E+002 -0.362324189424163E+001 -0.283256781267567E+001 -0.119694510577359E+002
  0.111598473698766E+000  0.268472190304106E+002  0.226365774223284E+001 -0.115366157028332E+002  0.711854178235001E+001 -0.729087553548263E+001  0.834655861165732E+001  0.452162464387741E+001
  0.111598473698766E+000  0.268337666444862E+002  0.922313890305938E+001 -0.462158428272452E+001 -0.939894695201116E+001 -0.137439574396457E+002  0.113432666157474E+002  0.547481376622970E+001
  0.111598473698766E+000  0.268247854818028E+002  0.675838684450265E+001  0.108153258844509E+002  0.124856446891447E+002 -0.291003867670203E+001 -0.361087075878180E+001 -0.747034180941875E+001
  0.111598473698766E+000  0.268202566108807E+002  0.114238157360512E+002  0.690419299979443E+001 -0.890112502611191E+001 -0.543203400901196E+001  0.130513474493939E+002 -0.109731220547905E+001
  0.111598473698766E+000  0.267450891840976E+002  0.562020908630710E+001  0.625910938907577E+001  0.782927270152561E+001  0.670857827595626E-001  0.309897067843972E+001 -0.944586538669371E+001
  0.111598473698766E+000  0.267230094773512E+002  0.661955285162114E+001 -0.601577704534833E+001  0.463474092840400E+001 -0.550072324505609E+001  0.896377399385958E+001  0.491032965842026E+001
  0.111598473698766E+000  0.266910805822436E+002  0.992570528009482E+001  0.774179965159295E+001 -0.106910425179372E+002 -0.146223390962076E+002  0.988107556878970E+001 -0.192105119036044E+001
  0.111598473698766E+000  0.266841215978511E+002  0.594728800401984E+001  0.134519689177579E+002  0.444311967767451E+001 -0.130839953061207E+001  0.484182943983892E+001  0.673801862315031E+000
  0.111598473698766E+000  0.266595352278275E+002  0.625533640700256E+001  0.126869160400227E+002  0.117137557426129E+002  0.252503557832632E+000 -0.145159245648067E+001 -0.484484868835151E+001
  0.111598473698766E+000  0.265781650661741E+002  0.551447481224581E+001  0.126276078261849E+002  0.770008515512350E+001 -0.526574337960184E+001 -0.145464318053894E+001 -0.811090375673350E+001
  0.111598473698766E+000  0.265549983429982E+002  0.592578160838502E+001  0.537536738623679E+001  0.926815287166318E+001 -0.690311817645465E+000  0.207927905103655E+001 -0.743207689846498E+001
  0.111598473698766E+000  0.265523819318007E+002  0.693001519958782E+001  0.115955258797133E+002  0.609839826672425E+001 -0.371997559734081E+001  0.325425635625376E+000 -0.680135749762788E+001
  0.111598473698766E+000  0.265471148066734E+002  0.301235006162162E+001 -0.952487959572824E+001  0.833887512622928E+001 -0.618636216508647E+001  0.896053591442815E+001  0.182559670290768E+001
  0.111598473698766E+000  0.265344079809570E+002  0.911282297036701E+001  0.824623069056302E+001  0.582473521662787E+001  0.118945516715257E+001  0.427447520885382E+001 -0.668480906710868E+001
  0.111598473698766E+000  0.265204903193571E+002  0.104099211248301E+002  0.427032062506648E+001 -0.869329109175516E+001 -0.515322961791087E+001  0.132354254350385E+002 -0.877730092572371E+000
  0.111598473698766E+000  0.264880822897119E+002  0.506664054325196E+001 -0.759726236018435E+001  0.640785276206462E+001 -0.256544229231385E+001  0.108926058387141E+002  0.254670379238935E+001
  0.111598473698766E+000  0.264829245281415E+002  0.110005817981747E+002  0.615043101610259E+001  0.508456993888759E+001 -0.427170504395319E+001  0.214538682776143E+001 -0.666381965077155E+001
  0.111598473698766E+000  0.264750595037267E+002  0.757276726399294E+001  0.132554047570967E+002  0.933325386878775E+001 -0.128270694235141E+001  0.408765816665166E-001 -0.483741173139867E+001
  0.111598473698766E+000  0.264253388705027E+002  0.105779639066350E+002  0.977172374070020E+001  0.231924205380673E+001 -0.293503555624238E+000  0.618409238584802E+001 -0.259415388869769E+001
  0.111598473698766E+000  0.264213777970958E+002  0.200113228127221E+001 -0.121861764347479E+002  0.106894971257837E+002 -0.886798813321581E+001  0.545394172674497E+001  0.671872152713358E+001
  0.111598473698766E+000  0.264157006061267E+002  0.494466585748208E+001 -0.125005769824574E+002  0.700993845811222E+001 -0.218166382121447E+001  0.922390997322693E+001  0.392156798300520E+001
  0.111598473698766E+000  0.264033380421708E+002  0.488409846270962E+001  0.121181301806682E+002  0.920706153354271E+001  0.136346979959636E+001  0.330085612086225E+001 -0.205687631106093E+001
  0.111598473698766E+000  0.263928472026000E+002  0.126463335513210E+002  0.531887781047365E+001  0.667136871976231E+001  0.221437107778907E+001  0.547844162371578E+001 -0.515241164327148E+001
  0.111598473698766E+000  0.263469069178194E+002  0.113226888948438E+002  0.645651720156780E+001  0.840563458225913E+001  0.335530238797154E+001  0.389914460692681E+001 -0.318923121473381E+001
  0.111598473698766E+000  0.262800183501809E+002  0.770561904993931E+001  0.409657358005466E+001 -0.635950005666575E+001 -0.129978282408157E+002  0.915273007767493E+001 -0.623544462510043E+000
  0.111598473698766E+000  0.262785534053942E+002  0.968238575560665E+000 -0.129493018165514E+001 -0.548861984318531E+000 -0.109549802236254E+002  0.278891696790924E+001 -0.172090772364042E+001
  0.111598473698766E+000  0.262480988170855E+002  0.112310292955386E+002  0.568497813870993E+001 -0.950940729500113E+001 -0.636521627333513E+001  0.137489822557995E+002 -0.124675852716546E+001
  0.111598473698766E+000  0.261802228440848E+002  0.110999733503546E+002 -0.386158779141718E+001 -0.109093665582935E+002 -0.759856612736523E+001  0.826495245680917E+001  0.692567177867030E+001
  0.111598473698766E+000  0.261713613825939E+002  0.475247808077634E+001  0.113582297827845E+002  0.805056862629231E+001  0.251479243249045E+001  0.500872430715786E+001 -0.130533571903532E+001
  0.111598473698766E+000  0.261692637522370E+002  0.125850840891241E+002  0.106558919566226E+002  0.247304873755582E+001 -0.280569313471872E+001  0.358428036919921E+001 -0.300725611703793E+001
  0.111598473698766E+000  0.261603901340373E+002  0.270587716455803E+001 -0.117182239687202E+002  0.660691634044369E+001 -0.690257434326567E+001  0.730118417098015E+001  0.366530664939691E+001
  0.111598473698766E+000  0.261593232228480E+002  0.908895799241319E+001  0.667361388926853E+001  0.100240479014565E+002  0.481319391593079E+001  0.473329108167741E+001 -0.332176561846923E+001
  0.111598473698766E+000  0.269056458855747E+002  0.580895093857934E+001  0.952844596619686E+001  0.103166217436112E+002 -0.158564710580157E+001 -0.149948175178016E+001 -0.100698050892433E+002
  0.111598473698766E+000  0.268971074463919E+002  0.105767031644665E+002  0.131329497579484E+002  0.524444809835534E+001  0.305598906732574E+001  0.563951324373956E+001  0.105139906100882E+001
  0.111598473698766E+000  0.268025763546133E+002  0.877175685348967E+001  0.682035582529522E+001  0.628732526292251E+001  0.192292987316785E+001  0.499466495966923E+001 -0.420237965402140E+001
  0.111598473698766E+000  0.267623626640991E+002  0.970643099930389E+001  0.748354655056399E+001  0.908494643016599E+001 -0.461785159951173E+001 -0.203504509837447E+001 -0.906619143100679E+001
  0.111598473698766E+000  0.267475283045368E+002  0.787102401936227E+001  0.117539538681299E+002  0.669462202567722E+001 -0.786697198965118E+000  0.299012114061197E+001 -0.148666789647965E+000
  0.111598473698766E+000  0.266411452124937E+002  0.108856572590300E+002  0.107911657155993E+002  0.959740478459989E+001 -0.125041681788273E+001 -0.559392569629956E+000 -0.598231539335937E+001
  0.111598473698766E+000  0.265424564439998E+002  0.113169864117841E+002  0.811057123641309E+001  0.103473797731706E+002  0.202897475049614E+001  0.382180623158057E+000 -0.690455910155120E+001
  0.111598473698766E+000  0.265384997356579E+002  0.130697400737063E+002  0.612862593063003E+001  0.712237272568471E+001 -0.137989963088883E+001  0.228455111927184E+001 -0.631423768013103E+001
  0.111598473698766E+000  0.265033698107374E+002  0.147227407768915E+002  0.660332240498417E+001  0.631459330332792E+001 -0.167748431778940E+001  0.160781985706589E+001 -0.643568956681153E+001
  0.111598473698766E+000  0.264516016578059E+002  0.443220967102708E+001  0.139083684593742E+002  0.949592418800655E+001 -0.217270259459531E+001 -0.553647560718662E+000 -0.442507473853645E+001
  0.111598473698766E+000  0.263481304137522E+002  0.718981301507615E+001  0.101982955918943E+002  0.456386179111895E+001 -0.447475526957150E+001  0.228961574527467E+001 -0.488829247910848E+001
  0.111598473698766E+000  0.263448731945867E+002  0.675709402780337E+001  0.925222977886822E+001  0.108883498784819E+002  0.466251909253256E+000 -0.264613279733386E+000 -0.943496324928200E+001
  0.111598473698766E+000  0.262007868435867E+002  0.108364304307950E+002  0.111250534088095E+002  0.973446143641625E+001 -0.929348091266039E+000 -0.799596490451517E+000 -0.479432560698154E+001
  0.111598473698766E+000  0.261613063850135E+002  0.804481270981282E+001  0.766982140833134E+001  0.501615130038248E+001 -0.199362555303851E+001  0.393275639625822E+001 -0.487474584261764E+001
  0.111598473698766E+000  0.261589072310770E+002  0.120716451773965E+002  0.692197200801827E+001  0.906294795374474E+001  0.332143900306562E+001  0.265290580976651E+001 -0.637597656891395E+001
  0.111598473698766E+000  0.260667776683590E+002  0.101369754114429E+002  0.601290830113223E+001  0.924089547603346E+001  0.239802136493650E+001  0.246779305087743E+001 -0.842519505743790E+001
  0.111598473698766E+000  0.260385755303672E+002  0.432365931165890E+001  0.123722429322684E+002  0.793461785755800E+001 -0.253334403666923E+001  0.549584486385662E+000 -0.611155266785368E+001
  0.111598473698766E+000  0.260299629350780E+002  0.110109826221824E+002  0.667812041818350E+001  0.508223768027866E+001 -0.199150990724121E+001  0.311112628184123E+001 -0.707950230514306E+001
  0.111598473698766E+000  0.260207566582703E+002  0.655092986972786E+001  0.762852129285390E+001  0.124215905578513E+002  0.311211699422464E+001  0.864505371136659E+000 -0.770272232244464E+001
  0.111598473698766E+000  0.259988257034085E+002  0.934649307908507E+001  0.645418984618221E+001  0.738298048364938E+001 -0.299060934545349E+000  0.292744159422439E+001 -0.501774395543877E+001
  0.111598473698766E+000  0.259047115814753E+002  0.121681286694319E+002  0.748882671593641E+001  0.713726774729394E+001  0.101759363157188E+001  0.286434737044468E+001 -0.690500039545541E+001
  0.111598473698766E+000  0.257033333352648E+002  0.650726651294975E+001  0.111954900643274E+002  0.643410529226784E+001 -0.280263491334743E+001  0.252865050043504E+001 -0.383897079430524E+001
  0.111598473698766E+000  0.256710374729093E+002  0.642528884332423E+001  0.105303245994898E+002  0.992776309283436E+001 -0.380205368627553E+000  0.115189654099311E+001 -0.375639908589412E+001
  0.111598473698766E+000  0.256406882281821E+002  0.898788377997770E+001  0.941534676809190E+001  0.753670365862541E+001  0.538823638011792E-001  0.164948092507172E+001 -0.625840218784560E+001
  0.111598473698766E+000  0.256142737573890E+002  0.112461691170342E+002  0.672770081354637E+001  0.476890124944819E+001 -0.111164852370806E+000  0.482405446813625E+001 -0.431112263394211E+001
  0.111598473698766E+000  0.252441195398421E+002  0.111006051995345E+002  0.101328452922071E+002  0.564313340572197E+001  0.962545426946892E+000  0.406480474542455E+001 -0.139058779415723E+001
  0.111598473698766E+000  0.251044728658105E+002  0.664421340321584E+001  0.114313177780606E+002  0.745427517849694E+001 -0.163831818978978E+001  0.195908972236463E+001 -0.483952788535258E+001
  0.111598473698766E+000  0.250169768542426E+002  0.776713990669208E+001  0.109143687400057E+002  0.546462010883982E+001 -0.610615238967505E-001  0.446535546987342E+001 -0.181281168000373E+001
  0.111598473698766E+000  0.249039733625746E+002  0.101813791641476E+002  0.727266041480657E+001  0.927216169690188E+001  0.825500420518182E+000  0.174090088783531E+001 -0.548980332675476E+001
  0.111598473698766E+000  0.246655122628025E+002  0.923582042163178E+001  0.980091990402479E+001  0.913010595749183E+001 -0.586303460099611E+000  0.647102396728016E+000 -0.629171500483494E+001
  0.111598473698766E+000  0.254965079437633E+002  0.859850726039988E+001  0.103799110520244E+002  0.705282734686345E+001 -0.241157150034066E+001  0.925557257609384E+000 -0.612039675049995E+001
  0.111598473698766E+000  0.254207321432105E+002  0.109240407062100E+002  0.989738046608122E+001  0.709174774485526E+001 -0.136116768347987E+001  0.184532877514269E+001 -0.393245772776282E+001
  0.111598473698766E+000  0.254052852547693E+002  0.101901433675137E+002  0.106604372704801E+002  0.717895489973494E+001 -0.163640319703056E+001  0.155470071110288E+001 -0.372467314847885E+001
