  0.398566966405363E+000  0.358393235872504E+002 -0.911661953240456E+001  0.957810381684548E+001 -0.132755073460456E+001  0.376860140067829E+001  0.907366292722305E+000  0.929782168378530E+000
  0.398566966405363E+000  0.358456646225142E+002 -0.805229306990227E+001  0.120065329913408E+002  0.171370994244630E+001  0.120777411679453E+002  0.423954988924082E+001 -0.355792287429278E+001
  0.398566966405363E+000  0.329071263264865E+002 -0.566497054766225E+001  0.115410853125016E+002 -0.489786543858953E+001  0.132473665625682E+001 -0.961664835971579E+000 -0.223480055201471E+001
  0.398566966405363E+000  0.388137888712829E+002  0.538304137668987E+001  0.741563121798361E+000  0.341956072643335E+001 -0.118941118044959E+002  0.133877758897607E+002  0.673898200537316E+001
  0.398566966405363E+000  0.389164523163323E+002 -0.656514248029763E+001  0.142259867289277E+002 -0.959733583618446E+001 -0.431773021986199E+001 -0.110158185890890E+002  0.606123000225775E+001
  0.398566966405363E+000  0.329146654849233E+002 -0.783904630293399E+001  0.126318889633587E+002 -0.192655587777101E+002  0.846177917465340E+001  0.689637184181642E+001  0.625285817896151E+001
  0.398566966405363E+000  0.472919754896917E+002 -0.415279647367155E+001 -0.190313314988268E+002  0.655273063762001E+001 -0.153766335050728E+002  0.778903660157919E+000  0.125161190138833E+001
  0.398566966405363E+000  0.392671696700068E+002 -0.141487837235397E+002  0.427220143188666E+001  0.435571412273623E+001  0.676727669461722E+001 -0.813549801225859E+001 -0.606756087456562E+001
  0.398566966405363E+000  0.393995709238908E+002  0.731416479063427E+001 -0.816632462739008E+001 -0.130134392817136E+001 -0.221047451088956E+001  0.109214642282275E+002  0.112878627393393E+002
  0.398566966405363E+000  0.358739850227137E+002 -0.165021876755878E+002  0.205319435573510E+001 -0.956320280489599E+001  0.132060677851480E+002  0.788694994342006E+001 -0.901726158498782E+000
  0.398566966405363E+000  0.360271037440700E+002 -0.144396763601054E+002  0.615137040524930E+001 -0.116887179958198E+002  0.199142351907058E+001 -0.120446259491649E+002  0.184290504200927E+001
  0.398566966405363E+000  0.330008385341633E+002 -0.996612223077714E+001  0.105919301170964E+002 -0.139969769346802E+002  0.161126245241146E+002  0.110388294698726E+002  0.123552444880265E+001
  0.398566966405363E+000  0.364593786707933E+002 -0.136096754396881E+002  0.298283710684925E+001 -0.112016934893197E+002  0.271487606690740E+001 -0.551567309990775E+001 -0.993082360308801E+000
  0.398566966405363E+000  0.434074634959139E+002 -0.136210202490031E+001  0.155254099574894E+002 -0.342588662781739E+001 -0.370546770223370E+001 -0.935209290756394E+000 -0.571717363833361E+000
  0.398566966405363E+000  0.365127488418851E+002 -0.650301471069573E+001  0.114876317530637E+002 -0.157420699943847E+002 -0.243886127835891E+001 -0.184831927443432E+001  0.828605324372014E+001
  0.398566966405363E+000  0.330233637711020E+002 -0.754809182418369E+001  0.123438604396320E+002 -0.143112312911995E+002  0.336196516367061E+001 -0.171813501823083E+001  0.190185428958106E+001
  0.398566966405363E+000  0.427588529283494E+002  0.107192751046692E+002 -0.462729766184705E+001  0.801413426870837E+001  0.880764771588595E+001  0.112692061262814E+002 -0.103958751026645E+001
  0.398566966405363E+000  0.330592621457250E+002 -0.988921327079512E+001  0.121279296950830E+002 -0.158867568689888E+002  0.874633165637975E+001 -0.110179580020611E+001  0.422939820186606E+001
  0.398566966405363E+000  0.367586586439564E+002 -0.721977591513811E+001  0.152760442885696E+002 -0.133410854949335E+002  0.103936288463233E+002  0.519037070862378E+000  0.161597037786893E+001
  0.398566966405363E+000  0.402006201031781E+002 -0.511010546565971E+001 -0.184830381056701E+002  0.862857291862453E+001 -0.368774151264465E+001  0.227903146923763E+002 -0.742622287518167E-001
  0.398566966405363E+000  0.367898268172123E+002 -0.508569956046249E+001  0.139695916322978E+002 -0.162354917333713E+002  0.777283125460359E+001  0.811853572171806E+001 -0.171836889028395E+000
  0.398566966405363E+000  0.331250625921793E+002 -0.773863441331999E+001  0.130806229146864E+002 -0.122848793158020E+002  0.818653830431417E+001 -0.604505219242878E+000  0.295025364772699E+001
  0.398566966405363E+000  0.375899245684425E+002 -0.121441222536479E+002  0.528869175883580E+001 -0.164200636111038E+002  0.147440704162346E+002  0.171343628060538E+002  0.774776073057836E+000
  0.398566966405363E+000  0.331337664805261E+002 -0.147756969426165E+002  0.511070216863971E+001 -0.787200843981084E+001  0.221870389225363E+001 -0.916221176466973E+001  0.174478100148219E+001
  0.398566966405363E+000  0.404937436537760E+002  0.540833645219575E+000  0.135499489347445E+002  0.360393676908640E+001  0.317517933170855E+001  0.837361286157898E+001 -0.154825941163263E+001
  0.398566966405363E+000  0.409797386654346E+002 -0.191829809552555E+001  0.104533737069503E+001 -0.106588530882615E+001 -0.119078542780476E+002  0.159178638133235E+002  0.193717052603892E+001
  0.398566966405363E+000  0.331349943515751E+002 -0.998107881204349E+001  0.107456215346837E+002 -0.189518193937599E+001  0.939121167939398E+001 -0.401402313598265E+001 -0.354073258306923E+001
  0.398566966405363E+000  0.411615495879977E+002  0.262474447110033E+001  0.982901526894924E+000  0.592376981623840E+001 -0.216616499293109E+002 -0.891918001185360E+001 -0.129056453674205E+001
  0.398566966405363E+000  0.381247035979223E+002 -0.133512189708368E+002  0.982519464905220E+001 -0.163928995044494E+002  0.104188363510357E+002 -0.249727964203470E+001  0.723563196856266E+001
  0.398566966405363E+000  0.411680530423377E+002 -0.153749998760515E+002  0.427258007558206E+001 -0.687501245597267E+001 -0.297228230875744E+001 -0.178045716168012E+002  0.241012431080523E+001
  0.398566966405363E+000  0.395651788867912E+002 -0.195730619431595E+002 -0.732716364230189E+000 -0.808454266807810E+001  0.299107759317910E+001 -0.133200413101390E+002 -0.218252370263244E+001
  0.398566966405363E+000  0.331391042177944E+002 -0.180811874418452E+002 -0.302485577366301E+000 -0.648029149874466E+001  0.565426515031261E+001 -0.655329842115219E+001 -0.379953318049553E+001
  0.398566966405363E+000  0.392524723853655E+002 -0.140137177638380E+002  0.747575195841576E+001 -0.800647426528772E+001  0.344793343954371E+001 -0.154228731116177E+002  0.473607283817675E+000
  0.398566966405363E+000  0.382314833351787E+002 -0.688087948690096E+001  0.542498807630450E+001 -0.858902837524350E+001  0.264977906961101E+001  0.102956961622665E+002 -0.504477464472025E+001
  0.398566966405363E+000  0.383527677840194E+002 -0.398389241966330E+001  0.131471519181532E+002 -0.221402556351637E+001  0.407848052607402E+001  0.911856637836905E+001 -0.183495976336836E-001
  0.398566966405363E+000  0.389724705351269E+002 -0.812916392315415E+001  0.154644528223752E+002 -0.867496381635617E+001  0.851904450391814E+001  0.981667044878925E+000  0.740323404870772E+001
  0.398566966405363E+000  0.383988045166314E+002 -0.113424354361090E+002  0.492796744627113E+001 -0.200265019555942E+002  0.715180655378148E+001  0.112601336043579E+002  0.134302808795951E+001
  0.398566966405363E+000  0.354892836129211E+002 -0.137932293125403E+002  0.881860061563721E+001 -0.146812758053957E+002  0.846542848436058E+001 -0.631322831206365E+001  0.370651846095700E+001
  0.398566966405363E+000  0.333188549087712E+002 -0.188465218330614E+002  0.975813191751236E+000 -0.965466149471421E+001  0.904498964786341E+001 -0.453246036292454E+001  0.107311910680933E+001
  0.398566966405363E+000  0.333231357734803E+002 -0.844851059365190E+000  0.169198711201803E+002 -0.109016585611796E+002  0.422445378883499E+001  0.112583612155490E+002  0.190931655856857E+001
  0.398566966405363E+000  0.352496370449400E+002 -0.176602282456724E+002 -0.273200541354412E+001 -0.110381041871144E+002  0.934699836605181E+001  0.541932981503706E+001 -0.398916535580969E+001
  0.398566966405363E+000  0.333405284989485E+002 -0.102010494961100E+002  0.799796639967600E+001  0.198622597267082E+000  0.623919859688710E+001 -0.182957620695639E+001 -0.572985981583599E+001
  0.398566966405363E+000  0.333438131037840E+002 -0.148321018836340E+002  0.910056013230392E+000 -0.578117822049753E+001  0.128911549033491E+002  0.547170121851958E+001 -0.998137630341504E+001
  0.398566966405363E+000  0.350828746212235E+002 -0.101454279042060E+002  0.116536028198415E+002 -0.325445432187811E+001  0.104066800540430E+002 -0.552034787129728E+000  0.302598366372727E+001
  0.398566966405363E+000  0.349839101868505E+002 -0.991874107940781E+001  0.100113474992831E+002 -0.543600482357627E+001  0.919176693048253E+001 -0.338223159959632E+001 -0.218894870383842E+001
  0.398566966405363E+000  0.346934552534618E+002 -0.137148092076247E+002  0.362142938047563E+001 -0.696812912919072E+001  0.398351928348179E+001 -0.699506526918435E+001 -0.538744367422407E+001
  0.398566966405363E+000  0.346174085776731E+002 -0.131360078319543E+002  0.570868200162860E+001 -0.846207670049720E+001  0.249158885317449E+001 -0.283213449570204E+001  0.535108827165568E+001
  0.398566966405363E+000  0.346074866345971E+002 -0.815777539567004E+001  0.123161404263059E+002 -0.193202363778127E+002  0.714711776528414E+001  0.276480708354269E+001  0.393771918587588E+001
  0.398566966405363E+000  0.345991288640863E+002 -0.112443810823951E+002  0.809883148544476E+001 -0.674014302284044E+001  0.383162728072413E+001 -0.598105946594981E+001 -0.298637316603808E+001
  0.398566966405363E+000  0.345770496754338E+002 -0.998695221416945E+001  0.988326209765056E+001 -0.171950146761304E+002  0.493042446616432E+000 -0.606298183766439E+001  0.577923093714572E+001
  0.398566966405363E+000  0.344595648079642E+002 -0.172701554312123E+002  0.146151075478917E+001 -0.946275745579910E+001  0.148579308560380E+002  0.323664772489383E+001 -0.205494772644527E+001
  0.398566966405363E+000  0.344507014427391E+002 -0.494599313396521E+001  0.144331074956857E+002 -0.120282666446371E+002 -0.593434710567138E+000  0.106830375723516E+001  0.641408735459511E+001
  0.398566966405363E+000  0.344181803896269E+002 -0.123060451154599E+002  0.663980034080214E+001 -0.392882673280800E+001  0.813934281613602E+001 -0.502142501920549E+000 -0.538097018742748E+001
  0.398566966405363E+000  0.344168217172076E+002 -0.178797209924608E+002 -0.900651386320906E+000 -0.286457226092632E+001  0.908921248268433E+001  0.473779643079268E+000 -0.532449006865662E+001
  0.398566966405363E+000  0.343181911713022E+002 -0.173943310081854E+002 -0.165673349095912E+001 -0.110098440035674E+002  0.104859097177974E+002  0.647132792821898E+001 -0.258927227244979E+001
  0.398566966405363E+000  0.342866396209511E+002 -0.190982403546734E+002  0.150676211167671E-001 -0.846820394905468E+000  0.118056986310871E+002 -0.340562080769278E+001 -0.479626941671990E+001
  0.398566966405363E+000  0.334215527037065E+002 -0.653491515617011E+001  0.159095151570566E+002 -0.130994610143086E+002  0.113570309825739E+002  0.541821540538321E+001  0.561026035391429E+001
  0.398566966405363E+000  0.341373170354750E+002 -0.956584702169913E+001  0.511537403285018E+001 -0.873066377019617E+001  0.843030822443625E+001  0.790941520329355E+001 -0.503593025941342E+001
  0.398566966405363E+000  0.340348853934763E+002 -0.273678000027095E+001  0.156770504796577E+002 -0.588748380550523E+001  0.799687409438424E+001  0.682888350315873E+001 -0.303117350317773E+001
  0.398566966405363E+000  0.339764557687133E+002 -0.518140215397076E+001  0.143673957842080E+002 -0.152249066001051E+002 -0.210872033493206E+001 -0.263739795917884E+001  0.829953803442265E+001
  0.398566966405363E+000  0.339113779884782E+002 -0.106595896732060E+002  0.534525361715165E+001 -0.128457151631789E+001  0.423687388513897E+001 -0.878322838558905E+000 -0.441669540464801E+001
  0.398566966405363E+000  0.335309665193178E+002 -0.646290458016309E+001  0.149919281133622E+002 -0.176736039949406E+002  0.463067007319122E+001  0.208799943063758E+001  0.883925997930198E+001
  0.398566966405363E+000  0.338152228415096E+002 -0.586610068830818E+001  0.136753042719698E+002 -0.313365497711304E+001  0.730320323439597E+001  0.467450514537007E+001 -0.155158965175276E+001
  0.398566966405363E+000  0.335332969504303E+002 -0.894056604190454E+001  0.125892330724847E+002 -0.724612109164371E+001  0.244057974094801E+001 -0.478855954617993E+001  0.602702857564996E+001
  0.398566966405363E+000  0.336227028008679E+002 -0.782596273690130E+001  0.101823108737492E+002 -0.164611898264951E+002  0.724868561320100E+001  0.788913232623835E+001 -0.410558683593347E+000
  0.398566966405363E+000  0.335763859967270E+002 -0.138258743436912E+002  0.435415019145304E+001 -0.961177616828867E+001  0.140604438867793E+002  0.909962763158825E+001 -0.507477076478537E+001
  0.398566966405363E+000  0.326945124233968E+002 -0.772755806857336E+001  0.121573368879052E+002 -0.381397486882982E+000  0.856722936087640E+001  0.771900362424010E+000 -0.132041613245186E+001
  0.398566966405363E+000  0.325929243726726E+002 -0.226022828060209E+001  0.144329425528686E+002 -0.107791856244694E+002  0.130494468390684E+001  0.928141480488613E+001  0.423554179359897E+001
  0.398566966405363E+000  0.324766078593133E+002 -0.131800924193211E+002  0.395316549750308E+001 -0.766774073747557E+001  0.869887029150470E+001  0.483217990852452E+001 -0.504259320684546E+001
  0.398566966405363E+000  0.323761624899458E+002 -0.865426725197847E+001  0.624206260737732E+001 -0.137149200402900E+002  0.127398566027471E+001  0.445301456997075E+001 -0.905443164008375E+000
  0.398566966405363E+000  0.323584642834360E+002 -0.139284595563618E+002  0.754650968907713E+001 -0.511448151354919E+001  0.149072643726788E+002 -0.589784301723135E+000 -0.376343881350450E+001
  0.398566966405363E+000  0.322820581076157E+002 -0.451673305051812E+001  0.140557890085734E+002 -0.354900311134096E+001  0.877948885698579E+001  0.808194390255875E+001 -0.162695324666625E+000
  0.398566966405363E+000  0.322535503501750E+002 -0.113848007167552E+002  0.749430129813025E+001 -0.134357843141319E+002 -0.397410659254589E+000 -0.609659321837402E+001  0.473516196752851E+001
  0.398566966405363E+000  0.321354115588736E+002 -0.310691251232486E+001  0.147448739974729E+002 -0.124537432314706E+002  0.147249697679561E+001  0.324849446982028E+001  0.134628431674038E+001
  0.398566966405363E+000  0.320863247786104E+002 -0.137558487359521E+002  0.539586229125399E+001 -0.263973367789352E+001  0.974133277883020E+001  0.634731607751309E+000 -0.113743824764185E+000
  0.398566966405363E+000  0.319064466678056E+002 -0.984012603459477E+001  0.468783218926203E+001 -0.112458100840167E+002  0.273756118595113E+001  0.641800799270684E+001 -0.164747398043993E+000
  0.398566966405363E+000  0.318775676914295E+002 -0.603365836554248E+001  0.150332262443507E+002 -0.128447530939593E+002  0.508837327443645E+001  0.285731481536363E+001  0.544488432253274E+001
  0.398566966405363E+000  0.318734186014329E+002 -0.786267692961158E+001  0.952536383537961E+001 -0.490855489069870E+001  0.916884923899123E+001  0.772685044814068E+001 -0.471859063285631E+000
  0.398566966405363E+000  0.318044853863153E+002 -0.928018448329464E+001  0.996568600428255E+001 -0.525387487244952E+001  0.782662640182377E+001  0.270091939193439E+001  0.271421764059626E+001
  0.398566966405363E+000  0.317825360051902E+002 -0.107952968197158E+002  0.698292281061288E+001 -0.977104554746564E+001  0.119740654693362E+002  0.450858131574456E+001 -0.579938043810420E+001
  0.398566966405363E+000  0.317653864459323E+002 -0.120151843392242E+002  0.664511366930474E+001 -0.584266103098622E+001  0.124466297197807E+002  0.132994838278201E+001 -0.536467572948710E+001
  0.398566966405363E+000  0.317649258127634E+002 -0.167608952929330E+002  0.126882198099370E+001 -0.112444582371141E+002  0.836345662574748E+001  0.515762364967497E+000  0.113933065562189E+001
  0.398566966405363E+000  0.317260349326778E+002 -0.154264713036773E+002  0.911925021034893E+000 -0.794164204787284E+001  0.123329732287620E+002  0.890593448465621E+001 -0.309771258909292E+001
  0.398566966405363E+000  0.317005260443710E+002 -0.985496630354108E+001  0.102962361612189E+002 -0.851495075131557E+001  0.112921414574654E+001 -0.777256266612459E+001  0.196662142432796E+001
  0.398566966405363E+000  0.314495407392621E+002 -0.465603295846568E+001  0.155223697793264E+002 -0.665181068029974E+001  0.814809133134279E+001  0.761522817043234E+001  0.241373525919629E+001
  0.398566966405363E+000  0.314317945495353E+002 -0.584994742654495E+001  0.148393585559253E+002 -0.511107005076557E+001  0.107300380960222E+002  0.484240463567687E+001 -0.121757850919605E+001
  0.398566966405363E+000  0.314257766309753E+002 -0.155540577932579E+002  0.562073909277402E+001 -0.458048712363761E+001  0.140235031646317E+002 -0.129223620494017E+000 -0.129437865427769E+001
  0.398566966405363E+000  0.313745387106840E+002 -0.974649618081349E+001  0.850645178347877E+001 -0.636817326909484E+001  0.153586997218839E+002  0.139341209766777E+002 -0.238947584608529E+001
  0.398566966405363E+000  0.313715339526589E+002 -0.835132123303915E+001  0.942445283941296E+001 -0.431017238119941E+001  0.213349403914728E+001 -0.364908931076948E+001 -0.857767796091373E+000
  0.398566966405363E+000  0.313599999823311E+002 -0.717322381697719E+001  0.119928618206850E+002 -0.874613221205729E+001  0.133629751816978E+002  0.132702665123304E+002 -0.118241067466098E+001
  0.398566966405363E+000  0.313294710832077E+002 -0.523456375080973E+001  0.144673265301545E+002 -0.420064540991687E+001  0.361404006664264E+001 -0.128615723487199E+001  0.142191270998141E+001
  0.398566966405363E+000  0.312200694858563E+002 -0.652424533147445E+001  0.121555580639993E+002 -0.748485593596853E+001  0.742568350189739E+000 -0.432209755157895E+001  0.985658044420923E+000
  0.398566966405363E+000  0.311915273169544E+002 -0.135973589273788E+002  0.433119981190540E+001 -0.241321424350268E+001  0.144135995024362E+002  0.584009835208695E+001 -0.551718614208825E+001
  0.398566966405363E+000  0.311757445989812E+002 -0.101495073053394E+002  0.106854716962069E+002 -0.146799066913778E+002  0.606031682577154E+001 -0.102373138941870E+001  0.322679017632828E+001
  0.398566966405363E+000  0.311664568434514E+002 -0.767375257779798E+001  0.124384244168370E+002 -0.165839677344609E+002  0.627782858236218E+001  0.989215275198106E+000  0.365840602334285E+001
  0.398566966405363E+000  0.311560508773054E+002 -0.640716503953071E+001  0.143523103144251E+002 -0.130095223143191E+002  0.990243199231512E+001  0.909237905613689E+001  0.464936305163762E+001
  0.398566966405363E+000  0.311559106730463E+002 -0.470576442062721E+001  0.143082994378376E+002 -0.168736109412134E+002  0.583894277801931E+001  0.596056088187800E+001  0.454636759403686E+001
  0.398566966405363E+000  0.311430273250715E+002 -0.855700783488487E+001  0.625265786543909E+001 -0.488078987210268E+001  0.461355829042218E+001  0.658007480033820E+001 -0.377123778686235E+001
  0.398566966405363E+000  0.311367952030622E+002 -0.571403783445491E+001  0.126954244180466E+002 -0.130975574957836E+002  0.619275427684253E+001  0.328073262883953E+001 -0.105577599100215E-002
  0.398566966405363E+000  0.311233917060660E+002 -0.562360125181466E+001  0.139004996293926E+002 -0.155837472319877E+002  0.558786075280977E+000  0.305096603194382E+000  0.713432427245722E+001
  0.398566966405363E+000  0.311211606327827E+002 -0.536134270994030E+001  0.991213148152728E+001 -0.891876894327768E+001  0.229092944903419E+001  0.807154964140289E+001  0.575664354966488E+000
  0.398566966405363E+000  0.310877497455469E+002 -0.764704184761780E+001  0.135104429503178E+002 -0.122146949685458E+002  0.127598273607351E+002  0.625737888038343E+001  0.216146896556058E+001
  0.398566966405363E+000  0.310438168355582E+002 -0.133600434144079E+002  0.298589665359984E+001 -0.570230882271553E+001  0.482134526996508E+001  0.456465391195209E+000 -0.432735145205505E+001
  0.398566966405363E+000  0.309959662052111E+002 -0.762998191242265E+001  0.934688893239917E+001 -0.852817338325475E+001  0.885304293407430E+001  0.553351726434888E+001 -0.542632884363080E+001
  0.398566966405363E+000  0.309745548724890E+002 -0.818477918388505E+001  0.957009511216519E+001 -0.419392029420916E+001  0.925264365593287E+001  0.446181324713925E+001 -0.261172538820890E+001
  0.398566966405363E+000  0.309518194764208E+002 -0.130344882725266E+002  0.721849190899609E+001 -0.156886081537878E+001  0.124091152320570E+002  0.154509853467193E+001 -0.324210409099703E+001
  0.398566966405363E+000  0.304810295882076E+002 -0.780266547870580E+001  0.136287341516596E+002 -0.720604263553356E+001  0.622742002642585E+001 -0.782015566260526E+000  0.516529497999764E+001
  0.398566966405363E+000  0.308455758103887E+002 -0.606324381899806E+001  0.979156915846296E+001 -0.137470001343865E+002  0.629204610890216E+001  0.102776308668298E+002  0.756691402577449E+000
  0.398566966405363E+000  0.308262826966062E+002 -0.100143978380104E+002  0.853297640769888E+001 -0.274055631205766E+001  0.101702203376602E+002  0.217377142714576E+001 -0.290995895099649E+001
  0.398566966405363E+000  0.307706318271470E+002 -0.610645759287218E+001  0.135503086402811E+002 -0.132108433021126E+002  0.302738088925041E+001  0.251690185966231E+001  0.424192104725440E+001
  0.398566966405363E+000  0.307562780412284E+002 -0.934230391071217E+001  0.112034249962815E+002 -0.374167159977621E+001  0.735674662323058E+001 -0.213979270282409E+001  0.166921139544564E+001
  0.398566966405363E+000  0.307443214356519E+002 -0.589008915666096E+001  0.104732023511929E+002 -0.396801303033165E+001  0.499724102213593E+001  0.652594328388850E+001 -0.339469788636088E+001
  0.398566966405363E+000  0.307189994688399E+002 -0.989573621414429E+001  0.503567109455003E+001 -0.999652480776124E+001  0.924699827132526E+001  0.935553301502939E+001 -0.632405506511050E+001
  0.398566966405363E+000  0.306857156276264E+002 -0.500244585242109E+001  0.139097070535598E+002 -0.998788003230192E+001  0.103117767924029E+001 -0.180972007977852E+001  0.331347979615648E+001
  0.398566966405363E+000  0.306831618140879E+002 -0.111433307825027E+002  0.585582895734461E+001 -0.871937717483432E+001  0.674548401936025E+000 -0.349540613688824E+001 -0.713164567985412E+000
  0.398566966405363E+000  0.306760965805819E+002 -0.141328342791683E+002  0.346635351449668E+001 -0.114253016283723E+002  0.584122759889689E+001 -0.326711972419660E+001 -0.149043194164623E+001
  0.398566966405363E+000  0.306539520622803E+002 -0.109500523718424E+002  0.738341611145650E+001 -0.100740248306220E+002  0.627953956437157E+001  0.261234550018750E+001 -0.158622202173874E+001
  0.398566966405363E+000  0.306539165314708E+002 -0.125779104937956E+002  0.389063279094489E+001 -0.360526567557147E+001  0.104662605976072E+002  0.657684019881657E+001 -0.371864012539837E+001
  0.398566966405363E+000  0.306301565939908E+002 -0.754115934230499E+001  0.907517745366948E+001 -0.164395431259396E+002  0.497439091036035E+001  0.759384488023947E+001  0.875957365303535E-001
  0.398566966405363E+000  0.306157937923148E+002 -0.773468473398763E+001  0.840422256549403E+001 -0.107889404046162E+002  0.108307469714654E+002  0.164203566609458E+002 -0.855750055157202E+000
  0.398566966405363E+000  0.305495709077050E+002 -0.151455447104443E+002  0.323888523162670E+001 -0.918153195827326E+001  0.154551417805535E+002  0.624068072476039E+001 -0.581864689186136E+001
  0.398566966405363E+000  0.304941432045882E+002 -0.122968749822888E+002  0.856737344532382E+001 -0.100076277152636E+002  0.537156359739409E+001 -0.316765840644345E+001  0.358469321511699E+001
  0.398566966405363E+000  0.304688305596181E+002 -0.134566643789598E+002  0.232697632699944E+001 -0.133622026120890E+002  0.726815567758178E+001  0.473336764314421E+001 -0.160028502671626E+001
  0.398566966405363E+000  0.303736115232556E+002 -0.710416294166968E+001  0.112189452259635E+002 -0.962384616299061E+001  0.142920331273247E+002  0.123976596469860E+002 -0.277246392980933E+001
  0.398566966405363E+000  0.303701590658018E+002 -0.121291993094428E+002  0.857297626928191E+001 -0.448414455409448E+001  0.114203422154081E+002 -0.584846976119874E+000 -0.114790023776152E+000
  0.398566966405363E+000  0.303673556171490E+002 -0.923459246601493E+001  0.112053042313712E+002 -0.999775554316169E+001  0.147469445875398E+002  0.891960541974179E+001  0.742670658661588E+000
  0.398566966405363E+000  0.302964625254245E+002 -0.104734865941099E+002  0.813951843728263E+001 -0.694097826290650E+001  0.117187576059482E+002  0.101751882939353E+002 -0.337400447666823E+000
  0.398566966405363E+000  0.302800793392256E+002 -0.710031515641409E+001  0.107853163009706E+002 -0.107116971038094E+002  0.114447835619305E+002  0.915726205476785E+001 -0.415350003804070E+001
  0.398566966405363E+000  0.302267667699327E+002 -0.146100180524984E+002  0.581542707391930E+001 -0.511150592807722E+001  0.106504924461915E+002  0.608641619954113E-001  0.399713192108305E+000
  0.398566966405363E+000  0.302123257828635E+002 -0.840451357291361E+001  0.119174775905445E+002 -0.884321318150038E+001  0.143897710725841E+002  0.103338697810615E+002  0.570838148254659E+000
  0.398566966405363E+000  0.301855759313464E+002 -0.463663760372057E+001  0.150541522815998E+002 -0.884430569379672E+001  0.849900879713864E+001  0.616854425693977E+001  0.253815341699299E+001
  0.398566966405363E+000  0.300834849851281E+002 -0.855285934794681E+001  0.102095376803037E+002 -0.909695952003151E+001  0.565242355590932E+001 -0.169388934598420E+001 -0.226576929043382E+001
  0.398566966405363E+000  0.299996290083461E+002 -0.123450954760342E+002  0.850810237663853E+001 -0.123880418602979E+002  0.856243781913460E+001 -0.318241590710229E+001  0.613752640652304E+000
  0.398566966405363E+000  0.298905974394225E+002 -0.811227342749751E+001  0.114829988782310E+002 -0.102282774975382E+002  0.133775801470552E+002  0.906482480752543E+001 -0.247598266789884E+001
  0.398566966405363E+000  0.298594055086099E+002 -0.958963740452831E+001  0.104194112769770E+002 -0.133223920336086E+002  0.643915341761149E+001 -0.168491331149045E+001  0.293255116733365E+001
  0.398566966405363E+000  0.298431380065073E+002 -0.170232148814434E+002  0.489518956124968E-002 -0.893806452411206E+001  0.102632417539441E+002  0.216661570896572E+001 -0.443263293581576E+001
  0.398566966405363E+000  0.298340171791600E+002 -0.147850641054668E+002  0.232884868430176E+001 -0.107620839688230E+002  0.671561609240247E+001  0.249472348614659E+001  0.669341643998330E+000
  0.398566966405363E+000  0.298211522256777E+002 -0.895318364904714E+001  0.718509588727826E+001 -0.665582833235823E+001  0.191106552558872E+001  0.141433547651111E+000 -0.154032877698372E+001
  0.398566966405363E+000  0.297914384911474E+002 -0.735108340810577E+001  0.114053706245183E+002 -0.170890928661651E+002  0.991969767887336E+001  0.958001558111032E+001  0.247766487685678E+001
  0.398566966405363E+000  0.297827604901519E+002 -0.150144296173058E+002  0.248731740415935E+001 -0.729503709013759E+001  0.527063012470708E+001 -0.132828608603363E+001 -0.140313155308117E+001
  0.398566966405363E+000  0.297123549029640E+002 -0.114941072224318E+002  0.750922675965141E+001 -0.100829732432348E+002  0.109381001667800E+002  0.859801671231786E+001  0.149886323388318E+001
  0.398566966405363E+000  0.296723584104594E+002 -0.633756873222592E+001  0.104368355153107E+002 -0.106217459413163E+002  0.384547202730251E+001  0.427384635764018E+001 -0.210961662763688E+001
  0.398566966405363E+000  0.296585492564845E+002 -0.764461834919741E+001  0.131475102444897E+002 -0.103620997280508E+002  0.131788595191699E+002  0.762712443009487E+001  0.633419066242023E+000
  0.398566966405363E+000  0.296239057352690E+002 -0.100353787595697E+002  0.964221438654030E+001 -0.419227854696951E+001  0.795162445975351E+001  0.151503408827296E+001 -0.150045533855304E+001
  0.398566966405363E+000  0.296084007039809E+002 -0.133446256346095E+002  0.490288954593963E+001 -0.514055334673755E+001  0.104596480806643E+002  0.170305139562494E+001 -0.614926640550380E+001
  0.398566966405363E+000  0.295809997473191E+002 -0.124365116749395E+002  0.486461786972663E+001 -0.369278173526063E+001  0.136380493530639E+002  0.660358208769309E+001 -0.694479749660570E+001
  0.398566966405363E+000  0.295702635443478E+002 -0.506083623798391E+001  0.121051114811439E+002 -0.960033192106229E+001  0.103692638826144E+002  0.149909762363963E+002 -0.128735523073202E+001
  0.398566966405363E+000  0.295694192069575E+002 -0.133373679395046E+002  0.472826613597486E+001 -0.126968923592737E+002  0.809080516954313E+001  0.457413124945834E+001  0.274626091464700E+001
  0.398566966405363E+000  0.295583128827511E+002 -0.138539395176290E+002  0.562206138068727E+001 -0.937449153365584E+001  0.735800493972044E+001 -0.715363236920023E+000  0.323780515951263E+001
  0.398566966405363E+000  0.295517692480204E+002 -0.794793415553141E+001  0.125236099020293E+002 -0.101859389398892E+002  0.108310202372847E+002  0.780418988198166E+001  0.178847954846090E+001
  0.398566966405363E+000  0.295428116383666E+002 -0.111514631913247E+002  0.655597063871705E+001 -0.113406044680043E+002  0.102650138674731E+002  0.395302683025865E+001 -0.243041809023277E+001
  0.398566966405363E+000  0.295162340044858E+002 -0.776703878262975E+001  0.136564720269441E+002 -0.616942201706864E+001  0.812285103500640E+001 -0.101301850943532E+001  0.169713902418439E+001
  0.398566966405363E+000  0.294814013807932E+002 -0.124823766920874E+002  0.317419221284992E+001 -0.117059291788725E+002  0.105421474339296E+002  0.896256660423694E+001 -0.511152759815651E+001
  0.398566966405363E+000  0.294639252134878E+002 -0.116157809178445E+002  0.801563292392898E+001 -0.147940929591329E+002  0.847402435429902E+001  0.151527205500845E+000  0.900208578585175E+000
  0.398566966405363E+000  0.294568194534991E+002 -0.937504201558384E+001  0.113883349854455E+002 -0.144579130063952E+002  0.105535422588851E+002  0.521879969186872E+001  0.265300632109709E+001
  0.398566966405363E+000  0.294235689968828E+002 -0.169845956477783E+002  0.564599838453532E+000 -0.821148829756178E+001  0.100882771837356E+002  0.137771338051682E+001 -0.264515831605169E+001
  0.398566966405363E+000  0.293958146934656E+002 -0.139212033987723E+002  0.597629013653938E+001 -0.132014565874488E+002  0.115807095023859E+002  0.234386109362000E+001 -0.548706540072409E+000
  0.398566966405363E+000  0.293448847168751E+002 -0.737633787396545E+001  0.995236609208543E+001 -0.130228263197923E+002  0.485419179354910E+001  0.907148200515579E+001  0.377312865267834E+001
  0.398566966405363E+000  0.293307208147364E+002 -0.100084073099362E+002  0.978556193382709E+001 -0.123170144576247E+002  0.126145394288451E+002  0.569065452280386E+001  0.323446352587521E+000
  0.398566966405363E+000  0.292661271666760E+002 -0.132475130114313E+002  0.484219174837534E+001 -0.123602134692989E+002  0.629807959246499E+001 -0.120165975684079E+001 -0.184457429536100E+001
  0.398566966405363E+000  0.292487728776058E+002 -0.133024618198956E+002  0.694463062317049E+001 -0.638708990678413E+001  0.907846955228865E+001  0.510127897279290E+000  0.141326430343426E+001
  0.398566966405363E+000  0.292186622278053E+002 -0.732674266559506E+001  0.108396977606321E+002 -0.100814682943225E+002  0.781519101263850E+001  0.680803086978922E+001 -0.221965505668947E+001
  0.398566966405363E+000  0.292079400948138E+002 -0.114789544765212E+002  0.377448388238295E+001 -0.128185003574709E+002  0.733887405336436E+001  0.819903923377314E+001 -0.280964322531043E+001
  0.398566966405363E+000  0.291451208814006E+002 -0.144679790138262E+002  0.182055906695545E+001 -0.611430186191043E+001  0.853177827264744E+001  0.388469053524130E+001 -0.502765385487120E+001
  0.398566966405363E+000  0.291422409075506E+002 -0.129681387131320E+002  0.632147687767900E+001 -0.344615041340006E+001  0.961737677133333E+001 -0.278720003899326E+001 -0.472135893008229E+001
  0.398566966405363E+000  0.291381880152125E+002 -0.807233498155841E+001  0.109203856843171E+002 -0.529839832779647E+001  0.562955244496142E+001 -0.180677120924071E+001 -0.121139791809916E+001
  0.398566966405363E+000  0.291278371568393E+002 -0.703812335890331E+001  0.103055528238227E+002 -0.926698864733046E+001  0.124663484952782E+001 -0.174190619181250E+000  0.698238443957422E-002
  0.398566966405363E+000  0.291261367662098E+002 -0.127399707031414E+002  0.866617883117994E+001 -0.111356430617960E+002  0.987156055347415E+001 -0.260031201070607E+000  0.344210897496270E+001
  0.398566966405363E+000  0.291044203824454E+002 -0.104712951916227E+002  0.944754735492486E+001 -0.120035865188690E+002  0.729781454836358E+001 -0.756276043778666E+000  0.325353602500430E+001
  0.398566966405363E+000  0.290861727634289E+002 -0.136152633417364E+002  0.304395933267170E+001 -0.119510169195823E+002  0.900273345724410E+001  0.400053064846951E+001 -0.418305444856649E+001
  0.398566966405363E+000  0.290265091143077E+002 -0.828990146962076E+001  0.734712088162376E+001 -0.110069086049035E+002  0.976948668596469E+001  0.125734380960087E+002 -0.435222813736858E+001
  0.398566966405363E+000  0.290120012230865E+002 -0.127831427513016E+002  0.465671017613800E+001 -0.139496791543181E+002  0.111435313985424E+002  0.882711917835952E+001 -0.152907612958866E+001
  0.398566966405363E+000  0.290119301268955E+002 -0.125848686050425E+002  0.560248294019687E+001 -0.837763014358280E+001  0.291350299935223E+001 -0.418558308958574E+001 -0.500007413538786E+000
  0.398566966405363E+000  0.290115134513920E+002 -0.553189232460176E+001  0.107243454317042E+002 -0.793241575116392E+001  0.463811332657463E+001  0.878457272954664E+001 -0.120979595680151E+001
  0.398566966405363E+000  0.290091434534012E+002 -0.836656331430706E+001  0.102224003843450E+002 -0.160197502874617E+002  0.105488618751102E+002  0.996290270228575E+001  0.242264375117406E+001
  0.398566966405363E+000  0.289876667227818E+002 -0.778569485756409E+001  0.884254221076773E+001 -0.990623066650413E+001  0.738393748467195E+001  0.682577742730649E+001 -0.427081785583103E+001
  0.398566966405363E+000  0.289780351380145E+002 -0.847647715467454E+001  0.872283406992936E+001 -0.955563843590490E+001  0.464594563571406E+001  0.453903883505677E+001 -0.158229948310350E+001
  0.398566966405363E+000  0.289276388220335E+002 -0.566537462899643E+001  0.115467277931685E+002 -0.108342287622193E+002  0.112009090438236E+001  0.223061516538485E+001  0.134649466879929E+001
  0.398566966405363E+000  0.289193196067374E+002 -0.438880354400581E+001  0.122065876253674E+002 -0.913179814923866E+001  0.301414568352567E+001  0.722171051290548E+001  0.572990440648962E+000
  0.398566966405363E+000  0.289062551094584E+002 -0.130478411945908E+002  0.386282503874022E+001 -0.123335208723628E+002  0.399292455087690E+001 -0.324091389261127E-001  0.587059984310194E+000
  0.398566966405363E+000  0.288740667353532E+002 -0.100665416673505E+002  0.654710315495529E+001 -0.110697740054054E+002  0.179261872781450E+001  0.152351583143790E-001  0.108099088185423E+001
  0.398566966405363E+000  0.288214748674419E+002 -0.120490283898538E+002  0.644646987445324E+001 -0.230694026906450E+001  0.110615265871073E+002  0.173700740792064E+001 -0.579530540987477E+001
  0.398566966405363E+000  0.287871897363676E+002 -0.119962385874762E+002  0.359480133061378E+001 -0.761690022428369E+001  0.748678558656201E+001  0.638975073024766E+001 -0.484220475358776E+001
  0.398566966405363E+000  0.287583537145262E+002 -0.906042871846910E+001  0.645532748152443E+001 -0.650880678356612E+001  0.743086221389548E+001  0.829822991052806E+001 -0.511335368054134E+001
  0.398566966405363E+000  0.287521855133055E+002 -0.972245293425520E+001  0.917981337502668E+001 -0.720037439644060E+001  0.310343087193433E+001 -0.368464723096211E+001  0.217451792467199E+001
  0.398566966405363E+000  0.287077044393111E+002 -0.872882690471358E+001  0.118632886035161E+002 -0.712720827312911E+001  0.859050032210998E+001 -0.109305557905008E+001 -0.735878881947372E-002
  0.398566966405363E+000  0.286936268156355E+002 -0.106030699699288E+002  0.737021904064596E+001 -0.983496964653404E+001  0.326531109501278E+001 -0.733089585125441E+000 -0.369974693212839E+000
  0.398566966405363E+000  0.286881982513840E+002 -0.118592614091687E+002  0.772613261834323E+001 -0.106527182504297E+002  0.725254365539152E+001  0.225446787934640E+001  0.416617837292220E+001
  0.398566966405363E+000  0.286490070792898E+002 -0.120306885433311E+002  0.774289146590763E+001 -0.848538848383389E+001  0.123624057519860E+002  0.665107051074185E+001 -0.763239309279378E-001
  0.398566966405363E+000  0.286375155638094E+002 -0.963746060325457E+001  0.800556061817092E+001 -0.409933561543042E+001  0.604729464084338E+001  0.220014737648570E+001 -0.569222138878708E+000
  0.398566966405363E+000  0.286034608621031E+002 -0.115640374460390E+002  0.580547767784654E+001 -0.403588903540570E+001  0.950005070682129E+001  0.321651182591442E+001 -0.349743520996520E+001
  0.398566966405363E+000  0.285641433903543E+002 -0.121553436516113E+002  0.588808901918173E+001 -0.587161593439183E+001  0.886679668328921E+001  0.398036621499252E+001  0.651367808227512E-001
  0.398566966405363E+000  0.285410939947183E+002 -0.128221007926277E+002  0.412693723005087E+001 -0.112716540558695E+002  0.111223404339100E+002  0.740983797308417E+001 -0.169955391677801E+001
  0.398566966405363E+000  0.284906589100526E+002 -0.971584991373630E+001  0.106969962881326E+002 -0.119836176792514E+002  0.762785579446003E+001  0.246787676407928E+001  0.533227175868264E+001
  0.398566966405363E+000  0.284749807509281E+002 -0.748622366553795E+001  0.967497957329400E+001 -0.137814342315250E+002  0.558565167553320E+001  0.914469072399619E+001  0.166264206291051E+001
  0.398566966405363E+000  0.284096097258206E+002 -0.849617005338686E+001  0.109632666133412E+002 -0.100289044593123E+002  0.128267628084266E+002  0.734282712850274E+001 -0.202331062861127E+001
  0.398566966405363E+000  0.283591080854151E+002 -0.858532834633440E+001  0.870806067551035E+001 -0.101989523659184E+002  0.911427589258173E+001  0.102151227023217E+002  0.138353780226273E+001
  0.398566966405363E+000  0.283460469382669E+002 -0.106265764004208E+002  0.891952571508130E+001 -0.476571262319916E+001  0.678049361217639E+001 -0.127718549174464E+001  0.116462458955995E+001
  0.398566966405363E+000  0.283343449943558E+002 -0.106151765479468E+002  0.660834962166002E+001 -0.864867686142745E+001  0.130622043967497E+002  0.111329062349750E+002 -0.246385344738141E+001
  0.398566966405363E+000  0.283042655500516E+002 -0.925212464731968E+001  0.101130851212402E+002 -0.604045526711440E+001  0.576431421315563E+001 -0.303403639298228E+001 -0.135663709440756E+001
  0.398566966405363E+000  0.282889169866956E+002 -0.135064843625958E+002  0.672650626482549E+001 -0.981690914939558E+001  0.938054125561231E+001  0.102844190305778E+001  0.248485507019642E+001
  0.398566966405363E+000  0.282557292290925E+002 -0.139567133726982E+002  0.390652851489746E+001 -0.412140853504530E+001  0.862446326880343E+001  0.287499411926234E+000 -0.255605434008987E+001
  0.398566966405363E+000  0.282426268195751E+002 -0.111673583754648E+002  0.738513728230043E+001 -0.120423505861655E+002  0.798305556996220E+001  0.395076567336027E+000 -0.158912106262666E+001
  0.398566966405363E+000  0.282341922984186E+002 -0.109331323308225E+002  0.734970170653652E+001 -0.819086580675874E+001  0.539986528395350E+001  0.260331128560193E+001  0.802151780851112E+000
  0.398566966405363E+000  0.282156150996499E+002 -0.124556704653155E+002  0.571027574834620E+001 -0.676935062267894E+001  0.137643050870078E+002  0.843499936088944E+001 -0.266951512519621E+001
  0.398566966405363E+000  0.281001925880283E+002 -0.731436926568274E+001  0.111238738331221E+002 -0.115425596795394E+002  0.106799788108754E+002  0.779964171160999E+001 -0.150853046839950E+001
  0.398566966405363E+000  0.280364756054400E+002 -0.877544864106280E+001  0.126024181191913E+002 -0.886819231681763E+001  0.771793675435729E+001 -0.623531700114967E+000  0.271091667141300E+001
  0.398566966405363E+000  0.280089210456978E+002 -0.129987823399500E+002  0.355365312784888E+001 -0.608192996780005E+001  0.775472518623723E+001  0.441199806555529E+001 -0.252298715753926E+001
  0.398566966405363E+000  0.279954606963542E+002 -0.890463114680033E+001  0.101565541365212E+002 -0.781727977527737E+001  0.332533943278398E+001 -0.357176978223422E+001  0.204954873815439E+000
  0.398566966405363E+000  0.279909336357125E+002 -0.984815537797729E+001  0.100217731942299E+002 -0.724366497197618E+001  0.403887446681341E+001 -0.484510093836081E+001  0.160538662372345E+001
  0.398566966405363E+000  0.279871725469328E+002 -0.685254394817262E+001  0.114674415512086E+002 -0.108709609801813E+002  0.226122100826689E+001 -0.449583120813848E+000  0.204645077899964E+001
  0.398566966405363E+000  0.279867404432003E+002 -0.100686987576414E+002  0.777072574511150E+001 -0.836776010359086E+001  0.122126832310412E+002  0.774142617565769E+001 -0.512234139887286E+001
  0.398566966405363E+000  0.279844239947963E+002 -0.115642620545739E+002  0.801044062139299E+001 -0.427181963231792E+001  0.666289159778273E+001 -0.157681742051322E+001  0.575375232839338E+000
  0.398566966405363E+000  0.279755848151797E+002 -0.792887842407817E+001  0.115860463767924E+002 -0.101342704419548E+002  0.124324147365698E+002  0.806281807108621E+001 -0.356693730443041E+000
  0.398566966405363E+000  0.279726067321752E+002 -0.133757059827014E+002  0.664592664648499E+001 -0.116786178602744E+002  0.109325689209358E+002  0.618464266975217E+000  0.157727555016073E+000
  0.398566966405363E+000  0.279629292340158E+002 -0.859464884419728E+001  0.103149231693004E+002 -0.592858192757845E+001  0.358411069748209E+001 -0.285738187406697E+001  0.578242731606231E-001
  0.398566966405363E+000  0.279210804967849E+002 -0.139523527747496E+002  0.377606321002677E+001 -0.746817435684393E+001  0.994227837422443E+001  0.162277694771398E+001 -0.530023758328787E+001
  0.398566966405363E+000  0.279015410585984E+002 -0.123654988322499E+002  0.540564628706431E+001 -0.346463549982213E+001  0.832323074193284E+001  0.239596415723028E+001 -0.244374914325434E+001
  0.398566966405363E+000  0.278911313788078E+002 -0.963714900906561E+001  0.106294358172257E+002 -0.494763767527262E+001  0.824263190914331E+001 -0.144830578861690E+001 -0.579852228563553E+000
  0.398566966405363E+000  0.278681335083307E+002 -0.617318349266051E+001  0.133755721154811E+002 -0.835582452517311E+001  0.503474361579784E+001  0.833728454517750E+000  0.803112214539315E+000
  0.398566966405363E+000  0.278177777174654E+002 -0.573455413762322E+001  0.126509249160415E+002 -0.818592557219706E+001  0.831782943036666E+001  0.617602580052692E+001 -0.920582494432541E+000
  0.398566966405363E+000  0.277881458786548E+002 -0.957969870401881E+001  0.113360831825083E+002 -0.625605735121627E+001  0.100498031111099E+002  0.167915892464716E+001  0.787684019560530E+000
  0.398566966405363E+000  0.277076257483378E+002 -0.113470246501906E+002  0.872005023749462E+001 -0.109919961235738E+002  0.872375141566194E+001  0.437961730741225E+000 -0.289246014010299E+000
  0.398566966405363E+000  0.276354501970226E+002 -0.902768362436957E+001  0.891695945498094E+001 -0.112368528499531E+002  0.117863837859573E+002  0.974490800931438E+001 -0.301998302579200E+001
  0.398566966405363E+000  0.276244644919317E+002 -0.886677176248411E+001  0.103606235567559E+002 -0.639646125045480E+001  0.717733005499098E+001 -0.636423399518620E+000 -0.192294835622671E+001
  0.398566966405363E+000  0.276216679264625E+002 -0.864064410215834E+001  0.113459310698459E+002 -0.106716551100726E+002  0.980661868312887E+001  0.556484508402568E+001  0.490339629860504E+000
  0.398566966405363E+000  0.276137117059956E+002 -0.127175695677853E+002  0.482178241128293E+001 -0.108604768559669E+002  0.473619635372495E+001 -0.381956421362773E+000  0.947353538676953E+000
  0.398566966405363E+000  0.276088140320297E+002 -0.101619600675975E+002  0.737785939591326E+001 -0.109816902793007E+002  0.457726060973794E+001 -0.281218019454858E+000 -0.351213366667970E+000
  0.398566966405363E+000  0.275553678714458E+002 -0.127635174541698E+002  0.400731645464345E+001 -0.703834314064419E+001  0.113274828985527E+002  0.665296995838165E+001 -0.583686088822796E+001
  0.398566966405363E+000  0.275143525633233E+002 -0.143760861888729E+002  0.478235426110084E+001 -0.911635865973735E+001  0.103089602304570E+002  0.199156748898886E+000 -0.591734534871026E+000
  0.398566966405363E+000  0.274882761675748E+002 -0.132141407426673E+002  0.467580072203602E+001 -0.534900708135730E+001  0.108219786953750E+002  0.327737117774480E+001 -0.538659496688482E+001
  0.398566966405363E+000  0.274173346703083E+002 -0.735540040423596E+001  0.111690683480159E+002 -0.705210388089948E+001  0.115549742435659E+002  0.883576960958891E+001 -0.240362333723526E+001
  0.398566966405363E+000  0.273848010847381E+002 -0.784547720888401E+001  0.918775110407461E+001 -0.834531293749394E+001  0.323075336603514E+001  0.362345999726326E+001  0.115032283700152E+001
  0.398566966405363E+000  0.273780262655157E+002 -0.106136025785569E+002  0.686104750149511E+001 -0.109960896981059E+002  0.706912299246922E+001  0.605824002651666E+001  0.199585308479425E+001
  0.398566966405363E+000  0.272915663869033E+002 -0.629367579920672E+001  0.103256975343770E+002 -0.919689595711292E+001  0.738347246795301E+001  0.864572228937629E+001 -0.193914671888442E+001
  0.398566966405363E+000  0.272661623783736E+002 -0.100698748405398E+002  0.673876927952622E+001 -0.795916041420223E+001  0.485333320632650E+001  0.957600280297232E+000 -0.254012434361738E+001
  0.398566966405363E+000  0.272365805306870E+002 -0.142647976403092E+002  0.395468574934641E+001 -0.114077118160180E+002  0.996487691681467E+001  0.327501191885657E+001 -0.470888753635933E+000
  0.398566966405363E+000  0.272362157042804E+002 -0.110347116225933E+002  0.611203931754005E+001 -0.572831246001229E+001  0.543940123876423E+001 -0.707894022102415E-001 -0.295727052262076E+001
  0.398566966405363E+000  0.272215634226771E+002 -0.614482460733840E+001  0.119857506352513E+002 -0.840833367050928E+001  0.672746605500426E+001  0.502531754328140E+001 -0.155724056012937E+001
  0.398566966405363E+000  0.272106665054204E+002 -0.117273980080273E+002  0.638870321360957E+001 -0.600901315758053E+001  0.131880755176221E+002  0.696865619503011E+001 -0.436776905733388E+001
  0.398566966405363E+000  0.271750277057987E+002 -0.940512956417754E+001  0.111209651195959E+002 -0.888681672989507E+001  0.108300972233776E+002  0.273961517606366E+001  0.172479855751355E-001
  0.398566966405363E+000  0.271468828985342E+002 -0.859035524863805E+001  0.939298052873993E+001 -0.813678073764843E+001  0.930218959609446E+001  0.863901871152789E+001  0.763712731881235E+000
  0.398566966405363E+000  0.269732301226547E+002 -0.641261489506932E+001  0.115788538593414E+002 -0.814633758801447E+001  0.570767236033331E+001  0.670651098079110E+001  0.126118762373856E+001
  0.398566966405363E+000  0.269314643201934E+002 -0.106882448356094E+002  0.655511474016109E+001 -0.101236687525276E+002  0.764927796473528E+001  0.324970962787667E+001 -0.151812191314596E+001
  0.398566966405363E+000  0.268440897793915E+002 -0.117624349470948E+002  0.723696123918109E+001 -0.116101486749651E+002  0.106887939075687E+002  0.637443244318936E+001  0.127788565954788E+001
  0.398566966405363E+000  0.267757448362159E+002 -0.107495722887204E+002  0.751885581192320E+001 -0.866025361400713E+001  0.468347719694244E+001  0.733496002407758E+000  0.408784532212053E+000
  0.398566966405363E+000  0.266217429056302E+002 -0.106445252801888E+002  0.812344386309242E+001 -0.119702348388024E+002  0.996934838491496E+001  0.637705075726561E+001 -0.433536646081201E+000
  0.398566966405363E+000  0.265134768539147E+002 -0.612510923374427E+001  0.131554579095640E+002 -0.989878701133481E+001  0.807807629321873E+001  0.693139703490196E+001  0.191014829413939E+001
  0.398566966405363E+000  0.265102217792613E+002 -0.110990893250609E+002  0.823678476392709E+001 -0.121203331116053E+002  0.573722886306933E+001  0.324239163208890E+000  0.290619634790734E+001
  0.398566966405363E+000  0.264699807620052E+002 -0.860534771548161E+001  0.104118533497954E+002 -0.885781451875549E+001  0.910299188393146E+001  0.598274561596118E+001  0.169946846682906E+001
  0.398566966405363E+000  0.263518165715702E+002 -0.122475130749665E+002  0.665376600469683E+001 -0.123551899000391E+002  0.998159729485927E+001  0.368832294996726E+001 -0.199500374857035E+000
  0.398566966405363E+000  0.262425290482702E+002 -0.114275016434918E+002  0.831329780905725E+001 -0.832487847647458E+001  0.106099197996041E+002  0.255729840222138E+001  0.141928315007998E+000
  0.398566966405363E+000  0.261456048093043E+002 -0.128362393917548E+002  0.496452304494709E+001 -0.887257954441717E+001  0.765751089789271E+001  0.502128509781631E+000 -0.218898941095400E+001
  0.398566966405363E+000  0.261414762563107E+002 -0.102293489215221E+002  0.900854723668498E+001 -0.110452769696370E+002  0.659062031308565E+001  0.156149512963321E+000  0.314849306329613E+000
  0.398566966405363E+000  0.259364130586295E+002 -0.954607035603788E+001  0.860529139377925E+001 -0.126460523025248E+002  0.723051992484019E+001  0.533575415536055E+001  0.493422305334022E+000
  0.398566966405363E+000  0.258492716994622E+002 -0.115275505248033E+002  0.729000821900536E+001 -0.910141788422732E+001  0.958203069130191E+001  0.483636778131900E+001 -0.304484906067479E+000
  0.398566966405363E+000  0.257416084211528E+002 -0.809057345719451E+001  0.103163765455243E+002 -0.118109589031525E+002  0.814500358764519E+001  0.605048834218864E+001 -0.117615967773670E+000
  0.398566966405363E+000  0.257308776871062E+002 -0.120488728019165E+002  0.705124091003069E+001 -0.106745173010137E+002  0.794033705337176E+001  0.676152010187199E+000  0.747416052145571E+000
  0.398566966405363E+000  0.257013712371291E+002 -0.122722966714094E+002  0.554824731638155E+001 -0.683894153927328E+001  0.828529643684447E+001  0.190921642788344E+001 -0.231934898152981E+001
  0.398566966405363E+000  0.256577288366802E+002 -0.101882680972470E+002  0.775134117323697E+001 -0.113184076438887E+002  0.776755564501689E+001  0.363775895338394E+001 -0.115257406780300E+001
