  0.244146392075073E+000  0.185661347937817E+002 -0.113300329168943E+002  0.283446161263133E+001
  0.244146392075073E+000  0.150317291791158E+002  0.106630369162569E+002 -0.411803635919176E+001
  0.244146392075073E+000  0.139777485070010E+002  0.118042296223020E+002 -0.245831884445240E+001
  0.244146392075073E+000  0.139402585804074E+002  0.979966763304139E+001 -0.339306990118789E+000
  0.244146392075073E+000  0.137454841360970E+002  0.580379263655108E+001 -0.506368763355370E+001
  0.244146392075073E+000  0.136470702402415E+002 -0.838264168281756E+001 -0.409783896772459E+001
  0.244146392075073E+000  0.136020062857329E+002  0.172064523620142E+001  0.117886234275159E+002
  0.244146392075073E+000  0.132750909885286E+002 -0.821501986687993E+001 -0.399286847343090E+001
  0.244146392075073E+000  0.129864515878247E+002  0.894744991254279E+001  0.473715849012330E+001
  0.244146392075073E+000  0.127465913493990E+002 -0.848442023541394E+001 -0.228508783903412E+001
  0.244146392075073E+000  0.124663789436859E+002  0.443838231625809E+001  0.151526895432400E+001
  0.244146392075073E+000  0.124510531226724E+002  0.898774458733594E+001  0.213476897081849E+001
  0.244146392075073E+000  0.122234594444594E+002 -0.748344084186576E+001 -0.458495619349361E+001
  0.244146392075073E+000  0.119816930207036E+002 -0.108584937062812E+000  0.625058243197108E+001
  0.244146392075073E+000  0.118226942264618E+002 -0.525468120497172E+001  0.467619421410159E+001
  0.244146392075073E+000  0.117889068332666E+002  0.259821180854507E+001 -0.501613317739317E+001
  0.244146392075073E+000  0.117249662751169E+002 -0.113611756818795E+000  0.819977898153994E+000
  0.244146392075073E+000  0.116036821930975E+002 -0.102838608939289E+002 -0.730949622329848E+001
  0.244146392075073E+000  0.114620818926766E+002  0.366718124230089E+001  0.249944015429319E+001
  0.244146392075073E+000  0.114341792561799E+002 -0.861026803022601E+001 -0.885628048125974E+001
  0.244146392075073E+000  0.113124582318986E+002  0.395260427222592E+001  0.923612217184434E+001
  0.244146392075073E+000  0.112343681576509E+002  0.522491679073685E+000 -0.141337011910958E+001
  0.244146392075073E+000  0.111797513321033E+002  0.564689890664989E+001  0.201839790272233E+001
  0.244146392075073E+000  0.111644063174359E+002 -0.883974931372927E+001  0.145266203716053E+001
  0.244146392075073E+000  0.111502976482487E+002 -0.858617106300518E+001 -0.876302469672863E+001
  0.244146392075073E+000  0.111429273475905E+002  0.517558544425702E+001  0.817275752121042E+001
  0.244146392075073E+000  0.108061604608660E+002 -0.230660725643200E+001 -0.101074925432609E+001
  0.244146392075073E+000  0.107504625326107E+002  0.123740907379837E+001  0.249446451385266E+001
  0.244146392075073E+000  0.107049845170532E+002  0.457657638341942E+000  0.771785678243783E+001
  0.244146392075073E+000  0.106936373934208E+002  0.720375939300126E+000  0.435368694582696E+001
  0.244146392075073E+000  0.106630752177617E+002  0.726400037680989E+001  0.336935224040865E+001
  0.244146392075073E+000  0.106206631181660E+002  0.139588611485545E+001  0.454242969326476E+001
  0.244146392075073E+000  0.105561143049148E+002  0.714083308111431E+001  0.349179644510425E+001
  0.244146392075073E+000  0.105178432273596E+002  0.157596341639575E+001  0.347019623871048E+001
  0.244146392075073E+000  0.104661567798234E+002  0.677300910490822E+001  0.310983812754080E+001
  0.244146392075073E+000  0.104308237047118E+002  0.696870935959754E+001 -0.399221163629632E+001
  0.244146392075073E+000  0.104126694188645E+002  0.167426457483172E+001  0.515457116160887E+001
  0.244146392075073E+000  0.103984110917195E+002  0.220292111886399E+001  0.907623624333026E+001
  0.244146392075073E+000  0.103838056053163E+002  0.696369305087367E+001  0.426460609091420E+001
  0.244146392075073E+000  0.103465782526753E+002 -0.806504626316309E+001  0.195027654698221E+001
  0.244146392075073E+000  0.103366340586901E+002 -0.390235663216716E+001  0.407582067469876E+001
  0.244146392075073E+000  0.103092379890657E+002  0.852117592735620E+001 -0.179640228813653E+001
  0.244146392075073E+000  0.102926810847915E+002 -0.588214654518416E+001 -0.389174033730416E+001
  0.244146392075073E+000  0.102381871993170E+002  0.383160116221147E+001  0.351907616741726E+001
  0.244146392075073E+000  0.101195452009433E+002  0.510744753403827E+001  0.326731684555176E+001
  0.244146392075073E+000  0.101094480220668E+002  0.232068170451592E+001  0.474632614445653E+001
  0.244146392075073E+000  0.100737290342478E+002 -0.840084497971791E+001 -0.835178103189677E+001
  0.244146392075073E+000  0.100544897209893E+002  0.502870939978342E+001  0.336820313468139E+001
  0.244146392075073E+000  0.100364407958633E+002  0.465254533035029E+001  0.347453870046902E+001
  0.244146392075073E+000  0.100352665752918E+002  0.149802377073246E+001  0.673785968641725E+001
  0.244146392075073E+000  0.999828648517284E+001 -0.853946435451423E+001 -0.828459379263045E+001
  0.244146392075073E+000  0.997522513617623E+001  0.192129243519208E+001  0.834716651321556E+001
  0.244146392075073E+000  0.985237834531617E+001  0.441222629441278E+000 -0.461598412527566E+001
  0.244146392075073E+000  0.981168643978471E+001 -0.658160423993433E+000 -0.275755695018349E+001
  0.244146392075073E+000  0.978446417754587E+001  0.294029683720822E+001 -0.142190207714468E+001
  0.244146392075073E+000  0.977789450878321E+001  0.557641507396256E+001  0.594134924847886E+001
  0.244146392075073E+000  0.972225428357034E+001  0.801783202223938E+001 -0.322407475926368E+001
  0.244146392075073E+000  0.969021841532706E+001 -0.311166667702419E+001 -0.402908746324718E+001
  0.244146392075073E+000  0.967131853021249E+001 -0.435837289143081E+001 -0.791845720284762E+001
  0.244146392075073E+000  0.965636904294022E+001  0.304587619866659E+000  0.266666119304642E+001
  0.244146392075073E+000  0.963772764603974E+001 -0.442674575101266E+001 -0.337843599575041E+001
  0.244146392075073E+000  0.962612246888950E+001 -0.463219152017462E+001  0.363404672398922E+001
  0.244146392075073E+000  0.956437880631638E+001 -0.649657483537848E+001  0.287540720189560E+001
  0.244146392075073E+000  0.956096047683626E+001 -0.230794541241696E+001 -0.716425250765474E+001
  0.244146392075073E+000  0.951004689635235E+001 -0.414367251023502E+001 -0.242476549536947E+001
  0.244146392075073E+000  0.950520780556601E+001 -0.509353629598451E+001 -0.242504283523720E+001
  0.244146392075073E+000  0.947341569387124E+001  0.257586865882968E+001  0.645822369117131E+001
  0.244146392075073E+000  0.947128822131583E+001  0.101167207146972E+001 -0.406417986369481E+001
  0.244146392075073E+000  0.941984924867289E+001 -0.671359366572002E+000 -0.462314734601275E+001
  0.244146392075073E+000  0.940920621847375E+001 -0.467163651716590E+001  0.351349538639523E+001
  0.244146392075073E+000  0.938314389050036E+001 -0.121705903967648E+001  0.126131934722504E+001
  0.244146392075073E+000  0.931935894774648E+001  0.388519455325281E+001  0.520270290470368E+001
  0.244146392075073E+000  0.930440774757009E+001 -0.270324589541452E+001  0.297124523519958E+000
  0.244146392075073E+000  0.926872845844542E+001 -0.166514646168284E+001  0.368286760755286E+001
  0.244146392075073E+000  0.922746480590830E+001  0.792626088804608E+001 -0.260462657912195E+001
  0.244146392075073E+000  0.917706590338054E+001  0.663742516874827E+001 -0.354978795557137E+001
  0.244146392075073E+000  0.917461123328124E+001  0.193028047638698E+000 -0.306865091942385E+001
  0.244146392075073E+000  0.964507682736038E+001  0.267101271611814E+000 -0.322151780801931E+001
  0.244146392075073E+000  0.958432768401369E+001 -0.172601749700971E+001 -0.464470366243617E+001
  0.244146392075073E+000  0.951154585740984E+001  0.568115388553203E+000 -0.335325403787526E+001
  0.244146392075073E+000  0.933923000724484E+001  0.742639320862884E+001 -0.266018409364795E+001
  0.244146392075073E+000  0.929275939026676E+001  0.327389355818957E+001 -0.385824911289705E+001
  0.244146392075073E+000  0.905594740811489E+001 -0.665143316139608E+001 -0.776785807278204E+001
  0.244146392075073E+000  0.900427051726769E+001  0.172568297239465E+001 -0.345045871957041E+001
  0.244146392075073E+000  0.895692203447270E+001 -0.203619187641133E+001 -0.505176686991751E+001
  0.244146392075073E+000  0.890514538278962E+001  0.673989499444351E+001 -0.273952654243337E+001
  0.244146392075073E+000  0.887963448397751E+001 -0.488799842427163E+001 -0.536055947768016E+001
  0.244146392075073E+000  0.882349534325497E+001  0.500021307232644E+001 -0.196158768389719E+001
  0.244146392075073E+000  0.879645936100362E+001 -0.423759659760510E+001 -0.734693695551423E+001
  0.244146392075073E+000  0.876727893820716E+001 -0.733004484444182E+001 -0.718988152192999E+001
  0.244146392075073E+000  0.857634926729807E+001 -0.226696662658139E+001 -0.534058889987208E+001
  0.244146392075073E+000  0.936496768684272E+001  0.354175337314932E+001 -0.228386000060307E+001
  0.244146392075073E+000  0.930752061080476E+001  0.411976579875359E+001 -0.325225750531679E+001
  0.244146392075073E+000  0.926711021677712E+001  0.309003607942438E+001 -0.312399163074319E+001
  0.244146392075073E+000  0.924289087230791E+001  0.385173916098736E+001 -0.237184114763078E+001
  0.244146392075073E+000  0.924275509419670E+001  0.476776921617798E+001 -0.308546252418532E+001
  0.244146392075073E+000  0.921906315133752E+001  0.289833483144541E+001 -0.284291440502431E+001
  0.244146392075073E+000  0.921416194867283E+001  0.510607685537287E+001 -0.290370953832010E+001
  0.244146392075073E+000  0.919049657729115E+001  0.427377099890497E+001 -0.310088320938488E+001
  0.244146392075073E+000  0.914485690082688E+001  0.472317517263999E+001 -0.255655237747735E+001
  0.244146392075073E+000  0.914127255542295E+001  0.485519092874756E+001 -0.263256204149262E+001
  0.244146392075073E+000  0.907071379895644E+001  0.391980326410967E+001 -0.277595899618175E+001
