  0.175298383106468E+000  0.183046718258109E+002 -0.113300329168943E+002  0.283446161263133E+001
  0.175298383106468E+000  0.147702662111449E+002  0.106630369162569E+002 -0.411803635919176E+001
  0.175298383106468E+000  0.137162855390301E+002  0.118042296223020E+002 -0.245831884445240E+001
  0.175298383106468E+000  0.136787956124365E+002  0.979966763304139E+001 -0.339306990118789E+000
  0.175298383106468E+000  0.134840211681262E+002  0.580379263655108E+001 -0.506368763355370E+001
  0.175298383106468E+000  0.133856072722706E+002 -0.838264168281756E+001 -0.409783896772459E+001
  0.175298383106468E+000  0.133405433177621E+002  0.172064523620142E+001  0.117886234275159E+002
  0.175298383106468E+000  0.130136280205577E+002 -0.821501986687993E+001 -0.399286847343090E+001
  0.175298383106468E+000  0.127249886198539E+002  0.894744991254279E+001  0.473715849012330E+001
  0.175298383106468E+000  0.124851283814281E+002 -0.848442023541394E+001 -0.228508783903412E+001
  0.175298383106468E+000  0.122049159757151E+002  0.443838231625809E+001  0.151526895432400E+001
  0.175298383106468E+000  0.121895901547016E+002  0.898774458733594E+001  0.213476897081849E+001
  0.175298383106468E+000  0.119619964764885E+002 -0.748344084186576E+001 -0.458495619349361E+001
  0.175298383106468E+000  0.117202300527328E+002 -0.108584937062812E+000  0.625058243197108E+001
  0.175298383106468E+000  0.115612312584909E+002 -0.525468120497172E+001  0.467619421410159E+001
  0.175298383106468E+000  0.115274438652958E+002  0.259821180854507E+001 -0.501613317739317E+001
  0.175298383106468E+000  0.114635033071461E+002 -0.113611756818795E+000  0.819977898153994E+000
  0.175298383106468E+000  0.113422192251266E+002 -0.102838608939289E+002 -0.730949622329848E+001
  0.175298383106468E+000  0.112006189247058E+002  0.366718124230089E+001  0.249944015429319E+001
  0.175298383106468E+000  0.111727162882091E+002 -0.861026803022601E+001 -0.885628048125974E+001
  0.175298383106468E+000  0.110509952639277E+002  0.395260427222592E+001  0.923612217184434E+001
  0.175298383106468E+000  0.109729051896801E+002  0.522491679073685E+000 -0.141337011910958E+001
  0.175298383106468E+000  0.109182883641324E+002  0.564689890664989E+001  0.201839790272233E+001
  0.175298383106468E+000  0.109029433494651E+002 -0.883974931372927E+001  0.145266203716053E+001
  0.175298383106468E+000  0.108888346802778E+002 -0.858617106300518E+001 -0.876302469672863E+001
  0.175298383106468E+000  0.108814643796196E+002  0.517558544425702E+001  0.817275752121042E+001
  0.175298383106468E+000  0.105446974928951E+002 -0.230660725643200E+001 -0.101074925432609E+001
  0.175298383106468E+000  0.104889995646398E+002  0.123740907379837E+001  0.249446451385266E+001
  0.175298383106468E+000  0.104435215490824E+002  0.457657638341942E+000  0.771785678243783E+001
  0.175298383106468E+000  0.104321744254500E+002  0.720375939300126E+000  0.435368694582696E+001
  0.175298383106468E+000  0.104016122497908E+002  0.726400037680989E+001  0.336935224040865E+001
  0.175298383106468E+000  0.103592001501951E+002  0.139588611485545E+001  0.454242969326476E+001
  0.175298383106468E+000  0.102946513369439E+002  0.714083308111431E+001  0.349179644510425E+001
  0.175298383106468E+000  0.102563802593887E+002  0.157596341639575E+001  0.347019623871048E+001
  0.175298383106468E+000  0.102046938118525E+002  0.677300910490822E+001  0.310983812754080E+001
  0.175298383106468E+000  0.101693607367410E+002  0.696870935959754E+001 -0.399221163629632E+001
  0.175298383106468E+000  0.101512064508936E+002  0.167426457483172E+001  0.515457116160887E+001
  0.175298383106468E+000  0.101369481237487E+002  0.220292111886399E+001  0.907623624333026E+001
  0.175298383106468E+000  0.101223426373455E+002  0.696369305087367E+001  0.426460609091420E+001
  0.175298383106468E+000  0.100851152847045E+002 -0.806504626316309E+001  0.195027654698221E+001
  0.175298383106468E+000  0.100751710907192E+002 -0.390235663216716E+001  0.407582067469876E+001
  0.175298383106468E+000  0.100477750210949E+002  0.852117592735620E+001 -0.179640228813653E+001
  0.175298383106468E+000  0.100312181168207E+002 -0.588214654518416E+001 -0.389174033730416E+001
  0.175298383106468E+000  0.997672423134610E+001  0.383160116221147E+001  0.351907616741726E+001
  0.175298383106468E+000  0.985808223297248E+001  0.510744753403827E+001  0.326731684555176E+001
  0.175298383106468E+000  0.984798505409593E+001  0.232068170451592E+001  0.474632614445653E+001
  0.175298383106468E+000  0.981226606627691E+001 -0.840084497971791E+001 -0.835178103189677E+001
  0.175298383106468E+000  0.979302675301842E+001  0.502870939978342E+001  0.336820313468139E+001
  0.175298383106468E+000  0.977497782789246E+001  0.465254533035029E+001  0.347453870046902E+001
  0.175298383106468E+000  0.977380360732096E+001  0.149802377073246E+001  0.673785968641725E+001
  0.175298383106468E+000  0.973682351720199E+001 -0.853946435451423E+001 -0.828459379263045E+001
  0.175298383106468E+000  0.971376216820538E+001  0.192129243519208E+001  0.834716651321556E+001
  0.175298383106468E+000  0.959091537734532E+001  0.441222629441278E+000 -0.461598412527566E+001
  0.175298383106468E+000  0.955022347181386E+001 -0.658160423993433E+000 -0.275755695018349E+001
  0.175298383106468E+000  0.952300120957502E+001  0.294029683720822E+001 -0.142190207714468E+001
  0.175298383106468E+000  0.951643154081235E+001  0.557641507396256E+001  0.594134924847886E+001
  0.175298383106468E+000  0.946079131559949E+001  0.801783202223938E+001 -0.322407475926368E+001
  0.175298383106468E+000  0.942875544735620E+001 -0.311166667702419E+001 -0.402908746324718E+001
  0.175298383106468E+000  0.940985556224164E+001 -0.435837289143081E+001 -0.791845720284762E+001
  0.175298383106468E+000  0.939490607496937E+001  0.304587619866659E+000  0.266666119304642E+001
  0.175298383106468E+000  0.937626467806888E+001 -0.442674575101266E+001 -0.337843599575041E+001
  0.175298383106468E+000  0.936465950091865E+001 -0.463219152017462E+001  0.363404672398922E+001
  0.175298383106468E+000  0.930291583834553E+001 -0.649657483537848E+001  0.287540720189560E+001
  0.175298383106468E+000  0.929949750886541E+001 -0.230794541241696E+001 -0.716425250765474E+001
  0.175298383106468E+000  0.924858392838150E+001 -0.414367251023502E+001 -0.242476549536947E+001
  0.175298383106468E+000  0.924374483759516E+001 -0.509353629598451E+001 -0.242504283523720E+001
  0.175298383106468E+000  0.921195272590038E+001  0.257586865882968E+001  0.645822369117131E+001
  0.175298383106468E+000  0.920982525334498E+001  0.101167207146972E+001 -0.406417986369481E+001
  0.175298383106468E+000  0.915838628070204E+001 -0.671359366572002E+000 -0.462314734601275E+001
  0.175298383106468E+000  0.914774325050290E+001 -0.467163651716590E+001  0.351349538639523E+001
  0.175298383106468E+000  0.912168092252951E+001 -0.121705903967648E+001  0.126131934722504E+001
  0.175298383106468E+000  0.905789597977562E+001  0.388519455325281E+001  0.520270290470368E+001
  0.175298383106468E+000  0.904294477959924E+001 -0.270324589541452E+001  0.297124523519958E+000
  0.175298383106468E+000  0.900726549047456E+001 -0.166514646168284E+001  0.368286760755286E+001
  0.175298383106468E+000  0.896600183793744E+001  0.792626088804608E+001 -0.260462657912195E+001
  0.175298383106468E+000  0.891560293540969E+001  0.663742516874827E+001 -0.354978795557137E+001
  0.175298383106468E+000  0.891314826531039E+001  0.193028047638698E+000 -0.306865091942385E+001
  0.175298383106468E+000  0.983599056553592E+001 -0.406888308804309E+000  0.223915907369460E+001
  0.175298383106468E+000  0.970258304280393E+001 -0.576630225111976E+001 -0.663855425902369E+000
  0.175298383106468E+000  0.966843691000457E+001 -0.512196667883840E+001  0.315168468916954E+001
  0.175298383106468E+000  0.956335293517283E+001 -0.709737816186215E+001  0.162041656392338E+001
  0.175298383106468E+000  0.956004501729125E+001 -0.557942311333247E+001 -0.527867740811232E+000
  0.175298383106468E+000  0.952380857796615E+001 -0.261631812466839E+001  0.688558138103129E+000
  0.175298383106468E+000  0.946974518611925E+001 -0.448614699749610E+001 -0.318500717336629E+000
  0.175298383106468E+000  0.945779130323779E+001 -0.711348445790884E+001  0.130693155045117E+001
  0.175298383106468E+000  0.943764535756184E+001 -0.196026430452363E+001  0.118063311563490E+001
  0.175298383106468E+000  0.943613283804220E+001 -0.325044327137070E+001  0.338305838279834E+001
  0.175298383106468E+000  0.942987216336024E+001 -0.711481946672292E+001  0.110721187804311E+001
  0.175298383106468E+000  0.942893727045263E+001 -0.584992981067555E+001  0.267471551917744E+001
  0.175298383106468E+000  0.921276210452915E+001 -0.134569724333927E+001  0.191242612372962E+001
  0.175298383106468E+000  0.918207685069760E+001 -0.586377821845832E+001  0.100940374757705E-001
  0.175298383106468E+000  0.903061454701524E+001 -0.563068735267955E+001  0.246865722256239E+001
  0.175298383106468E+000  0.883015848950491E+001 -0.176754102407776E+001  0.205354253762203E+001
  0.175298383106468E+000  0.871967652205455E+001 -0.332870872681115E+001  0.954439567512001E+000
  0.175298383106468E+000  0.870983354679030E+001 -0.192242591897343E+001  0.214771408412860E+001
  0.175298383106468E+000  0.865854104485584E+001 -0.214804608006616E+001  0.191115912500372E+001
  0.175298383106468E+000  0.852662404775613E+001 -0.545675894805481E+001  0.199878097082158E+001
  0.175298383106468E+000  0.846466673342385E+001 -0.350420476468059E+001  0.115434572514386E+001
  0.175298383106468E+000  0.841516021131437E+001 -0.527526284982160E+001  0.195144647990242E+001
  0.175298383106468E+000  0.896228747335431E+001 -0.503091379641743E+001  0.140634045876493E+001
  0.175298383106468E+000  0.888971426419810E+001 -0.466246128090846E+001  0.153813198848449E+001
