  0.389284463486538E+000  0.189922191890926E+002 -0.113300329168943E+002  0.283446161263133E+001
  0.389284463486538E+000  0.154578135744267E+002  0.106630369162569E+002 -0.411803635919176E+001
  0.389284463486538E+000  0.144038329023119E+002  0.118042296223020E+002 -0.245831884445240E+001
  0.389284463486538E+000  0.143663429757183E+002  0.979966763304139E+001 -0.339306990118789E+000
  0.389284463486538E+000  0.141715685314079E+002  0.580379263655108E+001 -0.506368763355370E+001
  0.389284463486538E+000  0.140731546355524E+002 -0.838264168281756E+001 -0.409783896772459E+001
  0.389284463486538E+000  0.140280906810438E+002  0.172064523620142E+001  0.117886234275159E+002
  0.389284463486538E+000  0.137011753838395E+002 -0.821501986687993E+001 -0.399286847343090E+001
  0.389284463486538E+000  0.134125359831356E+002  0.894744991254279E+001  0.473715849012330E+001
  0.389284463486538E+000  0.131726757447099E+002 -0.848442023541394E+001 -0.228508783903412E+001
  0.389284463486538E+000  0.128924633389968E+002  0.443838231625809E+001  0.151526895432400E+001
  0.389284463486538E+000  0.128771375179833E+002  0.898774458733594E+001  0.213476897081849E+001
  0.389284463486538E+000  0.126495438397703E+002 -0.748344084186576E+001 -0.458495619349361E+001
  0.389284463486538E+000  0.124077774160146E+002 -0.108584937062812E+000  0.625058243197108E+001
  0.389284463486538E+000  0.122487786217727E+002 -0.525468120497172E+001  0.467619421410159E+001
  0.389284463486538E+000  0.122149912285775E+002  0.259821180854507E+001 -0.501613317739317E+001
  0.389284463486538E+000  0.121510506704278E+002 -0.113611756818795E+000  0.819977898153994E+000
  0.389284463486538E+000  0.120297665884084E+002 -0.102838608939289E+002 -0.730949622329848E+001
  0.389284463486538E+000  0.118881662879875E+002  0.366718124230089E+001  0.249944015429319E+001
  0.389284463486538E+000  0.118602636514908E+002 -0.861026803022601E+001 -0.885628048125974E+001
  0.389284463486538E+000  0.117385426272095E+002  0.395260427222592E+001  0.923612217184434E+001
  0.389284463486538E+000  0.116604525529618E+002  0.522491679073685E+000 -0.141337011910958E+001
  0.389284463486538E+000  0.116058357274142E+002  0.564689890664989E+001  0.201839790272233E+001
  0.389284463486538E+000  0.115904907127468E+002 -0.883974931372927E+001  0.145266203716053E+001
  0.389284463486538E+000  0.115763820435596E+002 -0.858617106300518E+001 -0.876302469672863E+001
  0.389284463486538E+000  0.115690117429014E+002  0.517558544425702E+001  0.817275752121042E+001
  0.389284463486538E+000  0.112322448561769E+002 -0.230660725643200E+001 -0.101074925432609E+001
  0.389284463486538E+000  0.111765469279216E+002  0.123740907379837E+001  0.249446451385266E+001
  0.389284463486538E+000  0.111310689123641E+002  0.457657638341942E+000  0.771785678243783E+001
  0.389284463486538E+000  0.111197217887317E+002  0.720375939300126E+000  0.435368694582696E+001
  0.389284463486538E+000  0.110891596130726E+002  0.726400037680989E+001  0.336935224040865E+001
  0.389284463486538E+000  0.110467475134769E+002  0.139588611485545E+001  0.454242969326476E+001
  0.389284463486538E+000  0.109821987002257E+002  0.714083308111431E+001  0.349179644510425E+001
  0.389284463486538E+000  0.109439276226705E+002  0.157596341639575E+001  0.347019623871048E+001
  0.389284463486538E+000  0.108922411751343E+002  0.677300910490822E+001  0.310983812754080E+001
  0.389284463486538E+000  0.108569081000227E+002  0.696870935959754E+001 -0.399221163629632E+001
  0.389284463486538E+000  0.108387538141754E+002  0.167426457483172E+001  0.515457116160887E+001
  0.389284463486538E+000  0.108244954870304E+002  0.220292111886399E+001  0.907623624333026E+001
  0.389284463486538E+000  0.108098900006272E+002  0.696369305087367E+001  0.426460609091420E+001
  0.389284463486538E+000  0.107726626479862E+002 -0.806504626316309E+001  0.195027654698221E+001
  0.389284463486538E+000  0.107627184540010E+002 -0.390235663216716E+001  0.407582067469876E+001
  0.389284463486538E+000  0.107353223843766E+002  0.852117592735620E+001 -0.179640228813653E+001
  0.389284463486538E+000  0.107187654801024E+002 -0.588214654518416E+001 -0.389174033730416E+001
  0.389284463486538E+000  0.106642715946279E+002  0.383160116221147E+001  0.351907616741726E+001
  0.389284463486538E+000  0.105456295962542E+002  0.510744753403827E+001  0.326731684555176E+001
  0.389284463486538E+000  0.105355324173777E+002  0.232068170451592E+001  0.474632614445653E+001
  0.389284463486538E+000  0.104998134295587E+002 -0.840084497971791E+001 -0.835178103189677E+001
  0.389284463486538E+000  0.104805741163002E+002  0.502870939978342E+001  0.336820313468139E+001
  0.389284463486538E+000  0.104625251911742E+002  0.465254533035029E+001  0.347453870046902E+001
  0.389284463486538E+000  0.104613509706027E+002  0.149802377073246E+001  0.673785968641725E+001
  0.389284463486538E+000  0.104243708804837E+002 -0.853946435451423E+001 -0.828459379263045E+001
  0.389284463486538E+000  0.104013095314871E+002  0.192129243519208E+001  0.834716651321556E+001
  0.389284463486538E+000  0.102784627406271E+002  0.441222629441278E+000 -0.461598412527566E+001
  0.389284463486538E+000  0.102377708350956E+002 -0.658160423993433E+000 -0.275755695018349E+001
  0.389284463486538E+000  0.102105485728568E+002  0.294029683720822E+001 -0.142190207714468E+001
  0.389284463486538E+000  0.102039789040941E+002  0.557641507396256E+001  0.594134924847886E+001
  0.389284463486538E+000  0.101483386788812E+002  0.801783202223938E+001 -0.322407475926368E+001
  0.389284463486538E+000  0.101163028106380E+002 -0.311166667702419E+001 -0.402908746324718E+001
  0.389284463486538E+000  0.100974029255234E+002 -0.435837289143081E+001 -0.791845720284762E+001
  0.389284463486538E+000  0.100824534382511E+002  0.304587619866659E+000  0.266666119304642E+001
  0.389284463486538E+000  0.100638120413506E+002 -0.442674575101266E+001 -0.337843599575041E+001
  0.389284463486538E+000  0.100522068642004E+002 -0.463219152017462E+001  0.363404672398922E+001
  0.389284463486538E+000  0.999046320162729E+001 -0.649657483537848E+001  0.287540720189560E+001
  0.389284463486538E+000  0.998704487214716E+001 -0.230794541241696E+001 -0.716425250765474E+001
  0.389284463486538E+000  0.993613129166325E+001 -0.414367251023502E+001 -0.242476549536947E+001
  0.389284463486538E+000  0.993129220087691E+001 -0.509353629598451E+001 -0.242504283523720E+001
  0.389284463486538E+000  0.989950008918214E+001  0.257586865882968E+001  0.645822369117131E+001
  0.389284463486538E+000  0.989737261662673E+001  0.101167207146972E+001 -0.406417986369481E+001
  0.389284463486538E+000  0.984593364398380E+001 -0.671359366572002E+000 -0.462314734601275E+001
  0.389284463486538E+000  0.983529061378465E+001 -0.467163651716590E+001  0.351349538639523E+001
  0.389284463486538E+000  0.980922828581126E+001 -0.121705903967648E+001  0.126131934722504E+001
  0.389284463486538E+000  0.974544334305738E+001  0.388519455325281E+001  0.520270290470368E+001
  0.389284463486538E+000  0.973049214288099E+001 -0.270324589541452E+001  0.297124523519958E+000
  0.389284463486538E+000  0.969481285375632E+001 -0.166514646168284E+001  0.368286760755286E+001
  0.389284463486538E+000  0.965354920121920E+001  0.792626088804608E+001 -0.260462657912195E+001
  0.389284463486538E+000  0.960315029869145E+001  0.663742516874827E+001 -0.354978795557137E+001
  0.389284463486538E+000  0.960069562859215E+001  0.193028047638698E+000 -0.306865091942385E+001
  0.389284463486538E+000  0.100711612226713E+002  0.267101271611814E+000 -0.322151780801931E+001
  0.389284463486538E+000  0.100104120793246E+002 -0.172601749700971E+001 -0.464470366243617E+001
  0.389284463486538E+000  0.993763025272074E+001  0.568115388553203E+000 -0.335325403787526E+001
  0.389284463486538E+000  0.976531440255574E+001  0.742639320862884E+001 -0.266018409364795E+001
  0.389284463486538E+000  0.971884378557767E+001  0.327389355818957E+001 -0.385824911289705E+001
  0.389284463486538E+000  0.948203180342579E+001 -0.665143316139608E+001 -0.776785807278204E+001
  0.389284463486538E+000  0.943035491257859E+001  0.172568297239465E+001 -0.345045871957041E+001
  0.389284463486538E+000  0.938300642978360E+001 -0.203619187641133E+001 -0.505176686991751E+001
  0.389284463486538E+000  0.933122977810052E+001  0.673989499444351E+001 -0.273952654243337E+001
  0.389284463486538E+000  0.930571887928841E+001 -0.488799842427163E+001 -0.536055947768016E+001
  0.389284463486538E+000  0.924957973856587E+001  0.500021307232644E+001 -0.196158768389719E+001
  0.389284463486538E+000  0.922254375631452E+001 -0.423759659760510E+001 -0.734693695551423E+001
  0.389284463486538E+000  0.919336333351806E+001 -0.733004484444182E+001 -0.718988152192999E+001
  0.389284463486538E+000  0.900243366260897E+001 -0.226696662658139E+001 -0.534058889987208E+001
  0.389284463486538E+000  0.932639024683777E+001 -0.223781721656508E+001 -0.600225039683537E+001
  0.389284463486538E+000  0.927346373777697E+001 -0.341331725700895E+001 -0.539825634593652E+001
  0.389284463486538E+000  0.902349143683555E+001 -0.412759267785924E+001 -0.569162729121433E+001
  0.389284463486538E+000  0.891156928546182E+001 -0.313296016514263E+001 -0.620890913673541E+001
  0.389284463486538E+000  0.891141686711374E+001 -0.576182062771275E+001 -0.661504190897649E+001
  0.389284463486538E+000  0.890032907743400E+001 -0.530575979944119E+001 -0.695759822676027E+001
  0.389284463486538E+000  0.885700902829749E+001 -0.347184275361809E+001 -0.639937930717379E+001
  0.389284463486538E+000  0.885297241795048E+001 -0.383150539185510E+001 -0.584116563108210E+001
  0.389284463486538E+000  0.874370670726756E+001 -0.515580322001552E+001 -0.661793002018429E+001
