  0.100000000000000E+001  0.169359262683704E+002  0.111997772523734E+002 -0.316613390877624E+000
  0.100000000000000E+001  0.199881841542901E+002 -0.113300329168943E+002  0.283446161263133E+001
  0.100000000000000E+001  0.159378377483788E+002 -0.270079097441921E+001  0.105818164045429E+002
  0.100000000000000E+001  0.152421520304459E+002  0.990253921864971E+001  0.110843586878572E+001
  0.100000000000000E+001  0.151675334966054E+002  0.580379263655108E+001 -0.506368763355370E+001
  0.100000000000000E+001  0.150691196007498E+002 -0.838264168281756E+001 -0.409783896772459E+001
  0.100000000000000E+001  0.144085009483331E+002  0.894744991254279E+001  0.473715849012330E+001
  0.100000000000000E+001  0.141686407099073E+002 -0.848442023541394E+001 -0.228508783903412E+001
  0.100000000000000E+001  0.138731024831808E+002  0.898774458733594E+001  0.213476897081849E+001
  0.100000000000000E+001  0.135474780184120E+002  0.436440808165727E+001  0.176724596825699E+001
  0.100000000000000E+001  0.134340659813005E+002 -0.804623390093891E+000  0.813625452941162E+001
  0.100000000000000E+001  0.134037423812120E+002 -0.108584937062812E+000  0.625058243197108E+001
  0.100000000000000E+001  0.132447435869701E+002 -0.525468120497172E+001  0.467619421410159E+001
  0.100000000000000E+001  0.132109561937750E+002  0.259821180854507E+001 -0.501613317739317E+001
  0.100000000000000E+001  0.131470156356253E+002 -0.113611756818795E+000  0.819977898153994E+000
  0.100000000000000E+001  0.131387339849506E+002  0.100825037572332E+002 -0.296297217007243E+001
  0.100000000000000E+001  0.130257315536058E+002 -0.102838608939289E+002 -0.730949622329848E+001
  0.100000000000000E+001  0.128841312531850E+002  0.366718124230089E+001  0.249944015429319E+001
  0.100000000000000E+001  0.128562286166883E+002 -0.861026803022601E+001 -0.885628048125974E+001
  0.100000000000000E+001  0.127345075924069E+002  0.395260427222592E+001  0.923612217184434E+001
  0.100000000000000E+001  0.126564175181593E+002  0.522491679073685E+000 -0.141337011910958E+001
  0.100000000000000E+001  0.126018006926116E+002  0.564689890664989E+001  0.201839790272233E+001
  0.100000000000000E+001  0.125864556779443E+002 -0.883974931372927E+001  0.145266203716053E+001
  0.100000000000000E+001  0.125723470087570E+002 -0.858617106300518E+001 -0.876302469672863E+001
  0.100000000000000E+001  0.125649767080988E+002  0.517558544425702E+001  0.817275752121042E+001
  0.100000000000000E+001  0.122282098213743E+002 -0.230660725643200E+001 -0.101074925432609E+001
  0.100000000000000E+001  0.121725118931190E+002  0.123740907379837E+001  0.249446451385266E+001
  0.100000000000000E+001  0.121270338775616E+002  0.457657638341942E+000  0.771785678243783E+001
  0.100000000000000E+001  0.121156867539292E+002  0.720375939300126E+000  0.435368694582696E+001
  0.100000000000000E+001  0.120851245782700E+002  0.726400037680989E+001  0.336935224040865E+001
  0.100000000000000E+001  0.120523442343029E+002 -0.983891078514061E+001 -0.787159924416613E+001
  0.100000000000000E+001  0.120427124786743E+002  0.139588611485545E+001  0.454242969326476E+001
  0.100000000000000E+001  0.119781636654231E+002  0.714083308111431E+001  0.349179644510425E+001
  0.100000000000000E+001  0.119398925878679E+002  0.157596341639575E+001  0.347019623871048E+001
  0.100000000000000E+001  0.118882061403317E+002  0.677300910490822E+001  0.310983812754080E+001
  0.100000000000000E+001  0.118528730652202E+002  0.696870935959754E+001 -0.399221163629632E+001
  0.100000000000000E+001  0.118347187793728E+002  0.167426457483172E+001  0.515457116160887E+001
  0.100000000000000E+001  0.118204604522279E+002  0.220292111886399E+001  0.907623624333026E+001
  0.100000000000000E+001  0.118058549658247E+002  0.696369305087367E+001  0.426460609091420E+001
  0.100000000000000E+001  0.117686276131837E+002 -0.806504626316309E+001  0.195027654698221E+001
  0.100000000000000E+001  0.117586834191984E+002 -0.390235663216716E+001  0.407582067469876E+001
  0.100000000000000E+001  0.117312873495741E+002  0.852117592735620E+001 -0.179640228813653E+001
  0.100000000000000E+001  0.117147304452999E+002 -0.588214654518416E+001 -0.389174033730416E+001
  0.100000000000000E+001  0.116602365598253E+002  0.383160116221147E+001  0.351907616741726E+001
  0.100000000000000E+001  0.115944210052474E+002 -0.389756426254033E+001  0.400483643018734E+001
  0.100000000000000E+001  0.115415945614517E+002  0.510744753403827E+001  0.326731684555176E+001
  0.100000000000000E+001  0.115314973825751E+002  0.232068170451592E+001  0.474632614445653E+001
  0.100000000000000E+001  0.114957783947561E+002 -0.840084497971791E+001 -0.835178103189677E+001
  0.100000000000000E+001  0.114765390814976E+002  0.502870939978342E+001  0.336820313468139E+001
  0.100000000000000E+001  0.114584901563717E+002  0.465254533035029E+001  0.347453870046902E+001
  0.100000000000000E+001  0.114573159358002E+002  0.149802377073246E+001  0.673785968641725E+001
  0.100000000000000E+001  0.114203358456812E+002 -0.853946435451423E+001 -0.828459379263045E+001
  0.100000000000000E+001  0.113972744966846E+002  0.192129243519208E+001  0.834716651321556E+001
  0.100000000000000E+001  0.112744277058245E+002  0.441222629441278E+000 -0.461598412527566E+001
  0.100000000000000E+001  0.112337358002931E+002 -0.658160423993433E+000 -0.275755695018349E+001
  0.100000000000000E+001  0.112110089639394E+002 -0.710805930174562E+000 -0.351755822326305E+001
  0.100000000000000E+001  0.112065135380542E+002  0.294029683720822E+001 -0.142190207714468E+001
  0.100000000000000E+001  0.111999438692916E+002  0.557641507396256E+001  0.594134924847886E+001
  0.100000000000000E+001  0.111443036440787E+002  0.801783202223938E+001 -0.322407475926368E+001
  0.100000000000000E+001  0.111122677758354E+002 -0.311166667702419E+001 -0.402908746324718E+001
  0.100000000000000E+001  0.110933678907208E+002 -0.435837289143081E+001 -0.791845720284762E+001
  0.100000000000000E+001  0.110784184034486E+002  0.304587619866659E+000  0.266666119304642E+001
  0.100000000000000E+001  0.110597770065481E+002 -0.442674575101266E+001 -0.337843599575041E+001
  0.100000000000000E+001  0.110481718293979E+002 -0.463219152017462E+001  0.363404672398922E+001
  0.100000000000000E+001  0.110214213660863E+002  0.311162328716625E+001 -0.146612828815603E+001
  0.100000000000000E+001  0.110096966342719E+002 -0.412546093171534E+001 -0.304693864175076E+001
  0.100000000000000E+001  0.109864281668247E+002 -0.649657483537848E+001  0.287540720189560E+001
  0.100000000000000E+001  0.109320962568607E+002 -0.414367251023502E+001 -0.242476549536947E+001
  0.100000000000000E+001  0.109272571660744E+002 -0.509353629598451E+001 -0.242504283523720E+001
  0.100000000000000E+001  0.108954650543796E+002  0.257586865882968E+001  0.645822369117131E+001
  0.100000000000000E+001  0.108933375818242E+002  0.101167207146972E+001 -0.406417986369481E+001
  0.100000000000000E+001  0.108766073096234E+002 -0.487562044604229E+001 -0.231595234919375E+001
  0.100000000000000E+001  0.108418986091813E+002 -0.671359366572002E+000 -0.462314734601275E+001
  0.100000000000000E+001  0.107332251942343E+002 -0.285127098415941E+001 -0.440926171836971E+001
  0.100000000000000E+001  0.106907778189538E+002 -0.166514646168284E+001  0.368286760755286E+001
  0.100000000000000E+001  0.106495141664167E+002  0.792626088804608E+001 -0.260462657912195E+001
  0.100000000000000E+001  0.105991152638889E+002  0.663742516874827E+001 -0.354978795557137E+001
  0.100000000000000E+001  0.105966605937896E+002  0.193028047638698E+000 -0.306865091942385E+001
  0.100000000000000E+001  0.105933390328772E+002 -0.433239542144367E+001  0.345857509305617E+001
  0.100000000000000E+001  0.104426454272411E+002 -0.346676540873122E+001 -0.463065091294587E+001
  0.100000000000000E+001  0.104402591092826E+002  0.568115388553203E+000 -0.335325403787526E+001
  0.100000000000000E+001  0.102679432591176E+002  0.742639320862884E+001 -0.266018409364795E+001
  0.100000000000000E+001  0.998466065998760E+001 -0.665143316139608E+001 -0.776785807278204E+001
  0.100000000000000E+001  0.988563528634542E+001 -0.203619187641133E+001 -0.505176686991751E+001
  0.100000000000000E+001  0.980834773585022E+001 -0.488799842427163E+001 -0.536055947768016E+001
  0.100000000000000E+001  0.977409052173376E+001 -0.736656714898051E+001 -0.737925009577403E+001
  0.100000000000000E+001  0.975220859512768E+001  0.500021307232644E+001 -0.196158768389719E+001
  0.100000000000000E+001  0.972517261287633E+001 -0.423759659760510E+001 -0.734693695551423E+001
  0.100000000000000E+001  0.969599219007987E+001 -0.733004484444182E+001 -0.718988152192999E+001
  0.100000000000000E+001  0.968431291733489E+001  0.354123564955536E+001 -0.355958553250810E+001
  0.100000000000000E+001  0.959415357187330E+001  0.429732464413079E+001 -0.204313044228129E+001
  0.100000000000000E+001  0.950440750586444E+001  0.322283072490982E+001 -0.341050924121138E+001
  0.100000000000000E+001  0.950071779175345E+001  0.599056664401632E+001 -0.288382713014745E+001
  0.100000000000000E+001  0.104613531760183E+002 -0.380630403774092E+000  0.259980152292869E+001
  0.100000000000000E+001  0.102642086433766E+002 -0.261631812466839E+001  0.688558138103129E+000
  0.100000000000000E+001  0.102428617731837E+002 -0.863429282486223E+000  0.307570565254944E+001
  0.100000000000000E+001  0.101981913686483E+002 -0.711348445790884E+001  0.130693155045117E+001
  0.100000000000000E+001  0.101780454229723E+002 -0.196026430452363E+001  0.118063311563490E+001
  0.100000000000000E+001  0.101765329034527E+002 -0.325044327137070E+001  0.338305838279834E+001
  0.100000000000000E+001  0.101702722287707E+002 -0.711481946672292E+001  0.110721187804311E+001
  0.100000000000000E+001  0.100771246972341E+002 -0.631746144921257E+001  0.369418365078644E-001
  0.100000000000000E+001  0.995316216993964E+001 -0.134569724333927E+001  0.191242612372962E+001
  0.100000000000000E+001  0.932580791035581E+001 -0.388898087718450E+001  0.269169474853548E+001
  0.100000000000000E+001  0.942593196566088E+001 -0.664528508812485E+001 -0.732838289118988E+001
  0.100000000000000E+001  0.924025090861287E+001 -0.542408161214108E+001 -0.728638282236879E+001
  0.100000000000000E+001  0.910216582461007E+001 -0.263301834978580E+001 -0.604023881795618E+001
  0.100000000000000E+001  0.936496768684272E+001  0.354175337314932E+001 -0.228386000060307E+001
  0.100000000000000E+001  0.936248273631920E+001  0.539955053974686E+001 -0.237916708736347E+001
  0.100000000000000E+001  0.932423266926219E+001  0.557674481524559E+001 -0.256657802089625E+001
  0.100000000000000E+001  0.930752061080476E+001  0.411976579875359E+001 -0.325225750531679E+001
  0.100000000000000E+001  0.924275509419670E+001  0.476776921617798E+001 -0.308546252418532E+001
  0.100000000000000E+001  0.921906315133752E+001  0.289833483144541E+001 -0.284291440502431E+001
  0.100000000000000E+001  0.910196355030037E+001  0.435961363079292E+001 -0.291526008990345E+001
  0.100000000000000E+001  0.908821136437206E+001  0.394776971350799E+001 -0.264033775807453E+001
  0.100000000000000E+001  0.899816922092966E+001 -0.412844472983592E+001 -0.571550972797576E+001
  0.100000000000000E+001  0.896100015288362E+001 -0.359872661429175E+001 -0.661642186084167E+001
  0.100000000000000E+001  0.892692724141028E+001 -0.470923973927524E+001 -0.693935040591449E+001
  0.100000000000000E+001  0.898358095904429E+001 -0.345725988770479E+001  0.225261398748536E+001
  0.100000000000000E+001  0.899333894314143E+001 -0.478087560157551E+001  0.197412351111726E+001
  0.100000000000000E+001  0.887104892864644E+001 -0.566819405821582E+001 -0.665450326932644E+001
  0.100000000000000E+001  0.877109387063747E+001 -0.492054555538758E+001 -0.624059904980825E+001
  0.100000000000000E+001  0.874253146062705E+001 -0.373249785748253E+001 -0.608640249822686E+001
  0.100000000000000E+001  0.872503821427857E+001 -0.461799671538730E+001 -0.619940863911427E+001
  0.100000000000000E+001  0.871759621549766E+001 -0.476439552691244E+001 -0.628352911776355E+001
  0.100000000000000E+001  0.871310080614032E+001 -0.459475724778589E+001 -0.621947804843037E+001
  0.100000000000000E+001  0.868821623196063E+001 -0.405901880627285E+001 -0.623510227710506E+001
