  0.100000000000000E+001  0.386960266965287E+002 -0.806998772493951E+001 -0.964245754550973E+000 -0.483263314404136E+001  0.672378824601033E+000  0.927359605245660E+001  0.605513458802952E+001 -0.227368527714995E+001
  0.100000000000000E+001  0.503812222716124E+002 -0.168627601208355E+002 -0.811224522592270E+001  0.586474063595848E+001  0.983741276909117E+001 -0.692042390287116E+001  0.531401654585674E+001 -0.172043776276465E+001
  0.100000000000000E+001  0.361292032943576E+002 -0.126924340759965E+001 -0.254955071944204E+001  0.984030687613225E+001  0.438012933031687E+001 -0.795203224674699E+001 -0.308988258870330E+001 -0.808604268032932E+001
  0.100000000000000E+001  0.378129279342692E+002  0.658835367054818E+001 -0.850510762079499E+001  0.957220949413805E+001  0.400127445548635E+001 -0.350418540582886E+001 -0.113400300418754E+001 -0.786106869023649E+001
  0.100000000000000E+001  0.378362124972863E+002  0.222861937831335E+001  0.229906714518747E+001 -0.402277563517123E+001  0.500389597223020E+001 -0.238826027850131E+001 -0.952445726007669E+001  0.163632947884769E+002
  0.100000000000000E+001  0.378366554570575E+002  0.936597912718239E+001 -0.330401295371961E+001  0.735746763811058E+001  0.885663413090529E+001  0.382774555853420E+000 -0.906034975385763E+001  0.613990466100453E+001
  0.100000000000000E+001  0.394475909890495E+002 -0.236627708458852E+001  0.107402577496595E+002 -0.141772484878189E+002 -0.487606511574448E+001  0.139655350728288E+002  0.749768222051497E+001 -0.853870623258738E+001
  0.100000000000000E+001  0.516905201103384E+002 -0.104334205575926E+002 -0.916374546349481E+000  0.467431050308298E+001  0.340852940453846E+001  0.101228437907522E+002  0.117529891194663E+001  0.570193457035939E+001
  0.100000000000000E+001  0.361376574271671E+002 -0.414058719251659E+001 -0.872034762437297E+001  0.117510692178874E+002  0.408030736239046E+001 -0.129320696476855E+002  0.515039201905271E+000 -0.943314991584379E+001
  0.100000000000000E+001  0.362216027002168E+002 -0.108941807872160E+002 -0.308671646329255E+001 -0.565930765185485E+001  0.517747642337222E+001  0.326787124148078E+001 -0.224832412965005E+001 -0.342398757222017E+001
  0.100000000000000E+001  0.362369083896214E+002 -0.316328584974573E+001  0.350416474010227E+001 -0.909094438301025E+001  0.973253988859865E+001 -0.317961260091827E+001 -0.606273681559461E+001 -0.892046964806521E+000
  0.100000000000000E+001  0.362608227816946E+002 -0.368114004758494E+001 -0.681090585881141E+001  0.575880199093746E+001  0.330955198193080E+001 -0.100536891923762E+002  0.186053275034849E+001 -0.703126036090074E+001
  0.100000000000000E+001  0.378766285057378E+002 -0.229767899040525E+001 -0.139874751605254E+002  0.897647135113014E+001  0.750448473912589E+001 -0.644983184126400E+001 -0.149790803817714E+001  0.111935278765894E+002
  0.100000000000000E+001  0.379032827194456E+002  0.307567907684116E+001  0.687007966263981E+001  0.825358782703909E+001  0.441587334562017E+001 -0.807630371668237E+001 -0.424456573656149E+001  0.323756336763379E+001
  0.100000000000000E+001  0.362910799020382E+002 -0.331321325648716E+000 -0.271090813693032E+001 -0.258223002615994E+001 -0.176134311145448E+001  0.243397505885053E+000  0.541665519232883E+000  0.645296365115665E+001
  0.100000000000000E+001  0.364054870294906E+002  0.942845335206023E+000  0.719196376452062E+001 -0.478532673470161E+001  0.630185476938478E+001  0.438794125088257E+001  0.217058609821059E+000  0.254714503784417E+001
  0.100000000000000E+001  0.364444446617738E+002 -0.290803126810413E+001 -0.698314883400278E+001  0.264806160849683E+001 -0.174991697123101E+001 -0.677355594067201E+001 -0.523184511097685E+001  0.499946973003671E+001
  0.100000000000000E+001  0.364781857464027E+002  0.185254673663979E+001 -0.352581341122576E+000  0.418929414016501E+001  0.302420247899303E+001 -0.861763142490558E+001 -0.166964719508180E+001 -0.684695645648548E+001
  0.100000000000000E+001  0.365006904638823E+002 -0.114442396587627E+002 -0.107912232000766E+002  0.126734329806240E+002  0.740715968962574E+001 -0.808022195767912E+001 -0.832152599786057E+001 -0.208867560740445E+001
  0.100000000000000E+001  0.365184323056503E+002 -0.277938833139597E+000  0.471673417935725E+001  0.342592725097735E+001 -0.849112475930109E+000 -0.509244165639504E+001 -0.423682952518536E+001  0.988352668585007E+001
  0.100000000000000E+001  0.424042029452085E+002 -0.187245482544895E+001 -0.132955456029794E+002  0.927161983023982E+001  0.798969007998109E+001 -0.866914364297639E+001 -0.758403927632985E+001  0.909054274935645E+000
  0.100000000000000E+001  0.395027856473070E+002 -0.152315320585443E+001  0.673388474302000E+001 -0.137633569637878E+002  0.259578991354784E+001 -0.160976341290333E+000 -0.413114183184107E+001 -0.497205353622009E+001
  0.100000000000000E+001  0.424226432910848E+002  0.165103396626126E+001 -0.170312975120180E+001  0.133495762705766E+001  0.470372585727779E+001  0.470537531114125E+001  0.117807982395490E-002 -0.752051410846825E+001
  0.100000000000000E+001  0.366788609353138E+002 -0.437345296543518E+001 -0.429263911265224E+000 -0.511122582629966E+000  0.937417748024018E+001 -0.228648236425147E+001 -0.973051697768639E+001  0.341959318163325E+001
  0.100000000000000E+001  0.367120693544043E+002  0.423448881209929E+001 -0.591215124960998E+001  0.459792139922111E+001  0.369532155042599E+001 -0.219749354115567E+000 -0.110314087581701E+001 -0.290125249026881E+001
  0.100000000000000E+001  0.367916844040191E+002 -0.594731474562027E+001  0.484972183066865E+001 -0.984725295814385E+001 -0.479233531341940E+001  0.904009835137156E+001 -0.351637932931780E+001 -0.578870890097963E+001
  0.100000000000000E+001  0.424457401442441E+002 -0.573491375190592E+001 -0.137259481237895E+002  0.171777682835657E+002  0.249175700675256E+001 -0.988062387667487E+001 -0.476353095726083E+001 -0.960199677604129E+001
  0.100000000000000E+001  0.368197167687209E+002 -0.414010234394329E+000 -0.137970465930462E+002  0.444237191173750E+001  0.653408655840693E+001 -0.505452661077361E+001 -0.329832956422532E+000  0.920822686217899E+001
  0.100000000000000E+001  0.368995241534641E+002 -0.442300094833244E+001 -0.977422344001020E+000  0.797831930514850E+001  0.350374136258169E+001 -0.117431177709640E+002 -0.196994173717810E+001 -0.620077444148407E+001
  0.100000000000000E+001  0.395153869895649E+002 -0.339815697951377E+001 -0.128909697508793E+002  0.480490427542564E+001 -0.357849118455101E+001 -0.178250400326671E+002 -0.348285271385903E+001  0.557411559729474E+001
  0.100000000000000E+001  0.395242772511067E+002  0.225790146180043E+001 -0.307041838922244E+001 -0.300022460479381E+001  0.786690474650577E+001  0.636470905463447E+000  0.245630807930519E+001 -0.378012693532184E+001
  0.100000000000000E+001  0.370426289731560E+002  0.677156374650897E+001  0.359282431435578E+001  0.898287076636205E+001  0.833355121243390E+000 -0.934312215205397E+001 -0.560571418548890E+001  0.114008284494127E+001
  0.100000000000000E+001  0.370453848841355E+002 -0.369371372359514E+001 -0.734511585731822E+001  0.688896641582121E+001  0.668298815252253E+001 -0.987390547045422E+000 -0.215543165068972E-001  0.116632204385222E+001
  0.100000000000000E+001  0.488513745703308E+002 -0.681972337613073E+001 -0.853844837374478E+000  0.306545919363252E+001 -0.276539540384630E+001 -0.206964008569859E+001 -0.104668223634984E+002 -0.232626369079935E+001
  0.100000000000000E+001  0.380254411174648E+002  0.175647720550644E+001 -0.852015116303174E+001  0.727910797249833E+001  0.341067219047693E+001 -0.123001808820795E+001 -0.701137620116023E+001 -0.461330836590633E+001
  0.100000000000000E+001  0.371740189616842E+002 -0.165790587793607E+001 -0.878417809161431E+001  0.251947541207759E+001  0.704628350363518E+001  0.280939621552660E+001  0.148568322127113E+001  0.753768909987342E+001
  0.100000000000000E+001  0.371891003605848E+002  0.223621774089517E+001  0.590410333312332E+001 -0.464516392455577E+001  0.553772927839309E+001 -0.873265233218745E+001 -0.704328784192011E+001  0.145924013055307E+002
  0.100000000000000E+001  0.373241696678130E+002  0.155906455934082E+001  0.150311418519382E+001 -0.147953924045995E+002  0.109227357453278E+002 -0.821488659311304E+001  0.102419288761578E+002  0.626512404572068E+001
  0.100000000000000E+001  0.381398957821790E+002  0.923818500795257E+001 -0.336021770127044E+000  0.654687903697253E+001  0.123345995235566E+002 -0.199531563428027E+001 -0.933940297995519E+001  0.114368275296715E+002
  0.100000000000000E+001  0.373459102696361E+002  0.136462696962108E+001  0.500741181247867E+001 -0.239536081045185E+001  0.866814223939181E+001 -0.553447289206985E+001 -0.903255934767884E+001  0.815951460827097E+000
  0.100000000000000E+001  0.426493381629081E+002 -0.602284104860470E+001  0.413863176166543E+001 -0.671249296750443E+001 -0.795729172359893E+001  0.989783295392566E+001 -0.280826494726178E+001 -0.846135363719488E+001
  0.100000000000000E+001  0.373508351513142E+002  0.188920644105895E+000  0.129204543119875E+002 -0.161678083017390E+002 -0.230314836530279E+001  0.974397417660256E+001  0.988597754183228E+000 -0.852841760611337E+001
  0.100000000000000E+001  0.373650576070299E+002 -0.525243907461862E+001 -0.110770603667397E+002  0.138846744749072E+001 -0.267653124805166E+001 -0.538885950439436E+001  0.390860338059581E+001  0.102932623671302E+002
  0.100000000000000E+001  0.373805112245047E+002 -0.292875223117582E+001 -0.136734350307480E+002  0.286019852970149E+000 -0.428264064971176E+001 -0.107834762878904E+002  0.183723099208856E+001  0.617266151627046E+001
  0.100000000000000E+001  0.382047471229422E+002  0.403420555183861E+001  0.209927435652446E-001 -0.375497610976452E+001  0.712726650650934E+001 -0.168937179937147E+001 -0.698810995763187E+001  0.130359351240204E+002
  0.100000000000000E+001  0.373929161664943E+002 -0.768870867201476E+001 -0.121817936699243E+002  0.150682995145906E+002  0.976529074462806E+001 -0.143536531376951E+002 -0.160686425222482E+001 -0.840760110526531E+001
  0.100000000000000E+001  0.374062968466888E+002  0.375307251579351E+001  0.733487703873557E+000  0.201885745784035E+001  0.139493836581653E+001 -0.508729999051950E+001 -0.376876915625555E+001 -0.591049021872726E+001
  0.100000000000000E+001  0.470308756762566E+002 -0.124231457231083E+002 -0.228135913144263E+002  0.121908901188256E+002  0.585003341804791E+001 -0.830082704166700E+001 -0.155626418121623E+001 -0.453728036176740E+001
  0.100000000000000E+001  0.375286299100744E+002 -0.358251107819621E+001  0.430444362351930E+001 -0.138040378969748E+002  0.641123787522097E+001  0.233230723263309E+001  0.448616810105361E+001 -0.559029545163958E+001
  0.100000000000000E+001  0.375771193978319E+002 -0.653005057056530E+001 -0.353578041727028E+001  0.785776512204767E+001  0.567411899740812E+001 -0.147349684091175E+002  0.701525596252218E+000 -0.741956631828922E+001
  0.100000000000000E+001  0.382915125815579E+002 -0.166473905766703E+001  0.671172187599844E+000 -0.291499526279838E+001 -0.277779136765931E+001  0.641938969033098E+001  0.666481384132525E+001  0.601032822328069E+001
  0.100000000000000E+001  0.383391116589508E+002 -0.164952068960959E+001  0.165905477626402E+001  0.902451760039686E+000  0.659933736634839E+001 -0.247302690982558E+001 -0.661984238117632E+001 -0.677974875911737E+000
  0.100000000000000E+001  0.395751433008174E+002 -0.104598513638551E+001  0.994269194782395E+001  0.308486772378585E+001  0.370429629691635E-001 -0.874041080645097E+001 -0.548171171812078E+001  0.286788010535659E+001
  0.100000000000000E+001  0.473312975413134E+002 -0.218703760560756E+001  0.741675024468724E+001 -0.788274082402104E+001 -0.440656229925359E+001 -0.351012821091581E+001 -0.131389255679065E+002  0.712834033649349E+001
  0.100000000000000E+001  0.383579146269565E+002  0.897470324874028E+001 -0.176984196207256E+001  0.100398070246699E+002  0.328889538303760E+001  0.316417016794751E+001 -0.107707705221781E+002  0.110044273182290E+001
  0.100000000000000E+001  0.383891632142901E+002 -0.873863460462263E+001 -0.154665824154251E+002  0.979051707584360E+001  0.822962499406317E+001 -0.110238381625064E+002 -0.459350410869959E+000  0.413440547678515E+001
  0.100000000000000E+001  0.375832130033017E+002  0.250273229131143E+001  0.623609104500906E+001  0.549419121903119E+001  0.684218491724543E+001  0.127871218578022E+000 -0.824621762908751E+001  0.469031037875257E+001
  0.100000000000000E+001  0.376605377922894E+002 -0.269648808717622E+001  0.317553934954535E+001 -0.971329446742550E+001  0.123020729950532E+002 -0.248968452724688E+001 -0.286689300126151E+001  0.160011141974157E+001
  0.100000000000000E+001  0.456030466126683E+002  0.150317529900428E+001 -0.971595456956315E+001  0.110761762390940E+001 -0.580261861572852E+001 -0.139605199752045E+002 -0.540558658698593E+001  0.212994101138448E+001
  0.100000000000000E+001  0.384215205148478E+002 -0.126021432562283E+001 -0.950286071991549E+001 -0.170544323874894E+001  0.613803840511967E+000 -0.497773570983230E+001  0.351796802555731E+001  0.950334115027764E+001
  0.100000000000000E+001  0.376895017214593E+002 -0.835576572728803E+001 -0.309552983185158E+001 -0.736595499517012E+000 -0.131766780621483E+001 -0.475909947633081E+001  0.124004359597805E+001  0.179868851585322E+001
  0.100000000000000E+001  0.384466224494335E+002 -0.863517185717238E+001 -0.162287220063376E+001  0.834815907669469E+001  0.615713038549412E+001 -0.844709609294227E+000 -0.833116585830563E+001  0.273008006269897E+001
  0.100000000000000E+001  0.427062795630546E+002 -0.815998507270287E+001  0.892894750068390E+001 -0.168623776940631E+002 -0.482876043278145E+001  0.150308252298204E+002  0.445956616554460E+001 -0.598302822666084E+001
  0.100000000000000E+001  0.407534836019242E+002 -0.786447775319992E+000 -0.329019680303950E+001  0.116714419334787E+001 -0.509114204464851E+000  0.695447933832217E+001 -0.576332707150121E+001  0.169314597510805E+001
  0.100000000000000E+001  0.396978301690412E+002  0.688071089931320E+000 -0.202935150163433E+002  0.647698625903745E+001 -0.547512888082359E+000 -0.622017575361631E+001 -0.857111665313703E+000  0.134454456448056E+002
  0.100000000000000E+001  0.407943503361735E+002 -0.125416187698909E+002 -0.153933327530213E+002  0.135522891666170E+002  0.801909512735124E+001 -0.829374012003625E+001 -0.626132211111166E+001 -0.531547810821486E+000
  0.100000000000000E+001  0.427514985185775E+002 -0.156818049241392E+001 -0.136645970617570E+002  0.103632154655148E+002  0.608101355687741E+001 -0.433334800934294E+001 -0.994953967349057E+001  0.556001081862967E+001
  0.100000000000000E+001  0.406885668413138E+002 -0.614125775037120E+001 -0.134487082360053E+002  0.448073387480961E+001  0.688322071671580E+001 -0.205326925266692E+001  0.114829267323139E+001  0.283943618332825E+001
  0.100000000000000E+001  0.404757137111570E+002 -0.109174344074148E+002  0.384895895603257E+001  0.106779744273424E+002  0.586010163497870E+001 -0.430379158647260E+001 -0.815812955061545E+001  0.287896699058894E+001
  0.100000000000000E+001  0.409294715678141E+002  0.410648298962469E+001  0.851715387903141E+001 -0.169393878949026E+001  0.944725855157469E+001 -0.367322271002386E+001 -0.483908942515302E+001  0.127143464323165E+000
  0.100000000000000E+001  0.427595480862919E+002 -0.283482106803664E+001  0.143046386516173E+001 -0.179092944061429E+001 -0.949100819685255E+001  0.290339039808758E+001 -0.630437571202608E+001  0.331007595129473E+001
  0.100000000000000E+001  0.406242691293616E+002 -0.484485926757188E+001 -0.125138018711343E+002  0.174958102687690E+002  0.382271985350644E+001 -0.122276564803018E+002 -0.265454453694310E+001 -0.103776376293225E+002
  0.100000000000000E+001  0.410684085534044E+002  0.441745220593326E+000 -0.131736307995630E+002  0.517605637207745E+001 -0.390722926829529E+001 -0.653296413437650E+001 -0.256733528279860E+001  0.148621277141986E+002
  0.100000000000000E+001  0.405682529621100E+002 -0.136218270055368E+002 -0.675227443301387E+001  0.165913295850011E+002  0.929048292224737E+001 -0.741656287763371E+001 -0.459847797423569E+001 -0.549361709915484E+000
  0.100000000000000E+001  0.410807175732653E+002  0.327617518967888E+001 -0.138966361322373E+002  0.608757107679512E+001  0.240810926592388E+001 -0.870227981464861E+001 -0.255109579610709E+001  0.162357209963201E+002
  0.100000000000000E+001  0.385554289983766E+002 -0.178938818348779E+000 -0.317339267146367E+001  0.109989770256693E+002  0.631676543819501E+001 -0.522960281878737E+001 -0.210828063908878E+001 -0.306767784561562E+001
  0.100000000000000E+001  0.449065533146654E+002  0.408504783536388E+001 -0.790231423108796E+001 -0.235255853153959E+000  0.126950110696251E+001 -0.711946652020789E+001 -0.472530582577984E+001  0.216547476273923E+001
  0.100000000000000E+001  0.448037342325917E+002 -0.152895533644838E+002 -0.522527291962880E+001  0.571094391416390E+001 -0.523181249530883E+001 -0.808865522386795E+001 -0.661568464184869E+001 -0.396841932057171E+001
  0.100000000000000E+001  0.447767574537550E+002  0.106187464846766E+002  0.171515584473388E+002 -0.944670341398288E+001  0.179658740991226E+001 -0.104435334321508E+001 -0.666931989701866E+001 -0.188256175149904E+001
  0.100000000000000E+001  0.403174409640569E+002  0.825246276227112E+001 -0.562150175674442E+001  0.393237103143596E+001  0.336726404099632E+001 -0.111755475441414E+001  0.202080808097158E+001 -0.461909453005914E+001
  0.100000000000000E+001  0.397464696580566E+002  0.641608097450875E+001  0.282796129047339E+001 -0.224525066681489E+001  0.463204272211270E+001 -0.168161647652591E+002 -0.864003425408761E+001  0.127220749790838E+002
  0.100000000000000E+001  0.392636946612838E+002 -0.482602447485813E+001  0.609811300949932E+000 -0.241178528677013E+001 -0.740811337860735E+001 -0.245538843505642E+001 -0.280377273245751E+001  0.340864818466056E+001
  0.100000000000000E+001  0.397633124623216E+002  0.589596595655316E+000  0.395072970770530E+001 -0.351022411912653E+001  0.175650327258768E+001 -0.102499321673064E+002 -0.721649056147381E+001  0.176453134013877E+002
  0.100000000000000E+001  0.392393463554574E+002  0.105136987116432E+002 -0.479860538733940E+001  0.454466533545072E+001  0.475789334205689E+001 -0.930758984634986E+001 -0.596836647974775E+001  0.792107734851144E+001
  0.100000000000000E+001  0.412777934719746E+002  0.471817382714569E+001 -0.117221952683493E+002  0.148114345741785E+002  0.581602659928020E+001 -0.517882211023330E+001 -0.133559851300877E+001 -0.995592401406578E+001
  0.100000000000000E+001  0.412813667670181E+002 -0.826521917676145E+001 -0.191463343499413E+002  0.894261175002415E+001  0.531121368573458E+001 -0.777835686406317E+001 -0.142611872859147E+001 -0.432889955310975E+001
  0.100000000000000E+001  0.385822799374668E+002  0.367667116996615E+001 -0.677409336251564E+000  0.275002143318896E+001  0.132900471656910E+002 -0.351574596580271E+000 -0.391388941583642E+001 -0.504301701257176E+001
  0.100000000000000E+001  0.412861242884134E+002 -0.785332732132645E+001 -0.414760080473916E+001 -0.785119227250861E+001  0.119992107552418E+002 -0.271178806119070E+001 -0.363808893676426E+001 -0.114847191736733E+001
  0.100000000000000E+001  0.392319003192887E+002 -0.982936643814162E+001 -0.445477751342156E+001  0.133592651102549E+001  0.299251634525789E+001  0.591585208047701E+001  0.190980345466972E+001  0.462619553866574E+001
  0.100000000000000E+001  0.386145360427217E+002  0.762745927890972E+000  0.699196609545578E+001  0.602447079602839E+001  0.614303737271376E+001 -0.531808555902831E+001 -0.417677340961111E+001  0.570199945707363E+001
  0.100000000000000E+001  0.413620945074829E+002 -0.243672909251618E+001  0.837330621983078E+001 -0.211831611536202E+001  0.449078843135099E+001  0.456395917887842E+001 -0.701403229796064E+001  0.909860632055504E+001
  0.100000000000000E+001  0.444111147395084E+002  0.453444173629726E+001 -0.110293037139547E+002  0.109877315415418E+001  0.325572288338704E+001  0.217665297977577E+001  0.375598524241010E+001 -0.188799341793428E+001
  0.100000000000000E+001  0.392270579058313E+002 -0.796053109231953E+001  0.558474048281365E+001  0.102407304322818E+002  0.757100788037534E+001 -0.658455871491333E+001 -0.121035998910771E+002 -0.693835558607958E-001
  0.100000000000000E+001  0.414626279047089E+002  0.808876214359328E+001  0.122712123206249E+002 -0.605602477100044E+001  0.783480722035625E+001 -0.285464260977509E+001 -0.754278838192921E+001  0.137159613647718E+000
  0.100000000000000E+001  0.414716581692762E+002  0.502618866582113E+001  0.606658798146783E+001 -0.181629591502838E+001  0.560203604495215E+001  0.132945317777511E+001 -0.237492174478547E+000 -0.118029980279580E+000
  0.100000000000000E+001  0.391357107867350E+002 -0.146876191411945E+002 -0.110463333136324E+002  0.107506868587776E+002  0.668047626657484E+001 -0.841856592558326E+001 -0.675514930297610E+001 -0.113643538015560E+001
  0.100000000000000E+001  0.391336014221245E+002 -0.598871926490968E+001 -0.134480292492082E+002  0.745044365660322E+001  0.215216626121429E+001 -0.132174443562780E+002 -0.204856500804404E+000  0.106635827683493E+002
  0.100000000000000E+001  0.416122990234694E+002 -0.725983224899166E+001  0.570458357070507E+001 -0.946190465332508E+001  0.331091566908638E+001  0.595416587195601E+001 -0.633764876635238E+001 -0.546493076645788E+001
  0.100000000000000E+001  0.416358710762352E+002 -0.285031340441596E+001 -0.128126740709510E+002  0.604310165616485E+001  0.745920529503076E+001 -0.253161927341889E+001 -0.403004039428261E+001  0.361316769449317E+001
  0.100000000000000E+001  0.417413087470629E+002 -0.245008907474109E+001 -0.564244631967899E+000  0.135687787565842E+002  0.775587185489422E+001 -0.287792185490542E+001 -0.112816705896069E+002 -0.351836450759159E+001
  0.100000000000000E+001  0.433667733060955E+002 -0.106079716916766E+002 -0.210854666146623E+002  0.107781360867123E+002  0.691126891579884E+001 -0.147173558857665E+002  0.659681268876647E+001 -0.859046666633494E+001
  0.100000000000000E+001  0.417788480023929E+002 -0.251724304509969E+001 -0.159742240406566E+002  0.392653549088913E+001  0.296369251568106E+001 -0.759640802436508E+000  0.499564841341330E+001  0.158572289968444E+002
  0.100000000000000E+001  0.419483835436661E+002  0.322767864815320E+001  0.636774612280866E+001  0.367810564690135E+001 -0.242385865032130E+001 -0.982744177184683E+001 -0.928132677042839E+001 -0.131827303595490E+001
  0.100000000000000E+001  0.390883145759749E+002  0.896254685973080E+001 -0.178735509091413E+001  0.960598630733383E+001  0.158378299345018E+001  0.296902956305636E+001 -0.109434730083683E+002  0.526463203606870E+000
  0.100000000000000E+001  0.390752150682676E+002 -0.963659813127171E+001 -0.884254527513864E+001  0.482405484859479E+001  0.122329757990981E+001 -0.974098246476013E+001 -0.277116000414368E+001  0.139681385867872E+001
  0.100000000000000E+001  0.439786920468934E+002  0.438252115722912E+001  0.413459519320227E+001  0.496400520590193E+001  0.519332107027087E+001 -0.166165007813390E+002 -0.450998201712158E+001  0.784995213721682E+001
  0.100000000000000E+001  0.439145426437026E+002  0.271994032840331E+001  0.343297802627524E+001  0.573611756044990E+000 -0.104101459544674E+001 -0.522971950309793E+001 -0.264300124375345E+001 -0.584482659354502E+001
  0.100000000000000E+001  0.420720078800386E+002 -0.489641325369610E+001  0.830989787072194E+001 -0.100797494824513E+002  0.351465666763469E+001  0.737496158206071E+001  0.318813288472658E+001 -0.116171101603359E+001
  0.100000000000000E+001  0.389616248786879E+002 -0.496837052444648E+001 -0.605902636899000E+001  0.319840463437249E+000 -0.167037928062993E+001  0.775666012999262E+001  0.971404059529636E+000  0.551566701629622E+001
  0.100000000000000E+001  0.389388752601009E+002 -0.103178759057179E+001 -0.124499930611128E+002  0.721888545933805E+001  0.489469539387295E+001 -0.177066942604547E+001 -0.611864715336237E+001  0.813581207013645E+001
  0.100000000000000E+001  0.435478471457269E+002 -0.603685421877162E+001  0.309225518479879E+001 -0.350307235253880E+001  0.372357895544674E+001  0.449042258765571E+001 -0.479268898685056E+001  0.553155504567739E+001
  0.100000000000000E+001  0.435538457180370E+002  0.397648259945296E+001  0.160144200895367E+002 -0.141274785106909E+002  0.322991265336223E+001  0.210862837414839E+001 -0.605448390305269E+001 -0.373359205603728E+001
  0.100000000000000E+001  0.437267654507947E+002  0.508591378911257E+001 -0.499299551757239E+001  0.890609113498513E+001  0.622204494528175E+001 -0.944687546628713E+001  0.745709738122122E+001 -0.111879780361215E+002
  0.100000000000000E+001  0.359979026112362E+002  0.853443117939835E+001 -0.426637086754080E+001  0.376990658845639E+000  0.306728966269294E+001  0.317098588517111E+001  0.148964117807180E+001 -0.961336719215638E+001
  0.100000000000000E+001  0.359516169221956E+002 -0.101117569557222E+002 -0.276169233632879E+001 -0.699488244398508E+001  0.914991458286331E+001  0.130063450475905E+001 -0.318861356011128E+001 -0.214572914427872E+001
  0.100000000000000E+001  0.358618527039447E+002  0.602007240551247E+001 -0.981401028985225E-001  0.537191066901934E+001  0.652401408171946E+001  0.139534510169593E+000 -0.766366330353147E+001  0.886351203634273E+001
  0.100000000000000E+001  0.357336058180275E+002 -0.750710256326762E+001 -0.654656901309661E+001  0.724259653562751E+001  0.558001549713789E+001 -0.797203618398336E+001 -0.408041400282240E+001  0.376382450489250E+001
  0.100000000000000E+001  0.357188234844710E+002 -0.140347187269602E+001  0.673155457429231E+001 -0.104022358003661E+002  0.197005039950087E+001  0.570119954376374E+000 -0.687262757423281E+001 -0.625688733959409E+001
  0.100000000000000E+001  0.356667908258879E+002 -0.947967625361965E+000 -0.718973682765857E+001  0.949168638158325E+001  0.608768244998846E+001 -0.937603804889738E+001  0.492989299092451E+001 -0.781390154916751E+001
  0.100000000000000E+001  0.356501607946327E+002 -0.207133647364392E+001 -0.540856859258739E+000  0.217058903671181E+001 -0.245771863944896E+000  0.663412886088997E+001  0.183474890268012E+001  0.422965566841935E+001
  0.100000000000000E+001  0.356384332707639E+002 -0.976486574572549E+001 -0.141586851536757E+001 -0.854900368512396E+000  0.285348790426140E+001 -0.657671890243513E+000  0.133995831469914E+001  0.502658567107172E+000
  0.100000000000000E+001  0.356330452875640E+002 -0.920559146335428E+000  0.451988066884140E+001 -0.704158160020662E+001  0.724511347470101E+001 -0.194304177793279E+001 -0.521647810343292E+001 -0.414453189570544E+001
  0.100000000000000E+001  0.355693220161258E+002 -0.108069037776114E+002 -0.149084883052692E+001 -0.923911034455510E+001  0.517129859644683E+001  0.646139073148676E+001  0.417772704174610E+001 -0.179862306392243E+001
  0.100000000000000E+001  0.355465662349245E+002 -0.106150217422947E+002 -0.103391426342660E+002  0.154934594615306E+002  0.628289850148743E+001 -0.113426282676721E+002 -0.399164850820119E+001 -0.611937668818629E+001
  0.100000000000000E+001  0.354264577595754E+002 -0.618210075695012E+001 -0.108079825739752E+002  0.125791457498099E+002  0.948545981682658E+001 -0.806499975172189E+001  0.185659755441185E+001 -0.504204436269378E+001
  0.100000000000000E+001  0.354248614317160E+002 -0.425459529713182E+001 -0.111565596775041E+001  0.128577595860966E+002  0.661777763850481E+001 -0.717383126076332E+001 -0.948915733118552E+001 -0.438348769529088E+001
  0.100000000000000E+001  0.353395314653752E+002 -0.679302991200570E+001 -0.196086591449012E+001  0.681084571075926E+001  0.238841883830477E+001 -0.741208264072321E+001 -0.627341096658645E+001 -0.343362816950167E+001
  0.100000000000000E+001  0.352412651777555E+002 -0.930649819459062E+001 -0.770559994540745E+001  0.515717734863410E+001  0.332489302803375E+001 -0.880570004509592E+001 -0.106806096187069E+001  0.112913596632226E+001
  0.100000000000000E+001  0.351820079399303E+002 -0.235218762703536E+000  0.730545676759566E+001 -0.969941594420913E+001  0.996086563006936E+001  0.551322931769111E+000 -0.234831297981372E+001 -0.250343146778885E+000
  0.100000000000000E+001  0.350966724379069E+002 -0.904737207336294E+001 -0.701672414067020E+001  0.983853999391263E+001  0.447165457760365E+001 -0.302589516327001E+001 -0.688392304205896E+001  0.179161691436426E+001
  0.100000000000000E+001  0.350808683316259E+002 -0.292312354318911E+001  0.753464429619503E+001 -0.122757130367700E+002  0.387156094092876E+001  0.382080262503031E+001  0.114027874290973E+001 -0.784798330525787E+001
  0.100000000000000E+001  0.350375627066426E+002 -0.542812744592108E+001  0.824694331742560E+000  0.719639535839509E+001  0.644284485540196E+001 -0.557530864126175E+001 -0.943616369273996E+001 -0.182447050820567E+001
  0.100000000000000E+001  0.348353152858713E+002  0.489975053046880E+000  0.637452314932526E+001 -0.809466150207776E+001  0.305702470146916E+001  0.196361786756386E+001 -0.593982029863305E+000 -0.231957752035192E+001
  0.100000000000000E+001  0.348333504014589E+002 -0.478119530199815E+001 -0.966739080492194E+001  0.485100252152997E+001 -0.350928430012200E+000 -0.727865329011896E+001 -0.558894773070715E+001  0.120771494161261E+001
  0.100000000000000E+001  0.347652592236084E+002 -0.763258709016466E+001 -0.191686371662044E+000 -0.789908638257728E+001  0.378920161251935E+001  0.491133835552715E+001  0.311314628429470E+001 -0.313703814016846E+001
  0.100000000000000E+001  0.345800787898084E+002  0.244710290018801E+000 -0.940185254072327E+001  0.109671858414418E+001 -0.294686704590319E+001 -0.655090672027429E+001 -0.351489232342989E+001  0.711346848098389E+001
  0.100000000000000E+001  0.345349393185739E+002 -0.173493825180390E+000 -0.892848679719690E+001  0.340801118705723E+000 -0.540727756300090E+001 -0.418361933074511E+001 -0.364603873500544E+001  0.649480819076950E+001
  0.100000000000000E+001  0.345227737577173E+002  0.194668286824170E+001 -0.916600323650599E+001  0.828255133279419E+001  0.450420094196130E+001 -0.799691868398869E+001 -0.236736609560522E+001 -0.842387463394783E+001
  0.100000000000000E+001  0.344681870821447E+002  0.356667471724733E+001  0.482145621071091E+000 -0.668355356056810E+001  0.826631145544903E+001 -0.559645001172289E+000  0.560898950101106E+001  0.184540416624024E+000
  0.100000000000000E+001  0.344307710436297E+002 -0.723265107757262E+001 -0.136142683722737E+002  0.110983573383067E+002  0.799212957015408E+001 -0.792719852573245E+001 -0.123503679956758E+001 -0.414844970176662E+001
  0.100000000000000E+001  0.344000939084863E+002  0.262642893189728E+000  0.461500353094507E+000 -0.351572152427661E+001 -0.255238234418297E+000  0.449848384931756E+001  0.612148093801117E+001  0.634567919129076E+000
  0.100000000000000E+001  0.342440029432240E+002 -0.535430612455147E+001  0.285379152278264E+001 -0.885063341218828E+001  0.370364588841653E+001  0.552025173581773E+001  0.313873781265495E+001  0.426508614888448E-001
  0.100000000000000E+001  0.341455414903510E+002  0.141869533493860E+001 -0.244295425067523E+001  0.766013148139857E+001  0.539697486385922E+001 -0.652359547598631E+001 -0.471626103494381E+001 -0.563757540955466E+001
  0.100000000000000E+001  0.341232222203452E+002 -0.875794132155135E+001 -0.425363170533589E+001  0.130509092684541E+002  0.765342955242955E+001 -0.815188903610036E+001 -0.778936482826748E+001 -0.328302709373398E+001
  0.100000000000000E+001  0.341231415063701E+002 -0.105485965589125E+002 -0.420728764492385E+001  0.986167861168062E+001  0.657368673798420E+001 -0.774738823293231E+001 -0.733201898633718E+001 -0.214168071507478E+001
  0.100000000000000E+001  0.340365392605897E+002 -0.547873776448944E+001 -0.662097588771672E+001  0.937637646260549E+001  0.869112755459174E+001 -0.675716914815515E+001  0.235507742282264E+001 -0.167953628572551E+001
  0.100000000000000E+001  0.339070172520801E+002 -0.121717293546033E+001 -0.487377590506889E+001  0.761832794283563E-001  0.675748497136610E+000  0.290872155337871E+001  0.155357835626598E+001 -0.561234580094398E+001
  0.100000000000000E+001  0.338983635347891E+002 -0.800414837657555E+001 -0.284412014392391E+001  0.941690633091935E+001  0.535848934404495E+001 -0.114877903806018E+002 -0.516604902707104E+001 -0.581336257593004E+001
  0.100000000000000E+001  0.337023894231321E+002  0.732929849470676E+000 -0.561967591354011E+001  0.678422058631279E+001  0.753500709968795E+001 -0.612129277095474E+001  0.591131111263355E+000 -0.449836271157515E+001
  0.100000000000000E+001  0.336000048680096E+002 -0.315090220387810E+001 -0.103139092605483E+002  0.106217244621889E+002  0.593151917789334E+001 -0.565335218133905E+001 -0.401648592220953E+001 -0.446721887947890E+001
  0.100000000000000E+001  0.334349950252404E+002  0.429621074988986E+001 -0.504304741362616E+001 -0.451635851303084E+001  0.268085300182126E+000 -0.135284201199535E+001  0.675426084479387E+001 -0.960308200201256E+001
  0.100000000000000E+001  0.332965340195984E+002  0.598082912912742E+001 -0.147751452377643E+001 -0.499304497928745E+001  0.824520839588466E+001 -0.296674608437939E+001  0.317864089567827E+001 -0.831919455723322E+001
  0.100000000000000E+001  0.330872763939600E+002 -0.381217981395483E+001  0.275128731350435E+001 -0.320642778236131E+001  0.408454594146720E+001  0.361836586879782E-001  0.463293702715474E+001  0.114208802458093E+001
  0.100000000000000E+001  0.330736531237313E+002 -0.284648676769438E+001 -0.254575604543490E+000  0.187158839879892E+001 -0.197253322266068E+000  0.510416577684068E+001  0.140053390320174E+001 -0.968423965903433E-001
  0.100000000000000E+001  0.330180763817785E+002  0.404529155379716E+001  0.125390813621760E+001 -0.225576446556544E+001  0.338534040135688E+001  0.301517215610570E+001  0.473541455941279E+001  0.517257027717637E+000
  0.100000000000000E+001  0.329633236520289E+002  0.557515965060681E+001 -0.650301590253672E+000  0.945660874723636E+000  0.750687727320327E+001  0.795728784619882E+000 -0.351601168886926E+000 -0.730066953199904E+001
  0.100000000000000E+001  0.327211735304787E+002 -0.247201092606904E+000 -0.712593491600779E+001  0.771230642652031E+001  0.410382378018599E+001 -0.694716269498306E+001 -0.131487197085064E+001 -0.708319810662990E+001
  0.100000000000000E+001  0.326230830095735E+002 -0.655155975712588E+001  0.848318715530926E+000 -0.740290012728199E+001  0.696504417186706E+001 -0.586475923792300E+001  0.550160092328587E+001  0.437393754239443E+001
  0.100000000000000E+001  0.325536494539340E+002 -0.198214716307470E+001  0.247338731771837E+001 -0.426693232708056E+001  0.675023378105271E+001 -0.260650404553193E+001  0.435555746398143E+001  0.443684005476790E+001
  0.100000000000000E+001  0.324650540737648E+002 -0.322118821188823E+000 -0.170733574209468E+001  0.245000251303489E+001  0.268772638059903E+001  0.588913724749961E+000  0.987675935814924E+000 -0.463462267096750E+001
  0.100000000000000E+001  0.322713215549856E+002  0.225523539465487E+001 -0.701228637656300E+000 -0.194179399193727E+001  0.268680173281289E+001  0.280896273640848E+001  0.461432451049133E+001 -0.113465424172504E+001
  0.100000000000000E+001  0.321922295160225E+002 -0.155573849260462E+001 -0.249787795102123E+001 -0.567813003531940E+001  0.104388170773353E+002 -0.793857047901608E+001  0.251374958812565E+001 -0.416510127379274E+001
  0.100000000000000E+001  0.315286011827546E+002 -0.634712683393998E+001  0.137077951358234E+001 -0.299897147017535E+001  0.417503749568037E+001 -0.243893802112224E+001  0.326206964311471E+001 -0.713620574331596E+000
  0.100000000000000E+001  0.314554837733321E+002 -0.236501954663703E+001  0.224646974343489E+000 -0.171362785469331E+001  0.865108168157731E+001 -0.962254425908466E+000  0.992989702947568E+000 -0.181087324865317E-001
  0.100000000000000E+001  0.312099700450171E+002  0.756277082638597E+000  0.610132217011696E+000 -0.146843596375874E+001  0.736497119951246E+001  0.457825217672109E+000  0.194718931337128E+001 -0.203952760927620E+001
  0.100000000000000E+001  0.311501515716325E+002  0.360715072931417E+001  0.238198806631955E+001 -0.757099890321546E+001  0.943047152673660E+001 -0.558770182660830E+001  0.585377588289220E+001 -0.102177397962097E+001
  0.100000000000000E+001  0.307337510087956E+002 -0.162493448463456E+001 -0.225701259105210E+001 -0.643256333131604E+001  0.983289706705821E+001 -0.712968359930496E+001  0.323903092499555E+001 -0.413201639036068E+001
  0.100000000000000E+001  0.305454624443202E+002 -0.465138668131894E+001 -0.219612622167212E+000 -0.909640923006044E+001  0.705812277590977E+001 -0.770231950822967E+001  0.678833505169887E+001  0.775381545644709E+000
  0.100000000000000E+001  0.304757819400354E+002  0.814836081578285E-001 -0.166017252276083E+001  0.188818822657045E+001  0.302327413033296E+001  0.234017666704258E+001  0.590697101027089E+000 -0.245309343151562E+001
  0.100000000000000E+001  0.303298083526960E+002 -0.724024104178422E+000  0.991401392639592E+000 -0.488481797959705E+001  0.577405927820091E+001 -0.591501717362206E+000  0.391413674127718E+001  0.748684542019802E+000
  0.100000000000000E+001  0.303195063722579E+002 -0.430188069604007E+000 -0.312479008666402E+001  0.248943064001321E+001  0.482055475941529E+000  0.425341788885430E+001  0.974610598143933E+000 -0.545167816656306E+001
  0.100000000000000E+001  0.302412123461071E+002  0.127929715433437E+001 -0.855030962467783E+000 -0.634358476523042E+001  0.100484429787290E+002 -0.820819503319533E+001  0.349117055461229E+001 -0.539407629114842E+001
  0.100000000000000E+001  0.301490526830543E+002 -0.199745369717956E+000  0.456193037173847E+000 -0.593820184027265E+001  0.689684070889601E+001 -0.635160311049369E+001  0.498372546937365E+001 -0.527596742874028E+001
  0.100000000000000E+001  0.297830281548937E+002  0.916615610844506E+000 -0.273951962004003E+001 -0.467735137467328E+001  0.525807623568316E+001 -0.319812782575178E+001  0.470832828475201E+001 -0.630978790250071E+001
  0.100000000000000E+001  0.296267290935867E+002  0.348344364652469E+000 -0.199962950118155E+001 -0.648371108591069E+001  0.538547454859009E+001 -0.164864524402060E+001  0.522518657973758E+001 -0.144138379531016E+001
  0.100000000000000E+001  0.291249643862088E+002  0.189692046975447E+001  0.455797737516495E+000 -0.706299708428131E+001  0.635727775706825E+001 -0.151461423806926E+001  0.599452253935569E+001  0.183930483306021E+000
  0.100000000000000E+001  0.289616616111750E+002 -0.261989660735882E+000 -0.662616157579460E+000 -0.382674779793606E+001  0.565741628655134E+001 -0.127140592153215E+001  0.310611192821197E+001 -0.231291456186431E+001
