  0.686985662873864E-001  0.230701773280391E+002  0.193307815841682E+001  0.551142960714358E+001 -0.165199714312340E+002
  0.686985662873864E-001  0.174206017618705E+002  0.232999502377210E+001 -0.103640493943345E+002 -0.261953489357586E+001
  0.686985662873864E-001  0.178143856528861E+002  0.114001988133852E+002  0.120713983418625E+000 -0.925499409099904E+001
  0.686985662873864E-001  0.221803603734432E+002 -0.358884727379137E+001 -0.623989584962283E+001 -0.833763301174689E+001
  0.686985662873864E-001  0.221256222721413E+002 -0.989590177527921E+001  0.623377597881262E+000 -0.189373000833618E+001
  0.686985662873864E-001  0.180858217771563E+002 -0.437804366273976E+000  0.165777091097024E+000 -0.105592075157339E+002
  0.686985662873864E-001  0.134945032382898E+002  0.591026518130878E+001  0.636084362481760E+001 -0.547799113720556E+001
  0.686985662873864E-001  0.184437828211735E+002  0.881752826546342E+001  0.195667494031618E+001 -0.126012299478611E+002
  0.686985662873864E-001  0.205622325567530E+002 -0.206040401890334E+001  0.545048440931762E+001 -0.829653459796247E+001
  0.686985662873864E-001  0.184858630439260E+002 -0.127624424562424E+002 -0.327964004389378E+001 -0.148092271262201E+002
  0.686985662873864E-001  0.189011669746499E+002  0.979529779573005E+001  0.645056984751531E+001 -0.934247187137652E+001
  0.686985662873864E-001  0.135640415561712E+002 -0.732182178172837E+001  0.285016722631282E+001 -0.140765345675110E+002
  0.686985662873864E-001  0.197596656085639E+002 -0.150332842445462E+000  0.155145876437096E+002  0.362035720086448E+001
  0.686985662873864E-001  0.200333510253168E+002 -0.127819521887724E+002 -0.112428391530685E+001 -0.108634628534592E+002
  0.686985662873864E-001  0.172120177065336E+002 -0.612544739101243E+001  0.304963960492482E+001 -0.153388113094155E+002
  0.686985662873864E-001  0.171207834313193E+002  0.109091789316482E+002  0.668734479454497E+001 -0.658516811041161E+001
  0.686985662873864E-001  0.170873937674444E+002  0.470390001211872E+001 -0.102331799870082E+002  0.104544905236181E+002
  0.686985662873864E-001  0.170326535838535E+002  0.121554039401602E+002 -0.381830710909707E+000 -0.730157164966304E+001
  0.686985662873864E-001  0.135799404476242E+002  0.832928165128831E+001  0.132122522385431E+001 -0.114200373801001E+002
  0.686985662873864E-001  0.168585192599404E+002  0.936343715714950E+001 -0.112810811605279E+002 -0.259588300278299E+001
  0.686985662873864E-001  0.160885459644903E+002  0.130110341640084E+002  0.309662407333800E+000 -0.143593430627689E+002
  0.686985662873864E-001  0.159645766781568E+002  0.650115133125439E+000  0.115110614208563E+002  0.387340438226740E+000
  0.686985662873864E-001  0.157416136344910E+002  0.885845371600318E+001 -0.332671278251279E+001 -0.460538881905881E+001
  0.686985662873864E-001  0.136675435474724E+002 -0.884050960567359E+001  0.618092329399950E+000 -0.136345250303765E+002
  0.686985662873864E-001  0.157061003482346E+002  0.814041705678935E+001 -0.102230044705200E+002 -0.378848787164670E+001
  0.686985662873864E-001  0.156585618458691E+002  0.100553395106368E+002  0.290864209611570E+000 -0.136630338714584E+002
  0.686985662873864E-001  0.155617917966505E+002  0.246008155697232E+001 -0.104598241742003E+002 -0.421736776360131E+001
  0.686985662873864E-001  0.154709008051853E+002 -0.540427992979645E+001  0.273667987444500E+001 -0.113766833753301E+002
  0.686985662873864E-001  0.154140139969728E+002 -0.121045862184077E+002 -0.192303063157625E+001 -0.131295939508919E+002
  0.686985662873864E-001  0.153963589420797E+002  0.974312696068464E+001  0.836339204134966E+001 -0.733582079935045E+001
  0.686985662873864E-001  0.136697046953009E+002 -0.648178255383842E+001  0.368269819408279E+001 -0.139750712341379E+002
  0.686985662873864E-001  0.153572662095087E+002 -0.567515803876044E+001  0.342561134808381E+001 -0.330443829253619E+001
  0.686985662873864E-001  0.151858690264097E+002 -0.442851343629506E+001  0.520292398076317E+001 -0.558579377108736E+001
  0.686985662873864E-001  0.151682542058781E+002  0.151206936011894E+002  0.506514651099493E+001 -0.104560615144841E+002
  0.686985662873864E-001  0.150574624992856E+002 -0.536332327167890E+001  0.494086346433925E+001 -0.148461187577560E+002
  0.686985662873864E-001  0.149861748660078E+002  0.151459560914867E+001  0.107055910631231E+002 -0.488038014032881E+000
  0.686985662873864E-001  0.136999964106557E+002  0.457217561562682E+001  0.170227173265679E+001 -0.107979541638298E+002
  0.686985662873864E-001  0.149049225561551E+002  0.489134126976652E+001  0.298476477383510E+000 -0.118724113415598E+002
  0.686985662873864E-001  0.148541248321912E+002  0.805605920782789E+001  0.789028731855681E+001 -0.463722959157807E+001
  0.686985662873864E-001  0.148258536611215E+002  0.838805310551681E+000 -0.704306137141170E+000 -0.362107694977563E+000
  0.686985662873864E-001  0.147968800561080E+002  0.108800933031837E+002  0.912755025596667E+000 -0.126105928787272E+002
  0.686985662873864E-001  0.147814982716519E+002  0.104932917378289E+002 -0.781671072323917E+001 -0.189070102858531E+001
  0.686985662873864E-001  0.147239374424346E+002  0.844618343584559E+001  0.145723002931821E+002 -0.750316456825551E+000
  0.686985662873864E-001  0.146120050008924E+002 -0.383361917160822E+001 -0.174691167782029E+001  0.608356814061048E+001
  0.686985662873864E-001  0.146017282457538E+002 -0.106438468126599E+002 -0.304086027839390E+001 -0.104560886500355E+002
  0.686985662873864E-001  0.145934611017646E+002  0.514268080227052E+001 -0.166938782765100E+001 -0.706605537007965E+001
  0.686985662873864E-001  0.145327454946256E+002 -0.759417806287276E+001  0.381996019352463E+001 -0.128015640599550E+002
  0.686985662873864E-001  0.138021808136955E+002  0.742037482192298E+001  0.866732211361219E+001 -0.385548356851855E+001
  0.686985662873864E-001  0.144020938182435E+002 -0.301421867157724E+001 -0.676064552296673E+000 -0.289653166006261E+001
  0.686985662873864E-001  0.142798698477057E+002 -0.883102474154231E+001 -0.238434845911354E+001 -0.470801583084048E+001
  0.686985662873864E-001  0.142106549188121E+002  0.237529455677027E+001 -0.771932790899821E+001 -0.665696878854709E+001
  0.686985662873864E-001  0.142041207785206E+002  0.106728580174723E+002 -0.756222720285729E+001 -0.230891999403683E+001
  0.686985662873864E-001  0.141714578729884E+002  0.454298236387817E+001 -0.938127005391340E+001 -0.504934819339708E+001
  0.686985662873864E-001  0.138039030976701E+002 -0.135587582204859E+002 -0.567283275162237E+001 -0.368156576292725E+001
  0.686985662873864E-001  0.140387990247424E+002  0.272385088813724E+001  0.699754546028267E+001 -0.411339994901697E+001
  0.686985662873864E-001  0.140289865136766E+002  0.157702646624546E+001  0.891220453159684E+001 -0.285580390455997E+001
  0.686985662873864E-001  0.139943883485800E+002  0.357235863279003E+001 -0.929514042392164E+000 -0.849705848225458E+001
  0.686985662873864E-001  0.137162849148186E+002  0.250713773801060E+001  0.630154759244108E+001 -0.512526367143197E+001
  0.686985662873864E-001  0.137022019903730E+002  0.461311408699488E+001 -0.463743762295978E+001  0.343080704189357E+001
  0.686985662873864E-001  0.136900965487253E+002  0.102399468585933E+002 -0.205343368079535E+001 -0.707611541123360E+001
  0.686985662873864E-001  0.135287061172210E+002 -0.387828682782223E+001 -0.444635071637790E+001  0.956643699205672E+001
  0.686985662873864E-001  0.135252865852293E+002  0.762797346376543E+001  0.209644020497818E+001 -0.113453009982509E+002
  0.686985662873864E-001  0.134244497171558E+002  0.529759548757929E+001  0.172620229260454E+001 -0.107646799472914E+002
  0.686985662873864E-001  0.134157188545430E+002  0.786472389719914E+001 -0.380215322862266E+001 -0.515637607910780E+001
  0.686985662873864E-001  0.133558303488490E+002  0.596960497019778E+001 -0.804471875151226E+001 -0.559564395395333E+001
  0.686985662873864E-001  0.132836404051068E+002  0.220574718166105E+001 -0.121700739619910E+001 -0.970412590916107E+001
  0.686985662873864E-001  0.132397415262118E+002  0.385415598591726E+001 -0.117442949608446E+001 -0.126257580884808E+001
  0.686985662873864E-001  0.131889531549504E+002  0.813849536569205E+001 -0.181934024101707E+001 -0.882028420647709E+001
  0.686985662873864E-001  0.131878874420269E+002  0.976848385936238E+001 -0.840830041633483E+001 -0.246284272132737E+001
  0.686985662873864E-001  0.131822489297693E+002  0.628864570464718E+001 -0.100376342215585E+002 -0.302231220962527E+001
  0.686985662873864E-001  0.129832907787682E+002 -0.202084925510787E+001 -0.995187501348685E+000  0.274192059033746E+001
  0.686985662873864E-001  0.128774783157718E+002  0.519426584020393E+001 -0.300800063181569E+001 -0.664549307865207E+001
  0.686985662873864E-001  0.128684879719300E+002  0.113249585467053E+002  0.352434333466697E+001 -0.113903850219224E+002
  0.686985662873864E-001  0.128666343700422E+002  0.107878092684114E+002  0.109894276176347E+002 -0.352550712081032E+001
  0.686985662873864E-001  0.128157249889654E+002  0.567663343631575E+001 -0.398329974297811E+001 -0.851116453003592E+001
  0.686985662873864E-001  0.127448490701690E+002  0.100688807798290E+002 -0.500731895975438E+001 -0.485754589103683E+001
  0.686985662873864E-001  0.127380424905548E+002  0.291612648284805E+001  0.103941560099716E+002 -0.153239370576686E+001
  0.686985662873864E-001  0.127046530963866E+002  0.708870000859699E+001  0.135350795195712E+002 -0.910806396030981E+000
  0.686985662873864E-001  0.127009369678581E+002 -0.334549084525370E+001 -0.322084225665930E+001  0.695571884362588E+001
  0.686985662873864E-001  0.126354438803150E+002  0.404142009012201E+001 -0.462828055733612E+001 -0.613475813464493E+001
  0.686985662873864E-001  0.125507046235415E+002  0.676479099826311E+001  0.136281915462476E+002 -0.202458978097848E+000
  0.686985662873864E-001  0.125175913423091E+002  0.153881891505473E+001 -0.907552012436925E+001  0.113178564400900E+002
  0.686985662873864E-001  0.124854340140191E+002  0.484594238049417E+001 -0.491858691566297E+001 -0.796708412713291E+001
  0.686985662873864E-001  0.124691652456294E+002  0.355474253578597E+001  0.118212171779082E+002 -0.707321122658257E+000
  0.686985662873864E-001  0.124385304463549E+002  0.405642636689405E+001 -0.527084502131554E+000 -0.101129827667728E+002
  0.686985662873864E-001  0.124368425255553E+002 -0.128203932659429E+001 -0.786080583380589E+001  0.118328650282605E+002
  0.686985662873864E-001  0.122871598601738E+002  0.142790110545299E-001 -0.779723563680712E+001  0.102590453069384E+002
  0.686985662873864E-001  0.122788366223600E+002  0.270640802596598E+001 -0.451769332276441E+001  0.494008526900252E+001
  0.686985662873864E-001  0.122124051752692E+002  0.749850315752631E+001 -0.609784305151799E+001 -0.420346891903658E+001
  0.686985662873864E-001  0.121556734436373E+002  0.820711538994144E+001 -0.803775628466233E+001 -0.352190684598653E+001
  0.686985662873864E-001  0.121340001502639E+002  0.502926134247154E+001 -0.129804681603748E+001 -0.973760779556581E+001
  0.686985662873864E-001  0.121121392224853E+002  0.128407961276644E+002  0.623565710902303E+001 -0.874001668596872E+001
  0.686985662873864E-001  0.121061669648450E+002  0.462614997986613E+001  0.103187270498595E+002 -0.303542619670739E+001
  0.686985662873864E-001  0.120560057471484E+002  0.127016842167908E+002  0.880370318413905E+001 -0.651458023834953E+001
  0.686985662873864E-001  0.120409044617013E+002  0.111035507563999E+002  0.837298584548395E+001 -0.589955105518989E+001
  0.686985662873864E-001  0.119527730455762E+002  0.111843490786715E+002  0.338963961602281E+001 -0.110095304827275E+002
  0.686985662873864E-001  0.119456534647898E+002  0.879758817126500E+001  0.719023273381945E+001 -0.594605180332993E+001
  0.686985662873864E-001  0.119331374360117E+002  0.697369673352137E+001 -0.188260362874141E+001 -0.868578167730120E+001
  0.686985662873864E-001  0.119173553846038E+002  0.622162216473530E+001 -0.765061590361904E+001 -0.510095996223207E+001
  0.686985662873864E-001  0.118656908111273E+002  0.109312226564922E+002  0.412565075076894E+001 -0.982090302916771E+001
  0.686985662873864E-001  0.118643971084011E+002  0.116153037521701E+002  0.101750722788975E+002 -0.552261069567616E+001
  0.686985662873864E-001  0.118607855298572E+002  0.545649979774299E+001  0.845452777027962E+001 -0.508271064588978E+001
  0.686985662873864E-001  0.118479637435608E+002  0.730693631794843E+001  0.342943278046640E+001 -0.940565285305152E+001
  0.686985662873864E-001  0.118380696550922E+002  0.376839320750377E+001 -0.579918596866763E+001 -0.619779177028204E+001
  0.686985662873864E-001  0.118188093331407E+002  0.104546339115503E+002  0.439549165770791E+001 -0.102842753267703E+002
  0.686985662873864E-001  0.117895761553136E+002  0.389964967487379E+001 -0.265735392544267E+001 -0.900960237256977E+001
  0.686985662873864E-001  0.117739635355767E+002  0.788082225477446E+001 -0.748700809734800E+001 -0.416382014374469E+001
  0.686985662873864E-001  0.117621267673505E+002  0.502594945226499E+001 -0.556130097586725E+001 -0.710570234542100E+001
  0.686985662873864E-001  0.121981564062339E+002  0.524476474457775E+001 -0.472837578828150E+001 -0.763370086753928E+001
  0.686985662873864E-001  0.121516665333347E+002  0.537934043592105E+001 -0.666071673518899E+001 -0.603691016616258E+001
  0.686985662873864E-001  0.121501089334911E+002  0.664480007175303E+001 -0.723456621741919E+001 -0.424227271068854E+001
  0.686985662873864E-001  0.121021974946213E+002  0.406792082633915E+001 -0.248859335114556E+001 -0.876932238774991E+001
  0.686985662873864E-001  0.120579486790678E+002  0.464084996410293E+000 -0.316465778648426E+001  0.488734848384468E+001
  0.686985662873864E-001  0.119443476710815E+002  0.384714720984980E+001 -0.447774967553086E+001  0.248512749626051E+001
  0.686985662873864E-001  0.118752536213528E+002  0.429970906996135E+001 -0.412154625281950E+001 -0.129132424752205E+001
  0.686985662873864E-001  0.118605106819799E+002  0.615009705449934E+001 -0.682434084611666E+001 -0.485287318010074E+001
  0.686985662873864E-001  0.118069292819153E+002 -0.254663676695683E+001 -0.261614977722509E+001  0.550801554270503E+001
  0.686985662873864E-001  0.118027288879595E+002  0.448044950168082E+001 -0.548535093950539E+001 -0.647712740965370E+001
  0.686985662873864E-001  0.116509923545528E+002  0.728973953233243E+001 -0.561615490180392E+001 -0.537195972208037E+001
  0.686985662873864E-001  0.116446612976976E+002  0.546059500848163E+001 -0.291022460566091E+001 -0.804802698669168E+001
  0.686985662873864E-001  0.116319780821618E+002  0.698288535094470E+001 -0.540379164464511E+001 -0.547383329942861E+001
  0.686985662873864E-001  0.116099275644096E+002  0.615132401747778E+001 -0.366888513813252E+001 -0.683459153411588E+001
  0.686985662873864E-001  0.115865802088640E+002  0.375814136681362E+001 -0.697218243789473E+001  0.611493887151666E+001
  0.686985662873864E-001  0.115811294103213E+002  0.700930053937782E+001 -0.556500778111511E+001 -0.550087013188761E+001
  0.686985662873864E-001  0.115247024449151E+002  0.700970106050329E+001 -0.499943647549836E+001 -0.621576284611750E+001
  0.686985662873864E-001  0.114886346328918E+002  0.607670254199449E+001 -0.422667279383709E+001 -0.714687597446143E+001
  0.686985662873864E-001  0.114634705098531E+002 -0.863405540035668E+000 -0.607605697613209E+001  0.859304769468355E+001
  0.686985662873864E-001  0.114561012160328E+002  0.593563357855830E+001 -0.371649297272267E+001 -0.722068049510876E+001
  0.686985662873864E-001  0.114511677153988E+002  0.670600537315353E+001 -0.436041927193430E+001 -0.660020158742095E+001
  0.686985662873864E-001  0.114193542970160E+002  0.736447636733294E+001 -0.739892566027556E+001 -0.278709508267358E+001
  0.686985662873864E-001  0.113795666204860E+002  0.455223878193067E+000 -0.805776738898769E+001  0.106325757456977E+002
  0.686985662873864E-001  0.113383447694755E+002  0.138982830502395E+001 -0.831713854182919E+001  0.103257010633089E+002
  0.686985662873864E-001  0.112719131429446E+002 -0.135021558696309E+001 -0.683616403841283E+001  0.107248500297191E+002
  0.686985662873864E-001  0.112383401050863E+002  0.195263308893882E+001 -0.678705521348438E+001  0.840752722585588E+001
  0.686985662873864E-001  0.111624831137839E+002  0.755971948635893E+001 -0.774841450967477E+001 -0.310555249499879E+001
  0.686985662873864E-001  0.109965827300541E+002 -0.209653399408879E+001 -0.208289905909340E+001  0.461867275832515E+001
  0.686985662873864E-001  0.109805461749123E+002  0.454764281173663E+001 -0.427374875200694E+001  0.244814280466133E+001
  0.686985662873864E-001  0.109789624990456E+002  0.202305117322825E+001 -0.191041577776207E+001 -0.402634978074197E-001
  0.686985662873864E-001  0.109084159425424E+002  0.776377788508118E+001 -0.748954816016165E+001 -0.256659573439401E+001
  0.686985662873864E-001  0.108577099514655E+002  0.672008506764715E+000 -0.636537660665824E+001  0.887760478683848E+001
  0.686985662873864E-001  0.107982756634895E+002  0.258422833472946E+001 -0.763362004659391E+001  0.813084783827711E+001
  0.686985662873864E-001  0.105540706732752E+002  0.339308356126730E+001 -0.791761716185484E+001 -0.756803408914599E+001
  0.686985662873864E-001  0.105489597246448E+002  0.673444365826590E+001 -0.113351495310004E+002 -0.926618267506506E+001
  0.686985662873864E-001  0.102943077436632E+002  0.377150259375393E+001 -0.635671698081205E+001  0.542692496717815E+001
  0.686985662873864E-001  0.102600644430553E+002 -0.168150949706062E+001 -0.273357935949067E+001  0.501427692998025E+001
  0.686985662873864E-001  0.101887416546771E+002  0.482639614721332E+000 -0.718007215721813E+001  0.927005852585138E+001
  0.686985662873864E-001  0.101775811061890E+002  0.522604430482115E+000 -0.135140212988349E+001  0.154981410579925E+001
  0.686985662873864E-001  0.100069290440644E+002 -0.231195649752330E+000 -0.155635616717577E+001  0.238979977438621E+001
  0.686985662873864E-001  0.100026579776632E+002 -0.154712473852708E+001 -0.559512762902543E+001  0.895413608842221E+001
  0.686985662873864E-001  0.995117775317700E+001  0.810111717532711E+001 -0.994103764466809E+001 -0.605115048421973E+001
  0.686985662873864E-001  0.976484008313290E+001  0.223447390214836E+001 -0.580197541992157E+001  0.673434707777377E+001
  0.686985662873864E-001  0.965244843003763E+001  0.102492975457908E+002 -0.803909921119081E+001 -0.128471440087997E+001
  0.686985662873864E-001  0.962880896200727E+001  0.660256310762164E+001 -0.103845017058470E+002 -0.785039248581447E+001
  0.686985662873864E-001  0.960519908562845E+001  0.500733369684916E+001 -0.411179223923662E+001 -0.557112862890634E+000
  0.686985662873864E-001  0.957545476646875E+001  0.661161795919462E+001 -0.112234264036473E+002 -0.912782558470229E+001
  0.686985662873864E-001  0.952375305725392E+001  0.378943288285480E+001 -0.421032327170561E+001  0.278854343644726E+001
  0.686985662873864E-001  0.941598499521591E+001  0.676386313779126E+000 -0.626915823804016E+001  0.853073643425341E+001
  0.686985662873864E-001  0.932031453566372E+001  0.216823775930272E+001 -0.621471248760397E+001  0.722743109785684E+001
  0.686985662873864E-001  0.930988835270168E+001 -0.487893532197177E+000 -0.382688016440293E+001  0.620010707825390E+001
  0.686985662873864E-001  0.929029382441926E+001  0.783768012264481E+001 -0.103630007051207E+002 -0.670544642964808E+001
  0.686985662873864E-001  0.914906853991015E+001  0.366292376630581E+001 -0.508400984946757E+001  0.407970665690502E+001
  0.686985662873864E-001  0.908316883137390E+001  0.218583585796458E+001 -0.365958785306269E+001  0.373812362668185E+001
  0.686985662873864E-001  0.900116036044047E+001  0.802434255852957E+001 -0.105429030847399E+002 -0.691037529113600E+001
  0.686985662873864E-001  0.894605516645959E+001 -0.107775679949691E+001 -0.503142419211759E+001  0.796766244339386E+001
  0.686985662873864E-001  0.894581813964007E+001 -0.739971196136505E+000 -0.362288877355864E+001  0.599406897469787E+001
  0.686985662873864E-001  0.893847615819599E+001  0.323953637592915E+000 -0.468058702824499E+001  0.583038273787901E+001
  0.686985662873864E-001  0.872294388050312E+001 -0.103627913177705E+001 -0.455942891626676E+001  0.729768349074676E+001
  0.686985662873864E-001  0.867042651013424E+001  0.816579150928317E+001 -0.828609886275913E+001 -0.362103948342347E+001
  0.686985662873864E-001  0.854905461908352E+001  0.749726464082338E+001 -0.673567882357690E+001 -0.201334207927149E+001
  0.686985662873864E-001  0.854675251673532E+001  0.154930898426958E+000 -0.545203976196215E+001  0.718745583379107E+001
  0.686985662873864E-001  0.852435263564197E+001  0.265905444281317E+001 -0.388713472840729E+001  0.342765182827121E+001
  0.686985662873864E-001  0.848695867013531E+001  0.700758237818071E+000 -0.624996170314155E+001  0.819136373203077E+001
  0.686985662873864E-001  0.845056649334952E+001  0.162317886372151E+001 -0.288636703716701E+001  0.282652433064920E+001
  0.686985662873864E-001  0.843506011757748E+001 -0.648993082743978E+000 -0.358272044637028E+001  0.546906633785648E+001
  0.686985662873864E-001  0.841601417655429E+001  0.165398147712834E+001 -0.337415877231440E+001  0.364686550270290E+001
  0.686985662873864E-001  0.841251647267853E+001  0.603960339935024E+001 -0.640608685082811E+001 -0.290768628153011E+001
  0.686985662873864E-001  0.833899511378923E+001 -0.352110785453220E+000 -0.333642342575027E+001  0.511731441506508E+001
  0.686985662873864E-001  0.829498316745779E+001  0.474667061725528E+001 -0.796947384946193E+001 -0.607179887383471E+001
  0.686985662873864E-001  0.824946451750040E+001  0.186324725826124E+001 -0.374856778884635E+001  0.397335532849971E+001
  0.686985662873864E-001  0.820220427642489E+001  0.219793980417611E+001 -0.363510091826203E+001  0.339230624884251E+001
  0.686985662873864E-001  0.817899237442907E+001  0.158135595660540E+001 -0.537150051897119E+001  0.591211895519968E+001
  0.686985662873864E-001  0.100466293984019E+002  0.124159683313769E+001 -0.569749475950890E+001  0.676110085730026E+001
  0.686985662873864E-001  0.996357054529434E+001  0.105845072098401E+001 -0.360233742524881E+001  0.404036746967689E+001
  0.686985662873864E-001  0.976592952493161E+001  0.143737781596123E+001 -0.511743755997429E+001  0.608024570819520E+001
  0.686985662873864E-001  0.973316615538806E+001  0.321648563863690E+000 -0.409745813633514E+001  0.545348042652960E+001
