  0.267252290826203E+000  0.247008358830273E+002  0.193307815841682E+001  0.551142960714358E+001 -0.165199714312340E+002
  0.267252290826203E+000  0.190512603168587E+002  0.232999502377210E+001 -0.103640493943345E+002 -0.261953489357586E+001
  0.267252290826203E+000  0.194450442078744E+002  0.114001988133852E+002  0.120713983418625E+000 -0.925499409099904E+001
  0.267252290826203E+000  0.238110189284315E+002 -0.358884727379137E+001 -0.623989584962283E+001 -0.833763301174689E+001
  0.267252290826203E+000  0.237562808271296E+002 -0.989590177527921E+001  0.623377597881262E+000 -0.189373000833618E+001
  0.267252290826203E+000  0.197164803321445E+002 -0.437804366273976E+000  0.165777091097024E+000 -0.105592075157339E+002
  0.267252290826203E+000  0.151251617932781E+002  0.591026518130878E+001  0.636084362481760E+001 -0.547799113720556E+001
  0.267252290826203E+000  0.200744413761618E+002  0.881752826546342E+001  0.195667494031618E+001 -0.126012299478611E+002
  0.267252290826203E+000  0.221928911117412E+002 -0.206040401890334E+001  0.545048440931762E+001 -0.829653459796247E+001
  0.267252290826203E+000  0.201165215989143E+002 -0.127624424562424E+002 -0.327964004389378E+001 -0.148092271262201E+002
  0.267252290826203E+000  0.205318255296381E+002  0.979529779573005E+001  0.645056984751531E+001 -0.934247187137652E+001
  0.267252290826203E+000  0.151947001111594E+002 -0.732182178172837E+001  0.285016722631282E+001 -0.140765345675110E+002
  0.267252290826203E+000  0.213903241635522E+002 -0.150332842445462E+000  0.155145876437096E+002  0.362035720086448E+001
  0.267252290826203E+000  0.216640095803050E+002 -0.127819521887724E+002 -0.112428391530685E+001 -0.108634628534592E+002
  0.267252290826203E+000  0.188426762615219E+002 -0.612544739101243E+001  0.304963960492482E+001 -0.153388113094155E+002
  0.267252290826203E+000  0.187514419863075E+002  0.109091789316482E+002  0.668734479454497E+001 -0.658516811041161E+001
  0.267252290826203E+000  0.187180523224326E+002  0.470390001211872E+001 -0.102331799870082E+002  0.104544905236181E+002
  0.267252290826203E+000  0.186633121388417E+002  0.121554039401602E+002 -0.381830710909707E+000 -0.730157164966304E+001
  0.267252290826203E+000  0.152105990026125E+002  0.832928165128831E+001  0.132122522385431E+001 -0.114200373801001E+002
  0.267252290826203E+000  0.184891778149286E+002  0.936343715714950E+001 -0.112810811605279E+002 -0.259588300278299E+001
  0.267252290826203E+000  0.177192045194785E+002  0.130110341640084E+002  0.309662407333800E+000 -0.143593430627689E+002
  0.267252290826203E+000  0.175952352331450E+002  0.650115133125439E+000  0.115110614208563E+002  0.387340438226740E+000
  0.267252290826203E+000  0.173722721894793E+002  0.885845371600318E+001 -0.332671278251279E+001 -0.460538881905881E+001
  0.267252290826203E+000  0.152982021024606E+002 -0.884050960567359E+001  0.618092329399950E+000 -0.136345250303765E+002
  0.267252290826203E+000  0.173367589032229E+002  0.814041705678935E+001 -0.102230044705200E+002 -0.378848787164670E+001
  0.267252290826203E+000  0.172892204008573E+002  0.100553395106368E+002  0.290864209611570E+000 -0.136630338714584E+002
  0.267252290826203E+000  0.171924503516387E+002  0.246008155697232E+001 -0.104598241742003E+002 -0.421736776360131E+001
  0.267252290826203E+000  0.171015593601735E+002 -0.540427992979645E+001  0.273667987444500E+001 -0.113766833753301E+002
  0.267252290826203E+000  0.170446725519611E+002 -0.121045862184077E+002 -0.192303063157625E+001 -0.131295939508919E+002
  0.267252290826203E+000  0.170270174970679E+002  0.974312696068464E+001  0.836339204134966E+001 -0.733582079935045E+001
  0.267252290826203E+000  0.153003632502892E+002 -0.648178255383842E+001  0.368269819408279E+001 -0.139750712341379E+002
  0.267252290826203E+000  0.169879247644970E+002 -0.567515803876044E+001  0.342561134808381E+001 -0.330443829253619E+001
  0.267252290826203E+000  0.168165275813980E+002 -0.442851343629506E+001  0.520292398076317E+001 -0.558579377108736E+001
  0.267252290826203E+000  0.167989127608663E+002  0.151206936011894E+002  0.506514651099493E+001 -0.104560615144841E+002
  0.267252290826203E+000  0.166881210542738E+002 -0.536332327167890E+001  0.494086346433925E+001 -0.148461187577560E+002
  0.267252290826203E+000  0.166168334209961E+002  0.151459560914867E+001  0.107055910631231E+002 -0.488038014032881E+000
  0.267252290826203E+000  0.153306549656439E+002  0.457217561562682E+001  0.170227173265679E+001 -0.107979541638298E+002
  0.267252290826203E+000  0.165355811111433E+002  0.489134126976652E+001  0.298476477383510E+000 -0.118724113415598E+002
  0.267252290826203E+000  0.164847833871794E+002  0.805605920782789E+001  0.789028731855681E+001 -0.463722959157807E+001
  0.267252290826203E+000  0.164565122161098E+002  0.838805310551681E+000 -0.704306137141170E+000 -0.362107694977563E+000
  0.267252290826203E+000  0.164275386110963E+002  0.108800933031837E+002  0.912755025596667E+000 -0.126105928787272E+002
  0.267252290826203E+000  0.164121568266402E+002  0.104932917378289E+002 -0.781671072323917E+001 -0.189070102858531E+001
  0.267252290826203E+000  0.163545959974228E+002  0.844618343584559E+001  0.145723002931821E+002 -0.750316456825551E+000
  0.267252290826203E+000  0.162426635558806E+002 -0.383361917160822E+001 -0.174691167782029E+001  0.608356814061048E+001
  0.267252290826203E+000  0.162323868007421E+002 -0.106438468126599E+002 -0.304086027839390E+001 -0.104560886500355E+002
  0.267252290826203E+000  0.162241196567529E+002  0.514268080227052E+001 -0.166938782765100E+001 -0.706605537007965E+001
  0.267252290826203E+000  0.161634040496139E+002 -0.759417806287276E+001  0.381996019352463E+001 -0.128015640599550E+002
  0.267252290826203E+000  0.154328393686838E+002  0.742037482192298E+001  0.866732211361219E+001 -0.385548356851855E+001
  0.267252290826203E+000  0.160327523732318E+002 -0.301421867157724E+001 -0.676064552296673E+000 -0.289653166006261E+001
  0.267252290826203E+000  0.159105284026940E+002 -0.883102474154231E+001 -0.238434845911354E+001 -0.470801583084048E+001
  0.267252290826203E+000  0.158413134738003E+002  0.237529455677027E+001 -0.771932790899821E+001 -0.665696878854709E+001
  0.267252290826203E+000  0.158347793335088E+002  0.106728580174723E+002 -0.756222720285729E+001 -0.230891999403683E+001
  0.267252290826203E+000  0.158021164279767E+002  0.454298236387817E+001 -0.938127005391340E+001 -0.504934819339708E+001
  0.267252290826203E+000  0.154345616526584E+002 -0.135587582204859E+002 -0.567283275162237E+001 -0.368156576292725E+001
  0.267252290826203E+000  0.156694575797307E+002  0.272385088813724E+001  0.699754546028267E+001 -0.411339994901697E+001
  0.267252290826203E+000  0.156596450686648E+002  0.157702646624546E+001  0.891220453159684E+001 -0.285580390455997E+001
  0.267252290826203E+000  0.156250469035682E+002  0.357235863279003E+001 -0.929514042392164E+000 -0.849705848225458E+001
  0.267252290826203E+000  0.153469434698069E+002  0.250713773801060E+001  0.630154759244108E+001 -0.512526367143197E+001
  0.267252290826203E+000  0.153328605453613E+002  0.461311408699488E+001 -0.463743762295978E+001  0.343080704189357E+001
  0.267252290826203E+000  0.153207551037136E+002  0.102399468585933E+002 -0.205343368079535E+001 -0.707611541123360E+001
  0.267252290826203E+000  0.151593646722093E+002 -0.387828682782223E+001 -0.444635071637790E+001  0.956643699205672E+001
  0.267252290826203E+000  0.151559451402176E+002  0.762797346376543E+001  0.209644020497818E+001 -0.113453009982509E+002
  0.267252290826203E+000  0.150551082721440E+002  0.529759548757929E+001  0.172620229260454E+001 -0.107646799472914E+002
  0.267252290826203E+000  0.150463774095312E+002  0.786472389719914E+001 -0.380215322862266E+001 -0.515637607910780E+001
  0.267252290826203E+000  0.149864889038372E+002  0.596960497019778E+001 -0.804471875151226E+001 -0.559564395395333E+001
  0.267252290826203E+000  0.149142989600950E+002  0.220574718166105E+001 -0.121700739619910E+001 -0.970412590916107E+001
  0.267252290826203E+000  0.148704000812001E+002  0.385415598591726E+001 -0.117442949608446E+001 -0.126257580884808E+001
  0.267252290826203E+000  0.148196117099386E+002  0.813849536569205E+001 -0.181934024101707E+001 -0.882028420647709E+001
  0.267252290826203E+000  0.148185459970151E+002  0.976848385936238E+001 -0.840830041633483E+001 -0.246284272132737E+001
  0.267252290826203E+000  0.148129074847576E+002  0.628864570464718E+001 -0.100376342215585E+002 -0.302231220962527E+001
  0.267252290826203E+000  0.146139493337565E+002 -0.202084925510787E+001 -0.995187501348685E+000  0.274192059033746E+001
  0.267252290826203E+000  0.145081368707600E+002  0.519426584020393E+001 -0.300800063181569E+001 -0.664549307865207E+001
  0.267252290826203E+000  0.144991465269182E+002  0.113249585467053E+002  0.352434333466697E+001 -0.113903850219224E+002
  0.267252290826203E+000  0.144972929250305E+002  0.107878092684114E+002  0.109894276176347E+002 -0.352550712081032E+001
  0.267252290826203E+000  0.144463835439536E+002  0.567663343631575E+001 -0.398329974297811E+001 -0.851116453003592E+001
  0.267252290826203E+000  0.143755076251573E+002  0.100688807798290E+002 -0.500731895975438E+001 -0.485754589103683E+001
  0.267252290826203E+000  0.143687010455431E+002  0.291612648284805E+001  0.103941560099716E+002 -0.153239370576686E+001
  0.267252290826203E+000  0.143353116513749E+002  0.708870000859699E+001  0.135350795195712E+002 -0.910806396030981E+000
  0.267252290826203E+000  0.143315955228464E+002 -0.334549084525370E+001 -0.322084225665930E+001  0.695571884362588E+001
  0.267252290826203E+000  0.142661024353033E+002  0.404142009012201E+001 -0.462828055733612E+001 -0.613475813464493E+001
  0.267252290826203E+000  0.141813631785298E+002  0.676479099826311E+001  0.136281915462476E+002 -0.202458978097848E+000
  0.267252290826203E+000  0.141482498972974E+002  0.153881891505473E+001 -0.907552012436925E+001  0.113178564400900E+002
  0.267252290826203E+000  0.141160925690074E+002  0.484594238049417E+001 -0.491858691566297E+001 -0.796708412713291E+001
  0.267252290826203E+000  0.140998238006176E+002  0.355474253578597E+001  0.118212171779082E+002 -0.707321122658257E+000
  0.267252290826203E+000  0.140691890013432E+002  0.405642636689405E+001 -0.527084502131554E+000 -0.101129827667728E+002
  0.267252290826203E+000  0.140675010805436E+002 -0.128203932659429E+001 -0.786080583380589E+001  0.118328650282605E+002
  0.267252290826203E+000  0.139178184151620E+002  0.142790110545299E-001 -0.779723563680712E+001  0.102590453069384E+002
  0.267252290826203E+000  0.139094951773482E+002  0.270640802596598E+001 -0.451769332276441E+001  0.494008526900252E+001
  0.267252290826203E+000  0.138430637302574E+002  0.749850315752631E+001 -0.609784305151799E+001 -0.420346891903658E+001
  0.267252290826203E+000  0.137863319986256E+002  0.820711538994144E+001 -0.803775628466233E+001 -0.352190684598653E+001
  0.267252290826203E+000  0.137646587052522E+002  0.502926134247154E+001 -0.129804681603748E+001 -0.973760779556581E+001
  0.267252290826203E+000  0.137427977774736E+002  0.128407961276644E+002  0.623565710902303E+001 -0.874001668596872E+001
  0.267252290826203E+000  0.137368255198333E+002  0.462614997986613E+001  0.103187270498595E+002 -0.303542619670739E+001
  0.267252290826203E+000  0.136866643021367E+002  0.127016842167908E+002  0.880370318413905E+001 -0.651458023834953E+001
  0.267252290826203E+000  0.136715630166896E+002  0.111035507563999E+002  0.837298584548395E+001 -0.589955105518989E+001
  0.267252290826203E+000  0.135834316005644E+002  0.111843490786715E+002  0.338963961602281E+001 -0.110095304827275E+002
  0.267252290826203E+000  0.135763120197781E+002  0.879758817126500E+001  0.719023273381945E+001 -0.594605180332993E+001
  0.267252290826203E+000  0.135637959910000E+002  0.697369673352137E+001 -0.188260362874141E+001 -0.868578167730120E+001
  0.267252290826203E+000  0.135480139395921E+002  0.622162216473530E+001 -0.765061590361904E+001 -0.510095996223207E+001
  0.267252290826203E+000  0.134963493661156E+002  0.109312226564922E+002  0.412565075076894E+001 -0.982090302916771E+001
  0.267252290826203E+000  0.134950556633893E+002  0.116153037521701E+002  0.101750722788975E+002 -0.552261069567616E+001
  0.267252290826203E+000  0.134914440848455E+002  0.545649979774299E+001  0.845452777027962E+001 -0.508271064588978E+001
  0.267252290826203E+000  0.134786222985490E+002  0.730693631794843E+001  0.342943278046640E+001 -0.940565285305152E+001
  0.267252290826203E+000  0.134687282100804E+002  0.376839320750377E+001 -0.579918596866763E+001 -0.619779177028204E+001
  0.267252290826203E+000  0.134494678881290E+002  0.104546339115503E+002  0.439549165770791E+001 -0.102842753267703E+002
  0.267252290826203E+000  0.134202347103018E+002  0.389964967487379E+001 -0.265735392544267E+001 -0.900960237256977E+001
  0.267252290826203E+000  0.134046220905649E+002  0.788082225477446E+001 -0.748700809734800E+001 -0.416382014374469E+001
  0.267252290826203E+000  0.133927853223387E+002  0.502594945226499E+001 -0.556130097586725E+001 -0.710570234542100E+001
  0.267252290826203E+000  0.141750722390793E+002  0.439574862645941E+001  0.784152167580967E+001 -0.495672332513229E+001
  0.267252290826203E+000  0.141747797761652E+002  0.432406562427545E+001  0.113681524043184E+002 -0.148822511145853E+001
  0.267252290826203E+000  0.141683498268437E+002  0.535483467995612E+001  0.110193399059974E+002 -0.168855439548686E+001
  0.267252290826203E+000  0.140823102024895E+002  0.897453829089084E+001  0.878153855238214E+001 -0.615210289006978E+001
  0.267252290826203E+000  0.140326369976204E+002  0.115259185296460E+002  0.597646421253969E+001 -0.837192468562362E+001
  0.267252290826203E+000  0.139710565502731E+002  0.851749467066386E+001  0.354850440121192E+001 -0.973447078040381E+001
  0.267252290826203E+000  0.139508276833927E+002  0.443037485368824E+001  0.767086327638339E+001 -0.502786985700219E+001
  0.267252290826203E+000  0.138963963317535E+002  0.956581830963935E+001  0.116147686624342E+002 -0.292024048410630E+001
  0.267252290826203E+000  0.136782317570035E+002  0.647511683541730E+001  0.115691594499297E+002 -0.175521692094714E+001
  0.267252290826203E+000  0.136582895973939E+002  0.120284428851457E+002  0.839135444092612E+001 -0.678627497360875E+001
  0.267252290826203E+000  0.136256489859750E+002  0.101230551123216E+002  0.454438522126022E+001 -0.926384783181600E+001
  0.267252290826203E+000  0.136043389733956E+002  0.509576293139941E+001  0.106904893777448E+002 -0.257925058745056E+001
  0.267252290826203E+000  0.135261862202395E+002  0.858925501598809E+001  0.413186025329663E+001 -0.945979053776830E+001
  0.267252290826203E+000  0.134894614619178E+002  0.632612155483364E+001  0.941213902051939E+001 -0.337701372064134E+001
  0.267252290826203E+000  0.133358975314292E+002  0.689764816286434E+001  0.105088588175789E+002 -0.358857708377734E+001
  0.267252290826203E+000  0.133332037310990E+002  0.887168370045583E+001  0.528924199157342E+001 -0.803380519988790E+001
  0.267252290826203E+000  0.130665909092707E+002  0.979334038710829E+001  0.100808403591774E+002 -0.432968205848911E+001
  0.267252290826203E+000  0.130206134437972E+002  0.521452754200633E+001  0.960738082628871E+001 -0.326153867417389E+001
  0.267252290826203E+000  0.129827168160254E+002  0.738541232559773E+001  0.519917734024984E+001 -0.796773149848885E+001
  0.267252290826203E+000  0.129608267643877E+002  0.781041358893671E+001  0.893185267088838E+001 -0.438048861752162E+001
  0.267252290826203E+000  0.129487604490266E+002  0.839551738414749E+001  0.108265269652791E+002 -0.364141118545587E+001
  0.267252290826203E+000  0.127518324587824E+002  0.104613009590385E+002  0.905809311178167E+001 -0.581383918204621E+001
  0.267252290826203E+000  0.127325213114663E+002  0.932337813733925E+001  0.774394916720222E+001 -0.686848235353809E+001
  0.267252290826203E+000  0.127142735257995E+002  0.585539850135518E+001  0.919595863541691E+001 -0.375125667617241E+001
  0.267252290826203E+000  0.126921750197832E+002  0.100776137843859E+002  0.611407207555265E+001 -0.799091190387550E+001
  0.267252290826203E+000  0.126868105034688E+002  0.934793700032839E+001  0.679037619139910E+001 -0.695148301778550E+001
  0.267252290826203E+000  0.126823115034111E+002  0.814134123838718E+001  0.544431273584196E+001 -0.801570735273070E+001
  0.267252290826203E+000  0.125305077035670E+002  0.850814537155568E+001  0.981921677935198E+001 -0.412077336768578E+001
  0.267252290826203E+000  0.124889304477699E+002  0.628395944434774E+001  0.842013188530809E+001 -0.458181083396416E+001
  0.267252290826203E+000  0.124500940214457E+002  0.843911617063289E+001  0.805243117163768E+001 -0.621694394427701E+001
  0.267252290826203E+000  0.124286094361159E+002  0.982139477683636E+001  0.717718818442645E+001 -0.733728891007969E+001
  0.267252290826203E+000  0.124051673918434E+002  0.751219449421909E+001  0.719320592588969E+001 -0.654131812670875E+001
  0.267252290826203E+000  0.123602604221965E+002  0.815384034237464E+001  0.937911002591287E+001 -0.483535152465300E+001
  0.267252290826203E+000  0.123491166032145E+002  0.731120578544277E+001  0.755096858072934E+001 -0.613643663419047E+001
  0.267252290826203E+000  0.123089393979795E+002  0.837719460555390E+001  0.943651507905191E+001 -0.446093155705999E+001
  0.267252290826203E+000  0.123045332299659E+002  0.985338908928514E+001  0.821057558140198E+001 -0.631105209068117E+001
  0.267252290826203E+000  0.121381884887991E+002  0.776770371562731E+001  0.706083226407051E+001 -0.653274746776686E+001
  0.267252290826203E+000  0.121130748222151E+002  0.908345844715322E+001  0.734300413333194E+001 -0.679419743944315E+001
  0.267252290826203E+000  0.120303499070744E+002  0.771227076201886E+001  0.779471797502710E+001 -0.582419112046563E+001
