  0.100000000000000E+001  0.349742588416143E+002 -0.971489465927249E+001 -0.965401236890159E+001 -0.317066190137623E+000 -0.407599468892716E+001  0.666242221587783E+001
  0.100000000000000E+001  0.350174948519329E+002  0.244604914082085E+000 -0.179218150644121E+002 -0.163739542984916E+002 -0.692188693144896E+000 -0.186137147971765E+001
  0.100000000000000E+001  0.353009404996834E+002  0.103751406985394E+002 -0.711690679625271E+001 -0.141173836467765E+001 -0.301711786125694E+001 -0.545321814723101E+001
  0.100000000000000E+001  0.359372623785362E+002 -0.264438936586041E+001  0.686136824546476E+001 -0.461508651707927E+001 -0.234209114822808E+001 -0.928774963946951E+001
  0.100000000000000E+001  0.426479236655917E+002  0.172058994295824E+001 -0.105919489279679E+002 -0.112253059277747E+002  0.960083793565378E+001  0.175935306711651E+002
  0.100000000000000E+001  0.361084921894088E+002  0.157980949370305E+002 -0.122470027285041E+002  0.669781149008780E+001 -0.104085219425277E+002  0.123310436642480E+002
  0.100000000000000E+001  0.362478805995083E+002 -0.417098779673241E+001  0.567655418973139E+000 -0.342810959875328E+001  0.636157386895101E+001  0.911119488366996E+000
  0.100000000000000E+001  0.364211749859926E+002  0.144451347183699E+001 -0.160649493389515E+002 -0.200613539812418E+002  0.374637370179642E+001  0.494426963592197E+001
  0.100000000000000E+001  0.365562779795816E+002 -0.193860479427998E+001 -0.855426148630658E+001  0.179450288982119E+001  0.182843679764420E+001 -0.158206151204075E+002
  0.100000000000000E+001  0.365929786892706E+002 -0.650019251626123E+001 -0.108469366020649E+002 -0.597896904385423E+001  0.179087930685384E+001 -0.146009094641817E+001
  0.100000000000000E+001  0.387718981639540E+002 -0.720659920050908E+001 -0.434196807039353E+001 -0.136373626658320E+002 -0.130701036227461E+002  0.694841761437736E+001
  0.100000000000000E+001  0.368959587637090E+002 -0.920321928884285E+001  0.882068290126030E+001  0.366917822210556E+000 -0.495047604637993E+001 -0.819142015895849E+001
  0.100000000000000E+001  0.373470549559887E+002  0.375998408285414E+001  0.416591233387385E+001 -0.111501391883830E+002  0.470416757986800E+001  0.647371039569712E+001
  0.100000000000000E+001  0.385336135770560E+002  0.803753073199382E+001 -0.811294869218159E+000 -0.484284258609368E+001 -0.838558041622215E+001 -0.554181404874382E+001
  0.100000000000000E+001  0.300963970268849E+002  0.177516605241243E+002 -0.493370458008096E+001  0.402536851407522E+001 -0.120342132007409E+002  0.284855648023320E+001
  0.100000000000000E+001  0.345355496629928E+002  0.108021513073388E+002 -0.119664473184647E+002 -0.247787672538784E+001 -0.438903799524637E+001  0.491371562188764E+000
  0.100000000000000E+001  0.343656104347225E+002  0.321362765858890E+000  0.784446012806612E+001 -0.806030468117408E+001  0.644680850480995E+000  0.240489704607389E+001
  0.100000000000000E+001  0.343350671689459E+002  0.751251509943852E+000 -0.321723632654235E+001 -0.107392551566504E+001 -0.805275628983771E+001 -0.802685017399591E+001
  0.100000000000000E+001  0.342549408669993E+002  0.133885325364905E+001 -0.950128994230553E+001 -0.110134917934586E+001 -0.280706385575368E+000 -0.696293315368982E+001
  0.100000000000000E+001  0.338339591339420E+002  0.457087294872354E+001 -0.128812715919295E+002  0.128329275140576E+002 -0.278670377892148E+001 -0.124104988786257E+002
  0.100000000000000E+001  0.336911057681266E+002  0.202453164024195E+002 -0.185567732020391E+001  0.371798301577176E+001 -0.175696952419748E+002  0.351799126105593E+001
  0.100000000000000E+001  0.336516162762576E+002 -0.107149669375134E+002 -0.175314589421076E+002 -0.574309566319760E+001  0.205096794596858E+001  0.842962699446231E+001
  0.100000000000000E+001  0.333916920049988E+002  0.933768005420001E+001 -0.137414962406927E+002  0.798799803873725E+001  0.201354853293130E+001 -0.428886939909741E+001
  0.100000000000000E+001  0.331782392926948E+002  0.940597797686689E+000 -0.980340408559270E+001 -0.706131139746249E+001  0.513022582490798E+001  0.396540588766968E+001
  0.100000000000000E+001  0.331649010371003E+002  0.151520872747569E+002 -0.149906001738492E+002  0.162200342617260E+002 -0.116463345148263E+002  0.690594588717676E+001
  0.100000000000000E+001  0.330853848203908E+002  0.174273114790438E+001  0.708502660319104E+001  0.262381948521598E+001  0.599799346869428E+001 -0.666283124128802E+001
  0.100000000000000E+001  0.301074716383862E+002 -0.154841586082544E+001 -0.172226071970354E+002 -0.191142758297176E+002 -0.185799478794259E+001 -0.224842241189724E+001
  0.100000000000000E+001  0.329430086189096E+002  0.100223100611853E+002 -0.225895874410987E+001  0.293584177709074E+001 -0.135994992335146E+002 -0.213331415776452E+000
  0.100000000000000E+001  0.328780395719083E+002  0.412193597555101E+001 -0.327478935651213E+001  0.731974765668473E+001 -0.797735124134019E+001 -0.147804105558705E+002
  0.100000000000000E+001  0.244216831029063E+002  0.353298012966077E+001  0.404632718246240E+001  0.651364171352370E+001 -0.356010247417020E+001 -0.868217036346670E+001
  0.100000000000000E+001  0.324116423245677E+002 -0.199376389635643E+001  0.153239587212870E+002 -0.843479736489623E+000  0.399090597179142E+001 -0.208808682646963E+001
  0.100000000000000E+001  0.244443041826821E+002  0.593650885461275E+001  0.363070186275177E+001  0.271481547918569E+001 -0.107770526828820E+001 -0.150260304305447E+001
  0.100000000000000E+001  0.322064681393338E+002 -0.103547105664925E+002 -0.176731016852878E+002 -0.163694023598471E+002 -0.757164194251229E+001 -0.467934668213013E+001
  0.100000000000000E+001  0.321614317823941E+002  0.151425081682084E+002 -0.827966180404717E+001  0.128920130525325E+002 -0.112637483248027E+002  0.430062265913352E+001
  0.100000000000000E+001  0.321261514272233E+002 -0.353383047354161E+000 -0.635638868590906E+001 -0.377247062933724E+001  0.652409399808964E+001  0.935330576283424E+001
  0.100000000000000E+001  0.320571381574702E+002 -0.326671841305701E+001  0.123690757340719E+002 -0.200307324328849E+001 -0.189756146944276E+000  0.413722840447083E+001
  0.100000000000000E+001  0.320317019520814E+002 -0.243461925974862E+001 -0.258125943029249E+000 -0.608231275161125E+001  0.184237047472145E+001 -0.985520371897865E+001
  0.100000000000000E+001  0.319563016940698E+002 -0.304176007066322E+001 -0.858096956655284E+001  0.254456050715798E+001  0.336179608430679E+001  0.641618323371817E+001
  0.100000000000000E+001  0.318335667753703E+002 -0.573127339074565E+001 -0.737060324976401E+001 -0.131158057343852E+002 -0.980474232600305E+001  0.821995025837481E+000
  0.100000000000000E+001  0.318328084019173E+002 -0.482601915507047E+001 -0.134569351265756E+002 -0.116496536297793E+002 -0.594304463392444E+001  0.174404514579195E+001
  0.100000000000000E+001  0.301496134223889E+002  0.816114715807485E+001 -0.122129356559159E+002 -0.208013156697852E+000 -0.905113251416648E+000  0.684991924560111E+001
  0.100000000000000E+001  0.317741979770065E+002  0.674911850456894E+000 -0.718034984751794E+001 -0.170795931315029E+002 -0.257270564504826E+001  0.963270112323935E+001
  0.100000000000000E+001  0.317485522292033E+002  0.272146228158306E+000 -0.370526020907901E+001 -0.814061780619005E+001 -0.943394832512864E+001  0.431899190871909E+001
  0.100000000000000E+001  0.316923755028206E+002  0.816829583677416E+001  0.297820347219091E+001  0.373545005049312E+001 -0.313718796318661E-001  0.375672603652741E+001
  0.100000000000000E+001  0.316714569231017E+002  0.493548838047392E+000 -0.113045293690824E+002 -0.184859332477273E+002  0.158116316537831E+001  0.831335462732720E+001
  0.100000000000000E+001  0.316517856648629E+002 -0.800074790551825E+000 -0.535646748791714E+001 -0.501905844098490E+001  0.330227927917400E+001  0.173550121166847E+002
  0.100000000000000E+001  0.316368973428900E+002  0.160856917090407E+001 -0.265370865732383E+001 -0.929585746445158E+001  0.135331507441264E+002 -0.181405466585056E+001
  0.100000000000000E+001  0.246230551697931E+002  0.170451328346022E+002  0.107532001469534E+001  0.117197022130021E+002 -0.599929716173495E+001  0.366059656862518E+001
  0.100000000000000E+001  0.315740284425874E+002  0.112836903243417E+002 -0.638177722025362E+001 -0.132046436524217E+000 -0.931023527385240E+001 -0.118965516137338E+001
  0.100000000000000E+001  0.314951934803793E+002  0.476098844558279E+001 -0.268133690561179E-001 -0.676966752009021E+001 -0.733609009871405E+001  0.641058732258555E+001
  0.100000000000000E+001  0.314445115715914E+002 -0.114169417821543E+002 -0.182079165455793E+002 -0.201782566029108E+002 -0.608693369493672E+001  0.267068819530849E+000
  0.100000000000000E+001  0.301817527448362E+002 -0.100344105876355E+001  0.679507258482685E+001  0.224016096321391E+001  0.392937615024459E+001 -0.120753298938097E+002
  0.100000000000000E+001  0.314399130943015E+002  0.385254049817467E+001  0.245216241353008E+001  0.254567371232958E+001 -0.150657384531466E+002 -0.898789535103099E+001
  0.100000000000000E+001  0.314272836703966E+002 -0.829867234019878E+001 -0.536199952923520E+001 -0.124215437802078E+002 -0.104122977006939E+002  0.630834600259406E+001
  0.100000000000000E+001  0.301911454028560E+002 -0.641372808563321E+001 -0.917240036193498E+001 -0.471550629840883E+001 -0.503050276918720E+001  0.854200938406297E+001
  0.100000000000000E+001  0.312619797506445E+002 -0.810965538424281E+001 -0.194806659783195E+002 -0.153353095188337E+002 -0.213768976111072E+001  0.121137136654777E+001
  0.100000000000000E+001  0.311623996233145E+002  0.340863956345466E+000 -0.121823333367741E+002 -0.519231127829283E+001 -0.748055882500207E+001 -0.778299289313034E+001
  0.100000000000000E+001  0.311458094859874E+002  0.654998689972784E+001 -0.623170332432363E+001  0.169693924221859E+001 -0.196869533435150E+001 -0.953918397251260E+001
  0.100000000000000E+001  0.249005366288575E+002  0.145588971882735E+002  0.145402547531016E+001  0.118610330727226E+002 -0.564567340954316E+001  0.513970713039107E+000
  0.100000000000000E+001  0.310354148208827E+002  0.584300534109711E+001 -0.170629039290994E+002  0.124549261763751E+002 -0.400418603844361E+001  0.723786792801530E+000
  0.100000000000000E+001  0.310130998197431E+002 -0.649225811775272E+001  0.287085425994960E+001  0.639276483507857E+001  0.426109104018785E+001  0.119324759345168E+001
  0.100000000000000E+001  0.310119644617346E+002  0.909692748126173E+001 -0.204310005207078E+001  0.508821990782141E+001 -0.970635026852877E+001 -0.115827081895078E+002
  0.100000000000000E+001  0.309477309428199E+002  0.144629635069597E+001 -0.455665172618960E+001 -0.403571120997474E+001  0.898346379384382E+001  0.112099422372068E+002
  0.100000000000000E+001  0.302517287857184E+002 -0.903157542017368E+001 -0.370073214566166E+001  0.530773354519565E+001 -0.773845134864608E+000 -0.532097414098266E+001
  0.100000000000000E+001  0.308787028486692E+002 -0.403080524347194E+001 -0.221598433102947E+001 -0.785018628792899E+001 -0.287732230492501E+001  0.159312888395304E+002
  0.100000000000000E+001  0.308509443447636E+002 -0.751701168189369E+001 -0.359179602267436E+001  0.194114186580142E+001  0.817587656622004E+001  0.585548002641771E+001
  0.100000000000000E+001  0.308225848018409E+002  0.104921484801084E+001 -0.141682506469734E+002 -0.843821015827189E+001  0.177182386956698E+001 -0.149043726745219E-001
  0.100000000000000E+001  0.308024560516994E+002  0.489802211766815E+000  0.792518767928723E+000 -0.382033317597916E+000 -0.281427271779691E+001 -0.269077512339878E+001
  0.100000000000000E+001  0.307801871357265E+002  0.236205188825167E+000  0.814337721755149E+001 -0.218429881177650E+001  0.422558178879490E+001 -0.112284952400031E+002
  0.100000000000000E+001  0.307418780202139E+002 -0.779904765763565E+000 -0.310880276288703E+001  0.581617790312677E+000  0.903979929453951E+001  0.105148302393217E+002
  0.100000000000000E+001  0.307257167984832E+002 -0.105632076078619E+001 -0.612009979719705E+001  0.122158699319891E+001 -0.551424152392965E+001  0.498525203511048E+001
  0.100000000000000E+001  0.307005402963194E+002 -0.563701490678759E+001 -0.344353666187407E+001 -0.520513004742370E+001  0.268631018464433E+000 -0.665594351692339E+001
  0.100000000000000E+001  0.303245247779610E+002 -0.963801380934909E+001 -0.166898710074208E+002 -0.824391648819097E+001 -0.436337264353666E+001 -0.123808267811994E+001
  0.100000000000000E+001  0.306292116670473E+002  0.665105152602713E+000 -0.135799660730389E+001 -0.614284446960392E+001  0.101829526061523E+002 -0.144716791208680E+001
  0.100000000000000E+001  0.249780880727364E+002  0.131910857516850E+002  0.152347465091894E+001  0.600155969654589E+001 -0.724889949979178E+001  0.411599118448969E+001
  0.100000000000000E+001  0.305354545516686E+002  0.518531638766158E+001 -0.181576270859755E+002  0.123807174095967E+002  0.140208683642918E+001 -0.278216747852832E+001
  0.100000000000000E+001  0.305328498199045E+002 -0.557826141574780E+001 -0.103649681451023E+002 -0.164883407774641E+002 -0.348050701964386E+001  0.567507615701508E+001
  0.100000000000000E+001  0.305215882880152E+002 -0.541235815713744E+001 -0.798491509027249E+001  0.182024500542716E+001 -0.609809701020581E+000 -0.458175572106004E+000
  0.100000000000000E+001  0.303370417113379E+002  0.976473819336355E+001 -0.425742121286246E+001 -0.133966895840241E+001  0.793997896814215E+000  0.597192929608987E+001
  0.100000000000000E+001  0.303422159013286E+002  0.287030270730120E+001  0.920561740491473E+001 -0.399041286551554E+001  0.130644778271301E+002 -0.343550493477910E+001
  0.100000000000000E+001  0.300835975067111E+002 -0.837046746374207E+001 -0.194609313173107E+002 -0.170522568216865E+002 -0.470641284320887E+001 -0.285577821057731E+001
  0.100000000000000E+001  0.300559583332294E+002  0.117354250764596E+001  0.568658029814878E+001 -0.137639858343083E+001  0.750179326724757E+001 -0.947911016113743E+001
  0.100000000000000E+001  0.300471227438117E+002 -0.837243065083079E+000  0.357785229915917E+001 -0.461982530992403E+001  0.176419853635642E+001 -0.996846892797640E+001
  0.100000000000000E+001  0.300358077793633E+002  0.598466045093999E+001 -0.605804275634609E+001 -0.780549097205412E+000 -0.431789443336649E+001 -0.344112309215603E+001
  0.100000000000000E+001  0.299942122910598E+002  0.827115430625763E+001 -0.103181822138434E+002 -0.106854442002543E+001 -0.652714833661166E+001 -0.269898005334467E+001
  0.100000000000000E+001  0.299734488138221E+002 -0.348305713782163E+001 -0.584559008168776E+001 -0.771982986729023E+001 -0.118591684726773E+002 -0.895364961817478E+000
  0.100000000000000E+001  0.299421157356873E+002 -0.243944180081576E+001 -0.880924111634972E+001 -0.271421373773731E+001 -0.437704594895328E+001 -0.651097554216632E+001
  0.100000000000000E+001  0.299314689728042E+002 -0.528547389391363E+000  0.100175389076297E+002 -0.166049282994202E+001  0.619778607981796E+001 -0.914417543860754E+001
  0.100000000000000E+001  0.299098229908807E+002 -0.199125648652273E+001 -0.831002757213450E+001  0.354515604843616E+001  0.269848436274629E+001  0.619969314268817E+001
  0.100000000000000E+001  0.298994015587152E+002  0.106825567616375E+002 -0.148310593379449E+002  0.140749283249290E+002 -0.840874454177478E+001  0.504063682863825E+001
  0.100000000000000E+001  0.298991893194642E+002  0.530792254921976E+001 -0.112281284940297E+002  0.130018023142915E+002 -0.831417734696697E+001 -0.740196487538206E+000
  0.100000000000000E+001  0.298228366728009E+002  0.106804109171769E+001 -0.847831934035208E+001 -0.155154108594954E+002 -0.222530634985407E+001  0.768441874182238E+001
  0.100000000000000E+001  0.298222712356946E+002  0.760870321223344E+001 -0.133307770192790E+002  0.151430498515175E+002 -0.464290449238738E+001 -0.834851633357578E+001
  0.100000000000000E+001  0.298200924272918E+002 -0.136005821699027E+001 -0.242391241015704E+001 -0.203949718873407E+001  0.660483095743428E+001  0.807065273843819E+001
  0.100000000000000E+001  0.297584922396765E+002 -0.618257988212015E+001 -0.121745935749970E+002 -0.997006667888758E+001 -0.104724074327592E+002 -0.436803101259325E+001
  0.100000000000000E+001  0.296927724544909E+002  0.982526783787983E+001 -0.126571751300609E+002  0.132754471384141E+002 -0.110309220099216E+001 -0.662852682997509E+001
  0.100000000000000E+001  0.296845616451047E+002  0.783681461984015E+001 -0.115265278205733E+002  0.594796778648039E+001 -0.688801017512109E+001 -0.251370167032725E+001
  0.100000000000000E+001  0.296574251970889E+002  0.118867418305828E+002 -0.124073157908438E+002  0.501775693379471E+001 -0.598771106515704E+001  0.113971536460751E+001
  0.100000000000000E+001  0.295942490195650E+002  0.101975140189142E+002 -0.476299290634903E+001  0.696506041018224E+001 -0.782225351569815E+001 -0.328582453006715E+001
  0.100000000000000E+001  0.295898670122842E+002  0.102243149573402E+002 -0.165236000024177E+002  0.120963152701876E+002 -0.223550008598471E+001  0.339690654800856E+001
  0.100000000000000E+001  0.295876366169500E+002  0.240155249106874E+001 -0.116574316823706E+002 -0.163743937479074E+002  0.317568103217987E+000  0.343562023435732E+001
  0.100000000000000E+001  0.295752204780808E+002  0.185037411692529E+001  0.112852951995712E+001 -0.587461633684961E+001  0.107335775290041E+002 -0.208157630796251E+000
  0.100000000000000E+001  0.295578253162126E+002  0.157181654675901E+002 -0.508326127112814E+001  0.785186736194859E+001 -0.113849591652872E+002  0.136529207612280E+001
  0.100000000000000E+001  0.295296718624923E+002  0.460112688158140E+001 -0.228319896837215E+001 -0.123877261168023E+001 -0.811414738011891E+000  0.327038995048540E+001
  0.100000000000000E+001  0.295072856265944E+002  0.495737502279001E+001  0.379678553971984E+001  0.135807176328646E+001 -0.104216918973230E+002 -0.840555134197987E+001
  0.100000000000000E+001  0.294949821315485E+002  0.642431245924658E+001 -0.562683951959973E+001  0.582522902729606E+001 -0.104941595330208E+002 -0.709994522542936E+001
  0.100000000000000E+001  0.294793543490196E+002  0.762563059836332E+001 -0.735037229566259E+001 -0.323529666082409E+001 -0.193108449764824E+001  0.418843152170042E+001
  0.100000000000000E+001  0.294200150807996E+002 -0.699605677858631E+000 -0.135972717671244E+002  0.112457757204395E+002  0.174640519403155E+001 -0.768118249269952E+001
  0.100000000000000E+001  0.293957951464552E+002 -0.150956807872855E+001 -0.119957986883284E+002 -0.319650430860085E+001 -0.458920012406957E+001 -0.840365062318121E+000
  0.100000000000000E+001  0.293455936437784E+002  0.116007264346970E+002 -0.102199892058236E+002  0.168661947600468E+002 -0.899440216848641E+001 -0.196900623803798E+001
  0.100000000000000E+001  0.293188745903788E+002  0.156250699770623E+001  0.986674502563196E+001 -0.168146783039204E+001  0.761094577397383E+001 -0.956084926455827E+001
  0.100000000000000E+001  0.293138963690985E+002  0.112674912006961E+002 -0.173398974090293E+001  0.574788638832960E+001 -0.141742957476925E+002  0.520715629870103E+001
  0.100000000000000E+001  0.292920731125706E+002  0.122096362173171E+002 -0.827488425843299E+001  0.368743940166814E+001 -0.540393127638008E+001 -0.483185647530751E+001
  0.100000000000000E+001  0.292854209818548E+002  0.102394155557062E+002 -0.135376365377764E+002  0.772665425140065E+001 -0.121051283977266E+001  0.700008975509402E+000
  0.100000000000000E+001  0.292740269239704E+002 -0.116244713675376E+001 -0.102875315652879E+002 -0.190169236818071E+002 -0.333867689670786E+001  0.555754446068595E+001
  0.100000000000000E+001  0.292702803680028E+002  0.284565655088386E+000 -0.190708393205252E+000 -0.637995429473172E+001  0.446327838236961E+001 -0.189488997060183E+001
  0.100000000000000E+001  0.292414670734329E+002 -0.358295381310744E+001  0.190440016030692E+000  0.222181662294487E+001 -0.408867937735850E+001 -0.746374153806617E+001
  0.100000000000000E+001  0.292264932429651E+002  0.733575446253204E+001 -0.652619875335280E+001  0.131305200133374E+002 -0.102658074908682E+002 -0.712620325792626E+001
  0.100000000000000E+001  0.292240048793195E+002  0.857226612095434E+001 -0.169975042168619E+002  0.136197368127353E+002 -0.387735735974833E+001  0.322457258253660E+000
  0.100000000000000E+001  0.292173675856714E+002  0.103707992138913E+001 -0.919505079248275E+001 -0.344019813303358E+001 -0.432944508079214E+001  0.155647315048918E+001
  0.100000000000000E+001  0.250838577002164E+002  0.267744082063699E+001  0.517221171057384E+001  0.505697713062400E+001 -0.344637630204746E+001 -0.907540932845028E+001
  0.100000000000000E+001  0.291315947055655E+002  0.513116522924670E+001 -0.443627275028816E+001 -0.254334547776016E+001  0.540231881306614E+001  0.102242629550310E+002
  0.100000000000000E+001  0.291292725675833E+002 -0.118246078101849E+002 -0.114999827878798E+002 -0.113311859164561E+002 -0.576692703305330E+001  0.694256371740513E+001
  0.100000000000000E+001  0.291266305965222E+002  0.442622245410039E+001  0.538497375807790E+001  0.465590080808821E+001  0.417736755858553E+001 -0.561481544696927E+001
  0.100000000000000E+001  0.291248588740826E+002 -0.104128358381270E+002 -0.944629677435098E+001 -0.768896414140542E+001 -0.864042630888151E+001  0.597740486926618E+001
  0.100000000000000E+001  0.291196800005527E+002 -0.196076977678492E+001  0.817820373305491E+001 -0.466854208204975E+001  0.771943777437768E+001  0.773968582608177E+000
  0.100000000000000E+001  0.291003153895436E+002  0.160641426540909E+000 -0.618802391948376E+001 -0.745265488429438E+001  0.130741892697830E+001  0.116690361190583E+002
  0.100000000000000E+001  0.290998730432503E+002  0.112685139547678E+002 -0.119849831722089E+002  0.136801429700943E+002 -0.111721436226247E+002  0.342859390240094E+001
  0.100000000000000E+001  0.290928107897644E+002 -0.901814608831011E+001 -0.184836237963644E+002 -0.139861083580167E+002 -0.341886638773649E+001 -0.164087406302686E+001
  0.100000000000000E+001  0.290605340387716E+002  0.781485819452449E+000 -0.570390853374776E+001  0.608775674801343E+000 -0.136087687601075E+001  0.909698608689821E+001
  0.100000000000000E+001  0.290455688476296E+002  0.620598113455299E+001 -0.796579145719916E+001 -0.313552643086699E+001 -0.704139542590046E+001 -0.498495655961924E+001
  0.100000000000000E+001  0.290433207867677E+002  0.433245117264506E+001 -0.931432669022673E+001  0.203791153844843E+001 -0.408412382472041E+001 -0.507047653668270E+001
  0.100000000000000E+001  0.289895022904777E+002  0.446333115904440E+001 -0.102277434691676E+002 -0.126657279528988E+002  0.496540466106527E+000  0.323568925994450E+001
  0.100000000000000E+001  0.289483097393266E+002  0.433841978512489E+001 -0.536272965728433E+001 -0.738434549116075E+001  0.841261041661813E+000  0.901983363095917E+001
  0.100000000000000E+001  0.289249782959658E+002  0.100671039625303E+001 -0.105109311532429E+002 -0.144624082289325E+002  0.513499619221818E+000  0.523302219910643E+001
  0.100000000000000E+001  0.289218410945180E+002  0.286802554566916E+001 -0.489651845074151E+001 -0.336548157405007E+001 -0.651927178688087E+001 -0.450927863178212E+000
  0.100000000000000E+001  0.288972774658384E+002 -0.171139504579627E+001 -0.176293553967835E+002 -0.153025108500094E+002  0.677693469639713E+000  0.759862721620337E-001
  0.100000000000000E+001  0.288782468434772E+002  0.760581432154055E+000  0.915986580014621E+001 -0.294258666849980E+001  0.112558331008639E+002 -0.469159706323457E+001
  0.100000000000000E+001  0.288663500242699E+002 -0.831363049900064E+001 -0.857204395844777E+001 -0.285713465616805E+001 -0.191066732373298E+001  0.128236088837528E+002
  0.100000000000000E+001  0.288571079906021E+002 -0.979694404565935E+001 -0.809277217973502E+000  0.548300132617053E+001  0.140498271434083E+001 -0.312223045693104E+001
  0.100000000000000E+001  0.288447319176492E+002  0.160630149650489E+001 -0.628234895479986E+001 -0.995115163826427E+001 -0.211853310638522E+001  0.535844088727431E+001
  0.100000000000000E+001  0.288037057086402E+002 -0.150978089826541E+001 -0.315623257895985E+001 -0.328503824544856E+001  0.703029799421918E+001  0.553103438836654E+001
  0.100000000000000E+001  0.287981630172919E+002  0.507136536093526E+001 -0.606260563790864E+001  0.765445605993519E+001 -0.642181510345182E+001 -0.151789497448329E+001
  0.100000000000000E+001  0.287801788586999E+002  0.198913305663449E+000 -0.661813795820159E+001 -0.744088870579924E+001  0.553041633298289E+000 -0.154992805807066E+001
  0.100000000000000E+001  0.287476145329899E+002  0.120373473077063E+000 -0.747939679446342E+001 -0.966250814195703E+000 -0.679903017944798E+001 -0.597701900435148E+000
  0.100000000000000E+001  0.287471432396500E+002  0.627545536415870E+001 -0.541947262117100E+001 -0.111262039020330E+001  0.434768090994841E+001  0.103345859605791E+002
  0.100000000000000E+001  0.287398930820956E+002  0.738192170079247E+001 -0.390046361154667E+001  0.590218996778036E+001 -0.619968385615660E+001 -0.105901933718068E+002
  0.100000000000000E+001  0.287210267142583E+002  0.381788476863292E+001  0.747919162769996E+001  0.433206151124131E+001  0.477372233531423E+001 -0.996785104443435E+001
  0.100000000000000E+001  0.287003179245268E+002 -0.441773144273398E+000 -0.100065392065982E+002 -0.768646551084069E+001  0.186170340170744E+001  0.731653807646521E+001
  0.100000000000000E+001  0.286838951296826E+002  0.133014101021940E+002  0.423405328837529E+001  0.967987348510116E+001  0.110651863565964E+001 -0.190349107294795E+001
  0.100000000000000E+001  0.286404280889364E+002  0.400448921306489E+001 -0.939166286634951E+000  0.230026528489434E+001 -0.198924187538958E+001 -0.944984916387551E+000
  0.100000000000000E+001  0.286351914193673E+002 -0.364488460775285E+001 -0.100672036823815E+002 -0.164089158949008E+002 -0.194504593191112E+001  0.103160937641548E+002
  0.100000000000000E+001  0.286266577313762E+002 -0.967287119673707E+001 -0.146369329026215E+002 -0.158568593236376E+002 -0.802887526537393E+001 -0.868939988919063E+000
  0.100000000000000E+001  0.285992989962399E+002 -0.464444599809365E+001 -0.560041516576155E+001 -0.111995057993044E+001 -0.125439085171728E+001 -0.254697821450630E+001
  0.100000000000000E+001  0.285985895748606E+002  0.201539778957183E+001 -0.122815650955230E+002 -0.847892399450082E+001  0.257201406279027E+001  0.336327605040288E+001
  0.100000000000000E+001  0.285966507264585E+002 -0.775380153198505E+000 -0.501432099349739E+001 -0.128243954711789E+002 -0.674444439821976E+001  0.431144895763523E+001
  0.100000000000000E+001  0.251429286052446E+002  0.188636268194264E+001  0.243408525769116E+001  0.267957684576810E+001 -0.108447640837744E+002 -0.997048843325580E+001
  0.100000000000000E+001  0.285165928583037E+002  0.777580872154404E+001 -0.735802652410447E+001  0.893792482316557E+001 -0.112087930603834E+002 -0.589498040214483E+000
  0.100000000000000E+001  0.284621501735676E+002  0.130716558329937E+002 -0.900996774803588E+001  0.138360508068174E+002 -0.733352084802551E+001 -0.741587359977079E+001
  0.100000000000000E+001  0.284505292715254E+002  0.580185131198542E+001 -0.825958815853281E+001  0.135489097724362E+002 -0.522508652349478E+001 -0.107816054494316E+002
  0.100000000000000E+001  0.284467509031897E+002  0.133523806900442E-001  0.762111343621526E+001  0.244679581581291E+001  0.386338786579559E+001 -0.113788954510215E+002
  0.100000000000000E+001  0.284415756030718E+002  0.517117777720483E+001 -0.445568291013390E+001 -0.690365933043371E+001 -0.613986944408836E+000  0.796927203828007E+001
  0.100000000000000E+001  0.284326002513048E+002 -0.167133122783483E+001 -0.792542456716409E+001  0.192895574395714E+001 -0.599951318739396E+001 -0.549226031410771E+001
  0.100000000000000E+001  0.284068416264404E+002  0.462200593613199E+001 -0.150712409480448E+002  0.821877484794761E+001 -0.170626654867258E+001  0.806941973533128E+000
  0.100000000000000E+001  0.283994921874307E+002  0.338708898004687E+001  0.107436010427704E+002 -0.435479701674169E+001  0.792716711566387E+001 -0.304227619067051E+001
  0.100000000000000E+001  0.283787161622342E+002 -0.201924950362849E+001 -0.580232858651318E+001 -0.126030543477952E+002 -0.611377981643273E+001  0.487599341845592E+001
  0.100000000000000E+001  0.283641666022859E+002  0.745557648603920E+001 -0.798493415734282E+001 -0.198156050773285E+001 -0.146170766597698E+001  0.154984024599024E+001
  0.100000000000000E+001  0.283586482874805E+002  0.107494980607066E+002 -0.114752378754438E+002  0.110659657811560E+002 -0.105080553888529E+002  0.433611895359200E+001
  0.100000000000000E+001  0.283554402383953E+002 -0.418632624492437E+001 -0.741139182279871E+001 -0.875511704564255E+001 -0.817238299851293E+001  0.915352205636022E+000
  0.100000000000000E+001  0.283483805830571E+002 -0.815395567082497E+001 -0.138692221118021E+002 -0.711121758674958E+001  0.108608476804897E+001  0.103755592443437E+002
  0.100000000000000E+001  0.283457523679149E+002  0.407628805846441E+001 -0.814279034731666E+001 -0.895493978578969E+000  0.231557419584554E+000  0.587538188116474E+001
  0.100000000000000E+001  0.283289584745500E+002  0.100536359911503E+002 -0.117367203576197E+002  0.106275501813243E+002 -0.368655235423707E+001 -0.776074808341742E+001
  0.100000000000000E+001  0.283223724922674E+002 -0.279081082304530E+001 -0.184313269642939E+000  0.277881559265251E+001 -0.324297459715481E+001 -0.629216034835436E+001
  0.100000000000000E+001  0.283186128012952E+002 -0.187732115526124E+001 -0.162278614256247E+002 -0.122014783817300E+002 -0.303301924257024E+001 -0.260720022466128E+001
  0.100000000000000E+001  0.283032248255516E+002  0.848633307784043E+001 -0.156436774654505E+002  0.130355500849861E+002 -0.566535819838733E+001  0.771239592979107E+000
  0.100000000000000E+001  0.283023618276723E+002  0.201581187770055E+001 -0.734022050899508E+001  0.230418554029275E+001 -0.832325210868550E+001 -0.679195790956858E+001
  0.100000000000000E+001  0.282970848409719E+002  0.436632161634409E+001 -0.802576868487264E+001 -0.555062925698543E+001 -0.352450548040733E+001  0.853127264921071E+000
  0.100000000000000E+001  0.282924609607891E+002  0.137022542022348E+002 -0.579523337282060E+001  0.504449662392430E+001 -0.744117087112258E+001 -0.255836073568877E+001
  0.100000000000000E+001  0.282695029818826E+002  0.424403278612390E+001 -0.136588479964532E+002  0.102082721036131E+002 -0.492041577003640E+001 -0.293768438378304E+001
  0.100000000000000E+001  0.282398088989022E+002  0.452902545292840E+001 -0.109710994609163E+002  0.356760976017666E+001 -0.158619356682498E+001 -0.183308947622701E+001
  0.100000000000000E+001  0.282169528574535E+002  0.127289675779638E+001 -0.123573223737714E+002 -0.387344826118742E+000 -0.103567521964147E+001  0.206971208990144E+001
  0.100000000000000E+001  0.282136812766132E+002 -0.226448573129938E+001 -0.593676972244112E+001 -0.393374043318808E+000 -0.406093613487435E+001  0.564602601589285E+001
  0.100000000000000E+001  0.281984147853587E+002  0.338211265386147E+001  0.379070712925628E+001 -0.563616147222245E+001  0.127564438855162E+002 -0.554107859679500E+001
  0.100000000000000E+001  0.251662645519773E+002  0.118514556734498E+002  0.162368265693988E+001  0.534403231894522E+001 -0.688871425395068E+001  0.402410615301732E+001
  0.100000000000000E+001  0.281670103961295E+002 -0.600384023533376E+001 -0.122404237570010E+002 -0.683302288159777E+001  0.279060160475925E+000  0.106465394952779E+002
  0.100000000000000E+001  0.281264767476260E+002 -0.588396960871943E+001  0.103279704646895E+002 -0.687018212232893E-001  0.544435271450883E+000 -0.559006277050148E+001
  0.100000000000000E+001  0.281230355748360E+002  0.786267926195677E+001  0.200574293108256E+001  0.875232057228612E+001 -0.406798909390510E+001 -0.727753871724868E+000
  0.100000000000000E+001  0.280841160694918E+002  0.742038272380637E+001 -0.590063032795252E+001  0.415234334006003E+001 -0.867820616221843E+001 -0.730689522915996E+001
  0.100000000000000E+001  0.280758115835933E+002  0.458125503752088E+001 -0.679098319553065E+001 -0.613579287687266E+001 -0.464036369640601E+001  0.770501281832068E+000
  0.100000000000000E+001  0.280282230651264E+002  0.110924590447485E+002 -0.393209950629681E+001  0.942216748238033E+001 -0.104680186716375E+002 -0.609973228922677E+001
  0.100000000000000E+001  0.280136734740425E+002  0.118232016381860E+002 -0.142884321614467E+002  0.133931202441947E+002 -0.699922337130079E+001  0.462968862226742E+001
  0.100000000000000E+001  0.252843167799173E+002  0.627695163748264E+000  0.710401939623654E+001  0.125768971014409E+001  0.114119293210524E+001 -0.119533684714080E+002
  0.100000000000000E+001  0.279559059146166E+002 -0.550340067833796E+001 -0.221948402290047E+001 -0.261156581338745E+001  0.385091269834398E+001 -0.323446639225235E+000
  0.100000000000000E+001  0.279432215191850E+002 -0.327399301182804E+001  0.447855762863498E+001  0.359686193349035E+000 -0.933776370923390E+000 -0.993506793097932E+001
  0.100000000000000E+001  0.279245964382947E+002  0.116187918860678E+002  0.292997032791462E+001  0.515694346278233E+001 -0.101073552769303E+002 -0.202415056625029E+001
  0.100000000000000E+001  0.279182849650226E+002 -0.594705201895439E+001 -0.168248642285927E+002 -0.109157537377453E+002 -0.505747254080319E+001 -0.444628890282566E+001
  0.100000000000000E+001  0.278908179500018E+002 -0.748436750616889E+000  0.357529694291890E+001 -0.358551819620116E+001  0.126220164307028E+002 -0.269826338096831E+001
  0.100000000000000E+001  0.278612536306381E+002  0.301249406074221E+001 -0.707246774478424E+001  0.682086033321656E+001 -0.689809098628279E+001 -0.411513238584438E+001
  0.100000000000000E+001  0.278597765455444E+002  0.343879806728432E+001 -0.992212251666137E+001  0.515590753925383E+001 -0.825193092499056E+000 -0.100127859090080E+002
  0.100000000000000E+001  0.278546587576926E+002 -0.602485346463574E+001 -0.542149104315461E+001 -0.128211654399858E+002 -0.580150573176502E+001  0.119186269532306E+002
  0.100000000000000E+001  0.278402558794910E+002  0.121415360165330E+002 -0.569918254518901E+001  0.915600670909447E+001 -0.729775297537496E+001 -0.687213384075410E+001
  0.100000000000000E+001  0.278091185103508E+002  0.926018717736633E+001 -0.106677870999631E+002  0.139044424528880E+002 -0.505998349868092E+001 -0.285688691206249E+001
  0.100000000000000E+001  0.277545930997064E+002 -0.530980469438724E+001 -0.802067013186797E+001 -0.113498859126108E+001  0.564983381817044E-001 -0.200731705840650E+001
  0.100000000000000E+001  0.277370606646115E+002  0.543477200616216E+000 -0.538136764788010E+000 -0.674215810717125E+001  0.414965576404321E+001 -0.482910144731900E+001
  0.100000000000000E+001  0.276767475674940E+002  0.919198306813767E+001 -0.636519009415539E+001  0.539182032169468E+001 -0.433010098094607E+001 -0.697356018231655E+001
  0.100000000000000E+001  0.276536768066307E+002  0.556754132130798E+000 -0.499423157105075E+001 -0.149605561770177E+001 -0.538296207500150E+001  0.292457039680351E+001
  0.100000000000000E+001  0.276292367616792E+002 -0.999615292740746E+000 -0.670740492979899E+001 -0.125355491632456E+002 -0.520117553567088E+001  0.390596315457455E+001
  0.100000000000000E+001  0.276197148254967E+002  0.167097591486513E+002 -0.910845178705145E+000  0.123179093708159E+002 -0.110199739953309E+002  0.576925859114439E+001
  0.100000000000000E+001  0.275946051597065E+002  0.123079270901433E+002 -0.691789463528085E+001  0.116945483889426E+002 -0.124763889495475E+002 -0.501209213158796E+001
  0.100000000000000E+001  0.275426306182199E+002 -0.295174904640520E+001 -0.747114682491011E+001 -0.103309549118262E+001 -0.467058666530543E+001  0.369603258471216E+001
  0.100000000000000E+001  0.275385116446935E+002  0.880930198036285E+000 -0.765345994120377E+001  0.560369690818466E+001  0.549872738343893E+000  0.533789085521525E+001
  0.100000000000000E+001  0.275202334085610E+002  0.144853679278708E+001  0.484511578926839E+001 -0.294042511399669E+001  0.110429662288974E+002 -0.874315319947644E+001
  0.100000000000000E+001  0.275137489014867E+002  0.497435550219819E+001 -0.348681387823351E+001 -0.126686850963854E+001  0.302448718274756E+001  0.527977071665837E+001
  0.100000000000000E+001  0.275119468159879E+002  0.513235716092992E+001  0.248199334266405E+001  0.553542403830886E+001 -0.436012768033775E+001 -0.123032605020363E+001
  0.100000000000000E+001  0.274948293980226E+002 -0.897362875399548E+000  0.752417587236938E+001 -0.258772579501174E+001  0.113006798682611E+002 -0.360920974344906E+001
  0.100000000000000E+001  0.274897664046858E+002  0.179760728769405E+002 -0.882770624824908E+001  0.121693172445922E+002 -0.118483884507322E+002  0.277600681111234E+001
  0.100000000000000E+001  0.274836954801470E+002  0.617309953679476E+001 -0.756448468616668E+001  0.291659321494724E+001 -0.617016134610236E+001 -0.587986580361698E+001
  0.100000000000000E+001  0.274816268432914E+002  0.259461365442112E+001 -0.157093179217786E+001 -0.386632713928274E+001  0.100054712898853E+001  0.176422404627094E+001
  0.100000000000000E+001  0.274706696450082E+002  0.671345305540321E+001 -0.874592084281908E+001 -0.150464161622034E+001 -0.389013504982680E+001 -0.122303223164358E+001
  0.100000000000000E+001  0.274449098877540E+002  0.145794360475067E+002 -0.483126859721801E+001  0.512834848379379E+001 -0.129240776585048E+002  0.132085630630833E+001
  0.100000000000000E+001  0.274432726539028E+002  0.102822973198109E+002 -0.896523273773756E+001  0.116024218569490E+002 -0.117006294857136E+002  0.720318088952947E+000
  0.100000000000000E+001  0.274380603030597E+002 -0.170877622645496E+001 -0.116571622650922E+002 -0.118152337093696E+002 -0.290690284540326E+001  0.462237376676461E+001
  0.100000000000000E+001  0.274280009630240E+002  0.405970389365473E+001 -0.805338529672728E+001  0.594863435172000E+001 -0.127676727618451E+001 -0.991865348280941E+001
  0.100000000000000E+001  0.274169356982595E+002  0.133252920359160E+002 -0.546358289228777E+000  0.105418043168122E+002 -0.612643256951409E+001  0.497715042084124E+001
  0.100000000000000E+001  0.274107649396786E+002 -0.127726568250720E+001 -0.442213939861189E+001 -0.943731347131106E+001 -0.366113831181561E+001  0.911617550070024E+001
  0.100000000000000E+001  0.273819677398086E+002 -0.212523501191093E+000 -0.194033407405991E+001  0.756173131690202E+001 -0.607546551171722E+001 -0.546340697363292E+001
  0.100000000000000E+001  0.273728458911432E+002 -0.490471561015819E+001  0.385921980897718E+001 -0.202869656583195E+001 -0.492523010292428E+001 -0.102762650618568E+002
  0.100000000000000E+001  0.273420665538958E+002  0.808790113578023E+001  0.337239525939904E+001  0.515077007818624E+001 -0.705169313223718E+001 -0.713787696921894E+001
  0.100000000000000E+001  0.273009500225005E+002  0.394116557372036E+001  0.505891392408466E+001  0.178153645598062E+000 -0.741566461459222E+000 -0.346426639388753E+001
  0.100000000000000E+001  0.272565895619511E+002  0.124460287862682E+001 -0.239076243752530E+001  0.204790986328796E+000  0.225629143425754E+001  0.181568464379333E+001
  0.100000000000000E+001  0.272429524235490E+002  0.494042727995134E+001 -0.158222215747526E+002  0.108340944868267E+002 -0.101983162298661E+001 -0.252205951125784E+001
  0.100000000000000E+001  0.272353631443438E+002  0.310736574191674E+001 -0.486381987503613E+001 -0.361125529738430E+001 -0.707797839399152E+000  0.813591547925932E+001
  0.100000000000000E+001  0.272274181723265E+002  0.143353447602918E+002 -0.827117149060124E+001  0.644033746181190E+001 -0.965413223417264E+001  0.393830199707950E+001
  0.100000000000000E+001  0.272043546712521E+002  0.122819170253696E+002  0.638093399198553E+000  0.667081680804732E+001 -0.516712967203538E+001  0.343497615831825E+001
  0.100000000000000E+001  0.272022215896344E+002 -0.390879917707964E+001  0.638520331651219E+001 -0.176805253731832E+000  0.915749758434949E+000 -0.107196927039926E+002
  0.100000000000000E+001  0.271710998370351E+002  0.126330817765399E+001 -0.610937868530341E+001 -0.124526115288412E+002 -0.276854042537273E+001  0.861305524353250E+001
  0.100000000000000E+001  0.271640796639659E+002  0.907068291283027E+001 -0.728628067148706E+001 -0.135327854179664E+001 -0.511473443941296E+001 -0.358902375034472E+000
  0.100000000000000E+001  0.271610218353547E+002 -0.447337816212846E+001 -0.584650064890615E+001 -0.407136365607620E+000 -0.281956164197489E+001 -0.576518981810224E+001
  0.100000000000000E+001  0.271586201172394E+002 -0.510024000138567E+001  0.225796051162698E+001 -0.418964315468710E+001 -0.154306161977102E+001 -0.732421392779592E+001
  0.100000000000000E+001  0.270926548097037E+002 -0.274658828006230E+001  0.112433271137743E+002 -0.618976335156070E+000  0.572076407948938E+001 -0.252703055420813E+000
  0.100000000000000E+001  0.270764684215255E+002 -0.123531409729759E+001  0.786530153267704E+001 -0.442252265597245E+001  0.593554455041741E+001  0.471555345036807E+001
  0.100000000000000E+001  0.270602751803409E+002  0.558257145460814E-001  0.793272444675564E+001  0.223301425961631E+001 -0.550392590863837E+000 -0.146730422866823E+002
  0.100000000000000E+001  0.270378705697409E+002  0.391473552046885E+001  0.634511375666096E+001  0.484154057525534E+001 -0.275137766221295E+001 -0.132711897176441E+002
  0.100000000000000E+001  0.254568410150761E+002 -0.225135320145830E+001  0.475509344242607E+001  0.155069433776364E+001 -0.176936726553877E+001 -0.111356746134694E+002
  0.100000000000000E+001  0.270002690012225E+002  0.352580484295547E+001 -0.190961806926483E+001  0.700423572655060E+001 -0.776751386956690E+000  0.391470566921227E+001
  0.100000000000000E+001  0.269812796967388E+002 -0.330377168243504E+001  0.756989103759594E+001 -0.371885178989598E+001  0.545278560492520E+001  0.327539178613768E+001
  0.100000000000000E+001  0.269785159488905E+002  0.120604586827096E+002 -0.563121877478505E+001  0.115504170929388E+002 -0.103989597747556E+002 -0.551808150977843E+001
  0.100000000000000E+001  0.269645641977984E+002  0.225556994040453E+001  0.657501594162967E+001 -0.501374112165282E+001  0.383312342090536E+001 -0.486629192226624E+001
  0.100000000000000E+001  0.269507809660511E+002  0.465684490162099E+001 -0.478577878886392E+001 -0.104533890229217E+001 -0.444619908029233E+001 -0.356839377307375E+001
  0.100000000000000E+001  0.269490296048504E+002  0.162115863048885E+002 -0.961011142595638E+001  0.104340720045644E+002 -0.816752498156472E+001  0.789287668897913E+000
  0.100000000000000E+001  0.269200934507581E+002  0.215189720980359E+000  0.473524916581439E+001 -0.719282617616947E+001  0.166653286221620E+001  0.287251090226450E+001
  0.100000000000000E+001  0.269115293859626E+002 -0.401640721364245E+001  0.118159034541928E+002  0.613654565317962E+000  0.741732381431120E+000 -0.347887513369401E+001
  0.100000000000000E+001  0.268785292646584E+002  0.120031989424617E+002 -0.144402134575622E+002  0.140929993396249E+002 -0.567395265734033E+001  0.190986581308641E+001
  0.100000000000000E+001  0.268739799095172E+002  0.907534604422411E+001 -0.110747245206487E+002  0.134313285849784E+002 -0.623220044161593E+001 -0.759411513555852E+001
  0.100000000000000E+001  0.268434702993356E+002  0.144731721645960E+001 -0.705348427702339E+001 -0.662926031229159E+001  0.426192340249065E+001  0.423266686424599E+001
  0.100000000000000E+001  0.268405046989014E+002  0.728259176911944E+001 -0.131869372724704E+002  0.149556602870427E+002 -0.537460205869259E+001 -0.175241955175170E+001
  0.100000000000000E+001  0.268392670664823E+002  0.975130199114913E+001 -0.154645307175881E+002  0.134710542636404E+002 -0.439855527218598E+001 -0.232939463779065E+000
  0.100000000000000E+001  0.268227324748176E+002  0.457201410857596E+001 -0.209639543425858E+001  0.345724620139992E+001 -0.974692879107941E+000  0.397127306899736E+001
  0.100000000000000E+001  0.268191259683431E+002 -0.389780709363725E+001  0.222183705513678E+001 -0.467287077771338E+001  0.316213357294259E+000 -0.174614129226523E+000
  0.100000000000000E+001  0.268137660267435E+002 -0.467879933955107E+000  0.921116452504243E+001 -0.514688043726107E+001  0.226993984405192E+001  0.412991770249340E+001
  0.100000000000000E+001  0.268088480960036E+002 -0.420550697493016E+001 -0.511729954664141E+001 -0.259624745588926E+001  0.603558888548680E+001  0.427681951764126E+001
  0.100000000000000E+001  0.267889971156738E+002 -0.820250639978441E+001 -0.721848023780913E+001 -0.102859384572973E+002 -0.510389646019224E+001  0.119026018085317E+002
  0.100000000000000E+001  0.267621635812094E+002  0.707944007745892E+001 -0.996906008714545E+001  0.631504964858926E+001 -0.805504092799192E+001 -0.112886046194397E+001
  0.100000000000000E+001  0.267582555734755E+002  0.862024015790428E+001 -0.636257538748925E+001  0.238606174385097E+001 -0.824711689375343E+001 -0.209652630811218E+001
  0.100000000000000E+001  0.267458210961861E+002 -0.206989145677123E+001 -0.120987672842538E+002 -0.148714306831803E+002  0.429979635009008E+000  0.657835626393586E+001
  0.100000000000000E+001  0.267409287856379E+002 -0.132107879111195E+001  0.309426474414610E+001 -0.576802720844580E+001  0.742151385782865E+001  0.368192256126240E+001
  0.100000000000000E+001  0.267287782148747E+002 -0.397462745277321E+001  0.374628816074381E+001 -0.194645106395539E+001  0.702846738400751E+000 -0.101768332881697E+002
  0.100000000000000E+001  0.267279527777154E+002  0.126756107859717E+002  0.144716884339091E+001  0.585710728952915E+001 -0.596844058612155E+001  0.562494238018905E+001
  0.100000000000000E+001  0.267068534251424E+002  0.166382035700675E+002 -0.876860951659499E+000  0.115144299560809E+002 -0.123186371378234E+002  0.449200508150036E+001
  0.100000000000000E+001  0.266851220700459E+002  0.949136945598433E+001 -0.952855301861964E+001  0.117012764874237E+002 -0.499263324123836E+001 -0.897981129275976E+001
  0.100000000000000E+001  0.266788108437610E+002  0.621090813753419E+001 -0.104012034293127E+002 -0.431327237802273E+001 -0.159486877156398E+001  0.110327153322391E+001
  0.100000000000000E+001  0.266642477840931E+002  0.515599998063610E+000  0.535117574116287E+001 -0.478520680031127E+001  0.278115909606160E+001 -0.651541869104442E+000
  0.100000000000000E+001  0.266418644966223E+002  0.153332072372712E+001 -0.678624127125215E+001 -0.715277632706696E+001 -0.255231795244501E+001  0.732243008952908E+001
  0.100000000000000E+001  0.266353930935084E+002 -0.519908760192483E+001 -0.646286891696902E+001 -0.831037976208354E+001 -0.387991168043348E+001  0.945484146862808E+001
  0.100000000000000E+001  0.266114228899015E+002  0.142371711413093E+002 -0.110285274055444E+002  0.758282636488172E+001 -0.920359167446363E+001  0.440953557858574E+001
  0.100000000000000E+001  0.266036737598164E+002  0.110810005563196E+002 -0.806094064253786E+001  0.100144036312474E+002 -0.581594258718055E+001 -0.398558191847815E+001
  0.100000000000000E+001  0.265875881385023E+002  0.911992940268700E+001 -0.101076932367909E+002  0.813670674435407E+001 -0.242866671994529E+001 -0.678242994766522E+001
  0.100000000000000E+001  0.265815383921576E+002  0.152758699869452E+001  0.106483223009059E+002 -0.184412836732807E+001  0.416664284042129E+001 -0.452272447208364E+001
  0.100000000000000E+001  0.265753854442277E+002  0.259970181971953E+001  0.904835664740204E+000 -0.680617430953060E+001  0.949049163067561E+001 -0.520521900947303E+001
  0.100000000000000E+001  0.265608050355594E+002  0.503112086445930E+001 -0.640560879642003E+001  0.407536385299250E+001 -0.463187050098330E+001 -0.683081645760905E+001
  0.100000000000000E+001  0.265460274469710E+002 -0.608998432761171E+001 -0.898764953730282E+001 -0.246894743075640E+001 -0.383926504034555E+001  0.733963724904211E+001
  0.100000000000000E+001  0.265219253276424E+002 -0.117892053787472E+000 -0.113907040441897E+002 -0.379257447751864E+001 -0.274824542454915E+001 -0.194236887429156E+000
  0.100000000000000E+001  0.264897328644308E+002  0.543739814744367E+001 -0.120996533969340E+002  0.142579583414867E+002 -0.410635572020741E+001 -0.752534663115180E+001
  0.100000000000000E+001  0.264771224075678E+002  0.951669087922797E+001  0.541221740755496E+001  0.734206273520122E+001  0.311009297108560E+001 -0.210276883764368E+001
  0.100000000000000E+001  0.264705613487629E+002  0.246770748568636E+001 -0.887871231120645E+001 -0.382227806202096E+000 -0.224791554654032E+001 -0.152481419920727E+001
  0.100000000000000E+001  0.264633977860945E+002 -0.276328063203164E+001  0.285673328197508E+001 -0.760397341556494E+000 -0.611043678645449E+001 -0.920912177102942E+001
  0.100000000000000E+001  0.264626644025673E+002 -0.480228241527026E+001 -0.114858156537115E+002 -0.966359679356153E+001 -0.520621085747852E+001  0.393966470815621E+001
  0.100000000000000E+001  0.264385459781303E+002  0.178915010149474E+002 -0.498907113910221E-001  0.114173538527759E+002 -0.612992110077379E+001  0.718765429635027E+001
  0.100000000000000E+001  0.264266745211510E+002  0.413579882262713E+001 -0.382664660417518E+000  0.324985564894653E+001 -0.102281403563126E+002 -0.106643631016898E+001
  0.100000000000000E+001  0.263905243591135E+002  0.270584313442829E+001 -0.606089728241869E+001 -0.854363521178657E+001 -0.145923196124774E+001  0.809177269018618E+001
  0.100000000000000E+001  0.263842535695713E+002 -0.375035667939341E+001  0.939542200932221E+001 -0.268260303293168E+000  0.448474282644861E+001 -0.209990410928422E+001
  0.100000000000000E+001  0.263595344531070E+002 -0.447407109178543E+001 -0.959767236013543E+001 -0.133542782643680E+002 -0.144350541518376E+001  0.906475833077411E+001
  0.100000000000000E+001  0.263322715763868E+002  0.676267598094942E+000 -0.718783253757575E+001 -0.658441209908982E+001  0.129234511605543E+001  0.872333398627063E+000
  0.100000000000000E+001  0.263109698007733E+002 -0.419044324526918E+001 -0.781414721130170E+001 -0.126674076205129E+002 -0.729110721047847E+001  0.559510443708444E+001
  0.100000000000000E+001  0.262759010394957E+002  0.379824220724775E+001  0.225408471390539E+001  0.575387393889801E+001 -0.112904275142253E+002 -0.785009735628588E+001
  0.100000000000000E+001  0.262562048979684E+002 -0.611941446871825E+001 -0.612315376414417E+001  0.203849437075367E+001  0.255188238518039E+001  0.676122074911678E+000
  0.100000000000000E+001  0.262361227224476E+002 -0.281523235243558E+001 -0.831020003915592E+001 -0.114071013066368E+002 -0.175771426113656E+000  0.111448424932808E+002
  0.100000000000000E+001  0.261936527816876E+002  0.813057555737245E+000 -0.644836098771651E+001 -0.106998343842752E+002 -0.978659314675173E+000  0.980725554837756E+001
  0.100000000000000E+001  0.261494933669310E+002 -0.495770648837623E+001 -0.818137687449282E+001 -0.686232392410110E+001 -0.143737492585941E+001  0.101007989518661E+002
  0.100000000000000E+001  0.261472824716651E+002 -0.275859779433196E+001  0.416091040003984E+000  0.301494454452149E+001  0.723903509975500E+000  0.820465269237104E+000
  0.100000000000000E+001  0.261425380645329E+002 -0.610203346910405E+001 -0.997652422956004E+001 -0.160663350916991E+002 -0.456464729891400E+001  0.724534060913936E+001
  0.100000000000000E+001  0.261342794586598E+002  0.588302470067677E+001  0.456507398489521E+001  0.730421290612009E+001 -0.313229750605636E+000 -0.798287456947806E+001
  0.100000000000000E+001  0.261326593175458E+002 -0.321065478696361E+001 -0.907401963453518E+001 -0.393175782875499E+001 -0.666572924191044E+001  0.107961214914456E+001
  0.100000000000000E+001  0.261067332364444E+002 -0.585059696256324E+001  0.486445346205219E+001 -0.274918768704496E+001  0.352070491226339E+001 -0.331904604742097E+001
  0.100000000000000E+001  0.261064128564302E+002  0.115860937849337E+002  0.387781098812159E+001  0.731201349775050E+001 -0.708618749921515E+001 -0.166323300600894E+001
  0.100000000000000E+001  0.261029966398343E+002  0.124841240005408E+002 -0.669559815436990E+001  0.608827484173806E+001 -0.104935285636750E+002  0.140126542837488E+001
  0.100000000000000E+001  0.260962350955856E+002 -0.185317926299259E+001 -0.744755606848419E+001  0.730523272840340E+000 -0.215977940090769E+001 -0.361156290116780E+001
  0.100000000000000E+001  0.260464827150643E+002  0.860530845583503E+001  0.145381865290157E+001  0.570629325361471E+001 -0.819721927751205E+001 -0.370302180424219E+001
  0.100000000000000E+001  0.260441480942101E+002 -0.361178007606003E+001 -0.114523978204862E+002 -0.894513784652746E+001 -0.466148324366783E+001 -0.200591152659488E+000
  0.100000000000000E+001  0.260421348001926E+002  0.102226982130142E+001 -0.753284176228388E+001  0.167297292519898E+000  0.502199399253288E+001  0.791450266813860E+001
  0.100000000000000E+001  0.260207166849391E+002 -0.878140185909519E+000 -0.877077793574342E+001 -0.138923493793659E+002 -0.478353209647020E+001  0.468755347099281E+001
  0.100000000000000E+001  0.258237663117551E+002  0.530995035232625E+000 -0.722815530411499E+001 -0.531083674422993E+001 -0.475962782420437E+001  0.141303350360329E+001
  0.100000000000000E+001  0.257905388866380E+002  0.656105279684922E+000 -0.818525002080666E+001 -0.122485694368467E+002 -0.610080437118983E+001  0.126297872426075E+001
  0.100000000000000E+001  0.256898288212807E+002 -0.717731036830931E+001 -0.915264521445646E+001 -0.746910976989471E+001 -0.248791352496843E+001  0.114215462545197E+002
  0.100000000000000E+001  0.256654545339311E+002 -0.420293354813819E+001 -0.603420368267162E+001 -0.541828012469401E+001 -0.464925517825224E+001  0.100256845255946E+002
  0.100000000000000E+001  0.256564070479315E+002 -0.851706876089489E+001 -0.131640863669281E+002 -0.922292136155227E+001 -0.481667735024142E+001  0.301000033926564E+001
  0.100000000000000E+001  0.256407279729531E+002 -0.366732816735733E+001 -0.726893640916218E+001 -0.114757346127390E+002 -0.198977320470726E+001  0.118576623186727E+002
  0.100000000000000E+001  0.255797570541009E+002 -0.890178579759247E+001 -0.123175038380650E+002 -0.112612521528366E+002 -0.595107070136114E+001  0.459463208810384E+001
  0.100000000000000E+001  0.255196811024418E+002 -0.583393308260145E+001 -0.116501163432602E+002 -0.160593800058499E+002 -0.541593300800138E+001  0.419618992275582E+001
  0.100000000000000E+001  0.255174045262256E+002  0.115534091095376E+001 -0.108410078307933E+002 -0.945188061744775E+001  0.346424033621666E+000  0.484765137494194E+001
  0.100000000000000E+001  0.254846045201343E+002 -0.407884480371148E+001 -0.754756200618289E+001 -0.361319142869798E+001 -0.309190813228416E+001  0.920379108523506E+001
  0.100000000000000E+001  0.254603288650194E+002  0.203116432150092E+001 -0.102596462671099E+002 -0.999929019814535E+001 -0.150534063129608E+001  0.282988512026712E+001
  0.100000000000000E+001  0.254254021690777E+002 -0.687373408763940E+001 -0.123737751010571E+002 -0.156968401538177E+002 -0.484869205051643E+001  0.402964624463355E+001
  0.100000000000000E+001  0.253054964481689E+002 -0.768120639475949E+000 -0.116358595888438E+002 -0.109835856411226E+002 -0.247944486517207E+001  0.326220190999703E+001
  0.100000000000000E+001  0.251507884404991E+002 -0.764528162381822E+001 -0.913296517416223E+001 -0.988330569409823E+001 -0.528138061112606E+001  0.730995797386946E+001
  0.100000000000000E+001  0.251202275477077E+002 -0.346268317740067E+001 -0.732978221223157E+001 -0.321696758627034E+001 -0.484811519111758E+001  0.585578190588490E+001
  0.100000000000000E+001  0.251034361353932E+002 -0.487835696011659E+001 -0.889012707537282E+001 -0.451627529519142E+001 -0.254847562321516E+001  0.880854891090173E+001
  0.100000000000000E+001  0.250930627290574E+002 -0.524679386741272E+001 -0.141952805559982E+002 -0.919437660475844E+001 -0.271520599486744E+001  0.114962675352137E+001
  0.100000000000000E+001  0.249351253015932E+002  0.191515382966857E+001 -0.671748545535007E+001 -0.705860199119113E+001 -0.225257664331956E+001  0.547992834067146E+001
  0.100000000000000E+001  0.248778306666148E+002 -0.314113448546975E+001 -0.125534111640293E+002 -0.793364590974103E+001 -0.188627094779723E+001  0.412734331090726E+001
  0.100000000000000E+001  0.248368586643561E+002  0.889807580878760E+000 -0.668898802553393E+001 -0.513081986206331E+001 -0.184492375027817E+001  0.715056590493642E+001
  0.100000000000000E+001  0.247366213497345E+002 -0.767762675378029E+001 -0.109860502448213E+002 -0.103285998667591E+002 -0.552322587250868E+001  0.462421219551497E+001
  0.100000000000000E+001  0.244775202111612E+002 -0.258304087498312E+001 -0.111127829077781E+002 -0.649226463036161E+001 -0.428835248060703E+001  0.147877354947442E+001
  0.100000000000000E+001  0.244576101720125E+002 -0.504691118201944E+001 -0.881669538092467E+001 -0.950482863914188E+001 -0.254974660099229E+001  0.102071413836644E+002
  0.100000000000000E+001  0.244350424063549E+002 -0.219091086276885E+001 -0.596040180553507E+001 -0.837355000686519E+001 -0.456600441728773E+001  0.848324366269716E+001
  0.100000000000000E+001  0.260370434412258E+002  0.273805001668718E+001 -0.839794667745576E+001  0.265609312603295E+001 -0.649368485971222E+001 -0.363975029617192E+001
  0.100000000000000E+001  0.260225396142704E+002 -0.546204896873445E+001 -0.119124820934998E+001  0.684982863041862E+001  0.246429663412497E+001  0.228813310705154E+001
  0.100000000000000E+001  0.259623504430263E+002  0.141984874808550E+002 -0.112988621963871E+002  0.126495263831163E+002 -0.688723717792021E+001 -0.108029425621609E+001
  0.100000000000000E+001  0.258746734148321E+002  0.456012224046390E+001 -0.765844359269823E+001 -0.375029603248666E+001  0.431049274473774E+001  0.776407193855022E+001
  0.100000000000000E+001  0.258345190634591E+002 -0.185429053967914E+001 -0.323638994581537E+001  0.652107870524742E+001  0.235060531952393E+001  0.491102076414951E+001
  0.100000000000000E+001  0.258294788411120E+002  0.228434044806465E+001 -0.440733863539827E+001 -0.545149645903028E+001  0.196337993985533E+001  0.264346524542555E+001
  0.100000000000000E+001  0.257160311798416E+002  0.606436861958175E+001 -0.666531267565295E+001 -0.458829096477961E+001  0.227603160646142E+001  0.629854567093276E+001
  0.100000000000000E+001  0.254780336040624E+002  0.115851574657153E+002  0.325110030286556E+001  0.520816361632724E+001 -0.568723628746164E+001  0.159456143933171E+001
  0.100000000000000E+001  0.256572088442001E+002  0.616251708439817E+001 -0.102297248840069E+002  0.106878419397284E+002 -0.279503572044315E+001 -0.605442815374458E+001
  0.100000000000000E+001  0.256336192863315E+002  0.785612200270975E+001 -0.116383733706141E+002  0.110240092585138E+002 -0.212213187517356E+001 -0.572976285117081E+001
  0.100000000000000E+001  0.256020535720764E+002  0.135387338320529E+002 -0.633040834575740E+001  0.846227432994753E+001 -0.126421085865360E+002 -0.348225671123718E+000
  0.100000000000000E+001  0.255145097290038E+002  0.799225824814376E+001 -0.581364574700248E+001 -0.386143635061359E+000 -0.234813752851558E+001  0.240174959525671E+001
  0.100000000000000E+001  0.254828507250304E+002  0.472692981232602E+001 -0.483614662117056E+001 -0.408560122945765E+001  0.246435693604684E+001  0.452538218206404E+001
  0.100000000000000E+001  0.253783975353461E+002  0.109530274675937E+002 -0.999245598672126E+001  0.674402422703821E+001 -0.848827777496954E+001  0.208811846127202E+001
  0.100000000000000E+001  0.253685108361678E+002  0.607101659607885E+001 -0.105289150060670E+002  0.857182847642378E+001 -0.640493175854761E+001 -0.118763069022170E+001
  0.100000000000000E+001  0.253219474747063E+002 -0.440232178375918E+001 -0.535660606296993E+001  0.517159513451564E+001  0.180360561333759E+001  0.216696621616975E+001
  0.100000000000000E+001  0.253152100831278E+002  0.622783956551914E+001 -0.883578197373076E+001  0.637708811488342E+001 -0.286555631306294E+001 -0.752602102221281E+001
  0.100000000000000E+001  0.252203316744932E+002  0.123407348289235E+002 -0.856123172051599E+001  0.100601459338257E+002 -0.664008770613444E+001 -0.389849665471151E+001
  0.100000000000000E+001  0.252012971802681E+002  0.149603090746734E+002 -0.101182006360032E+002  0.103640294987467E+002 -0.885929502469816E+001  0.153992721296209E+001
  0.100000000000000E+001  0.251226332023471E+002  0.370492518464997E+001 -0.361816255570931E+001 -0.216989962726807E+001 -0.234368852233348E+001 -0.142266535201695E+001
  0.100000000000000E+001  0.250890109074140E+002  0.101974127950670E+002 -0.898215393448187E+001  0.762191417406207E+001 -0.457875297024431E+001 -0.441579340298206E+001
  0.100000000000000E+001  0.250025879789376E+002  0.294129687490003E+000 -0.496557526614035E+001 -0.114320667356094E+001 -0.221558160983911E+001 -0.344939114426553E+001
  0.100000000000000E+001  0.256106141210888E+002  0.329117153402376E+001  0.399428736885103E+001 -0.224122980044825E+000 -0.508426499836822E+001 -0.401619716305863E+001
  0.100000000000000E+001  0.249131532261058E+002  0.652623393041285E+001 -0.911872486251782E+001  0.607369594501015E+001 -0.631392274360291E+001 -0.425680101858813E+001
  0.100000000000000E+001  0.249111270531397E+002 -0.257245803717813E+001  0.388023201924483E+000  0.228396149560831E+001  0.674795721286721E+000 -0.646103078606512E+000
  0.100000000000000E+001  0.247748511413434E+002  0.130486340634738E+002 -0.102850198955944E+002  0.958826066875259E+001 -0.902843621929290E+001 -0.912430226533182E+000
  0.100000000000000E+001  0.247724709625174E+002  0.906123991542825E+001 -0.109477022842594E+002  0.730610676932007E+001 -0.675612891455995E+001  0.411976840403135E+000
  0.100000000000000E+001  0.247115458254411E+002  0.807436152661410E+000 -0.639386167552196E+001  0.411845208679362E+001 -0.321973527092723E+001  0.500528595635359E-001
  0.100000000000000E+001  0.246626305633556E+002  0.101932621137619E+002 -0.986780449490866E+001  0.790120016175381E+001 -0.880088100926998E+001  0.169784675234276E+000
  0.100000000000000E+001  0.246550779301743E+002  0.416390503858932E+001 -0.949700396437116E+001  0.844630952247365E+001 -0.391365315096511E+001 -0.731321732739035E+001
  0.100000000000000E+001  0.245330617218931E+002 -0.201003497024271E+001 -0.341518920939144E+000  0.592013463821183E+001 -0.774122691175570E+000 -0.440930498474401E-002
  0.100000000000000E+001  0.244461185811640E+002 -0.128837124926581E+001 -0.456813514395011E+001  0.150931979220656E+001  0.300510246562190E+001  0.275020451630356E+001
  0.100000000000000E+001  0.244431624025624E+002 -0.210005284146529E+001 -0.615628089937745E+001 -0.441030368786546E+000  0.636952698575399E-002 -0.161894727310372E+001
  0.100000000000000E+001  0.244215072000127E+002  0.978342405585870E-001 -0.351426635730029E+001  0.658769751219589E+001 -0.394248773479264E+001 -0.231484813486886E+001
  0.100000000000000E+001  0.259469318996796E+002 -0.304281593082565E+001  0.668819391691564E+001 -0.307546849742596E+001 -0.117894508219448E+001 -0.702777578810975E+001
  0.100000000000000E+001  0.256115250986000E+002 -0.132347197010081E+001  0.989635731984329E+000 -0.671791225506556E+001  0.188566082352272E+001 -0.238965623705763E+000
  0.100000000000000E+001  0.255941743601037E+002  0.155903374834636E+001  0.361299689304605E+000 -0.809363802712284E+001  0.889287494247603E+001 -0.302079022090339E+001
  0.100000000000000E+001  0.254609588044559E+002 -0.111944164159389E+001  0.130530954950956E-001 -0.549376223641329E+001  0.723029296206310E+001 -0.173979569556243E+001
  0.100000000000000E+001  0.254444182928671E+002 -0.146465380560782E+001  0.455804531026547E+001 -0.391394061429535E+001  0.207998673703447E+001 -0.837606523791814E+001
  0.100000000000000E+001  0.254205540770047E+002 -0.378575714270847E+001  0.398705667796900E+001 -0.163130322192336E+001  0.251590756183859E+001 -0.959476019856463E+001
  0.100000000000000E+001  0.252880192634424E+002 -0.215555723995046E+001  0.945825583672189E+000 -0.783610992100284E+001  0.721506829106396E+000 -0.119797532899714E+000
  0.100000000000000E+001  0.251830607051273E+002 -0.556903953355848E+001  0.520208231882576E+001 -0.333576093593017E+001 -0.193947864818840E+001 -0.414485954906216E+001
  0.100000000000000E+001  0.251636919676811E+002 -0.145079479713246E+001  0.523443739991403E+001 -0.430981663116483E+001  0.174150739725427E+001 -0.711816401238584E+001
  0.100000000000000E+001  0.251217427940967E+002 -0.327663301518169E+001  0.776960191512278E+001 -0.415068705078813E+001 -0.429087937643100E+000 -0.241326951157123E+001
  0.100000000000000E+001  0.250554609999874E+002 -0.109791198523454E+001  0.671032610702877E+001 -0.611617165011287E+001  0.536856133973925E+001  0.129730552800894E+001
  0.100000000000000E+001  0.249245369391410E+002 -0.407216995564863E+001  0.519087686736521E+001 -0.259131718321366E+001  0.611754557126496E+001 -0.502969905560496E+001
  0.100000000000000E+001  0.248196923163202E+002 -0.214548708777587E+001  0.781649739922104E+001 -0.519335195418944E+001  0.338538705192054E+001  0.274149335521335E+001
  0.100000000000000E+001  0.247897285270753E+002 -0.305621065254358E+001  0.673658533489542E+001 -0.676054662763018E+000  0.634981519152691E+001 -0.758315712842569E+001
  0.100000000000000E+001  0.246239334580807E+002 -0.494881557214024E+001  0.343607675382360E+001 -0.244929210343257E+001  0.179391980457300E+000 -0.684773891366207E+001
  0.100000000000000E+001  0.246235659007940E+002  0.607448469953699E+000  0.669928059673563E+000 -0.801707350528354E+001  0.702235592756485E+001  0.187196171660535E+001
  0.100000000000000E+001  0.245834440164038E+002 -0.841840330634401E+000  0.638613407161806E+001 -0.226934603899247E+001  0.281768333869736E+001 -0.571160471882880E+001
  0.100000000000000E+001  0.245177114800118E+002 -0.402113654499130E+001  0.943213823071429E+001 -0.142331464097335E+001  0.970557783862951E+000 -0.532520991816519E+001
  0.100000000000000E+001  0.245128547272486E+002 -0.120197182180665E+001  0.597732765812576E+001 -0.309608359743119E+001  0.671877432285178E+001 -0.757743924535755E+001
  0.100000000000000E+001  0.244975857554698E+002  0.502213118329980E+000  0.219655343120951E+001 -0.594487409947607E+001  0.418517264461439E+001 -0.530179462922677E+001
  0.100000000000000E+001  0.259562344535805E+002 -0.450897944782195E+000  0.725203288793129E+001  0.377700428198224E-001 -0.204110734491007E+001 -0.122982996142134E+002
  0.100000000000000E+001  0.259271730991649E+002 -0.251634940244949E+001  0.512956547005578E+001  0.138584186292739E+000 -0.655317371715807E+001 -0.120543858473712E+002
  0.100000000000000E+001  0.259251519900328E+002  0.583820231759408E+001  0.456489890912606E+001  0.824977683698641E+001 -0.325631323557980E+001 -0.867778068958422E+001
  0.100000000000000E+001  0.257268510068870E+002  0.109129981916737E+002  0.419318313745268E+001  0.884232714189525E+001 -0.647222573129966E+001 -0.428186823320291E+001
  0.100000000000000E+001  0.242883851126972E+002 -0.323227011846661E+001 -0.846071321923519E+001 -0.478695221953345E+001 -0.273676662615506E+001  0.738563735283342E+001
  0.100000000000000E+001  0.242445770578365E+002  0.127998881609297E+000 -0.662062594651092E+001 -0.664213565656520E+001 -0.338735467020917E+001  0.552882052319460E+001
  0.100000000000000E+001  0.242162841764303E+002 -0.544748632018020E+000 -0.595194876266920E+001 -0.837340050680179E+001 -0.417459360642309E+001  0.672583314071579E+001
  0.100000000000000E+001  0.241839692925539E+002 -0.203376601817597E+001 -0.114509387178060E+002 -0.126499657685869E+002 -0.339806270411014E+001  0.191047539393178E+001
  0.100000000000000E+001  0.241470394183994E+002 -0.222636273626334E+001 -0.108059252959906E+002 -0.107197150433716E+002 -0.192380819379280E+001  0.609572209156810E+001
  0.100000000000000E+001  0.241395612699389E+002 -0.540879905012184E+001 -0.114507200252269E+002 -0.100753726149822E+002 -0.569417146004370E+001  0.163370615039853E+001
  0.100000000000000E+001  0.241391471105823E+002 -0.126876343060376E+001 -0.780530713646244E+001 -0.915965930408810E+001 -0.617887089230408E+001  0.243262389319466E+001
  0.100000000000000E+001  0.239253115089661E+002 -0.283855896913580E+001 -0.118521005549742E+002 -0.117188579305060E+002 -0.216648969475977E+001  0.359414303699004E+001
  0.100000000000000E+001  0.238974341753814E+002 -0.432464932767136E+001 -0.991605123179047E+001 -0.125930957592564E+002 -0.437727603422800E+001  0.591527376180742E+001
  0.100000000000000E+001  0.237463841812353E+002 -0.420082594447042E+001 -0.996626486367701E+001 -0.118796748283996E+002 -0.384000685917039E+001  0.535919822973023E+001
  0.100000000000000E+001  0.237454472895113E+002 -0.409880068970548E+001 -0.104702296657704E+002 -0.992342112068606E+001 -0.538531949511449E+001  0.209777252868718E+001
  0.100000000000000E+001  0.236961792488547E+002 -0.150305895605645E+001 -0.991969297775883E+001 -0.827037251579074E+001 -0.277256131510365E+001  0.348240862380388E+001
  0.100000000000000E+001  0.236718562266971E+002 -0.293014071373387E+001 -0.105238749842695E+002 -0.120082982538915E+002 -0.371884131189441E+001  0.359950657234954E+001
  0.100000000000000E+001  0.234484895519562E+002 -0.204306334978983E+001 -0.904419556956563E+001 -0.889285188395724E+001 -0.347497318210749E+001  0.556802025485674E+001
  0.100000000000000E+001  0.233806365580339E+002 -0.169397758327216E+001 -0.102858792934378E+002 -0.101555496432013E+002 -0.351224204096259E+001  0.318876021508544E+001
  0.100000000000000E+001  0.233418811797011E+002 -0.178251126750694E+001 -0.833644499784477E+001 -0.862373276917398E+001 -0.339763028155462E+001  0.589839899019893E+001
  0.100000000000000E+001  0.243885493699232E+002  0.153537005056746E+001 -0.294995451035228E+001  0.204683742550295E+001  0.269307823050437E+001  0.582860009313036E+001
  0.100000000000000E+001  0.243048271844237E+002  0.217280167452283E+001 -0.806027552025525E+001  0.172677076395876E+001 -0.408806310772327E-001  0.221486664597615E+001
  0.100000000000000E+001  0.242945054061264E+002  0.609791254385007E+001 -0.813076461116968E+001 -0.344764852331754E+001 -0.172712537206025E+001  0.186452991447627E+001
  0.100000000000000E+001  0.242342820367530E+002  0.766490186401679E+001 -0.120074406257776E+002  0.837872347044718E+001 -0.410249361674959E+001 -0.187781734165193E+001
  0.100000000000000E+001  0.242146507498093E+002 -0.205894342822004E+001 -0.212805239822534E+001  0.560058871545814E+001 -0.272080254613405E+001 -0.312908220661633E+001
  0.100000000000000E+001  0.241475042605696E+002  0.133867235803109E+002 -0.862512833182214E+001  0.912585052719446E+001 -0.933863601154881E+001 -0.321736562771807E+000
  0.100000000000000E+001  0.241129427245674E+002  0.304595513258413E+001 -0.178061002441717E+001  0.170949803820380E+001 -0.974403937696579E+000  0.108423251316340E+001
  0.100000000000000E+001  0.240995774892157E+002 -0.970465077660442E+000 -0.408995982013763E+001 -0.187856047482164E+001  0.839952603232863E+000 -0.677623790800027E+000
  0.100000000000000E+001  0.240946294253670E+002  0.574099561199710E+001 -0.558111579478836E+001 -0.171193067096372E+000  0.889294583252831E+000  0.512403244058589E+001
  0.100000000000000E+001  0.240508452762004E+002  0.513082549544373E+001 -0.661064259919017E+001  0.292183195172579E+001 -0.365910812913468E+001  0.699052463069201E+000
  0.100000000000000E+001  0.239755647632671E+002  0.459489905487430E+000 -0.373295614133857E+001  0.371494200329309E+001 -0.467997746421235E+001 -0.377335147135269E+001
  0.100000000000000E+001  0.239266736921768E+002  0.315986238341893E+001 -0.368045248447729E+001  0.152205679900209E+001  0.230075691440440E+000  0.399646512537108E+001
  0.100000000000000E+001  0.238701823302208E+002 -0.618554348655596E+000 -0.543931469236379E+001  0.258204945536253E+001 -0.418158910735959E+001 -0.345135300354919E+001
  0.100000000000000E+001  0.237302348861516E+002 -0.902743267723832E+000 -0.615119780318606E+001  0.271782694227900E+001  0.246000225122501E+001  0.394498931821272E+001
  0.100000000000000E+001  0.237260737955728E+002  0.174816503119704E+001 -0.682521273007696E+001  0.824540537564094E+000 -0.439827402769960E+001 -0.271449133888449E+001
  0.100000000000000E+001  0.235696297387910E+002 -0.424252881849086E+001 -0.273110082339304E+001  0.389096338837147E+001  0.517689108205772E-001 -0.588792678586451E+000
  0.100000000000000E+001  0.234646148355197E+002 -0.294131302845378E+001 -0.460092912235460E+001 -0.420063528957588E+000  0.524991551764288E+000 -0.118694344764096E+001
  0.100000000000000E+001  0.234304414132902E+002  0.892131506680261E+001 -0.105896884812544E+002  0.981586985467202E+001 -0.622837454560385E+001 -0.254650157845767E+001
  0.100000000000000E+001  0.244143111998334E+002 -0.105327413042078E+001  0.661553671380706E+001 -0.384073767521057E+001  0.227918675845257E+001 -0.932292252618900E-001
  0.100000000000000E+001  0.242781135897063E+002  0.104392444709127E+000  0.465399260436106E+001 -0.653113980010828E+001  0.801639389401315E+001  0.353121989076661E+001
  0.100000000000000E+001  0.242623009052242E+002 -0.130867363544912E+001 -0.350633933168325E+000 -0.724903792443469E+001  0.287634960626732E+001 -0.243793699800231E+001
  0.100000000000000E+001  0.241855422130616E+002 -0.488094337819546E+001  0.585236959105779E+001 -0.252158416081768E+001 -0.132494552228098E+001 -0.388445389489473E+001
  0.100000000000000E+001  0.240405644076794E+002 -0.171986586123900E+000  0.512675724535012E+001 -0.670045295510051E+001  0.336601680518959E+001  0.268786032750589E+001
  0.100000000000000E+001  0.239331421455753E+002 -0.266628663543097E+001  0.494066887896489E+001 -0.571432758021633E+001  0.141859778699207E+000 -0.159183564747800E+001
  0.100000000000000E+001  0.239255647564425E+002 -0.339114122058101E+001  0.296712868690743E+001 -0.512167278042753E+001 -0.138397273848089E+000 -0.125502841800225E+001
  0.100000000000000E+001  0.238752848010050E+002  0.159804049046114E+001  0.936798307180568E+001 -0.315949241821948E+001  0.901423144953376E+001 -0.324358083694191E+001
  0.100000000000000E+001  0.236627462595397E+002 -0.159441171922362E+001  0.871938862706376E+001 -0.190168570789150E+001  0.249896482871324E+001 -0.708391723259870E+001
  0.100000000000000E+001  0.236319652800536E+002  0.574595940745741E+000  0.404107078638702E+001 -0.732721737612095E+001  0.581557929094033E+001  0.274979966936435E+001
  0.100000000000000E+001  0.236316528417227E+002  0.266570784267561E+000  0.182241054888068E+001 -0.776535593924051E+001  0.844328925014833E+001  0.688556082708651E+000
  0.100000000000000E+001  0.235896309852735E+002 -0.195619052840566E+000  0.921147371642313E+001 -0.452484597448811E+001  0.508015094333046E+001  0.179079495324138E+001
  0.100000000000000E+001  0.235773568875720E+002 -0.120596442228466E+001  0.664982444302616E+001 -0.333440279419930E+001  0.618664568501527E+001  0.411519974532776E+000
  0.100000000000000E+001  0.235487619878865E+002 -0.244727477744892E+001  0.209063656974069E+001 -0.720482149166913E+001  0.261217932326792E+001  0.150108891181259E+001
  0.100000000000000E+001  0.235354371702244E+002 -0.230773062070681E+001  0.101035750387142E+002 -0.267094886164059E+001  0.107869382717452E+001 -0.217009149169075E+001
  0.100000000000000E+001  0.235144301439717E+002 -0.280986663064410E+001 -0.569759119552856E+000 -0.576309418505017E+001  0.578265157566419E+001 -0.437067620678949E+001
  0.100000000000000E+001  0.234562724467285E+002 -0.128631018596791E+001  0.611119619969496E+001 -0.481895680241572E+001  0.276851734676783E+001 -0.432646955609362E+001
  0.100000000000000E+001  0.234111665376317E+002  0.141379072034417E+001  0.315969256611205E+001 -0.741652090123118E+001  0.880738513953479E+001  0.105845853819268E+001
  0.100000000000000E+001  0.233842810730479E+002 -0.352554381994474E+001  0.856863316610227E+001 -0.225818129578631E+001  0.231146690678375E+001 -0.426389248802539E+001
  0.100000000000000E+001  0.243197623066510E+002  0.118591864545988E+002  0.491908925059833E+001  0.925541481563276E+001 -0.173550002343977E+001 -0.292188780413437E+001
  0.100000000000000E+001  0.242909982363486E+002  0.312104076469251E+001  0.374812746478609E+001  0.203786241008413E+001 -0.500903235508316E+001 -0.386202540173084E+001
  0.100000000000000E+001  0.242596172721378E+002  0.989715203036403E+001  0.424054204147396E+001  0.672758260598398E+001 -0.114041937172702E+001 -0.400678561422261E+001
  0.100000000000000E+001  0.241360999236350E+002  0.818043275621964E+001  0.572363928625816E+001  0.458609047446025E+001 -0.413904905480678E-002 -0.540885231926097E+001
  0.100000000000000E+001  0.241265658821481E+002  0.100260949167681E+002  0.424861449588460E+001  0.492756899091590E+001 -0.561402207632355E+000 -0.550275394258886E+000
  0.100000000000000E+001  0.240796902130481E+002  0.133644513041894E+002  0.201306151503112E+001  0.986442639147577E+001 -0.732933250563589E+001 -0.192530033595643E+001
  0.100000000000000E+001  0.239912051231554E+002  0.425413727368242E+001  0.146685920179049E+001  0.398652724870882E+001 -0.112100198742936E+002 -0.399085483463619E+001
  0.100000000000000E+001  0.239846670378107E+002  0.621350326308551E+001  0.397812224847190E+000  0.506992867192929E+001 -0.971408553631329E+001 -0.894265626770476E-001
  0.100000000000000E+001  0.239763330448417E+002  0.398177963330480E+001  0.672347357731702E+000  0.445898672408875E+001 -0.120569093731213E+002 -0.471557501756402E+001
  0.100000000000000E+001  0.239682591990957E+002  0.873854840423080E+001  0.320798624277034E+001  0.845430516347781E+001 -0.782859552542662E+001 -0.526318408157590E+001
  0.100000000000000E+001  0.239626428451322E+002  0.884533175540679E+001  0.340865188047832E+001  0.426538447665515E+001 -0.438501936198172E+001  0.416543269986548E+000
  0.100000000000000E+001  0.239413212991181E+002  0.429253854261975E+001  0.377996730521495E+000  0.348380076498754E+001 -0.935578359518721E+001 -0.219426439505522E+001
  0.100000000000000E+001  0.239156587761177E+002 -0.907120320346205E+000  0.509193504892631E+001  0.194715101919275E+000 -0.682447093012120E+001 -0.126513799571977E+002
  0.100000000000000E+001  0.239122860998485E+002  0.123986277088486E+002  0.263365616435599E+001  0.948625246566709E+001 -0.507573766916300E+001 -0.269781159075107E+001
  0.100000000000000E+001  0.239075863392699E+002  0.207677935296982E+001  0.428278889663933E+001  0.219595854547172E+001 -0.484635413280879E+001 -0.102744049890372E+002
  0.100000000000000E+001  0.238777566209082E+002  0.120373557303939E+002  0.480160955240745E+000  0.855960871755117E+001 -0.104600901295656E+002  0.226035307617310E+001
  0.100000000000000E+001  0.237704502836470E+002  0.208005864049547E+001  0.629946253880272E+001  0.394565504782103E+001 -0.146226826562449E+001 -0.107627456259260E+002
  0.100000000000000E+001  0.237389225380052E+002  0.895305985052730E+001  0.224713930486479E+001  0.716515225949171E+001 -0.111159632445156E+002 -0.488835309527246E+001
  0.100000000000000E+001  0.237091667674596E+002  0.696216383575331E+001  0.376808028047703E+001  0.644656232014119E+001 -0.314012137555884E+001 -0.692962692864435E+001
  0.100000000000000E+001  0.236818775273312E+002  0.377154243930635E+001  0.385656604921213E+001  0.617056666851442E+001 -0.286113495772865E+001 -0.713522821956774E+001
  0.100000000000000E+001  0.236713872336848E+002  0.380865023829681E+001  0.278444351108846E+001  0.268814393929930E+001 -0.102735859587827E+002 -0.563606106905719E+001
  0.100000000000000E+001  0.236569380516618E+002  0.387634270370908E+001  0.549089800355295E+001  0.469725239398216E+001 -0.543890258778342E+001 -0.106122039712892E+002
  0.100000000000000E+001  0.235154690864999E+002  0.710826805522868E+001  0.218684823615223E+001  0.742557378952588E+001 -0.944098809818941E+001 -0.681425635747047E+001
  0.100000000000000E+001  0.233907154547593E+002  0.930163750674927E+001  0.569261971275662E+001  0.672133167415122E+001 -0.214792573536000E+001 -0.666286861414952E+001
  0.100000000000000E+001  0.233732028271729E+002  0.803632333655606E+001  0.559436395869955E+001  0.605054925432768E+001 -0.281700159992938E+001 -0.803013553587991E+001
  0.100000000000000E+001  0.233312915507167E+002  0.383838304205065E+001 -0.523867037131875E+001 -0.111881619326362E+001 -0.155475414910264E+001  0.113803982432941E+000
  0.100000000000000E+001  0.233277966550391E+002  0.128862410590781E+002  0.119645034572675E+001  0.106194048583845E+002 -0.682100199288517E+001  0.136584667866639E+001
  0.100000000000000E+001  0.233024949731822E+002  0.874910022385107E+001  0.484081742112621E+001  0.738478906524044E+001 -0.317668225549738E+001 -0.449607220769920E+001
  0.100000000000000E+001  0.232989119600334E+002  0.207371800023965E+001  0.228902365281451E+001  0.742719391187023E+000 -0.911341090013662E+001 -0.501756305572312E+001
  0.100000000000000E+001  0.231771497834827E+002  0.696637354382123E+000 -0.565849488820333E+001  0.224323162013107E+000  0.693854753249596E+000  0.312914382048133E+001
  0.100000000000000E+001  0.230045622182105E+002 -0.185334047178682E+001 -0.207934076016785E+001  0.490814197089422E+001 -0.358086981357815E+000  0.131924650307454E+000
  0.100000000000000E+001  0.229827607884740E+002 -0.405783762624583E+000 -0.633169917662904E+001 -0.102142859493680E+001 -0.107958370936428E+001 -0.138180374807216E+001
  0.100000000000000E+001  0.228540525115462E+002 -0.932034894861467E-001 -0.592392593572891E+001  0.362647273436109E+001 -0.253229838068913E+001 -0.841146656552883E+000
  0.100000000000000E+001  0.228425906515087E+002  0.374140596660307E+001 -0.636728384955731E+001 -0.626165902077595E+000  0.405011371601301E+000  0.293829784939403E+001
  0.100000000000000E+001  0.227941147455200E+002  0.776973049186942E+000 -0.537917507684119E+001  0.404195833783577E+001 -0.930108880722607E+000  0.107765223517830E+001
  0.100000000000000E+001  0.225851397269117E+002 -0.595647385482131E+000 -0.614075616768404E+001  0.307655382402929E+001 -0.125569740264696E+001  0.193913372293174E+000
  0.100000000000000E+001  0.232165432599148E+002 -0.124974366124231E+001  0.104672712011334E+002 -0.217265079556536E+001  0.573618304165389E+001 -0.127644266069758E+001
  0.100000000000000E+001  0.232124657626742E+002 -0.302157287686350E+001  0.111550714505467E+001 -0.417028463923158E+001  0.507315829510625E+001 -0.635640639590593E+001
  0.100000000000000E+001  0.231972173945484E+002 -0.394247011783729E+001  0.634793472427313E+001 -0.331815707233659E+001  0.125644402189167E-001 -0.123992722780005E+001
  0.100000000000000E+001  0.231525493197767E+002 -0.135517351018686E+001  0.584091608800967E+001 -0.527825793514773E+001  0.536134641435265E+001  0.265483011265521E+001
  0.100000000000000E+001  0.231177672659302E+002 -0.248986692158982E+001  0.779854691864336E+001 -0.296585799905125E+001  0.627961010455197E+001 -0.108356824399185E+001
  0.100000000000000E+001  0.230824308423651E+002 -0.491897301285831E+001  0.478070418141452E+001 -0.364265834886154E+001  0.134503637048241E+001 -0.188855760850812E+001
  0.100000000000000E+001  0.229641269453166E+002 -0.197628789211516E+001  0.326349421676771E+001 -0.561712520093602E+001  0.548064564637614E+001 -0.357481012299178E+001
  0.100000000000000E+001  0.228298449024942E+002 -0.305478030218269E+001  0.600728889414433E+001 -0.181862952985564E+001  0.207788031516348E+001 -0.673809127475096E+001
  0.100000000000000E+001  0.228189930702707E+002 -0.319953662957419E+001  0.447717968690326E+001 -0.282599426018631E+001  0.519335262895211E+001 -0.273827552221054E+001
  0.100000000000000E+001  0.227201994829787E+002 -0.173957466601677E+001  0.326152095661139E+001 -0.568603155932954E+001  0.723894050074546E+001 -0.178289219309628E+001
  0.100000000000000E+001  0.227086855317571E+002 -0.241972570071210E+001  0.955820191874260E+001 -0.127498870239603E+001  0.214522428725738E+001 -0.471461504209407E+001
  0.100000000000000E+001  0.227070631411670E+002 -0.208000325093441E+001  0.425769401628473E+001 -0.496657064973457E+001  0.713962206653779E+000 -0.350152504852385E+001
  0.100000000000000E+001  0.226782961058673E+002 -0.111678270372602E+001  0.213349179524166E+001 -0.461967953294861E+001  0.618527925118807E+001 -0.651172086087289E+001
  0.100000000000000E+001  0.226742347013879E+002 -0.197022854532675E+001  0.823404660044208E+001 -0.406739136048412E+001  0.158373561556889E+001 -0.935859821585066E+000
  0.100000000000000E+001  0.225041179137472E+002  0.983668119672771E+000  0.720071570757803E+001 -0.425801498405344E+001  0.556999627295335E+001 -0.408635885023674E+001
  0.100000000000000E+001  0.224946045753498E+002 -0.288131819842752E+001  0.369969387008054E+001 -0.284795520836944E+001  0.577585565183372E+001 -0.598499606797691E+001
  0.100000000000000E+001  0.224511825497062E+002 -0.424306604225020E+000  0.680605732167838E+001 -0.441661609243291E+001  0.322310778204417E+001 -0.360587396227068E+000
  0.100000000000000E+001  0.224372487912554E+002 -0.376915285253098E+001  0.650981268100395E+001 -0.220819346470338E+001  0.431075420386724E+001 -0.340393104326991E+001
  0.100000000000000E+001  0.223979130648543E+002  0.115387915886521E+001  0.277367874420136E+001 -0.681438726181323E+001  0.722744270783677E+001 -0.107057496671288E+001
  0.100000000000000E+001  0.223625303472181E+002 -0.324824103667733E+001  0.718146884427873E+001 -0.279180386756387E+001  0.500619526078083E+000 -0.419173978224824E+001
  0.100000000000000E+001  0.223615738053288E+002 -0.295612725810821E+001  0.579752902004896E+001 -0.338273613028008E+001  0.192830809948811E+001 -0.136186815534824E+001
  0.100000000000000E+001  0.223275943366536E+002 -0.217364894363659E+001  0.502222953832495E+001 -0.249314271055995E+001  0.679453417241733E+001 -0.549312740981566E+001
  0.100000000000000E+001  0.223012285969308E+002 -0.121222216467253E+001  0.671355359628064E+001 -0.443224074052739E+001  0.148100008270715E+001 -0.212790678990634E+001
  0.100000000000000E+001  0.222261436983554E+002 -0.213912393369230E+001  0.253577045978108E+001 -0.376010197398618E+001  0.526735267709714E+001 -0.497684802497335E+001
  0.100000000000000E+001  0.222131498241881E+002 -0.403076161912243E+001  0.648567302315878E+001 -0.258846282584614E+001  0.121214462533758E+001 -0.318865159810268E+001
  0.100000000000000E+001  0.222127594769523E+002 -0.136823635863811E+001  0.440057938187184E+001 -0.593794953055422E+001  0.265866113201123E+001  0.546969302335260E+000
  0.100000000000000E+001  0.222124897591925E+002 -0.141526008895564E+001  0.368130187040006E+001 -0.379617011909436E+001  0.763606299150800E+001 -0.543634119101474E+001
  0.100000000000000E+001  0.221844190352245E+002 -0.255909424711709E+001  0.144916240180684E+001 -0.477530740413789E+001  0.611309808401974E+001 -0.410611964602029E+001
  0.100000000000000E+001  0.232459455297486E+002  0.906818813855217E+001  0.471193598902421E+001  0.508659428737007E+001 -0.125957974494888E+000 -0.132206726075708E+001
  0.100000000000000E+001  0.231706963677117E+002  0.548032976414203E+001  0.566562345747052E+000  0.444216941105939E+001 -0.121826229193530E+002 -0.355311117609711E+001
  0.100000000000000E+001  0.231562029819491E+002  0.217315405464169E+001  0.607315798919262E+001  0.278671121766665E+001 -0.327362863015189E+001 -0.121328412712815E+002
  0.100000000000000E+001  0.230879500574582E+002  0.715253646809471E+001  0.225533184437474E+001  0.599425152830311E+001 -0.110668527610404E+002 -0.617304250000600E+001
  0.100000000000000E+001  0.230199307371242E+002  0.139587406095343E+001  0.227629991243076E+001  0.139971316316605E+001 -0.909296454829073E+001 -0.753759562856112E+001
  0.100000000000000E+001  0.229659111020813E+002  0.557933758285396E+001  0.205170029054553E+001  0.445307630717913E+001 -0.395281801211055E+001 -0.250209759561049E+001
  0.100000000000000E+001  0.228742893492930E+002  0.130006963233303E+002  0.158200053849515E+001  0.831929849341276E+001 -0.943111393665085E+001 -0.647968217339308E+000
  0.100000000000000E+001  0.228470836494190E+002  0.551618436388710E+001  0.693984196722418E+000  0.501951701698151E+001 -0.824235300143311E+001 -0.254943843564500E+001
  0.100000000000000E+001  0.226735500766241E+002  0.672349566539135E+001  0.592926257640012E+001  0.585565455328801E+001 -0.223073232529463E+001 -0.847940981652971E+001
  0.100000000000000E+001  0.226501371487769E+002  0.769851456662575E+001  0.299796494641883E+001  0.551313833579125E+001 -0.801880954171774E+001 -0.632995331015726E+001
  0.100000000000000E+001  0.226033624942471E+002  0.452833386132321E+001  0.366932917750234E+001  0.455749072693331E+001 -0.663560414760266E+001 -0.919683446879933E+001
  0.100000000000000E+001  0.225001619708730E+002  0.376454428846005E+001  0.508164102712652E+001  0.287016107214130E+001 -0.480966902994717E+001 -0.719727520591012E+001
  0.100000000000000E+001  0.224517135914674E+002  0.543627851721035E+001  0.502256790563894E+001  0.220147502464257E+001 -0.384786801432623E+001 -0.578279887066430E+001
  0.100000000000000E+001  0.223987592970168E+002  0.138438413396782E+001  0.359623091643780E+001  0.350374857892925E+001 -0.549482683721230E+001 -0.988527435136305E+001
  0.100000000000000E+001  0.223406475913512E+002  0.145519277143023E+001  0.349054116953306E+001  0.386472814349708E+001 -0.438287705888973E+001 -0.839200936429234E+001
  0.100000000000000E+001  0.222865915169221E+002  0.478823515120991E+001  0.521767894135702E+001  0.537185911375789E+001 -0.383457868726907E+001 -0.841369167140945E+001
  0.100000000000000E+001  0.222215504278704E+002  0.868501495877429E+001  0.494188677186260E+001  0.711591351096465E+001 -0.822939153988841E+000 -0.390903020846167E+001
  0.100000000000000E+001  0.222079586917007E+002  0.708434003569701E+001  0.162120959937110E+001  0.652803845307689E+001 -0.532106620455495E+001 -0.102128751312130E+001
  0.100000000000000E+001  0.221679396534195E+002 -0.429775567109529E+001  0.528023966998867E+001 -0.332045117761804E+001  0.137662944115523E+001 -0.290605267151971E+001
  0.100000000000000E+001  0.221146735171761E+002 -0.675258090127091E+000  0.449728063824407E+001 -0.352805557000379E+001  0.618675849199852E+001 -0.656135083424940E+001
  0.100000000000000E+001  0.219762950948409E+002 -0.123144253822894E+001  0.198484574332606E+001 -0.639106137401303E+001  0.611986524448535E+001  0.263812364218975E+000
  0.100000000000000E+001  0.219283161938964E+002 -0.379046948951313E+000  0.625294185246790E+001 -0.323298287034270E+001  0.816673822511028E+001 -0.448500605257371E+001
  0.100000000000000E+001  0.218018395967722E+002 -0.133311970261008E+001  0.372570889784992E+001 -0.600654538646170E+001  0.542223119463636E+001 -0.169270392439200E+001
  0.100000000000000E+001  0.217219295043364E+002 -0.104529482373849E+001  0.551079380744343E+001 -0.539369135141296E+001  0.501834253885088E+001 -0.163513778636738E+001
  0.100000000000000E+001  0.216778407583564E+002 -0.355202898325234E+001  0.503294623937223E+001 -0.365824841703526E+001  0.372177433044657E+001 -0.312686286494475E+001
  0.100000000000000E+001  0.216369129575037E+002 -0.112327809415154E+001  0.609037069980253E+001 -0.533463777180370E+001  0.454181714095957E+001  0.569316245508674E+000
  0.100000000000000E+001  0.215234265892404E+002 -0.223594664274998E+001  0.729430534420606E+001 -0.323489022644144E+001  0.464240304933240E+001 -0.100023656575738E+001
  0.100000000000000E+001  0.214433655916099E+002 -0.263853739017446E+001  0.742394117411923E+001 -0.219193189039184E+001  0.330207443928262E+001 -0.458742146397073E+001
  0.100000000000000E+001  0.221383269928594E+002  0.574121279864822E+001  0.204154401043771E+001  0.280945634519332E+001 -0.700459235061677E+001 -0.117398386915519E+001
  0.100000000000000E+001  0.221121474371722E+002  0.124515121859581E+002  0.459957993250885E+000  0.824223599056951E+001 -0.101475185069079E+002  0.191538271704036E+001
  0.100000000000000E+001  0.221120247403183E+002  0.631404527113141E+001  0.283438039399542E+001  0.548251275619616E+001 -0.476488421438165E+001 -0.203119903194957E+001
  0.100000000000000E+001  0.220601473647261E+002  0.981931189144725E+001  0.337964924470452E+001  0.577923854727981E+001 -0.381040396624205E+001 -0.263811007233515E+001
  0.100000000000000E+001  0.219982790757146E+002  0.695414177644763E+001  0.378317154605612E+001  0.741581138340895E+001 -0.572939400568833E+001 -0.730136674121337E+001
  0.100000000000000E+001  0.219864716632218E+002  0.913318326519070E+001  0.329093775774549E+001  0.470703899441994E+001 -0.549694856372383E+001 -0.293530698139567E+001
  0.100000000000000E+001  0.218464906277134E+002  0.698430403488743E+001  0.442150891354207E+001  0.413457822871629E+001 -0.642255942985377E+001 -0.579166502078483E+001
  0.100000000000000E+001  0.218047465764448E+002  0.630132658409980E+001  0.139119981642726E+001  0.405986332981687E+001 -0.663088104473310E+001 -0.663269158135861E+000
  0.100000000000000E+001  0.217951869981243E+002  0.479669732310095E+001  0.485638818131071E+001  0.482981955645393E+001 -0.467221241954273E+001 -0.748461648720854E+001
  0.100000000000000E+001  0.217932280282300E+002  0.501128304620070E+001  0.394614034623174E+001  0.271760167440935E+001 -0.731168429401102E+001 -0.581156645588243E+001
  0.100000000000000E+001  0.217665745921840E+002  0.536378434238288E+001  0.286897491324007E+001  0.648066918984253E+001 -0.562007875931106E+001 -0.525515525527943E+001
  0.100000000000000E+001  0.217060025881070E+002  0.669098508283997E+001  0.440420943167533E+001  0.592104571306501E+001 -0.486228151089165E+000 -0.466012485475754E+001
  0.100000000000000E+001  0.215828477915668E+002  0.931844832466690E+001  0.189331584225350E+001  0.526154410771714E+001 -0.758751717976144E+001  0.637043003164212E+000
  0.100000000000000E+001  0.215459080386897E+002  0.268962867635567E+001  0.545686234880438E+001  0.322193060545785E+001 -0.286804807673753E+001 -0.103618066997107E+002
  0.100000000000000E+001  0.215295453089294E+002  0.136746261306028E+002  0.280833827938203E+001  0.908397802050743E+001 -0.483836965918054E+001  0.464646874242362E+000
  0.100000000000000E+001  0.214758389603893E+002  0.863946440837926E+001  0.279990678956052E+001  0.771647484185834E+001 -0.684951946815804E+001 -0.537595802841976E+001
  0.100000000000000E+001  0.214566380375848E+002  0.115530391474405E+002  0.266839936548703E+001  0.665859751156822E+001 -0.530242940524119E+001 -0.540609628559960E+000
  0.100000000000000E+001  0.211819896760203E+002 -0.319578388025125E+001  0.520295659207144E+001 -0.368176246828429E+001  0.229595032718544E+001 -0.304880079138816E+001
  0.100000000000000E+001  0.211551096038508E+002 -0.275103442982950E+000  0.532571938415785E+001 -0.519595078620459E+001  0.686045065994250E+001 -0.389444011530198E+000
  0.100000000000000E+001  0.210525920090966E+002 -0.152205002880950E+001  0.303285246369060E+001 -0.537850930345966E+001  0.626418745514171E+001 -0.164604698040035E+001
  0.100000000000000E+001  0.212890645901687E+002  0.673312868747037E+001  0.222667127158903E+001  0.608577713499888E+001 -0.857884085874712E+001 -0.366235800541804E+001
  0.100000000000000E+001  0.212441667224698E+002  0.361875448900536E+001  0.412787381080116E+001  0.465864356933516E+001 -0.406774634162556E+001 -0.685437533670333E+001
  0.100000000000000E+001  0.212211922726897E+002  0.954285287898908E+001  0.339711379605073E+001  0.696482189187849E+001 -0.400369137305113E+001 -0.388257704211050E+001
  0.100000000000000E+001  0.211435483729987E+002  0.912126478288933E+001  0.289335600392571E+001  0.604695000454494E+001 -0.620869819297060E+001 -0.103143283058322E+001
  0.100000000000000E+001  0.210009251416850E+002  0.410438921301018E+001  0.370703606547297E+001  0.380504013434420E+001 -0.395625571228959E+001 -0.463046316400383E+001
  0.100000000000000E+001  0.209072716439172E+002  0.854604285510216E+001  0.326857404507544E+001  0.502372418713669E+001 -0.611975206494608E+001 -0.188063612649289E+001
  0.100000000000000E+001  0.208627426461242E+002  0.648192105221223E+001  0.288348771448634E+001  0.633713587521582E+001 -0.798976574140589E+001 -0.609792875006648E+001
  0.100000000000000E+001  0.208182144212620E+002  0.919012953479029E+001  0.317771474546800E+001  0.616068297209139E+001 -0.297629364284278E+001 -0.198418684984474E+001
  0.100000000000000E+001  0.208174339334255E+002  0.308662424754268E+001  0.421381177034736E+001  0.426235408327375E+001 -0.321348273934533E+001 -0.783232916503417E+001
  0.100000000000000E+001  0.208035074607624E+002  0.109862837840676E+002  0.236334243926387E+001  0.771103870094527E+001 -0.793694027192557E+001 -0.144763051401693E+001
  0.100000000000000E+001  0.207773699001827E+002  0.768230732289296E+001  0.118138884439626E+001  0.510262920128892E+001 -0.858932079612145E+001 -0.772693272785467E+000
  0.100000000000000E+001  0.206661084846946E+002 -0.104660367357228E+001  0.463432525430643E+001 -0.514283114672326E+001  0.508270671373253E+001 -0.118888161288713E+001
  0.100000000000000E+001  0.206882969455490E+002  0.842987716011907E+001  0.278273360542755E+001  0.711743586188248E+001 -0.357850320509111E+001 -0.266556415610400E+001
  0.100000000000000E+001  0.206510592732830E+002  0.405549159669746E+001  0.240043369793707E+001  0.368493640230175E+001 -0.609425054687290E+001 -0.393875996669770E+001
  0.100000000000000E+001  0.205870297382764E+002  0.117920779751905E+002  0.160283148659313E+001  0.754579269438933E+001 -0.682910147678796E+001  0.105968790167552E+001
  0.100000000000000E+001  0.205087074530122E+002  0.980524443145865E+001  0.370119756147045E+001  0.637959918479226E+001 -0.485715934666576E+001 -0.222808597267846E+001
  0.100000000000000E+001  0.204819021211401E+002  0.454795445585515E+001  0.473274081660925E+001  0.290190714710959E+001 -0.433888302501854E+001 -0.689295863314105E+001
  0.100000000000000E+001  0.203451310344480E+002  0.883872404765926E+001  0.294271342823613E+001  0.599693106990723E+001 -0.587982428614503E+001 -0.151499312219218E+001
  0.100000000000000E+001  0.202535666010763E+002  0.914515890850438E+001  0.223097378294464E+001  0.581160167694477E+001 -0.512137603394408E+001 -0.330013004306380E+000
  0.100000000000000E+001  0.201917619565154E+002  0.467540780111701E+001  0.265328590099953E+001  0.478576618275242E+001 -0.725097964817956E+001 -0.533980638606976E+001
  0.100000000000000E+001  0.200157566607766E+002  0.565904353380436E+001  0.243145856312466E+001  0.453920000885492E+001 -0.808434009977199E+001 -0.519989496191362E+001
  0.100000000000000E+001  0.199193293131156E+002  0.815644420037056E+001  0.280619346540254E+001  0.586423923669334E+001 -0.582807099280201E+001 -0.193609704800515E+001
  0.100000000000000E+001  0.195784940751187E+002  0.836621648392336E+001  0.339120056131955E+001  0.548836834460866E+001 -0.447590419241911E+001 -0.266281211821369E+001
