  0.307368947365896E+000  0.336441708412557E+002  0.244604914082085E+000 -0.179218150644121E+002 -0.163739542984916E+002 -0.692188693144896E+000 -0.186137147971765E+001
  0.307368947365896E+000  0.396747658915391E+002  0.101557239877870E+002 -0.127617096272773E+001  0.994735371938623E+001 -0.352266242821016E+001  0.653536773675704E+001
  0.307368947365896E+000  0.340288804737920E+002  0.316791661625835E+000 -0.194174413080459E+002  0.165295278339284E+002  0.346665986752107E+001 -0.783392626196886E+001
  0.307368947365896E+000  0.341117711379576E+002  0.128053427538295E+002 -0.146089022746296E+002 -0.622703666161429E+001 -0.251546231315492E+001  0.416650691325191E+001
  0.307368947365896E+000  0.419700192709880E+002  0.166388915724003E+002 -0.154689676687024E+002 -0.356088129540181E+001 -0.904182770059908E+001  0.158660930612148E+001
  0.307368947365896E+000  0.343158984569926E+002  0.134345956235859E+002  0.765265776147867E+000  0.142484882168369E+001 -0.143327879247649E+002 -0.799118335057294E+001
  0.307368947365896E+000  0.394860106721747E+002  0.546756341007830E+001 -0.295494401779397E+001 -0.102167829322961E+002  0.290545836605645E+001  0.134543415316233E+001
  0.307368947365896E+000  0.287230730162077E+002  0.177516605241243E+002 -0.493370458008096E+001  0.402536851407522E+001 -0.120342132007409E+002  0.284855648023320E+001
  0.307368947365896E+000  0.345344481785623E+002  0.726950099792339E+001 -0.253013756287384E+001 -0.103424278802191E+002 -0.331139704861782E+001  0.811271158738192E+001
  0.307368947365896E+000  0.382682960995114E+002 -0.401074102154586E+001 -0.581424006104446E+001  0.611812716163218E+001  0.249511304845225E+001 -0.199104835974854E+002
  0.307368947365896E+000  0.287341476277089E+002 -0.154841586082544E+001 -0.172226071970354E+002 -0.191142758297176E+002 -0.185799478794259E+001 -0.224842241189724E+001
  0.307368947365896E+000  0.377856901554076E+002 -0.153132868799861E+001 -0.166269734004800E+002 -0.162927241076194E+002 -0.107624653863005E+002 -0.139605179372806E+002
  0.307368947365896E+000  0.287762894117116E+002  0.816114715807485E+001 -0.122129356559159E+002 -0.208013156697852E+000 -0.905113251416648E+000  0.684991924560111E+001
  0.307368947365896E+000  0.350523765919038E+002  0.947669158570555E+001 -0.134460587161388E+002  0.354802281411488E+001 -0.586862049995340E+001  0.897838903635908E+001
  0.307368947365896E+000  0.351720604580386E+002 -0.145456818788677E+001 -0.758872917705410E+001 -0.154972388005487E+002  0.180812062176945E+001  0.173649270343873E+002
  0.307368947365896E+000  0.351829539689043E+002 -0.193860479427998E+001 -0.855426148630658E+001  0.179450288982119E+001  0.182843679764420E+001 -0.158206151204075E+002
  0.307368947365896E+000  0.371805809693194E+002 -0.626302303969953E+001 -0.108137939288953E+002  0.328004765468844E+000  0.414672944733822E+001 -0.988406229671802E+001
  0.307368947365896E+000  0.368863794790188E+002 -0.592554297043245E+001 -0.611372085071159E+001  0.661727220116333E+001 -0.111373230561490E+001 -0.150240083726507E+002
  0.307368947365896E+000  0.352982032790732E+002  0.100685303379427E+002 -0.275029469809526E+001 -0.585469574599798E+001 -0.754218082625475E+001 -0.454230889321808E+001
  0.307368947365896E+000  0.353214190036293E+002 -0.216930091610136E+001 -0.110314110109117E+002  0.976812392362980E+000 -0.637509084701442E+000 -0.811737645351734E+001
  0.307368947365896E+000  0.335954286064858E+002  0.174572713067930E+002 -0.250753997137553E+001  0.761685906438937E+001 -0.119352192839725E+002 -0.885132036536385E+001
  0.307368947365896E+000  0.335519684184414E+002 -0.702362138636321E+000 -0.175913133553697E+002  0.862726727707926E+001  0.196965861440029E+001  0.174433869511851E+000
  0.307368947365896E+000  0.331697180159079E+002 -0.104055067211428E+002 -0.139648272315310E+001  0.557070398821036E+001 -0.358872961138439E+001 -0.766227939492180E+001
  0.307368947365896E+000  0.331629861598386E+002  0.465645586407999E+001 -0.135215317633524E+002  0.910855451709504E+001  0.425002152581205E+001 -0.615968530433393E+001
  0.307368947365896E+000  0.331219348945411E+002 -0.165859070925326E+001 -0.219008378500916E+001 -0.128314452267041E+002 -0.489207656518447E+001  0.107774924674317E+002
  0.307368947365896E+000  0.288084287341590E+002 -0.100344105876355E+001  0.679507258482685E+001  0.224016096321391E+001  0.392937615024459E+001 -0.120753298938097E+002
  0.307368947365896E+000  0.329617431582686E+002  0.751251509943852E+000 -0.321723632654235E+001 -0.107392551566504E+001 -0.805275628983771E+001 -0.802685017399591E+001
  0.307368947365896E+000  0.328816168563220E+002  0.133885325364905E+001 -0.950128994230553E+001 -0.110134917934586E+001 -0.280706385575368E+000 -0.696293315368982E+001
  0.307368947365896E+000  0.288178213921787E+002 -0.641372808563321E+001 -0.917240036193498E+001 -0.471550629840883E+001 -0.503050276918720E+001  0.854200938406297E+001
  0.307368947365896E+000  0.322782922655803E+002 -0.107149669375134E+002 -0.175314589421076E+002 -0.574309566319760E+001  0.205096794596858E+001  0.842962699446231E+001
  0.307368947365896E+000  0.321546492260227E+002 -0.207278066078878E+001 -0.102981312065193E+002 -0.143112709221777E+002 -0.121273299264109E+002 -0.797663080659184E+001
  0.307368947365896E+000  0.321415017395244E+002 -0.107654800513937E+002 -0.927732014136792E+001 -0.519306693254858E+001 -0.102415357543255E+002  0.151395565370160E+001
  0.307368947365896E+000  0.288489167508320E+002 -0.851309442485902E+001 -0.116622104889544E+002 -0.594202616826432E+001 -0.389478475216588E+001  0.863007370157701E+001
  0.307368947365896E+000  0.288784047750412E+002 -0.903157542017368E+001 -0.370073214566166E+001  0.530773354519565E+001 -0.773845134864608E+000 -0.532097414098266E+001
  0.307368947365896E+000  0.317120608097135E+002  0.174273114790438E+001  0.708502660319104E+001  0.262381948521598E+001  0.599799346869428E+001 -0.666283124128802E+001
  0.307368947365896E+000  0.289512007672837E+002 -0.963801380934909E+001 -0.166898710074208E+002 -0.824391648819097E+001 -0.436337264353666E+001 -0.123808267811994E+001
  0.307368947365896E+000  0.316220185230882E+002  0.126709636938395E+001 -0.508863491533652E+001 -0.111650387577486E+002  0.194009074930234E+001  0.165858196547601E+002
  0.307368947365896E+000  0.289637177006607E+002  0.976473819336355E+001 -0.425742121286246E+001 -0.133966895840241E+001  0.793997896814215E+000  0.597192929608987E+001
  0.307368947365896E+000  0.314351809632575E+002  0.734502977851861E+001 -0.155713684239340E+002  0.175165491416954E+002 -0.259503329627506E+001 -0.844732272960961E+001
  0.307368947365896E+000  0.314318868894332E+002 -0.512615496133349E+001 -0.862037712851314E+001 -0.130855372266985E+002 -0.945604482313989E+001 -0.146704954522334E+001
  0.307368947365896E+000  0.289688918906514E+002  0.287030270730120E+001  0.920561740491473E+001 -0.399041286551554E+001  0.130644778271301E+002 -0.343550493477910E+001
  0.307368947365896E+000  0.311620834431079E+002 -0.101101141568200E+002 -0.138557876241141E+002 -0.202558565548228E+002 -0.250268802691876E+001  0.110868568835103E+002
  0.307368947365896E+000  0.310383183138905E+002 -0.199376389635643E+001  0.153239587212870E+002 -0.843479736489623E+000  0.399090597179142E+001 -0.208808682646963E+001
  0.307368947365896E+000  0.310298559850131E+002  0.700961049594805E+001 -0.678148550393096E+001  0.543228686055514E+001 -0.375402856645043E+001 -0.136910555535981E+002
  0.307368947365896E+000  0.310122267113850E+002 -0.118766180356220E+002 -0.130359156279469E+002 -0.435386872404212E+001 -0.433311479121091E+001  0.813535020430713E+001
  0.307368947365896E+000  0.308662624141961E+002 -0.452084942831673E+001 -0.767607396004692E+000 -0.486291102234703E+001  0.172357576342704E+001 -0.183299409036756E+000
  0.307368947365896E+000  0.308331441286566E+002 -0.103547105664925E+002 -0.176731016852878E+002 -0.163694023598471E+002 -0.757164194251229E+001 -0.467934668213013E+001
  0.307368947365896E+000  0.306721701534640E+002  0.122809688037601E+002 -0.494369624797776E+001  0.233413059599707E+001 -0.525565958824081E+001 -0.599007610106811E+001
  0.307368947365896E+000  0.305829776833925E+002 -0.304176007066322E+001 -0.858096956655284E+001  0.254456050715798E+001  0.336179608430679E+001  0.641618323371817E+001
  0.307368947365896E+000  0.304594843912400E+002 -0.482601915507047E+001 -0.134569351265756E+002 -0.116496536297793E+002 -0.594304463392444E+001  0.174404514579195E+001
  0.307368947365896E+000  0.304008739663292E+002  0.674911850456894E+000 -0.718034984751794E+001 -0.170795931315029E+002 -0.257270564504826E+001  0.963270112323935E+001
  0.307368947365896E+000  0.303190514921433E+002  0.816829583677416E+001  0.297820347219091E+001  0.373545005049312E+001 -0.313718796318661E-001  0.375672603652741E+001
  0.307368947365896E+000  0.302981329124244E+002  0.493548838047392E+000 -0.113045293690824E+002 -0.184859332477273E+002  0.158116316537831E+001  0.831335462732720E+001
  0.307368947365896E+000  0.302784616541856E+002 -0.800074790551825E+000 -0.535646748791714E+001 -0.501905844098490E+001  0.330227927917400E+001  0.173550121166847E+002
  0.307368947365896E+000  0.289763089422448E+002  0.102698112428336E+002 -0.137692031271800E+002  0.473010790340029E+001 -0.271781728718438E+001  0.253575516953144E+001
  0.307368947365896E+000  0.302327605787961E+002  0.321365123701414E+001  0.115363383160126E+002 -0.135436074999159E+001  0.132350265641324E+002 -0.200595731517653E+001
  0.307368947365896E+000  0.301703836976151E+002  0.311573092472596E+000  0.831533429481630E+001  0.134586149011085E+000  0.779960964143655E+001 -0.613286983494145E+001
  0.307368947365896E+000  0.300958704763208E+002  0.558311721224964E+001 -0.111016093036208E+002 -0.101511608422346E+002 -0.177114715110292E+001  0.418639669254688E-001
  0.307368947365896E+000  0.290472070647199E+002  0.133135447570605E+002 -0.163471040249112E+002  0.124119466989704E+002 -0.669701087358688E+001  0.449055963220665E+001
  0.307368947365896E+000  0.300692323540690E+002 -0.241941075402108E+001  0.755724999803388E+001 -0.844876545530216E+000  0.823573342024810E+001 -0.104042354297961E+002
  0.307368947365896E+000  0.300665890836243E+002  0.385254049817467E+001  0.245216241353008E+001  0.254567371232958E+001 -0.150657384531466E+002 -0.898789535103099E+001
  0.307368947365896E+000  0.300539596597194E+002 -0.829867234019878E+001 -0.536199952923520E+001 -0.124215437802078E+002 -0.104122977006939E+002  0.630834600259406E+001
  0.307368947365896E+000  0.291482642773380E+002 -0.541235815713744E+001 -0.798491509027249E+001  0.182024500542716E+001 -0.609809701020581E+000 -0.458175572106004E+000
  0.307368947365896E+000  0.298886557399673E+002 -0.810965538424281E+001 -0.194806659783195E+002 -0.153353095188337E+002 -0.213768976111072E+001  0.121137136654777E+001
  0.307368947365896E+000  0.298334332899458E+002  0.151242108921566E+001 -0.122606675546873E+002  0.124654439487968E+002 -0.406818528702605E+000 -0.138247181091555E+002
  0.307368947365896E+000  0.297890756126372E+002  0.340863956345466E+000 -0.121823333367741E+002 -0.519231127829283E+001 -0.748055882500207E+001 -0.778299289313034E+001
  0.307368947365896E+000  0.297621987347543E+002  0.378960831613323E+001  0.132731896955752E+001  0.671168053830045E+001 -0.312369725714214E+001 -0.917168936644089E+000
  0.307368947365896E+000  0.296620908102055E+002  0.584300534109711E+001 -0.170629039290994E+002  0.124549261763751E+002 -0.400418603844361E+001  0.723786792801530E+000
  0.307368947365896E+000  0.296397758090659E+002 -0.649225811775272E+001  0.287085425994960E+001  0.639276483507857E+001  0.426109104018785E+001  0.119324759345168E+001
  0.307368947365896E+000  0.296386404510573E+002  0.909692748126173E+001 -0.204310005207078E+001  0.508821990782141E+001 -0.970635026852877E+001 -0.115827081895078E+002
  0.307368947365896E+000  0.295744069321427E+002  0.144629635069597E+001 -0.455665172618960E+001 -0.403571120997474E+001  0.898346379384382E+001  0.112099422372068E+002
  0.307368947365896E+000  0.295325566092492E+002  0.100072592731114E+002 -0.817663091725813E+001 -0.217972276969065E+001  0.374961403836384E+000  0.861262353728014E+001
  0.307368947365896E+000  0.295053788379920E+002 -0.403080524347194E+001 -0.221598433102947E+001 -0.785018628792899E+001 -0.287732230492501E+001  0.159312888395304E+002
  0.307368947365896E+000  0.294776203340863E+002 -0.751701168189369E+001 -0.359179602267436E+001  0.194114186580142E+001  0.817587656622004E+001  0.585548002641771E+001
  0.307368947365896E+000  0.294493559145836E+002 -0.787613995580969E+000 -0.100684249674486E+002 -0.146360090712749E+002 -0.292334778552460E+001  0.705075427945471E+001
  0.307368947365896E+000  0.294492607911636E+002  0.104921484801084E+001 -0.141682506469734E+002 -0.843821015827189E+001  0.177182386956698E+001 -0.149043726745219E-001
  0.307368947365896E+000  0.294317759377983E+002 -0.107440027673713E+002 -0.134809429718900E+002 -0.186602362679547E+002 -0.744125270499596E+001  0.245324797743483E+001
  0.307368947365896E+000  0.294291320410222E+002  0.489802211766815E+000  0.792518767928723E+000 -0.382033317597916E+000 -0.281427271779691E+001 -0.269077512339878E+001
  0.307368947365896E+000  0.294068631250492E+002  0.236205188825167E+000  0.814337721755149E+001 -0.218429881177650E+001  0.422558178879490E+001 -0.112284952400031E+002
  0.307368947365896E+000  0.293523927878059E+002 -0.105632076078619E+001 -0.612009979719705E+001  0.122158699319891E+001 -0.551424152392965E+001  0.498525203511048E+001
  0.307368947365896E+000  0.293272162856421E+002 -0.563701490678759E+001 -0.344353666187407E+001 -0.520513004742370E+001  0.268631018464433E+000 -0.665594351692339E+001
  0.307368947365896E+000  0.291595258092272E+002 -0.557826141574780E+001 -0.103649681451023E+002 -0.164883407774641E+002 -0.348050701964386E+001  0.567507615701508E+001
  0.307368947365896E+000  0.291621305409914E+002  0.518531638766158E+001 -0.181576270859755E+002  0.123807174095967E+002  0.140208683642918E+001 -0.278216747852832E+001
  0.307368947365896E+000  0.292368834258435E+002 -0.631909011876371E+001 -0.165536119159700E+002 -0.223558267159898E+002 -0.364904721484741E+001  0.966363954658046E+000
  0.307368947365896E+000  0.287102734960338E+002 -0.837046746374207E+001 -0.194609313173107E+002 -0.170522568216865E+002 -0.470641284320887E+001 -0.285577821057731E+001
  0.307368947365896E+000  0.286826343225521E+002  0.117354250764596E+001  0.568658029814878E+001 -0.137639858343083E+001  0.750179326724757E+001 -0.947911016113743E+001
  0.307368947365896E+000  0.286737987331344E+002 -0.837243065083079E+000  0.357785229915917E+001 -0.461982530992403E+001  0.176419853635642E+001 -0.996846892797640E+001
  0.307368947365896E+000  0.286624837686861E+002  0.598466045093999E+001 -0.605804275634609E+001 -0.780549097205412E+000 -0.431789443336649E+001 -0.344112309215603E+001
  0.307368947365896E+000  0.286516022016989E+002 -0.232644961516188E+001 -0.241058548586349E+001 -0.368182411301651E+001  0.428342297375929E+001  0.778754854370568E+000
  0.307368947365896E+000  0.286208882803825E+002  0.827115430625763E+001 -0.103181822138434E+002 -0.106854442002543E+001 -0.652714833661166E+001 -0.269898005334467E+001
  0.307368947365896E+000  0.286001248031448E+002 -0.348305713782163E+001 -0.584559008168776E+001 -0.771982986729023E+001 -0.118591684726773E+002 -0.895364961817478E+000
  0.307368947365896E+000  0.285687917250100E+002 -0.243944180081576E+001 -0.880924111634972E+001 -0.271421373773731E+001 -0.437704594895328E+001 -0.651097554216632E+001
  0.307368947365896E+000  0.285260775480379E+002  0.106825567616375E+002 -0.148310593379449E+002  0.140749283249290E+002 -0.840874454177478E+001  0.504063682863825E+001
  0.307368947365896E+000  0.285258653087869E+002  0.530792254921976E+001 -0.112281284940297E+002  0.130018023142915E+002 -0.831417734696697E+001 -0.740196487538206E+000
  0.307368947365896E+000  0.284495126621236E+002  0.106804109171769E+001 -0.847831934035208E+001 -0.155154108594954E+002 -0.222530634985407E+001  0.768441874182238E+001
  0.307368947365896E+000  0.284489472250173E+002  0.760870321223344E+001 -0.133307770192790E+002  0.151430498515175E+002 -0.464290449238738E+001 -0.834851633357578E+001
  0.307368947365896E+000  0.284467684166145E+002 -0.136005821699027E+001 -0.242391241015704E+001 -0.203949718873407E+001  0.660483095743428E+001  0.807065273843819E+001
  0.307368947365896E+000  0.283851682289992E+002 -0.618257988212015E+001 -0.121745935749970E+002 -0.997006667888758E+001 -0.104724074327592E+002 -0.436803101259325E+001
  0.307368947365896E+000  0.283671866858937E+002 -0.863486628244189E+000 -0.911048561285057E+001 -0.564713833578423E+001 -0.492053582243248E+001 -0.141722859879845E+001
  0.307368947365896E+000  0.283194484438136E+002  0.982526783787983E+001 -0.126571751300609E+002  0.132754471384141E+002 -0.110309220099216E+001 -0.662852682997509E+001
  0.307368947365896E+000  0.283112376344275E+002  0.783681461984015E+001 -0.115265278205733E+002  0.594796778648039E+001 -0.688801017512109E+001 -0.251370167032725E+001
  0.307368947365896E+000  0.282841011864117E+002  0.118867418305828E+002 -0.124073157908438E+002  0.501775693379471E+001 -0.598771106515704E+001  0.113971536460751E+001
  0.307368947365896E+000  0.282209250088877E+002  0.101975140189142E+002 -0.476299290634903E+001  0.696506041018224E+001 -0.782225351569815E+001 -0.328582453006715E+001
  0.307368947365896E+000  0.282165430016070E+002  0.102243149573402E+002 -0.165236000024177E+002  0.120963152701876E+002 -0.223550008598471E+001  0.339690654800856E+001
  0.307368947365896E+000  0.282143126062728E+002  0.240155249106874E+001 -0.116574316823706E+002 -0.163743937479074E+002  0.317568103217987E+000  0.343562023435732E+001
  0.307368947365896E+000  0.282018964674035E+002  0.185037411692529E+001  0.112852951995712E+001 -0.587461633684961E+001  0.107335775290041E+002 -0.208157630796251E+000
  0.307368947365896E+000  0.281845013055353E+002  0.157181654675901E+002 -0.508326127112814E+001  0.785186736194859E+001 -0.113849591652872E+002  0.136529207612280E+001
  0.307368947365896E+000  0.265512724276174E+002  0.116187918860678E+002  0.292997032791462E+001  0.515694346278233E+001 -0.101073552769303E+002 -0.202415056625029E+001
  0.307368947365896E+000  0.281481967668100E+002  0.914188245673729E+001 -0.126555639550697E+002 -0.301038528699402E+001 -0.483885774375808E+001  0.555155097092214E+000
  0.307368947365896E+000  0.281339616159171E+002  0.495737502279001E+001  0.379678553971984E+001  0.135807176328646E+001 -0.104216918973230E+002 -0.840555134197987E+001
  0.307368947365896E+000  0.281216581208712E+002  0.642431245924658E+001 -0.562683951959973E+001  0.582522902729606E+001 -0.104941595330208E+002 -0.709994522542936E+001
  0.307368947365896E+000  0.280466910701223E+002 -0.699605677858631E+000 -0.135972717671244E+002  0.112457757204395E+002  0.174640519403155E+001 -0.768118249269952E+001
  0.307368947365896E+000  0.265698975085078E+002 -0.327399301182804E+001  0.447855762863498E+001  0.359686193349035E+000 -0.933776370923390E+000 -0.993506793097932E+001
  0.307368947365896E+000  0.279722696331012E+002  0.116007264346970E+002 -0.102199892058236E+002  0.168661947600468E+002 -0.899440216848641E+001 -0.196900623803798E+001
  0.307368947365896E+000  0.279455505797015E+002  0.156250699770623E+001  0.986674502563196E+001 -0.168146783039204E+001  0.761094577397383E+001 -0.956084926455827E+001
  0.307368947365896E+000  0.279405723584212E+002  0.112674912006961E+002 -0.173398974090293E+001  0.574788638832960E+001 -0.141742957476925E+002  0.520715629870103E+001
  0.307368947365896E+000  0.279187491018933E+002  0.122096362173171E+002 -0.827488425843299E+001  0.368743940166814E+001 -0.540393127638008E+001 -0.483185647530751E+001
  0.307368947365896E+000  0.279120969711775E+002  0.102394155557062E+002 -0.135376365377764E+002  0.772665425140065E+001 -0.121051283977266E+001  0.700008975509402E+000
  0.307368947365896E+000  0.279007029132932E+002 -0.116244713675376E+001 -0.102875315652879E+002 -0.190169236818071E+002 -0.333867689670786E+001  0.555754446068595E+001
  0.307368947365896E+000  0.278969563573255E+002  0.284565655088386E+000 -0.190708393205252E+000 -0.637995429473172E+001  0.446327838236961E+001 -0.189488997060183E+001
  0.307368947365896E+000  0.278681430627556E+002 -0.358295381310744E+001  0.190440016030692E+000  0.222181662294487E+001 -0.408867937735850E+001 -0.746374153806617E+001
  0.307368947365896E+000  0.278531692322878E+002  0.733575446253204E+001 -0.652619875335280E+001  0.131305200133374E+002 -0.102658074908682E+002 -0.712620325792626E+001
  0.307368947365896E+000  0.278506808686423E+002  0.857226612095434E+001 -0.169975042168619E+002  0.136197368127353E+002 -0.387735735974833E+001  0.322457258253660E+000
  0.307368947365896E+000  0.278440435749941E+002  0.103707992138913E+001 -0.919505079248275E+001 -0.344019813303358E+001 -0.432944508079214E+001  0.155647315048918E+001
  0.307368947365896E+000  0.278146650188450E+002 -0.255384081613900E+001 -0.431540846273501E+001  0.142514388261408E+001 -0.485914538731340E+001  0.733942795562081E+001
  0.307368947365896E+000  0.277908439359398E+002 -0.979226534083513E+001 -0.724925513170876E+001 -0.812462303167358E+001 -0.905384685770071E+001  0.781639194428138E+001
  0.307368947365896E+000  0.277582706948882E+002  0.513116522924670E+001 -0.443627275028816E+001 -0.254334547776016E+001  0.540231881306614E+001  0.102242629550310E+002
  0.307368947365896E+000  0.277559485569060E+002 -0.118246078101849E+002 -0.114999827878798E+002 -0.113311859164561E+002 -0.576692703305330E+001  0.694256371740513E+001
  0.307368947365896E+000  0.277533065858450E+002  0.442622245410039E+001  0.538497375807790E+001  0.465590080808821E+001  0.417736755858553E+001 -0.561481544696927E+001
  0.307368947365896E+000  0.277515348634053E+002 -0.104128358381270E+002 -0.944629677435098E+001 -0.768896414140542E+001 -0.864042630888151E+001  0.597740486926618E+001
  0.307368947365896E+000  0.277463559898754E+002 -0.196076977678492E+001  0.817820373305491E+001 -0.466854208204975E+001  0.771943777437768E+001  0.773968582608177E+000
  0.307368947365896E+000  0.277269913788664E+002  0.160641426540909E+000 -0.618802391948376E+001 -0.745265488429438E+001  0.130741892697830E+001  0.116690361190583E+002
  0.307368947365896E+000  0.277265490325730E+002  0.112685139547678E+002 -0.119849831722089E+002  0.136801429700943E+002 -0.111721436226247E+002  0.342859390240094E+001
  0.307368947365896E+000  0.277194867790871E+002 -0.901814608831011E+001 -0.184836237963644E+002 -0.139861083580167E+002 -0.341886638773649E+001 -0.164087406302686E+001
  0.307368947365896E+000  0.276872100280944E+002  0.781485819452449E+000 -0.570390853374776E+001  0.608775674801343E+000 -0.136087687601075E+001  0.909698608689821E+001
  0.307368947365896E+000  0.276699967760905E+002  0.433245117264506E+001 -0.931432669022673E+001  0.203791153844843E+001 -0.408412382472041E+001 -0.507047653668270E+001
  0.307368947365896E+000  0.276161782798005E+002  0.446333115904440E+001 -0.102277434691676E+002 -0.126657279528988E+002  0.496540466106527E+000  0.323568925994450E+001
  0.307368947365896E+000  0.275749857286493E+002  0.433841978512489E+001 -0.536272965728433E+001 -0.738434549116075E+001  0.841261041661813E+000  0.901983363095917E+001
  0.307368947365896E+000  0.275516542852886E+002  0.100671039625303E+001 -0.105109311532429E+002 -0.144624082289325E+002  0.513499619221818E+000  0.523302219910643E+001
  0.307368947365896E+000  0.275485170838407E+002  0.286802554566916E+001 -0.489651845074151E+001 -0.336548157405007E+001 -0.651927178688087E+001 -0.450927863178212E+000
  0.307368947365896E+000  0.275239534551611E+002 -0.171139504579627E+001 -0.176293553967835E+002 -0.153025108500094E+002  0.677693469639713E+000  0.759862721620337E-001
  0.307368947365896E+000  0.275049228327999E+002  0.760581432154055E+000  0.915986580014621E+001 -0.294258666849980E+001  0.112558331008639E+002 -0.469159706323457E+001
  0.307368947365896E+000  0.274930260135926E+002 -0.831363049900064E+001 -0.857204395844777E+001 -0.285713465616805E+001 -0.191066732373298E+001  0.128236088837528E+002
  0.307368947365896E+000  0.274837839799249E+002 -0.979694404565935E+001 -0.809277217973502E+000  0.548300132617053E+001  0.140498271434083E+001 -0.312223045693104E+001
  0.307368947365896E+000  0.274714079069719E+002  0.160630149650489E+001 -0.628234895479986E+001 -0.995115163826427E+001 -0.211853310638522E+001  0.535844088727431E+001
  0.307368947365896E+000  0.274530740831482E+002  0.989520398948402E+001 -0.666709191087687E+001  0.301718841661253E+001 -0.404297042134280E+001  0.321612872328680E+001
  0.307368947365896E+000  0.274303816979629E+002 -0.150978089826541E+001 -0.315623257895985E+001 -0.328503824544856E+001  0.703029799421918E+001  0.553103438836654E+001
  0.307368947365896E+000  0.274248390066146E+002  0.507136536093526E+001 -0.606260563790864E+001  0.765445605993519E+001 -0.642181510345182E+001 -0.151789497448329E+001
  0.307368947365896E+000  0.274068548480226E+002  0.198913305663449E+000 -0.661813795820159E+001 -0.744088870579924E+001  0.553041633298289E+000 -0.154992805807066E+001
  0.307368947365896E+000  0.273742905223127E+002  0.120373473077063E+000 -0.747939679446342E+001 -0.966250814195703E+000 -0.679903017944798E+001 -0.597701900435148E+000
  0.307368947365896E+000  0.273738192289728E+002  0.627545536415870E+001 -0.541947262117100E+001 -0.111262039020330E+001  0.434768090994841E+001  0.103345859605791E+002
  0.307368947365896E+000  0.273711298604613E+002 -0.136503340104186E+001 -0.495994775093994E+001 -0.814712257170701E+000  0.126229906494941E+001  0.330555997648111E+001
  0.307368947365896E+000  0.273665690714183E+002  0.738192170079247E+001 -0.390046361154667E+001  0.590218996778036E+001 -0.619968385615660E+001 -0.105901933718068E+002
  0.307368947365896E+000  0.273477027035811E+002  0.381788476863292E+001  0.747919162769996E+001  0.433206151124131E+001  0.477372233531423E+001 -0.996785104443435E+001
  0.307368947365896E+000  0.273269939138495E+002 -0.441773144273398E+000 -0.100065392065982E+002 -0.768646551084069E+001  0.186170340170744E+001  0.731653807646521E+001
  0.307368947365896E+000  0.273105711190054E+002  0.133014101021940E+002  0.423405328837529E+001  0.967987348510116E+001  0.110651863565964E+001 -0.190349107294795E+001
  0.307368947365896E+000  0.272671040782592E+002  0.400448921306489E+001 -0.939166286634951E+000  0.230026528489434E+001 -0.198924187538958E+001 -0.944984916387551E+000
  0.307368947365896E+000  0.272618674086900E+002 -0.364488460775285E+001 -0.100672036823815E+002 -0.164089158949008E+002 -0.194504593191112E+001  0.103160937641548E+002
  0.307368947365896E+000  0.272533337206990E+002 -0.967287119673707E+001 -0.146369329026215E+002 -0.158568593236376E+002 -0.802887526537393E+001 -0.868939988919063E+000
  0.307368947365896E+000  0.272259749855627E+002 -0.464444599809365E+001 -0.560041516576155E+001 -0.111995057993044E+001 -0.125439085171728E+001 -0.254697821450630E+001
  0.307368947365896E+000  0.272252655641833E+002  0.201539778957183E+001 -0.122815650955230E+002 -0.847892399450082E+001  0.257201406279027E+001  0.336327605040288E+001
  0.307368947365896E+000  0.272233267157812E+002 -0.775380153198505E+000 -0.501432099349739E+001 -0.128243954711789E+002 -0.674444439821976E+001  0.431144895763523E+001
  0.307368947365896E+000  0.271510812487819E+002  0.124845348791195E+002 -0.129598690927357E+002  0.131118078061759E+002 -0.102183014650869E+002  0.115619456507678E+001
  0.307368947365896E+000  0.271432688476265E+002  0.777580872154404E+001 -0.735802652410447E+001  0.893792482316557E+001 -0.112087930603834E+002 -0.589498040214483E+000
  0.307368947365896E+000  0.270888261628903E+002  0.130716558329937E+002 -0.900996774803588E+001  0.138360508068174E+002 -0.733352084802551E+001 -0.741587359977079E+001
  0.307368947365896E+000  0.270772052608482E+002  0.580185131198542E+001 -0.825958815853281E+001  0.135489097724362E+002 -0.522508652349478E+001 -0.107816054494316E+002
  0.307368947365896E+000  0.270734268925124E+002  0.133523806900442E-001  0.762111343621526E+001  0.244679581581291E+001  0.386338786579559E+001 -0.113788954510215E+002
  0.307368947365896E+000  0.270682515923946E+002  0.517117777720483E+001 -0.445568291013390E+001 -0.690365933043371E+001 -0.613986944408836E+000  0.796927203828007E+001
  0.307368947365896E+000  0.270592762406275E+002 -0.167133122783483E+001 -0.792542456716409E+001  0.192895574395714E+001 -0.599951318739396E+001 -0.549226031410771E+001
  0.307368947365896E+000  0.270335176157631E+002  0.462200593613199E+001 -0.150712409480448E+002  0.821877484794761E+001 -0.170626654867258E+001  0.806941973533128E+000
  0.307368947365896E+000  0.270261681767534E+002  0.338708898004687E+001  0.107436010427704E+002 -0.435479701674169E+001  0.792716711566387E+001 -0.304227619067051E+001
  0.307368947365896E+000  0.270053921515569E+002 -0.201924950362849E+001 -0.580232858651318E+001 -0.126030543477952E+002 -0.611377981643273E+001  0.487599341845592E+001
  0.307368947365896E+000  0.269908425916086E+002  0.745557648603920E+001 -0.798493415734282E+001 -0.198156050773285E+001 -0.146170766597698E+001  0.154984024599024E+001
  0.307368947365896E+000  0.269853242768032E+002  0.107494980607066E+002 -0.114752378754438E+002  0.110659657811560E+002 -0.105080553888529E+002  0.433611895359200E+001
  0.307368947365896E+000  0.269821162277180E+002 -0.418632624492437E+001 -0.741139182279871E+001 -0.875511704564255E+001 -0.817238299851293E+001  0.915352205636022E+000
  0.307368947365896E+000  0.269750565723799E+002 -0.815395567082497E+001 -0.138692221118021E+002 -0.711121758674958E+001  0.108608476804897E+001  0.103755592443437E+002
  0.307368947365896E+000  0.269724283572377E+002  0.407628805846441E+001 -0.814279034731666E+001 -0.895493978578969E+000  0.231557419584554E+000  0.587538188116474E+001
  0.307368947365896E+000  0.269556344638727E+002  0.100536359911503E+002 -0.117367203576197E+002  0.106275501813243E+002 -0.368655235423707E+001 -0.776074808341742E+001
  0.307368947365896E+000  0.269490484815901E+002 -0.279081082304530E+001 -0.184313269642939E+000  0.277881559265251E+001 -0.324297459715481E+001 -0.629216034835436E+001
  0.307368947365896E+000  0.269452887906179E+002 -0.187732115526124E+001 -0.162278614256247E+002 -0.122014783817300E+002 -0.303301924257024E+001 -0.260720022466128E+001
  0.307368947365896E+000  0.269299008148743E+002  0.848633307784043E+001 -0.156436774654505E+002  0.130355500849861E+002 -0.566535819838733E+001  0.771239592979107E+000
  0.307368947365896E+000  0.269290378169950E+002  0.201581187770055E+001 -0.734022050899508E+001  0.230418554029275E+001 -0.832325210868550E+001 -0.679195790956858E+001
  0.307368947365896E+000  0.265864392601033E+002 -0.461652151671451E+001  0.118709601514043E+002  0.711643793083606E+000  0.175392888747250E+001 -0.670312886321352E+001
  0.307368947365896E+000  0.268961789712053E+002  0.424403278612390E+001 -0.136588479964532E+002  0.102082721036131E+002 -0.492041577003640E+001 -0.293768438378304E+001
  0.307368947365896E+000  0.268891705704221E+002  0.170320965894632E+000 -0.121493860350805E+002  0.962053327945210E+001 -0.129668824828292E+001 -0.533066995705165E+001
  0.307368947365896E+000  0.268878966790736E+002 -0.383479459561222E+001 -0.644680302266153E+000 -0.790298652372618E+001  0.608360694025492E+001  0.150272383896879E+001
  0.307368947365896E+000  0.268664848882249E+002  0.452902545292840E+001 -0.109710994609163E+002  0.356760976017666E+001 -0.158619356682498E+001 -0.183308947622701E+001
  0.307368947365896E+000  0.268436288467763E+002  0.127289675779638E+001 -0.123573223737714E+002 -0.387344826118742E+000 -0.103567521964147E+001  0.206971208990144E+001
  0.307368947365896E+000  0.268403572659359E+002 -0.226448573129938E+001 -0.593676972244112E+001 -0.393374043318808E+000 -0.406093613487435E+001  0.564602601589285E+001
  0.307368947365896E+000  0.268250907746815E+002  0.338211265386147E+001  0.379070712925628E+001 -0.563616147222245E+001  0.127564438855162E+002 -0.554107859679500E+001
  0.307368947365896E+000  0.268236356657089E+002  0.162471577891365E+002 -0.132754002083827E+002  0.134533554859544E+002 -0.719803162706178E+001  0.142452068035053E+001
  0.307368947365896E+000  0.268076272324476E+002  0.757545084670912E+001 -0.934930112489291E+001  0.123338171685934E+002 -0.103006223843065E+002 -0.144180291355180E+001
  0.307368947365896E+000  0.267936863854522E+002 -0.600384023533376E+001 -0.122404237570010E+002 -0.683302288159777E+001  0.279060160475925E+000  0.106465394952779E+002
  0.307368947365896E+000  0.267531527369487E+002 -0.588396960871943E+001  0.103279704646895E+002 -0.687018212232893E-001  0.544435271450883E+000 -0.559006277050148E+001
  0.307368947365896E+000  0.267497115641587E+002  0.786267926195677E+001  0.200574293108256E+001  0.875232057228612E+001 -0.406798909390510E+001 -0.727753871724868E+000
  0.307368947365896E+000  0.267107920588145E+002  0.742038272380637E+001 -0.590063032795252E+001  0.415234334006003E+001 -0.867820616221843E+001 -0.730689522915996E+001
  0.307368947365896E+000  0.267024875729160E+002  0.458125503752088E+001 -0.679098319553065E+001 -0.613579287687266E+001 -0.464036369640601E+001  0.770501281832068E+000
  0.307368947365896E+000  0.266548990544491E+002  0.110924590447485E+002 -0.393209950629681E+001  0.942216748238033E+001 -0.104680186716375E+002 -0.609973228922677E+001
  0.307368947365896E+000  0.266403494633653E+002  0.118232016381860E+002 -0.142884321614467E+002  0.133931202441947E+002 -0.699922337130079E+001  0.462968862226742E+001
  0.307368947365896E+000  0.265967622299065E+002  0.187221017609701E+001 -0.633353541968924E+001 -0.120725306903674E+002 -0.296968718518557E+001  0.494204345764526E+001
  0.307368947365896E+000  0.265449609543454E+002 -0.594705201895439E+001 -0.168248642285927E+002 -0.109157537377453E+002 -0.505747254080319E+001 -0.444628890282566E+001
  0.307368947365896E+000  0.265174939393245E+002 -0.748436750616889E+000  0.357529694291890E+001 -0.358551819620116E+001  0.126220164307028E+002 -0.269826338096831E+001
  0.307368947365896E+000  0.264879296199609E+002  0.301249406074221E+001 -0.707246774478424E+001  0.682086033321656E+001 -0.689809098628279E+001 -0.411513238584438E+001
  0.307368947365896E+000  0.264864525348671E+002  0.343879806728432E+001 -0.992212251666137E+001  0.515590753925383E+001 -0.825193092499056E+000 -0.100127859090080E+002
  0.307368947365896E+000  0.264813347470154E+002 -0.602485346463574E+001 -0.542149104315461E+001 -0.128211654399858E+002 -0.580150573176502E+001  0.119186269532306E+002
  0.307368947365896E+000  0.264669318688138E+002  0.121415360165330E+002 -0.569918254518901E+001  0.915600670909447E+001 -0.729775297537496E+001 -0.687213384075410E+001
  0.307368947365896E+000  0.263812690890292E+002 -0.530980469438724E+001 -0.802067013186797E+001 -0.113498859126108E+001  0.564983381817044E-001 -0.200731705840650E+001
  0.307368947365896E+000  0.263637366539342E+002  0.543477200616216E+000 -0.538136764788010E+000 -0.674215810717125E+001  0.414965576404321E+001 -0.482910144731900E+001
  0.307368947365896E+000  0.263482747573938E+002  0.827029302125110E+001  0.484123820977867E+001  0.342942919604169E+001 -0.188520872671552E+001 -0.494108142940388E+001
  0.307368947365896E+000  0.263034235568167E+002  0.919198306813767E+001 -0.636519009415539E+001  0.539182032169468E+001 -0.433010098094607E+001 -0.697356018231655E+001
  0.307368947365896E+000  0.262803527959535E+002  0.556754132130798E+000 -0.499423157105075E+001 -0.149605561770177E+001 -0.538296207500150E+001  0.292457039680351E+001
  0.307368947365896E+000  0.262559127510019E+002 -0.999615292740746E+000 -0.670740492979899E+001 -0.125355491632456E+002 -0.520117553567088E+001  0.390596315457455E+001
  0.307368947365896E+000  0.262463908148194E+002  0.167097591486513E+002 -0.910845178705145E+000  0.123179093708159E+002 -0.110199739953309E+002  0.576925859114439E+001
  0.307368947365896E+000  0.262212811490292E+002  0.123079270901433E+002 -0.691789463528085E+001  0.116945483889426E+002 -0.124763889495475E+002 -0.501209213158796E+001
  0.307368947365896E+000  0.261693066075426E+002 -0.295174904640520E+001 -0.747114682491011E+001 -0.103309549118262E+001 -0.467058666530543E+001  0.369603258471216E+001
  0.307368947365896E+000  0.261651876340163E+002  0.880930198036285E+000 -0.765345994120377E+001  0.560369690818466E+001  0.549872738343893E+000  0.533789085521525E+001
  0.307368947365896E+000  0.261469093978838E+002  0.144853679278708E+001  0.484511578926839E+001 -0.294042511399669E+001  0.110429662288974E+002 -0.874315319947644E+001
  0.307368947365896E+000  0.261404248908094E+002  0.497435550219819E+001 -0.348681387823351E+001 -0.126686850963854E+001  0.302448718274756E+001  0.527977071665837E+001
  0.307368947365896E+000  0.261386228053107E+002  0.513235716092992E+001  0.248199334266405E+001  0.553542403830886E+001 -0.436012768033775E+001 -0.123032605020363E+001
  0.307368947365896E+000  0.261215053873453E+002 -0.897362875399548E+000  0.752417587236938E+001 -0.258772579501174E+001  0.113006798682611E+002 -0.360920974344906E+001
  0.307368947365896E+000  0.261164423940085E+002  0.179760728769405E+002 -0.882770624824908E+001  0.121693172445922E+002 -0.118483884507322E+002  0.277600681111234E+001
  0.307368947365896E+000  0.261139137642152E+002 -0.342332696442004E+001 -0.808278414569781E+001 -0.323668128963408E+001 -0.567582696707857E+001  0.190554859165933E+001
  0.307368947365896E+000  0.261103714694698E+002  0.617309953679476E+001 -0.756448468616668E+001  0.291659321494724E+001 -0.617016134610236E+001 -0.587986580361698E+001
  0.307368947365896E+000  0.261083028326142E+002  0.259461365442112E+001 -0.157093179217786E+001 -0.386632713928274E+001  0.100054712898853E+001  0.176422404627094E+001
  0.307368947365896E+000  0.260973456343309E+002  0.671345305540321E+001 -0.874592084281908E+001 -0.150464161622034E+001 -0.389013504982680E+001 -0.122303223164358E+001
  0.307368947365896E+000  0.260715858770767E+002  0.145794360475067E+002 -0.483126859721801E+001  0.512834848379379E+001 -0.129240776585048E+002  0.132085630630833E+001
  0.307368947365896E+000  0.260647362923824E+002 -0.170877622645496E+001 -0.116571622650922E+002 -0.118152337093696E+002 -0.290690284540326E+001  0.462237376676461E+001
  0.307368947365896E+000  0.260546769523468E+002  0.405970389365473E+001 -0.805338529672728E+001  0.594863435172000E+001 -0.127676727618451E+001 -0.991865348280941E+001
  0.307368947365896E+000  0.260436116875823E+002  0.133252920359160E+002 -0.546358289228777E+000  0.105418043168122E+002 -0.612643256951409E+001  0.497715042084124E+001
  0.307368947365896E+000  0.260374409290013E+002 -0.127726568250720E+001 -0.442213939861189E+001 -0.943731347131106E+001 -0.366113831181561E+001  0.911617550070024E+001
  0.307368947365896E+000  0.260086437291313E+002 -0.212523501191093E+000 -0.194033407405991E+001  0.756173131690202E+001 -0.607546551171722E+001 -0.546340697363292E+001
  0.307368947365896E+000  0.259995218804659E+002 -0.490471561015819E+001  0.385921980897718E+001 -0.202869656583195E+001 -0.492523010292428E+001 -0.102762650618568E+002
  0.307368947365896E+000  0.259687425432185E+002  0.808790113578023E+001  0.337239525939904E+001  0.515077007818624E+001 -0.705169313223718E+001 -0.713787696921894E+001
  0.307368947365896E+000  0.259660532621313E+002  0.767638692492496E+001 -0.715335367358520E+001  0.258003665736942E+001 -0.660432325846907E+001 -0.887986920519026E-001
  0.307368947365896E+000  0.259276260118233E+002  0.394116557372036E+001  0.505891392408466E+001  0.178153645598062E+000 -0.741566461459222E+000 -0.346426639388753E+001
  0.307368947365896E+000  0.258832655512738E+002  0.124460287862682E+001 -0.239076243752530E+001  0.204790986328796E+000  0.225629143425754E+001  0.181568464379333E+001
  0.307368947365896E+000  0.258696284128717E+002  0.494042727995134E+001 -0.158222215747526E+002  0.108340944868267E+002 -0.101983162298661E+001 -0.252205951125784E+001
  0.307368947365896E+000  0.258620391336665E+002  0.310736574191674E+001 -0.486381987503613E+001 -0.361125529738430E+001 -0.707797839399152E+000  0.813591547925932E+001
  0.307368947365896E+000  0.258540941616493E+002  0.143353447602918E+002 -0.827117149060124E+001  0.644033746181190E+001 -0.965413223417264E+001  0.393830199707950E+001
  0.307368947365896E+000  0.258310306605749E+002  0.122819170253696E+002  0.638093399198553E+000  0.667081680804732E+001 -0.516712967203538E+001  0.343497615831825E+001
  0.307368947365896E+000  0.258288975789572E+002 -0.390879917707964E+001  0.638520331651219E+001 -0.176805253731832E+000  0.915749758434949E+000 -0.107196927039926E+002
  0.307368947365896E+000  0.257977758263578E+002  0.126330817765399E+001 -0.610937868530341E+001 -0.124526115288412E+002 -0.276854042537273E+001  0.861305524353250E+001
  0.307368947365896E+000  0.257907556532887E+002  0.907068291283027E+001 -0.728628067148706E+001 -0.135327854179664E+001 -0.511473443941296E+001 -0.358902375034472E+000
  0.307368947365896E+000  0.257876978246775E+002 -0.447337816212846E+001 -0.584650064890615E+001 -0.407136365607620E+000 -0.281956164197489E+001 -0.576518981810224E+001
  0.307368947365896E+000  0.257852961065621E+002 -0.510024000138567E+001  0.225796051162698E+001 -0.418964315468710E+001 -0.154306161977102E+001 -0.732421392779592E+001
  0.307368947365896E+000  0.257193307990264E+002 -0.274658828006230E+001  0.112433271137743E+002 -0.618976335156070E+000  0.572076407948938E+001 -0.252703055420813E+000
  0.307368947365896E+000  0.257031444108482E+002 -0.123531409729759E+001  0.786530153267704E+001 -0.442252265597245E+001  0.593554455041741E+001  0.471555345036807E+001
  0.307368947365896E+000  0.256869511696637E+002  0.558257145460814E-001  0.793272444675564E+001  0.223301425961631E+001 -0.550392590863837E+000 -0.146730422866823E+002
  0.307368947365896E+000  0.256645465590636E+002  0.391473552046885E+001  0.634511375666096E+001  0.484154057525534E+001 -0.275137766221295E+001 -0.132711897176441E+002
  0.307368947365896E+000  0.256498262311849E+002  0.302973214243628E+001 -0.885740937636868E+000  0.290712705916109E+001 -0.178016683119366E+001  0.172064135032650E+001
  0.307368947365896E+000  0.256079556860615E+002 -0.330377168243504E+001  0.756989103759594E+001 -0.371885178989598E+001  0.545278560492520E+001  0.327539178613768E+001
  0.307368947365896E+000  0.256051919382133E+002  0.120604586827096E+002 -0.563121877478505E+001  0.115504170929388E+002 -0.103989597747556E+002 -0.551808150977843E+001
  0.307368947365896E+000  0.255912401871211E+002  0.225556994040453E+001  0.657501594162967E+001 -0.501374112165282E+001  0.383312342090536E+001 -0.486629192226624E+001
  0.307368947365896E+000  0.255774569553738E+002  0.465684490162099E+001 -0.478577878886392E+001 -0.104533890229217E+001 -0.444619908029233E+001 -0.356839377307375E+001
  0.307368947365896E+000  0.255757055941731E+002  0.162115863048885E+002 -0.961011142595638E+001  0.104340720045644E+002 -0.816752498156472E+001  0.789287668897913E+000
  0.307368947365896E+000  0.255467694400809E+002  0.215189720980359E+000  0.473524916581439E+001 -0.719282617616947E+001  0.166653286221620E+001  0.287251090226450E+001
  0.307368947365896E+000  0.255382053752854E+002 -0.401640721364245E+001  0.118159034541928E+002  0.613654565317962E+000  0.741732381431120E+000 -0.347887513369401E+001
  0.307368947365896E+000  0.255015640869142E+002  0.254968640006631E+000 -0.631200429803637E+001 -0.455202048215490E+000 -0.503952094849172E+001 -0.406104053287824E+001
  0.307368947365896E+000  0.255006558988399E+002  0.907534604422411E+001 -0.110747245206487E+002  0.134313285849784E+002 -0.623220044161593E+001 -0.759411513555852E+001
  0.307368947365896E+000  0.254701462886584E+002  0.144731721645960E+001 -0.705348427702339E+001 -0.662926031229159E+001  0.426192340249065E+001  0.423266686424599E+001
  0.307368947365896E+000  0.254671806882241E+002  0.728259176911944E+001 -0.131869372724704E+002  0.149556602870427E+002 -0.537460205869259E+001 -0.175241955175170E+001
  0.307368947365896E+000  0.254659430558050E+002  0.975130199114913E+001 -0.154645307175881E+002  0.134710542636404E+002 -0.439855527218598E+001 -0.232939463779065E+000
  0.307368947365896E+000  0.254494084641403E+002  0.457201410857596E+001 -0.209639543425858E+001  0.345724620139992E+001 -0.974692879107941E+000  0.397127306899736E+001
  0.307368947365896E+000  0.254458019576659E+002 -0.389780709363725E+001  0.222183705513678E+001 -0.467287077771338E+001  0.316213357294259E+000 -0.174614129226523E+000
  0.307368947365896E+000  0.254404420160663E+002 -0.467879933955107E+000  0.921116452504243E+001 -0.514688043726107E+001  0.226993984405192E+001  0.412991770249340E+001
  0.307368947365896E+000  0.254355240853264E+002 -0.420550697493016E+001 -0.511729954664141E+001 -0.259624745588926E+001  0.603558888548680E+001  0.427681951764126E+001
  0.307368947365896E+000  0.254156731049965E+002 -0.820250639978441E+001 -0.721848023780913E+001 -0.102859384572973E+002 -0.510389646019224E+001  0.119026018085317E+002
  0.307368947365896E+000  0.253888395705322E+002  0.707944007745892E+001 -0.996906008714545E+001  0.631504964858926E+001 -0.805504092799192E+001 -0.112886046194397E+001
  0.307368947365896E+000  0.253849315627982E+002  0.862024015790428E+001 -0.636257538748925E+001  0.238606174385097E+001 -0.824711689375343E+001 -0.209652630811218E+001
  0.307368947365896E+000  0.253724970855088E+002 -0.206989145677123E+001 -0.120987672842538E+002 -0.148714306831803E+002  0.429979635009008E+000  0.657835626393586E+001
  0.307368947365896E+000  0.253676047749606E+002 -0.132107879111195E+001  0.309426474414610E+001 -0.576802720844580E+001  0.742151385782865E+001  0.368192256126240E+001
  0.307368947365896E+000  0.253557818534735E+002  0.139805123933044E+002 -0.592093383322588E+001  0.927572844148101E+001 -0.101931118309993E+002 -0.154352497646213E+001
  0.307368947365896E+000  0.253554542041974E+002 -0.397462745277321E+001  0.374628816074381E+001 -0.194645106395539E+001  0.702846738400751E+000 -0.101768332881697E+002
  0.307368947365896E+000  0.253546287670381E+002  0.126756107859717E+002  0.144716884339091E+001  0.585710728952915E+001 -0.596844058612155E+001  0.562494238018905E+001
  0.307368947365896E+000  0.253527815554639E+002  0.357223907294811E+001  0.480778440392338E+001 -0.603902537631157E+001  0.922097416709048E+001 -0.133936583556128E+000
  0.307368947365896E+000  0.253335294144651E+002  0.166382035700675E+002 -0.876860951659499E+000  0.115144299560809E+002 -0.123186371378234E+002  0.449200508150036E+001
  0.307368947365896E+000  0.253117980593686E+002  0.949136945598433E+001 -0.952855301861964E+001  0.117012764874237E+002 -0.499263324123836E+001 -0.897981129275976E+001
  0.307368947365896E+000  0.253054868330837E+002  0.621090813753419E+001 -0.104012034293127E+002 -0.431327237802273E+001 -0.159486877156398E+001  0.110327153322391E+001
  0.307368947365896E+000  0.252909237734158E+002  0.515599998063610E+000  0.535117574116287E+001 -0.478520680031127E+001  0.278115909606160E+001 -0.651541869104442E+000
  0.307368947365896E+000  0.252685404859450E+002  0.153332072372712E+001 -0.678624127125215E+001 -0.715277632706696E+001 -0.255231795244501E+001  0.732243008952908E+001
  0.307368947365896E+000  0.252620690828311E+002 -0.519908760192483E+001 -0.646286891696902E+001 -0.831037976208354E+001 -0.387991168043348E+001  0.945484146862808E+001
  0.307368947365896E+000  0.252380988792242E+002  0.142371711413093E+002 -0.110285274055444E+002  0.758282636488172E+001 -0.920359167446363E+001  0.440953557858574E+001
  0.307368947365896E+000  0.252303497491392E+002  0.110810005563196E+002 -0.806094064253786E+001  0.100144036312474E+002 -0.581594258718055E+001 -0.398558191847815E+001
  0.307368947365896E+000  0.252142641278250E+002  0.911992940268700E+001 -0.101076932367909E+002  0.813670674435407E+001 -0.242866671994529E+001 -0.678242994766522E+001
  0.307368947365896E+000  0.252082143814804E+002  0.152758699869452E+001  0.106483223009059E+002 -0.184412836732807E+001  0.416664284042129E+001 -0.452272447208364E+001
  0.307368947365896E+000  0.252020614335504E+002  0.259970181971953E+001  0.904835664740204E+000 -0.680617430953060E+001  0.949049163067561E+001 -0.520521900947303E+001
  0.307368947365896E+000  0.251874810248821E+002  0.503112086445930E+001 -0.640560879642003E+001  0.407536385299250E+001 -0.463187050098330E+001 -0.683081645760905E+001
  0.307368947365896E+000  0.251727034362937E+002 -0.608998432761171E+001 -0.898764953730282E+001 -0.246894743075640E+001 -0.383926504034555E+001  0.733963724904211E+001
  0.307368947365896E+000  0.251552598419255E+002  0.583118832514955E+001  0.268422572829902E+001  0.118098703339113E+001 -0.977457495521008E+001 -0.393871881940204E+001
  0.307368947365896E+000  0.251486013169652E+002 -0.117892053787472E+000 -0.113907040441897E+002 -0.379257447751864E+001 -0.274824542454915E+001 -0.194236887429156E+000
  0.307368947365896E+000  0.251164088537535E+002  0.543739814744367E+001 -0.120996533969340E+002  0.142579583414867E+002 -0.410635572020741E+001 -0.752534663115180E+001
  0.307368947365896E+000  0.251037983968906E+002  0.951669087922797E+001  0.541221740755496E+001  0.734206273520122E+001  0.311009297108560E+001 -0.210276883764368E+001
  0.307368947365896E+000  0.250972373380857E+002  0.246770748568636E+001 -0.887871231120645E+001 -0.382227806202096E+000 -0.224791554654032E+001 -0.152481419920727E+001
  0.307368947365896E+000  0.250900737754173E+002 -0.276328063203164E+001  0.285673328197508E+001 -0.760397341556494E+000 -0.611043678645449E+001 -0.920912177102942E+001
  0.307368947365896E+000  0.250652219674530E+002  0.178915010149474E+002 -0.498907113910221E-001  0.114173538527759E+002 -0.612992110077379E+001  0.718765429635027E+001
  0.307368947365896E+000  0.250533505104737E+002  0.413579882262713E+001 -0.382664660417518E+000  0.324985564894653E+001 -0.102281403563126E+002 -0.106643631016898E+001
  0.307368947365896E+000  0.250172003484363E+002  0.270584313442829E+001 -0.606089728241869E+001 -0.854363521178657E+001 -0.145923196124774E+001  0.809177269018618E+001
  0.307368947365896E+000  0.250109295588940E+002 -0.375035667939341E+001  0.939542200932221E+001 -0.268260303293168E+000  0.448474282644861E+001 -0.209990410928422E+001
  0.307368947365896E+000  0.249862104424297E+002 -0.447407109178543E+001 -0.959767236013543E+001 -0.133542782643680E+002 -0.144350541518376E+001  0.906475833077411E+001
  0.307368947365896E+000  0.249619001265630E+002  0.162332536285359E+002  0.109739151336793E+001  0.910787007999614E+001 -0.976492628708165E+001  0.235232950052319E+001
  0.307368947365896E+000  0.249376457900961E+002 -0.419044324526918E+001 -0.781414721130170E+001 -0.126674076205129E+002 -0.729110721047847E+001  0.559510443708444E+001
  0.307368947365896E+000  0.249025770288184E+002  0.379824220724775E+001  0.225408471390539E+001  0.575387393889801E+001 -0.112904275142253E+002 -0.785009735628588E+001
  0.307368947365896E+000  0.248828808872911E+002 -0.611941446871825E+001 -0.612315376414417E+001  0.203849437075367E+001  0.255188238518039E+001  0.676122074911678E+000
  0.307368947365896E+000  0.248627987117703E+002 -0.281523235243558E+001 -0.831020003915592E+001 -0.114071013066368E+002 -0.175771426113656E+000  0.111448424932808E+002
  0.307368947365896E+000  0.248438812950042E+002  0.594310767835701E+001  0.514992427820098E+001  0.770685005117951E+001 -0.490192737158306E+000 -0.684472166617703E+001
  0.307368947365896E+000  0.248424108156214E+002 -0.720817972758088E+000  0.418194377221395E+001 -0.114600041385610E+001 -0.707073486251803E+001 -0.108426025899099E+002
  0.307368947365896E+000  0.248203287710103E+002  0.813057555737245E+000 -0.644836098771651E+001 -0.106998343842752E+002 -0.978659314675173E+000  0.980725554837756E+001
  0.307368947365896E+000  0.247761693562537E+002 -0.495770648837623E+001 -0.818137687449282E+001 -0.686232392410110E+001 -0.143737492585941E+001  0.101007989518661E+002
  0.307368947365896E+000  0.247739584609878E+002 -0.275859779433196E+001  0.416091040003984E+000  0.301494454452149E+001  0.723903509975500E+000  0.820465269237104E+000
  0.307368947365896E+000  0.247593353068685E+002 -0.321065478696361E+001 -0.907401963453518E+001 -0.393175782875499E+001 -0.666572924191044E+001  0.107961214914456E+001
  0.307368947365896E+000  0.247497705911440E+002  0.563287923003912E-001  0.823614686638729E+001 -0.415519596081378E+001  0.911006998092335E+001 -0.259128275257315E+001
  0.307368947365896E+000  0.247334092257672E+002 -0.585059696256324E+001  0.486445346205219E+001 -0.274918768704496E+001  0.352070491226339E+001 -0.331904604742097E+001
  0.307368947365896E+000  0.247330888457529E+002  0.115860937849337E+002  0.387781098812159E+001  0.731201349775050E+001 -0.708618749921515E+001 -0.166323300600894E+001
  0.307368947365896E+000  0.247296726291571E+002  0.124841240005408E+002 -0.669559815436990E+001  0.608827484173806E+001 -0.104935285636750E+002  0.140126542837488E+001
  0.307368947365896E+000  0.247229110849084E+002 -0.185317926299259E+001 -0.744755606848419E+001  0.730523272840340E+000 -0.215977940090769E+001 -0.361156290116780E+001
  0.307368947365896E+000  0.246731587043870E+002  0.860530845583503E+001  0.145381865290157E+001  0.570629325361471E+001 -0.819721927751205E+001 -0.370302180424219E+001
  0.307368947365896E+000  0.246688107895153E+002  0.102226982130142E+001 -0.753284176228388E+001  0.167297292519898E+000  0.502199399253288E+001  0.791450266813860E+001
  0.307368947365896E+000  0.259271730991649E+002 -0.251634940244949E+001  0.512956547005578E+001  0.138584186292739E+000 -0.655317371715807E+001 -0.120543858473712E+002
  0.307368947365896E+000  0.259251519900328E+002  0.583820231759408E+001  0.456489890912606E+001  0.824977683698641E+001 -0.325631323557980E+001 -0.867778068958422E+001
  0.307368947365896E+000  0.257268510068870E+002  0.109129981916737E+002  0.419318313745268E+001  0.884232714189525E+001 -0.647222573129966E+001 -0.428186823320291E+001
  0.307368947365896E+000  0.256106141210888E+002  0.329117153402376E+001  0.399428736885103E+001 -0.224122980044825E+000 -0.508426499836822E+001 -0.401619716305863E+001
  0.307368947365896E+000  0.256031816826639E+002  0.737365174480490E+001  0.932010668034096E-001  0.563857924748971E+001 -0.125987453008821E+002 -0.168107968736845E+000
  0.307368947365896E+000  0.254568410150761E+002 -0.225135320145830E+001  0.475509344242607E+001  0.155069433776364E+001 -0.176936726553877E+001 -0.111356746134694E+002
  0.307368947365896E+000  0.253191654562296E+002  0.166894288506371E+001  0.415234804842269E+001  0.465893514353544E+001 -0.140674246364274E+001 -0.904660439227476E+001
  0.307368947365896E+000  0.252843167799173E+002  0.627695163748264E+000  0.710401939623654E+001  0.125768971014409E+001  0.114119293210524E+001 -0.119533684714080E+002
  0.307368947365896E+000  0.251662645519773E+002  0.118514556734498E+002  0.162368265693988E+001  0.534403231894522E+001 -0.688871425395068E+001  0.402410615301732E+001
  0.307368947365896E+000  0.251429286052446E+002  0.188636268194264E+001  0.243408525769116E+001  0.267957684576810E+001 -0.108447640837744E+002 -0.997048843325580E+001
  0.307368947365896E+000  0.250838577002164E+002  0.267744082063699E+001  0.517221171057384E+001  0.505697713062400E+001 -0.344637630204746E+001 -0.907540932845028E+001
  0.307368947365896E+000  0.249005366288575E+002  0.145588971882735E+002  0.145402547531016E+001  0.118610330727226E+002 -0.564567340954316E+001  0.513970713039107E+000
  0.307368947365896E+000  0.248496374750894E+002  0.548947101432782E+001  0.107135299458038E+001  0.479610688420556E+001 -0.134977010191896E+002 -0.557802708514959E+001
  0.307368947365896E+000  0.246881385807192E+002  0.839998664920220E+001  0.438055651350172E+001  0.848514375800715E+001 -0.313230119186126E+001 -0.467655020263249E+001
  0.307368947365896E+000  0.244535411520453E+002  0.112345862224649E+002  0.756273836373079E+000  0.901670378246175E+001 -0.460488522861019E+001  0.265837645959451E+001
  0.307368947365896E+000  0.243197623066510E+002  0.118591864545988E+002  0.491908925059833E+001  0.925541481563276E+001 -0.173550002343977E+001 -0.292188780413437E+001
  0.307368947365896E+000  0.243101477935482E+002  0.561747434946928E+001  0.369908605273772E+001  0.699667710555035E+001 -0.127063640298312E+001 -0.477347482697106E+001
  0.307368947365896E+000  0.242596172721378E+002  0.989715203036403E+001  0.424054204147396E+001  0.672758260598398E+001 -0.114041937172702E+001 -0.400678561422261E+001
  0.307368947365896E+000  0.241360999236350E+002  0.818043275621964E+001  0.572363928625816E+001  0.458609047446025E+001 -0.413904905480678E-002 -0.540885231926097E+001
  0.307368947365896E+000  0.240796902130481E+002  0.133644513041894E+002  0.201306151503112E+001  0.986442639147577E+001 -0.732933250563589E+001 -0.192530033595643E+001
  0.307368947365896E+000  0.239912051231554E+002  0.425413727368242E+001  0.146685920179049E+001  0.398652724870882E+001 -0.112100198742936E+002 -0.399085483463619E+001
  0.307368947365896E+000  0.239846670378107E+002  0.621350326308551E+001  0.397812224847190E+000  0.506992867192929E+001 -0.971408553631329E+001 -0.894265626770476E-001
  0.307368947365896E+000  0.239763330448417E+002  0.398177963330480E+001  0.672347357731702E+000  0.445898672408875E+001 -0.120569093731213E+002 -0.471557501756402E+001
  0.307368947365896E+000  0.239682591990957E+002  0.873854840423080E+001  0.320798624277034E+001  0.845430516347781E+001 -0.782859552542662E+001 -0.526318408157590E+001
  0.307368947365896E+000  0.239626428451322E+002  0.884533175540679E+001  0.340865188047832E+001  0.426538447665515E+001 -0.438501936198172E+001  0.416543269986548E+000
  0.307368947365896E+000  0.239480082859769E+002  0.473225765169796E+001  0.828987986329160E+000  0.248848234906736E+001 -0.116671584532198E+002 -0.277381309586211E+001
  0.307368947365896E+000  0.239413212991181E+002  0.429253854261975E+001  0.377996730521495E+000  0.348380076498754E+001 -0.935578359518721E+001 -0.219426439505522E+001
  0.307368947365896E+000  0.239122860998485E+002  0.123986277088486E+002  0.263365616435599E+001  0.948625246566709E+001 -0.507573766916300E+001 -0.269781159075107E+001
  0.307368947365896E+000  0.239075863392699E+002  0.207677935296982E+001  0.428278889663933E+001  0.219595854547172E+001 -0.484635413280879E+001 -0.102744049890372E+002
  0.307368947365896E+000  0.237704502836470E+002  0.208005864049547E+001  0.629946253880272E+001  0.394565504782103E+001 -0.146226826562449E+001 -0.107627456259260E+002
  0.307368947365896E+000  0.237091667674596E+002  0.696216383575331E+001  0.376808028047703E+001  0.644656232014119E+001 -0.314012137555884E+001 -0.692962692864435E+001
  0.307368947365896E+000  0.236818775273312E+002  0.377154243930635E+001  0.385656604921213E+001  0.617056666851442E+001 -0.286113495772865E+001 -0.713522821956774E+001
  0.307368947365896E+000  0.236496184933567E+002  0.737735188458633E+001  0.533740023451493E+001  0.602254567867432E+001  0.632682319126754E+000 -0.382848263665034E+001
  0.307368947365896E+000  0.234743335094284E+002  0.385402523591810E+001  0.611325452884477E+001  0.503330886360549E+001 -0.150880906654906E+001 -0.960159830977641E+001
  0.307368947365896E+000  0.233059465412643E+002  0.713483379427304E+001  0.389615515255919E+001  0.658937338561459E+001 -0.264127637840931E+001 -0.284952573169267E+001
  0.307368947365896E+000  0.232989119600334E+002  0.207371800023965E+001  0.228902365281451E+001  0.742719391187023E+000 -0.911341090013662E+001 -0.501756305572312E+001
  0.307368947365896E+000  0.232459455297486E+002  0.906818813855217E+001  0.471193598902421E+001  0.508659428737007E+001 -0.125957974494888E+000 -0.132206726075708E+001
  0.307368947365896E+000  0.231706963677117E+002  0.548032976414203E+001  0.566562345747052E+000  0.444216941105939E+001 -0.121826229193530E+002 -0.355311117609711E+001
  0.307368947365896E+000  0.231562029819491E+002  0.217315405464169E+001  0.607315798919262E+001  0.278671121766665E+001 -0.327362863015189E+001 -0.121328412712815E+002
  0.307368947365896E+000  0.231491801816155E+002  0.359782043445584E+001  0.167718106478975E+001  0.340587268608282E+001 -0.107686269707164E+002 -0.693376240588329E+001
  0.307368947365896E+000  0.231258089427299E+002  0.585991655988511E+001  0.541911385704844E+001  0.382221089473884E+001 -0.519391377867101E+001 -0.751473939028323E+001
  0.307368947365896E+000  0.230199307371242E+002  0.139587406095343E+001  0.227629991243076E+001  0.139971316316605E+001 -0.909296454829073E+001 -0.753759562856112E+001
  0.307368947365896E+000  0.229342868629950E+002  0.279213014535494E+001  0.339348030015969E+001  0.167262147569054E+001 -0.921262082408411E+001 -0.847457139240044E+001
  0.307368947365896E+000  0.228681237453997E+002  0.198526612165691E+001  0.524748004110613E+001  0.445222755707496E+001 -0.329132623614404E+001 -0.106196198173144E+002
  0.307368947365896E+000  0.228470836494190E+002  0.551618436388710E+001  0.693984196722418E+000  0.501951701698151E+001 -0.824235300143311E+001 -0.254943843564500E+001
  0.307368947365896E+000  0.226224714875606E+002  0.958351709860466E+000  0.343109227001162E+001  0.209632135063216E+001 -0.498450364532309E+001 -0.881253420774098E+001
  0.307368947365896E+000  0.225536035605961E+002  0.282232461833531E+001  0.566995467998272E+001  0.315970051547374E+001 -0.320076559919345E+001 -0.873239242558047E+001
  0.307368947365896E+000  0.225001619708730E+002  0.376454428846005E+001  0.508164102712652E+001  0.287016107214130E+001 -0.480966902994717E+001 -0.719727520591012E+001
  0.307368947365896E+000  0.224517135914674E+002  0.543627851721035E+001  0.502256790563894E+001  0.220147502464257E+001 -0.384786801432623E+001 -0.578279887066430E+001
  0.307368947365896E+000  0.224041245309934E+002  0.142453384086920E+001  0.373204040763395E+001  0.285924810796455E+001 -0.790367050304338E+001 -0.107385702026378E+002
  0.307368947365896E+000  0.223612234633385E+002  0.470200004870259E+001  0.186530677921128E+001  0.484142084391883E+001 -0.989994953203536E+001 -0.683523037608446E+001
  0.307368947365896E+000  0.223406475913512E+002  0.145519277143023E+001  0.349054116953306E+001  0.386472814349708E+001 -0.438287705888973E+001 -0.839200936429234E+001
  0.307368947365896E+000  0.223287858626300E+002  0.233297717614950E+001  0.257777230496271E+001  0.413235044233943E+001 -0.664495511413169E+001 -0.620304316355922E+001
  0.307368947365896E+000  0.223187415957282E+002  0.736323169294565E+001  0.415662966356956E+001  0.555006747482343E+001 -0.560783088878772E+001 -0.748920993600996E+001
  0.307368947365896E+000  0.222993182952201E+002  0.500939559219333E+000  0.369305376274110E+001  0.791350494249343E+000 -0.757905938148357E+001 -0.957097473909463E+001
  0.307368947365896E+000  0.222865915169221E+002  0.478823515120991E+001  0.521767894135702E+001  0.537185911375789E+001 -0.383457868726907E+001 -0.841369167140945E+001
  0.307368947365896E+000  0.222865329307596E+002  0.315383539233584E+001  0.351155298647804E+001  0.481148770910531E+001 -0.301052795629073E+001 -0.690691951563533E+001
  0.307368947365896E+000  0.222740115497763E+002  0.131497357718087E+002  0.967082770622813E+000  0.862470514247649E+001 -0.937904764433820E+001  0.669946481342603E+000
  0.307368947365896E+000  0.222215504278704E+002  0.868501495877429E+001  0.494188677186260E+001  0.711591351096465E+001 -0.822939153988841E+000 -0.390903020846167E+001
  0.307368947365896E+000  0.222079586917007E+002  0.708434003569701E+001  0.162120959937110E+001  0.652803845307689E+001 -0.532106620455495E+001 -0.102128751312130E+001
  0.307368947365896E+000  0.221728013265999E+002  0.755355419307682E+001  0.118336479248442E+001  0.489058802277144E+001 -0.112953837344191E+002 -0.295857477872191E+001
  0.307368947365896E+000  0.221383269928594E+002  0.574121279864822E+001  0.204154401043771E+001  0.280945634519332E+001 -0.700459235061677E+001 -0.117398386915519E+001
  0.307368947365896E+000  0.221332019390755E+002  0.121070709762962E+002  0.227873787662503E+001  0.100488455678509E+002 -0.504383731651264E+001 -0.118643043011052E+001
  0.307368947365896E+000  0.221121474371722E+002  0.124515121859581E+002  0.459957993250885E+000  0.824223599056951E+001 -0.101475185069079E+002  0.191538271704036E+001
  0.307368947365896E+000  0.220250604782237E+002  0.120755002571950E+002  0.271488840327250E+001  0.915677701605260E+001 -0.442086158427379E+001  0.440995704036094E+000
  0.307368947365896E+000  0.220250453111462E+002  0.140656121242602E+001  0.283644346016531E+001  0.122659484025271E+001 -0.870399760806855E+001 -0.713617001043534E+001
  0.307368947365896E+000  0.219356143372709E+002  0.195363657004787E+000  0.386526758785001E+001  0.225321823609170E+001 -0.437161533748864E+001 -0.865586459364399E+001
  0.307368947365896E+000  0.219032292019878E+002  0.107816108437551E+002  0.203617295988526E+001  0.701238600120254E+001 -0.847145678283873E+001 -0.245138897951495E+001
  0.307368947365896E+000  0.218593872524389E+002  0.702499273718649E+001  0.266291979245079E+001  0.546784548151342E+001 -0.643781188454461E+001 -0.548662623966468E+001
  0.307368947365896E+000  0.218274478480543E+002  0.321596356370991E+001  0.361971655889567E+001  0.493416745352622E+001 -0.557212425826091E+001 -0.737827369002644E+001
  0.307368947365896E+000  0.218272293466358E+002  0.969296719905927E+001  0.391552732679821E+001  0.559569699768968E+001 -0.230969643219046E+001 -0.560901896379544E+000
  0.307368947365896E+000  0.218270307055427E+002  0.103619878524528E+002  0.211211699747217E+001  0.672752755172226E+001 -0.514752652662562E+001  0.169018734053781E+001
  0.307368947365896E+000  0.217932280282300E+002  0.501128304620070E+001  0.394614034623174E+001  0.271760167440935E+001 -0.731168429401102E+001 -0.581156645588243E+001
  0.307368947365896E+000  0.217792271169311E+002  0.326308616448064E+001  0.301369073427931E+001  0.220192166491816E+001 -0.883521417796310E+001 -0.601576698876145E+001
  0.307368947365896E+000  0.217665745921840E+002  0.536378434238288E+001  0.286897491324007E+001  0.648066918984253E+001 -0.562007875931106E+001 -0.525515525527943E+001
  0.307368947365896E+000  0.217514928814280E+002  0.123395249129216E+002  0.205317676170823E+001  0.765874202238207E+001 -0.613398645109649E+001  0.217929430440612E+001
  0.307368947365896E+000  0.217369713472289E+002  0.102610018119100E+002  0.275736637491993E+001  0.743475906800538E+001 -0.754096390409027E+001 -0.165872943526703E+001
  0.307368947365896E+000  0.217060025881070E+002  0.669098508283997E+001  0.440420943167533E+001  0.592104571306501E+001 -0.486228151089165E+000 -0.466012485475754E+001
  0.307368947365896E+000  0.216571294280304E+002  0.347173860315105E+001  0.585961881306878E+001  0.299870874015753E+001 -0.777998992438167E+000 -0.834686677388551E+001
  0.307368947365896E+000  0.215595682400562E+002  0.881926007204426E+001  0.314093707681941E+001  0.630306725494150E+001 -0.293184029361168E+001 -0.286997143409583E+001
  0.307368947365896E+000  0.213155691611799E+002  0.275412161451121E+001  0.341766212427579E+001  0.376987436891791E+001 -0.577570310881628E+001 -0.862295717415782E+001
  0.307368947365896E+000  0.212884459864565E+002  0.173168490338211E+001  0.415477648817733E+001  0.114520696479354E+001 -0.506533470543961E+001 -0.702376398372515E+001
  0.307368947365896E+000  0.212512883584661E+002  0.539748667708529E+001  0.256715760348794E+001  0.584383212783000E+001 -0.538190761138825E+001 -0.390574377375155E+001
  0.307368947365896E+000  0.212267124572455E+002  0.916213120834408E+001  0.283975380219465E+001  0.710007305469596E+001 -0.836845534305031E+001 -0.468440708716266E+001
  0.307368947365896E+000  0.212211922726897E+002  0.954285287898908E+001  0.339711379605073E+001  0.696482189187849E+001 -0.400369137305113E+001 -0.388257704211050E+001
  0.307368947365896E+000  0.212065417499770E+002  0.333608862785649E+001  0.460165943722396E+001  0.383924996161883E+001 -0.347032111531967E+001 -0.694952304156834E+001
  0.307368947365896E+000  0.211649020241497E+002  0.429574107259639E+001  0.394806277940278E+001  0.560918930212439E+001 -0.482699156841639E+001 -0.826673495875921E+001
  0.307368947365896E+000  0.211152929137897E+002  0.104742400913225E+002  0.109862266685187E+001  0.822895739984097E+001 -0.702748451844570E+001  0.446637385031529E+000
  0.307368947365896E+000  0.211050815386644E+002  0.385879155223461E+001  0.478035523744818E+001  0.484679958741292E+001 -0.429009704782418E+001 -0.897791215771076E+001
  0.307368947365896E+000  0.210606590007771E+002  0.119231160075265E+001  0.478536391461722E+001  0.164175225133964E+001 -0.473142537477828E+001 -0.980909494398498E+001
  0.307368947365896E+000  0.210543714376339E+002  0.819447685931653E+001  0.171436616861950E+001  0.647395417376431E+001 -0.512457875171807E+001 -0.528401694892260E+000
  0.307368947365896E+000  0.210351024939048E+002  0.388978847838565E+001  0.389143662077536E+001  0.389400153633757E+001 -0.760037514748148E+001 -0.838598512862171E+001
  0.307368947365896E+000  0.210009251416850E+002  0.410438921301018E+001  0.370703606547297E+001  0.380504013434420E+001 -0.395625571228959E+001 -0.463046316400383E+001
  0.307368947365896E+000  0.209870398213400E+002  0.350495222127735E+001  0.400140125248256E+001  0.352315081434496E+001 -0.377478233091781E+001 -0.780347476625253E+001
  0.307368947365896E+000  0.209113546094577E+002  0.189402926469870E+001  0.431971509467816E+001  0.301116364140709E+001 -0.323380908679263E+001 -0.790152590743003E+001
  0.307368947365896E+000  0.208959830729053E+002  0.897747966116647E+001  0.189811356326057E+001  0.704913732198055E+001 -0.930963671887819E+001 -0.270669321550625E+001
  0.307368947365896E+000  0.208383114650884E+002  0.106068676563705E+002  0.166384402369922E+001  0.807414148852135E+001 -0.687993697066359E+001  0.265928645454100E+000
  0.307368947365896E+000  0.207781194591605E+002  0.664985772007856E+001  0.279495757220306E+001  0.433993463827062E+001 -0.408317793318903E+001 -0.153371736630451E+001
  0.307368947365896E+000  0.207571587497350E+002  0.103732927539306E+002  0.334249497578635E+001  0.644712549968220E+001 -0.526915755360177E+001 -0.271142564413651E+001
  0.307368947365896E+000  0.206882969455490E+002  0.842987716011907E+001  0.278273360542755E+001  0.711743586188248E+001 -0.357850320509111E+001 -0.266556415610400E+001
  0.307368947365896E+000  0.206795349976038E+002  0.722127218332327E+001  0.203794198035276E+001  0.436716296631870E+001 -0.748501569008194E+001 -0.278828046253559E+001
  0.307368947365896E+000  0.206140363272924E+002  0.436567090653803E+001  0.277596217620513E+001  0.473762728273591E+001 -0.777656832035393E+001 -0.602651976755281E+001
  0.307368947365896E+000  0.205870297382764E+002  0.117920779751905E+002  0.160283148659313E+001  0.754579269438933E+001 -0.682910147678796E+001  0.105968790167552E+001
  0.307368947365896E+000  0.205558658431826E+002  0.758200144047351E+001  0.289057946094605E+001  0.416242402642392E+001 -0.703725063527065E+001 -0.245285906989967E+001
  0.307368947365896E+000  0.205140072718913E+002  0.254137140870345E+001  0.421035201468724E+001  0.233532029240162E+001 -0.545501903161337E+001 -0.855022333815512E+001
  0.307368947365896E+000  0.204228089630323E+002  0.760959091116916E+001  0.427515350460800E+001  0.543195877183186E+001 -0.180860989488193E+001 -0.361159517771224E+001
  0.307368947365896E+000  0.203111057243503E+002  0.583677397989180E+001  0.246084150598603E+001  0.440795853347118E+001 -0.879863536208551E+001 -0.522815207380306E+001
  0.307368947365896E+000  0.202416585781732E+002  0.242446219423863E+001  0.437668538822634E+001  0.298767529606002E+001 -0.441104993149593E+001 -0.819438142247210E+001
  0.307368947365896E+000  0.201754517021372E+002  0.819519628295001E+001  0.137973143370539E+001  0.606781682776904E+001 -0.798383039032783E+001 -0.138488302343908E+001
  0.307368947365896E+000  0.201688213023420E+002  0.103288408452343E+002  0.309779486984501E+001  0.799455136480230E+001 -0.454338093186264E+001 -0.215235083947581E+001
  0.307368947365896E+000  0.201216052167433E+002  0.541183068959930E+001  0.416141428582460E+001  0.428993776432135E+001 -0.589774298003507E+001 -0.655663783949392E+001
  0.307368947365896E+000  0.200924058555431E+002  0.908741061981780E+001  0.280414736802538E+001  0.647376103034513E+001 -0.413091581921049E+001 -0.205216049219097E+001
  0.307368947365896E+000  0.199193293131156E+002  0.815644420037056E+001  0.280619346540254E+001  0.586423923669334E+001 -0.582807099280201E+001 -0.193609704800515E+001
  0.307368947365896E+000  0.199175695098614E+002  0.646054518478909E+001  0.458100337928332E+001  0.494888931138661E+001 -0.320102613490904E+001 -0.596286164705299E+001
  0.307368947365896E+000  0.198352597462587E+002  0.904901791410607E+001  0.236628312351086E+001  0.606446506301161E+001 -0.632881434701968E+001 -0.965379951586186E+000
