  0.251394119620393E+000  0.335530899642063E+002  0.244604914082085E+000 -0.179218150644121E+002 -0.163739542984916E+002 -0.692188693144896E+000 -0.186137147971765E+001
  0.251394119620393E+000  0.395836850144897E+002  0.101557239877870E+002 -0.127617096272773E+001  0.994735371938623E+001 -0.352266242821016E+001  0.653536773675704E+001
  0.251394119620393E+000  0.339377995967426E+002  0.316791661625835E+000 -0.194174413080459E+002  0.165295278339284E+002  0.346665986752107E+001 -0.783392626196886E+001
  0.251394119620393E+000  0.340206902609082E+002  0.128053427538295E+002 -0.146089022746296E+002 -0.622703666161429E+001 -0.251546231315492E+001  0.416650691325191E+001
  0.251394119620393E+000  0.418789383939386E+002  0.166388915724003E+002 -0.154689676687024E+002 -0.356088129540181E+001 -0.904182770059908E+001  0.158660930612148E+001
  0.251394119620393E+000  0.342248175799432E+002  0.134345956235859E+002  0.765265776147867E+000  0.142484882168369E+001 -0.143327879247649E+002 -0.799118335057294E+001
  0.251394119620393E+000  0.393949297951253E+002  0.546756341007830E+001 -0.295494401779397E+001 -0.102167829322961E+002  0.290545836605645E+001  0.134543415316233E+001
  0.251394119620393E+000  0.286319921391583E+002  0.177516605241243E+002 -0.493370458008096E+001  0.402536851407522E+001 -0.120342132007409E+002  0.284855648023320E+001
  0.251394119620393E+000  0.344433673015129E+002  0.726950099792339E+001 -0.253013756287384E+001 -0.103424278802191E+002 -0.331139704861782E+001  0.811271158738192E+001
  0.251394119620393E+000  0.381772152224620E+002 -0.401074102154586E+001 -0.581424006104446E+001  0.611812716163218E+001  0.249511304845225E+001 -0.199104835974854E+002
  0.251394119620393E+000  0.286430667506595E+002 -0.154841586082544E+001 -0.172226071970354E+002 -0.191142758297176E+002 -0.185799478794259E+001 -0.224842241189724E+001
  0.251394119620393E+000  0.376946092783582E+002 -0.153132868799861E+001 -0.166269734004800E+002 -0.162927241076194E+002 -0.107624653863005E+002 -0.139605179372806E+002
  0.251394119620393E+000  0.286852085346622E+002  0.816114715807485E+001 -0.122129356559159E+002 -0.208013156697852E+000 -0.905113251416648E+000  0.684991924560111E+001
  0.251394119620393E+000  0.349612957148544E+002  0.947669158570555E+001 -0.134460587161388E+002  0.354802281411488E+001 -0.586862049995340E+001  0.897838903635908E+001
  0.251394119620393E+000  0.350809795809892E+002 -0.145456818788677E+001 -0.758872917705410E+001 -0.154972388005487E+002  0.180812062176945E+001  0.173649270343873E+002
  0.251394119620393E+000  0.350918730918550E+002 -0.193860479427998E+001 -0.855426148630658E+001  0.179450288982119E+001  0.182843679764420E+001 -0.158206151204075E+002
  0.251394119620393E+000  0.370895000922700E+002 -0.626302303969953E+001 -0.108137939288953E+002  0.328004765468844E+000  0.414672944733822E+001 -0.988406229671802E+001
  0.251394119620393E+000  0.367952986019694E+002 -0.592554297043245E+001 -0.611372085071159E+001  0.661727220116333E+001 -0.111373230561490E+001 -0.150240083726507E+002
  0.251394119620393E+000  0.352071224020238E+002  0.100685303379427E+002 -0.275029469809526E+001 -0.585469574599798E+001 -0.754218082625475E+001 -0.454230889321808E+001
  0.251394119620393E+000  0.352303381265799E+002 -0.216930091610136E+001 -0.110314110109117E+002  0.976812392362980E+000 -0.637509084701442E+000 -0.811737645351734E+001
  0.251394119620393E+000  0.335043477294364E+002  0.174572713067930E+002 -0.250753997137553E+001  0.761685906438937E+001 -0.119352192839725E+002 -0.885132036536385E+001
  0.251394119620393E+000  0.334608875413920E+002 -0.702362138636321E+000 -0.175913133553697E+002  0.862726727707926E+001  0.196965861440029E+001  0.174433869511851E+000
  0.251394119620393E+000  0.330786371388585E+002 -0.104055067211428E+002 -0.139648272315310E+001  0.557070398821036E+001 -0.358872961138439E+001 -0.766227939492180E+001
  0.251394119620393E+000  0.330719052827892E+002  0.465645586407999E+001 -0.135215317633524E+002  0.910855451709504E+001  0.425002152581205E+001 -0.615968530433393E+001
  0.251394119620393E+000  0.330308540174917E+002 -0.165859070925326E+001 -0.219008378500916E+001 -0.128314452267041E+002 -0.489207656518447E+001  0.107774924674317E+002
  0.251394119620393E+000  0.287173478571096E+002 -0.100344105876355E+001  0.679507258482685E+001  0.224016096321391E+001  0.392937615024459E+001 -0.120753298938097E+002
  0.251394119620393E+000  0.328706622812192E+002  0.751251509943852E+000 -0.321723632654235E+001 -0.107392551566504E+001 -0.805275628983771E+001 -0.802685017399591E+001
  0.251394119620393E+000  0.327905359792726E+002  0.133885325364905E+001 -0.950128994230553E+001 -0.110134917934586E+001 -0.280706385575368E+000 -0.696293315368982E+001
  0.251394119620393E+000  0.287267405151293E+002 -0.641372808563321E+001 -0.917240036193498E+001 -0.471550629840883E+001 -0.503050276918720E+001  0.854200938406297E+001
  0.251394119620393E+000  0.321872113885310E+002 -0.107149669375134E+002 -0.175314589421076E+002 -0.574309566319760E+001  0.205096794596858E+001  0.842962699446231E+001
  0.251394119620393E+000  0.320635683489733E+002 -0.207278066078878E+001 -0.102981312065193E+002 -0.143112709221777E+002 -0.121273299264109E+002 -0.797663080659184E+001
  0.251394119620393E+000  0.320504208624751E+002 -0.107654800513937E+002 -0.927732014136792E+001 -0.519306693254858E+001 -0.102415357543255E+002  0.151395565370160E+001
  0.251394119620393E+000  0.287578358737826E+002 -0.851309442485902E+001 -0.116622104889544E+002 -0.594202616826432E+001 -0.389478475216588E+001  0.863007370157701E+001
  0.251394119620393E+000  0.287873238979918E+002 -0.903157542017368E+001 -0.370073214566166E+001  0.530773354519565E+001 -0.773845134864608E+000 -0.532097414098266E+001
  0.251394119620393E+000  0.316209799326641E+002  0.174273114790438E+001  0.708502660319104E+001  0.262381948521598E+001  0.599799346869428E+001 -0.666283124128802E+001
  0.251394119620393E+000  0.288601198902343E+002 -0.963801380934909E+001 -0.166898710074208E+002 -0.824391648819097E+001 -0.436337264353666E+001 -0.123808267811994E+001
  0.251394119620393E+000  0.315309376460388E+002  0.126709636938395E+001 -0.508863491533652E+001 -0.111650387577486E+002  0.194009074930234E+001  0.165858196547601E+002
  0.251394119620393E+000  0.288726368236113E+002  0.976473819336355E+001 -0.425742121286246E+001 -0.133966895840241E+001  0.793997896814215E+000  0.597192929608987E+001
  0.251394119620393E+000  0.313441000862081E+002  0.734502977851861E+001 -0.155713684239340E+002  0.175165491416954E+002 -0.259503329627506E+001 -0.844732272960961E+001
  0.251394119620393E+000  0.313408060123838E+002 -0.512615496133349E+001 -0.862037712851314E+001 -0.130855372266985E+002 -0.945604482313989E+001 -0.146704954522334E+001
  0.251394119620393E+000  0.288778110136020E+002  0.287030270730120E+001  0.920561740491473E+001 -0.399041286551554E+001  0.130644778271301E+002 -0.343550493477910E+001
  0.251394119620393E+000  0.310710025660585E+002 -0.101101141568200E+002 -0.138557876241141E+002 -0.202558565548228E+002 -0.250268802691876E+001  0.110868568835103E+002
  0.251394119620393E+000  0.309472374368411E+002 -0.199376389635643E+001  0.153239587212870E+002 -0.843479736489623E+000  0.399090597179142E+001 -0.208808682646963E+001
  0.251394119620393E+000  0.309387751079637E+002  0.700961049594805E+001 -0.678148550393096E+001  0.543228686055514E+001 -0.375402856645043E+001 -0.136910555535981E+002
  0.251394119620393E+000  0.309211458343356E+002 -0.118766180356220E+002 -0.130359156279469E+002 -0.435386872404212E+001 -0.433311479121091E+001  0.813535020430713E+001
  0.251394119620393E+000  0.307751815371467E+002 -0.452084942831673E+001 -0.767607396004692E+000 -0.486291102234703E+001  0.172357576342704E+001 -0.183299409036756E+000
  0.251394119620393E+000  0.307420632516072E+002 -0.103547105664925E+002 -0.176731016852878E+002 -0.163694023598471E+002 -0.757164194251229E+001 -0.467934668213013E+001
  0.251394119620393E+000  0.305810892764146E+002  0.122809688037601E+002 -0.494369624797776E+001  0.233413059599707E+001 -0.525565958824081E+001 -0.599007610106811E+001
  0.251394119620393E+000  0.304918968063431E+002 -0.304176007066322E+001 -0.858096956655284E+001  0.254456050715798E+001  0.336179608430679E+001  0.641618323371817E+001
  0.251394119620393E+000  0.303684035141906E+002 -0.482601915507047E+001 -0.134569351265756E+002 -0.116496536297793E+002 -0.594304463392444E+001  0.174404514579195E+001
  0.251394119620393E+000  0.303097930892798E+002  0.674911850456894E+000 -0.718034984751794E+001 -0.170795931315029E+002 -0.257270564504826E+001  0.963270112323935E+001
  0.251394119620393E+000  0.302279706150939E+002  0.816829583677416E+001  0.297820347219091E+001  0.373545005049312E+001 -0.313718796318661E-001  0.375672603652741E+001
  0.251394119620393E+000  0.302070520353750E+002  0.493548838047392E+000 -0.113045293690824E+002 -0.184859332477273E+002  0.158116316537831E+001  0.831335462732720E+001
  0.251394119620393E+000  0.301873807771362E+002 -0.800074790551825E+000 -0.535646748791714E+001 -0.501905844098490E+001  0.330227927917400E+001  0.173550121166847E+002
  0.251394119620393E+000  0.288852280651954E+002  0.102698112428336E+002 -0.137692031271800E+002  0.473010790340029E+001 -0.271781728718438E+001  0.253575516953144E+001
  0.251394119620393E+000  0.301416797017468E+002  0.321365123701414E+001  0.115363383160126E+002 -0.135436074999159E+001  0.132350265641324E+002 -0.200595731517653E+001
  0.251394119620393E+000  0.300793028205657E+002  0.311573092472596E+000  0.831533429481630E+001  0.134586149011085E+000  0.779960964143655E+001 -0.613286983494145E+001
  0.251394119620393E+000  0.300047895992714E+002  0.558311721224964E+001 -0.111016093036208E+002 -0.101511608422346E+002 -0.177114715110292E+001  0.418639669254688E-001
  0.251394119620393E+000  0.289561261876705E+002  0.133135447570605E+002 -0.163471040249112E+002  0.124119466989704E+002 -0.669701087358688E+001  0.449055963220665E+001
  0.251394119620393E+000  0.299781514770196E+002 -0.241941075402108E+001  0.755724999803388E+001 -0.844876545530216E+000  0.823573342024810E+001 -0.104042354297961E+002
  0.251394119620393E+000  0.299755082065749E+002  0.385254049817467E+001  0.245216241353008E+001  0.254567371232958E+001 -0.150657384531466E+002 -0.898789535103099E+001
  0.251394119620393E+000  0.299628787826700E+002 -0.829867234019878E+001 -0.536199952923520E+001 -0.124215437802078E+002 -0.104122977006939E+002  0.630834600259406E+001
  0.251394119620393E+000  0.290571834002886E+002 -0.541235815713744E+001 -0.798491509027249E+001  0.182024500542716E+001 -0.609809701020581E+000 -0.458175572106004E+000
  0.251394119620393E+000  0.297975748629179E+002 -0.810965538424281E+001 -0.194806659783195E+002 -0.153353095188337E+002 -0.213768976111072E+001  0.121137136654777E+001
  0.251394119620393E+000  0.297423524128964E+002  0.151242108921566E+001 -0.122606675546873E+002  0.124654439487968E+002 -0.406818528702605E+000 -0.138247181091555E+002
  0.251394119620393E+000  0.296979947355878E+002  0.340863956345466E+000 -0.121823333367741E+002 -0.519231127829283E+001 -0.748055882500207E+001 -0.778299289313034E+001
  0.251394119620393E+000  0.296711178577050E+002  0.378960831613323E+001  0.132731896955752E+001  0.671168053830045E+001 -0.312369725714214E+001 -0.917168936644089E+000
  0.251394119620393E+000  0.295710099331561E+002  0.584300534109711E+001 -0.170629039290994E+002  0.124549261763751E+002 -0.400418603844361E+001  0.723786792801530E+000
  0.251394119620393E+000  0.295486949320165E+002 -0.649225811775272E+001  0.287085425994960E+001  0.639276483507857E+001  0.426109104018785E+001  0.119324759345168E+001
  0.251394119620393E+000  0.295475595740079E+002  0.909692748126173E+001 -0.204310005207078E+001  0.508821990782141E+001 -0.970635026852877E+001 -0.115827081895078E+002
  0.251394119620393E+000  0.294833260550933E+002  0.144629635069597E+001 -0.455665172618960E+001 -0.403571120997474E+001  0.898346379384382E+001  0.112099422372068E+002
  0.251394119620393E+000  0.294414757321998E+002  0.100072592731114E+002 -0.817663091725813E+001 -0.217972276969065E+001  0.374961403836384E+000  0.861262353728014E+001
  0.251394119620393E+000  0.294142979609426E+002 -0.403080524347194E+001 -0.221598433102947E+001 -0.785018628792899E+001 -0.287732230492501E+001  0.159312888395304E+002
  0.251394119620393E+000  0.293865394570370E+002 -0.751701168189369E+001 -0.359179602267436E+001  0.194114186580142E+001  0.817587656622004E+001  0.585548002641771E+001
  0.251394119620393E+000  0.293582750375343E+002 -0.787613995580969E+000 -0.100684249674486E+002 -0.146360090712749E+002 -0.292334778552460E+001  0.705075427945471E+001
  0.251394119620393E+000  0.293581799141142E+002  0.104921484801084E+001 -0.141682506469734E+002 -0.843821015827189E+001  0.177182386956698E+001 -0.149043726745219E-001
  0.251394119620393E+000  0.293406950607490E+002 -0.107440027673713E+002 -0.134809429718900E+002 -0.186602362679547E+002 -0.744125270499596E+001  0.245324797743483E+001
  0.251394119620393E+000  0.293380511639728E+002  0.489802211766815E+000  0.792518767928723E+000 -0.382033317597916E+000 -0.281427271779691E+001 -0.269077512339878E+001
  0.251394119620393E+000  0.293157822479998E+002  0.236205188825167E+000  0.814337721755149E+001 -0.218429881177650E+001  0.422558178879490E+001 -0.112284952400031E+002
  0.251394119620393E+000  0.292613119107565E+002 -0.105632076078619E+001 -0.612009979719705E+001  0.122158699319891E+001 -0.551424152392965E+001  0.498525203511048E+001
  0.251394119620393E+000  0.292361354085928E+002 -0.563701490678759E+001 -0.344353666187407E+001 -0.520513004742370E+001  0.268631018464433E+000 -0.665594351692339E+001
  0.251394119620393E+000  0.290684449321778E+002 -0.557826141574780E+001 -0.103649681451023E+002 -0.164883407774641E+002 -0.348050701964386E+001  0.567507615701508E+001
  0.251394119620393E+000  0.290710496639420E+002  0.518531638766158E+001 -0.181576270859755E+002  0.123807174095967E+002  0.140208683642918E+001 -0.278216747852832E+001
  0.251394119620393E+000  0.291458025487941E+002 -0.631909011876371E+001 -0.165536119159700E+002 -0.223558267159898E+002 -0.364904721484741E+001  0.966363954658046E+000
  0.251394119620393E+000  0.286191926189844E+002 -0.837046746374207E+001 -0.194609313173107E+002 -0.170522568216865E+002 -0.470641284320887E+001 -0.285577821057731E+001
  0.251394119620393E+000  0.285915534455027E+002  0.117354250764596E+001  0.568658029814878E+001 -0.137639858343083E+001  0.750179326724757E+001 -0.947911016113743E+001
  0.251394119620393E+000  0.285827178560850E+002 -0.837243065083079E+000  0.357785229915917E+001 -0.461982530992403E+001  0.176419853635642E+001 -0.996846892797640E+001
  0.251394119620393E+000  0.285714028916367E+002  0.598466045093999E+001 -0.605804275634609E+001 -0.780549097205412E+000 -0.431789443336649E+001 -0.344112309215603E+001
  0.251394119620393E+000  0.285605213246495E+002 -0.232644961516188E+001 -0.241058548586349E+001 -0.368182411301651E+001  0.428342297375929E+001  0.778754854370568E+000
  0.251394119620393E+000  0.285298074033331E+002  0.827115430625763E+001 -0.103181822138434E+002 -0.106854442002543E+001 -0.652714833661166E+001 -0.269898005334467E+001
  0.251394119620393E+000  0.285090439260954E+002 -0.348305713782163E+001 -0.584559008168776E+001 -0.771982986729023E+001 -0.118591684726773E+002 -0.895364961817478E+000
  0.251394119620393E+000  0.284777108479606E+002 -0.243944180081576E+001 -0.880924111634972E+001 -0.271421373773731E+001 -0.437704594895328E+001 -0.651097554216632E+001
  0.251394119620393E+000  0.284349966709885E+002  0.106825567616375E+002 -0.148310593379449E+002  0.140749283249290E+002 -0.840874454177478E+001  0.504063682863825E+001
  0.251394119620393E+000  0.284347844317375E+002  0.530792254921976E+001 -0.112281284940297E+002  0.130018023142915E+002 -0.831417734696697E+001 -0.740196487538206E+000
  0.251394119620393E+000  0.283584317850743E+002  0.106804109171769E+001 -0.847831934035208E+001 -0.155154108594954E+002 -0.222530634985407E+001  0.768441874182238E+001
  0.251394119620393E+000  0.283578663479679E+002  0.760870321223344E+001 -0.133307770192790E+002  0.151430498515175E+002 -0.464290449238738E+001 -0.834851633357578E+001
  0.251394119620393E+000  0.283556875395651E+002 -0.136005821699027E+001 -0.242391241015704E+001 -0.203949718873407E+001  0.660483095743428E+001  0.807065273843819E+001
  0.251394119620393E+000  0.282940873519499E+002 -0.618257988212015E+001 -0.121745935749970E+002 -0.997006667888758E+001 -0.104724074327592E+002 -0.436803101259325E+001
  0.251394119620393E+000  0.282761058088443E+002 -0.863486628244189E+000 -0.911048561285057E+001 -0.564713833578423E+001 -0.492053582243248E+001 -0.141722859879845E+001
  0.251394119620393E+000  0.282283675667642E+002  0.982526783787983E+001 -0.126571751300609E+002  0.132754471384141E+002 -0.110309220099216E+001 -0.662852682997509E+001
  0.251394119620393E+000  0.282201567573781E+002  0.783681461984015E+001 -0.115265278205733E+002  0.594796778648039E+001 -0.688801017512109E+001 -0.251370167032725E+001
  0.251394119620393E+000  0.281930203093623E+002  0.118867418305828E+002 -0.124073157908438E+002  0.501775693379471E+001 -0.598771106515704E+001  0.113971536460751E+001
  0.251394119620393E+000  0.281298441318383E+002  0.101975140189142E+002 -0.476299290634903E+001  0.696506041018224E+001 -0.782225351569815E+001 -0.328582453006715E+001
  0.251394119620393E+000  0.281254621245576E+002  0.102243149573402E+002 -0.165236000024177E+002  0.120963152701876E+002 -0.223550008598471E+001  0.339690654800856E+001
  0.251394119620393E+000  0.281232317292234E+002  0.240155249106874E+001 -0.116574316823706E+002 -0.163743937479074E+002  0.317568103217987E+000  0.343562023435732E+001
  0.251394119620393E+000  0.281108155903542E+002  0.185037411692529E+001  0.112852951995712E+001 -0.587461633684961E+001  0.107335775290041E+002 -0.208157630796251E+000
  0.251394119620393E+000  0.280934204284859E+002  0.157181654675901E+002 -0.508326127112814E+001  0.785186736194859E+001 -0.113849591652872E+002  0.136529207612280E+001
  0.251394119620393E+000  0.264601915505680E+002  0.116187918860678E+002  0.292997032791462E+001  0.515694346278233E+001 -0.101073552769303E+002 -0.202415056625029E+001
  0.251394119620393E+000  0.280571158897606E+002  0.914188245673729E+001 -0.126555639550697E+002 -0.301038528699402E+001 -0.483885774375808E+001  0.555155097092214E+000
  0.251394119620393E+000  0.280428807388677E+002  0.495737502279001E+001  0.379678553971984E+001  0.135807176328646E+001 -0.104216918973230E+002 -0.840555134197987E+001
  0.251394119620393E+000  0.280305772438218E+002  0.642431245924658E+001 -0.562683951959973E+001  0.582522902729606E+001 -0.104941595330208E+002 -0.709994522542936E+001
  0.251394119620393E+000  0.279556101930729E+002 -0.699605677858631E+000 -0.135972717671244E+002  0.112457757204395E+002  0.174640519403155E+001 -0.768118249269952E+001
  0.251394119620393E+000  0.264788166314584E+002 -0.327399301182804E+001  0.447855762863498E+001  0.359686193349035E+000 -0.933776370923390E+000 -0.993506793097932E+001
  0.251394119620393E+000  0.278811887560518E+002  0.116007264346970E+002 -0.102199892058236E+002  0.168661947600468E+002 -0.899440216848641E+001 -0.196900623803798E+001
  0.251394119620393E+000  0.278544697026521E+002  0.156250699770623E+001  0.986674502563196E+001 -0.168146783039204E+001  0.761094577397383E+001 -0.956084926455827E+001
  0.251394119620393E+000  0.278494914813718E+002  0.112674912006961E+002 -0.173398974090293E+001  0.574788638832960E+001 -0.141742957476925E+002  0.520715629870103E+001
  0.251394119620393E+000  0.278276682248439E+002  0.122096362173171E+002 -0.827488425843299E+001  0.368743940166814E+001 -0.540393127638008E+001 -0.483185647530751E+001
  0.251394119620393E+000  0.278210160941282E+002  0.102394155557062E+002 -0.135376365377764E+002  0.772665425140065E+001 -0.121051283977266E+001  0.700008975509402E+000
  0.251394119620393E+000  0.278096220362438E+002 -0.116244713675376E+001 -0.102875315652879E+002 -0.190169236818071E+002 -0.333867689670786E+001  0.555754446068595E+001
  0.251394119620393E+000  0.278058754802761E+002  0.284565655088386E+000 -0.190708393205252E+000 -0.637995429473172E+001  0.446327838236961E+001 -0.189488997060183E+001
  0.251394119620393E+000  0.277770621857062E+002 -0.358295381310744E+001  0.190440016030692E+000  0.222181662294487E+001 -0.408867937735850E+001 -0.746374153806617E+001
  0.251394119620393E+000  0.277620883552384E+002  0.733575446253204E+001 -0.652619875335280E+001  0.131305200133374E+002 -0.102658074908682E+002 -0.712620325792626E+001
  0.251394119620393E+000  0.277595999915929E+002  0.857226612095434E+001 -0.169975042168619E+002  0.136197368127353E+002 -0.387735735974833E+001  0.322457258253660E+000
  0.251394119620393E+000  0.277529626979447E+002  0.103707992138913E+001 -0.919505079248275E+001 -0.344019813303358E+001 -0.432944508079214E+001  0.155647315048918E+001
  0.251394119620393E+000  0.277235841417957E+002 -0.255384081613900E+001 -0.431540846273501E+001  0.142514388261408E+001 -0.485914538731340E+001  0.733942795562081E+001
  0.251394119620393E+000  0.276997630588904E+002 -0.979226534083513E+001 -0.724925513170876E+001 -0.812462303167358E+001 -0.905384685770071E+001  0.781639194428138E+001
  0.251394119620393E+000  0.276671898178388E+002  0.513116522924670E+001 -0.443627275028816E+001 -0.254334547776016E+001  0.540231881306614E+001  0.102242629550310E+002
  0.251394119620393E+000  0.276648676798566E+002 -0.118246078101849E+002 -0.114999827878798E+002 -0.113311859164561E+002 -0.576692703305330E+001  0.694256371740513E+001
  0.251394119620393E+000  0.276622257087956E+002  0.442622245410039E+001  0.538497375807790E+001  0.465590080808821E+001  0.417736755858553E+001 -0.561481544696927E+001
  0.251394119620393E+000  0.276604539863559E+002 -0.104128358381270E+002 -0.944629677435098E+001 -0.768896414140542E+001 -0.864042630888151E+001  0.597740486926618E+001
  0.251394119620393E+000  0.276552751128260E+002 -0.196076977678492E+001  0.817820373305491E+001 -0.466854208204975E+001  0.771943777437768E+001  0.773968582608177E+000
  0.251394119620393E+000  0.276359105018170E+002  0.160641426540909E+000 -0.618802391948376E+001 -0.745265488429438E+001  0.130741892697830E+001  0.116690361190583E+002
  0.251394119620393E+000  0.276354681555236E+002  0.112685139547678E+002 -0.119849831722089E+002  0.136801429700943E+002 -0.111721436226247E+002  0.342859390240094E+001
  0.251394119620393E+000  0.276284059020377E+002 -0.901814608831011E+001 -0.184836237963644E+002 -0.139861083580167E+002 -0.341886638773649E+001 -0.164087406302686E+001
  0.251394119620393E+000  0.275961291510450E+002  0.781485819452449E+000 -0.570390853374776E+001  0.608775674801343E+000 -0.136087687601075E+001  0.909698608689821E+001
  0.251394119620393E+000  0.275789158990411E+002  0.433245117264506E+001 -0.931432669022673E+001  0.203791153844843E+001 -0.408412382472041E+001 -0.507047653668270E+001
  0.251394119620393E+000  0.275250974027511E+002  0.446333115904440E+001 -0.102277434691676E+002 -0.126657279528988E+002  0.496540466106527E+000  0.323568925994450E+001
  0.251394119620393E+000  0.274839048515999E+002  0.433841978512489E+001 -0.536272965728433E+001 -0.738434549116075E+001  0.841261041661813E+000  0.901983363095917E+001
  0.251394119620393E+000  0.274605734082392E+002  0.100671039625303E+001 -0.105109311532429E+002 -0.144624082289325E+002  0.513499619221818E+000  0.523302219910643E+001
  0.251394119620393E+000  0.274574362067914E+002  0.286802554566916E+001 -0.489651845074151E+001 -0.336548157405007E+001 -0.651927178688087E+001 -0.450927863178212E+000
  0.251394119620393E+000  0.274328725781117E+002 -0.171139504579627E+001 -0.176293553967835E+002 -0.153025108500094E+002  0.677693469639713E+000  0.759862721620337E-001
  0.251394119620393E+000  0.274138419557505E+002  0.760581432154055E+000  0.915986580014621E+001 -0.294258666849980E+001  0.112558331008639E+002 -0.469159706323457E+001
  0.251394119620393E+000  0.274019451365433E+002 -0.831363049900064E+001 -0.857204395844777E+001 -0.285713465616805E+001 -0.191066732373298E+001  0.128236088837528E+002
  0.251394119620393E+000  0.273927031028755E+002 -0.979694404565935E+001 -0.809277217973502E+000  0.548300132617053E+001  0.140498271434083E+001 -0.312223045693104E+001
  0.251394119620393E+000  0.273803270299225E+002  0.160630149650489E+001 -0.628234895479986E+001 -0.995115163826427E+001 -0.211853310638522E+001  0.535844088727431E+001
  0.251394119620393E+000  0.273619932060988E+002  0.989520398948402E+001 -0.666709191087687E+001  0.301718841661253E+001 -0.404297042134280E+001  0.321612872328680E+001
  0.251394119620393E+000  0.273393008209136E+002 -0.150978089826541E+001 -0.315623257895985E+001 -0.328503824544856E+001  0.703029799421918E+001  0.553103438836654E+001
  0.251394119620393E+000  0.273337581295652E+002  0.507136536093526E+001 -0.606260563790864E+001  0.765445605993519E+001 -0.642181510345182E+001 -0.151789497448329E+001
  0.251394119620393E+000  0.273157739709732E+002  0.198913305663449E+000 -0.661813795820159E+001 -0.744088870579924E+001  0.553041633298289E+000 -0.154992805807066E+001
  0.251394119620393E+000  0.272832096452633E+002  0.120373473077063E+000 -0.747939679446342E+001 -0.966250814195703E+000 -0.679903017944798E+001 -0.597701900435148E+000
  0.251394119620393E+000  0.272827383519234E+002  0.627545536415870E+001 -0.541947262117100E+001 -0.111262039020330E+001  0.434768090994841E+001  0.103345859605791E+002
  0.251394119620393E+000  0.272800489834119E+002 -0.136503340104186E+001 -0.495994775093994E+001 -0.814712257170701E+000  0.126229906494941E+001  0.330555997648111E+001
  0.251394119620393E+000  0.272754881943689E+002  0.738192170079247E+001 -0.390046361154667E+001  0.590218996778036E+001 -0.619968385615660E+001 -0.105901933718068E+002
  0.251394119620393E+000  0.272566218265317E+002  0.381788476863292E+001  0.747919162769996E+001  0.433206151124131E+001  0.477372233531423E+001 -0.996785104443435E+001
  0.251394119620393E+000  0.272359130368001E+002 -0.441773144273398E+000 -0.100065392065982E+002 -0.768646551084069E+001  0.186170340170744E+001  0.731653807646521E+001
  0.251394119620393E+000  0.272194902419560E+002  0.133014101021940E+002  0.423405328837529E+001  0.967987348510116E+001  0.110651863565964E+001 -0.190349107294795E+001
  0.251394119620393E+000  0.271760232012098E+002  0.400448921306489E+001 -0.939166286634951E+000  0.230026528489434E+001 -0.198924187538958E+001 -0.944984916387551E+000
  0.251394119620393E+000  0.271707865316406E+002 -0.364488460775285E+001 -0.100672036823815E+002 -0.164089158949008E+002 -0.194504593191112E+001  0.103160937641548E+002
  0.251394119620393E+000  0.271622528436496E+002 -0.967287119673707E+001 -0.146369329026215E+002 -0.158568593236376E+002 -0.802887526537393E+001 -0.868939988919063E+000
  0.251394119620393E+000  0.271348941085133E+002 -0.464444599809365E+001 -0.560041516576155E+001 -0.111995057993044E+001 -0.125439085171728E+001 -0.254697821450630E+001
  0.251394119620393E+000  0.271341846871339E+002  0.201539778957183E+001 -0.122815650955230E+002 -0.847892399450082E+001  0.257201406279027E+001  0.336327605040288E+001
  0.251394119620393E+000  0.271322458387319E+002 -0.775380153198505E+000 -0.501432099349739E+001 -0.128243954711789E+002 -0.674444439821976E+001  0.431144895763523E+001
  0.251394119620393E+000  0.270600003717325E+002  0.124845348791195E+002 -0.129598690927357E+002  0.131118078061759E+002 -0.102183014650869E+002  0.115619456507678E+001
  0.251394119620393E+000  0.270521879705771E+002  0.777580872154404E+001 -0.735802652410447E+001  0.893792482316557E+001 -0.112087930603834E+002 -0.589498040214483E+000
  0.251394119620393E+000  0.269977452858409E+002  0.130716558329937E+002 -0.900996774803588E+001  0.138360508068174E+002 -0.733352084802551E+001 -0.741587359977079E+001
  0.251394119620393E+000  0.269861243837988E+002  0.580185131198542E+001 -0.825958815853281E+001  0.135489097724362E+002 -0.522508652349478E+001 -0.107816054494316E+002
  0.251394119620393E+000  0.269823460154630E+002  0.133523806900442E-001  0.762111343621526E+001  0.244679581581291E+001  0.386338786579559E+001 -0.113788954510215E+002
  0.251394119620393E+000  0.269771707153452E+002  0.517117777720483E+001 -0.445568291013390E+001 -0.690365933043371E+001 -0.613986944408836E+000  0.796927203828007E+001
  0.251394119620393E+000  0.269681953635782E+002 -0.167133122783483E+001 -0.792542456716409E+001  0.192895574395714E+001 -0.599951318739396E+001 -0.549226031410771E+001
  0.251394119620393E+000  0.269424367387138E+002  0.462200593613199E+001 -0.150712409480448E+002  0.821877484794761E+001 -0.170626654867258E+001  0.806941973533128E+000
  0.251394119620393E+000  0.269350872997040E+002  0.338708898004687E+001  0.107436010427704E+002 -0.435479701674169E+001  0.792716711566387E+001 -0.304227619067051E+001
  0.251394119620393E+000  0.269143112745075E+002 -0.201924950362849E+001 -0.580232858651318E+001 -0.126030543477952E+002 -0.611377981643273E+001  0.487599341845592E+001
  0.251394119620393E+000  0.268997617145592E+002  0.745557648603920E+001 -0.798493415734282E+001 -0.198156050773285E+001 -0.146170766597698E+001  0.154984024599024E+001
  0.251394119620393E+000  0.268942433997538E+002  0.107494980607066E+002 -0.114752378754438E+002  0.110659657811560E+002 -0.105080553888529E+002  0.433611895359200E+001
  0.251394119620393E+000  0.268910353506686E+002 -0.418632624492437E+001 -0.741139182279871E+001 -0.875511704564255E+001 -0.817238299851293E+001  0.915352205636022E+000
  0.251394119620393E+000  0.268839756953305E+002 -0.815395567082497E+001 -0.138692221118021E+002 -0.711121758674958E+001  0.108608476804897E+001  0.103755592443437E+002
  0.251394119620393E+000  0.268813474801883E+002  0.407628805846441E+001 -0.814279034731666E+001 -0.895493978578969E+000  0.231557419584554E+000  0.587538188116474E+001
  0.251394119620393E+000  0.268645535868234E+002  0.100536359911503E+002 -0.117367203576197E+002  0.106275501813243E+002 -0.368655235423707E+001 -0.776074808341742E+001
  0.251394119620393E+000  0.268579676045407E+002 -0.279081082304530E+001 -0.184313269642939E+000  0.277881559265251E+001 -0.324297459715481E+001 -0.629216034835436E+001
  0.251394119620393E+000  0.268542079135685E+002 -0.187732115526124E+001 -0.162278614256247E+002 -0.122014783817300E+002 -0.303301924257024E+001 -0.260720022466128E+001
  0.251394119620393E+000  0.268388199378249E+002  0.848633307784043E+001 -0.156436774654505E+002  0.130355500849861E+002 -0.566535819838733E+001  0.771239592979107E+000
  0.251394119620393E+000  0.268379569399456E+002  0.201581187770055E+001 -0.734022050899508E+001  0.230418554029275E+001 -0.832325210868550E+001 -0.679195790956858E+001
  0.251394119620393E+000  0.264953583830539E+002 -0.461652151671451E+001  0.118709601514043E+002  0.711643793083606E+000  0.175392888747250E+001 -0.670312886321352E+001
  0.251394119620393E+000  0.268050980941559E+002  0.424403278612390E+001 -0.136588479964532E+002  0.102082721036131E+002 -0.492041577003640E+001 -0.293768438378304E+001
  0.251394119620393E+000  0.267980896933727E+002  0.170320965894632E+000 -0.121493860350805E+002  0.962053327945210E+001 -0.129668824828292E+001 -0.533066995705165E+001
  0.251394119620393E+000  0.267968158020242E+002 -0.383479459561222E+001 -0.644680302266153E+000 -0.790298652372618E+001  0.608360694025492E+001  0.150272383896879E+001
  0.251394119620393E+000  0.267754040111755E+002  0.452902545292840E+001 -0.109710994609163E+002  0.356760976017666E+001 -0.158619356682498E+001 -0.183308947622701E+001
  0.251394119620393E+000  0.267525479697269E+002  0.127289675779638E+001 -0.123573223737714E+002 -0.387344826118742E+000 -0.103567521964147E+001  0.206971208990144E+001
  0.251394119620393E+000  0.267492763888865E+002 -0.226448573129938E+001 -0.593676972244112E+001 -0.393374043318808E+000 -0.406093613487435E+001  0.564602601589285E+001
  0.251394119620393E+000  0.267340098976321E+002  0.338211265386147E+001  0.379070712925628E+001 -0.563616147222245E+001  0.127564438855162E+002 -0.554107859679500E+001
  0.251394119620393E+000  0.267325547886595E+002  0.162471577891365E+002 -0.132754002083827E+002  0.134533554859544E+002 -0.719803162706178E+001  0.142452068035053E+001
  0.251394119620393E+000  0.267165463553983E+002  0.757545084670912E+001 -0.934930112489291E+001  0.123338171685934E+002 -0.103006223843065E+002 -0.144180291355180E+001
  0.251394119620393E+000  0.267026055084029E+002 -0.600384023533376E+001 -0.122404237570010E+002 -0.683302288159777E+001  0.279060160475925E+000  0.106465394952779E+002
  0.251394119620393E+000  0.266620718598993E+002 -0.588396960871943E+001  0.103279704646895E+002 -0.687018212232893E-001  0.544435271450883E+000 -0.559006277050148E+001
  0.251394119620393E+000  0.266586306871093E+002  0.786267926195677E+001  0.200574293108256E+001  0.875232057228612E+001 -0.406798909390510E+001 -0.727753871724868E+000
  0.251394119620393E+000  0.266197111817652E+002  0.742038272380637E+001 -0.590063032795252E+001  0.415234334006003E+001 -0.867820616221843E+001 -0.730689522915996E+001
  0.251394119620393E+000  0.266114066958666E+002  0.458125503752088E+001 -0.679098319553065E+001 -0.613579287687266E+001 -0.464036369640601E+001  0.770501281832068E+000
  0.251394119620393E+000  0.265638181773997E+002  0.110924590447485E+002 -0.393209950629681E+001  0.942216748238033E+001 -0.104680186716375E+002 -0.609973228922677E+001
  0.251394119620393E+000  0.265492685863159E+002  0.118232016381860E+002 -0.142884321614467E+002  0.133931202441947E+002 -0.699922337130079E+001  0.462968862226742E+001
  0.251394119620393E+000  0.265056813528571E+002  0.187221017609701E+001 -0.633353541968924E+001 -0.120725306903674E+002 -0.296968718518557E+001  0.494204345764526E+001
  0.251394119620393E+000  0.264538800772960E+002 -0.594705201895439E+001 -0.168248642285927E+002 -0.109157537377453E+002 -0.505747254080319E+001 -0.444628890282566E+001
  0.251394119620393E+000  0.264264130622751E+002 -0.748436750616889E+000  0.357529694291890E+001 -0.358551819620116E+001  0.126220164307028E+002 -0.269826338096831E+001
  0.251394119620393E+000  0.263968487429115E+002  0.301249406074221E+001 -0.707246774478424E+001  0.682086033321656E+001 -0.689809098628279E+001 -0.411513238584438E+001
  0.251394119620393E+000  0.263953716578177E+002  0.343879806728432E+001 -0.992212251666137E+001  0.515590753925383E+001 -0.825193092499056E+000 -0.100127859090080E+002
  0.251394119620393E+000  0.263902538699660E+002 -0.602485346463574E+001 -0.542149104315461E+001 -0.128211654399858E+002 -0.580150573176502E+001  0.119186269532306E+002
  0.251394119620393E+000  0.263758509917644E+002  0.121415360165330E+002 -0.569918254518901E+001  0.915600670909447E+001 -0.729775297537496E+001 -0.687213384075410E+001
  0.251394119620393E+000  0.262901882119798E+002 -0.530980469438724E+001 -0.802067013186797E+001 -0.113498859126108E+001  0.564983381817044E-001 -0.200731705840650E+001
  0.251394119620393E+000  0.262726557768849E+002  0.543477200616216E+000 -0.538136764788010E+000 -0.674215810717125E+001  0.414965576404321E+001 -0.482910144731900E+001
  0.251394119620393E+000  0.262571938803444E+002  0.827029302125110E+001  0.484123820977867E+001  0.342942919604169E+001 -0.188520872671552E+001 -0.494108142940388E+001
  0.251394119620393E+000  0.262123426797673E+002  0.919198306813767E+001 -0.636519009415539E+001  0.539182032169468E+001 -0.433010098094607E+001 -0.697356018231655E+001
  0.251394119620393E+000  0.261892719189041E+002  0.556754132130798E+000 -0.499423157105075E+001 -0.149605561770177E+001 -0.538296207500150E+001  0.292457039680351E+001
  0.251394119620393E+000  0.261648318739525E+002 -0.999615292740746E+000 -0.670740492979899E+001 -0.125355491632456E+002 -0.520117553567088E+001  0.390596315457455E+001
  0.251394119620393E+000  0.261553099377701E+002  0.167097591486513E+002 -0.910845178705145E+000  0.123179093708159E+002 -0.110199739953309E+002  0.576925859114439E+001
  0.251394119620393E+000  0.261302002719798E+002  0.123079270901433E+002 -0.691789463528085E+001  0.116945483889426E+002 -0.124763889495475E+002 -0.501209213158796E+001
  0.251394119620393E+000  0.260782257304932E+002 -0.295174904640520E+001 -0.747114682491011E+001 -0.103309549118262E+001 -0.467058666530543E+001  0.369603258471216E+001
  0.251394119620393E+000  0.260741067569669E+002  0.880930198036285E+000 -0.765345994120377E+001  0.560369690818466E+001  0.549872738343893E+000  0.533789085521525E+001
  0.251394119620393E+000  0.260558285208344E+002  0.144853679278708E+001  0.484511578926839E+001 -0.294042511399669E+001  0.110429662288974E+002 -0.874315319947644E+001
  0.251394119620393E+000  0.260493440137600E+002  0.497435550219819E+001 -0.348681387823351E+001 -0.126686850963854E+001  0.302448718274756E+001  0.527977071665837E+001
  0.251394119620393E+000  0.260475419282613E+002  0.513235716092992E+001  0.248199334266405E+001  0.553542403830886E+001 -0.436012768033775E+001 -0.123032605020363E+001
  0.251394119620393E+000  0.260304245102960E+002 -0.897362875399548E+000  0.752417587236938E+001 -0.258772579501174E+001  0.113006798682611E+002 -0.360920974344906E+001
  0.251394119620393E+000  0.260253615169592E+002  0.179760728769405E+002 -0.882770624824908E+001  0.121693172445922E+002 -0.118483884507322E+002  0.277600681111234E+001
  0.251394119620393E+000  0.260228328871659E+002 -0.342332696442004E+001 -0.808278414569781E+001 -0.323668128963408E+001 -0.567582696707857E+001  0.190554859165933E+001
  0.251394119620393E+000  0.260192905924204E+002  0.617309953679476E+001 -0.756448468616668E+001  0.291659321494724E+001 -0.617016134610236E+001 -0.587986580361698E+001
  0.251394119620393E+000  0.260172219555648E+002  0.259461365442112E+001 -0.157093179217786E+001 -0.386632713928274E+001  0.100054712898853E+001  0.176422404627094E+001
  0.251394119620393E+000  0.260062647572816E+002  0.671345305540321E+001 -0.874592084281908E+001 -0.150464161622034E+001 -0.389013504982680E+001 -0.122303223164358E+001
  0.251394119620393E+000  0.259805050000273E+002  0.145794360475067E+002 -0.483126859721801E+001  0.512834848379379E+001 -0.129240776585048E+002  0.132085630630833E+001
  0.251394119620393E+000  0.259736554153331E+002 -0.170877622645496E+001 -0.116571622650922E+002 -0.118152337093696E+002 -0.290690284540326E+001  0.462237376676461E+001
  0.251394119620393E+000  0.259635960752974E+002  0.405970389365473E+001 -0.805338529672728E+001  0.594863435172000E+001 -0.127676727618451E+001 -0.991865348280941E+001
  0.251394119620393E+000  0.259525308105329E+002  0.133252920359160E+002 -0.546358289228777E+000  0.105418043168122E+002 -0.612643256951409E+001  0.497715042084124E+001
  0.251394119620393E+000  0.259463600519520E+002 -0.127726568250720E+001 -0.442213939861189E+001 -0.943731347131106E+001 -0.366113831181561E+001  0.911617550070024E+001
  0.251394119620393E+000  0.259175628520819E+002 -0.212523501191093E+000 -0.194033407405991E+001  0.756173131690202E+001 -0.607546551171722E+001 -0.546340697363292E+001
  0.251394119620393E+000  0.259084410034165E+002 -0.490471561015819E+001  0.385921980897718E+001 -0.202869656583195E+001 -0.492523010292428E+001 -0.102762650618568E+002
  0.251394119620393E+000  0.258776616661691E+002  0.808790113578023E+001  0.337239525939904E+001  0.515077007818624E+001 -0.705169313223718E+001 -0.713787696921894E+001
  0.251394119620393E+000  0.258749723850819E+002  0.767638692492496E+001 -0.715335367358520E+001  0.258003665736942E+001 -0.660432325846907E+001 -0.887986920519026E-001
  0.251394119620393E+000  0.258365451347739E+002  0.394116557372036E+001  0.505891392408466E+001  0.178153645598062E+000 -0.741566461459222E+000 -0.346426639388753E+001
  0.251394119620393E+000  0.257921846742245E+002  0.124460287862682E+001 -0.239076243752530E+001  0.204790986328796E+000  0.225629143425754E+001  0.181568464379333E+001
  0.251394119620393E+000  0.257785475358223E+002  0.494042727995134E+001 -0.158222215747526E+002  0.108340944868267E+002 -0.101983162298661E+001 -0.252205951125784E+001
  0.251394119620393E+000  0.257709582566171E+002  0.310736574191674E+001 -0.486381987503613E+001 -0.361125529738430E+001 -0.707797839399152E+000  0.813591547925932E+001
  0.251394119620393E+000  0.257630132845999E+002  0.143353447602918E+002 -0.827117149060124E+001  0.644033746181190E+001 -0.965413223417264E+001  0.393830199707950E+001
  0.251394119620393E+000  0.257399497835255E+002  0.122819170253696E+002  0.638093399198553E+000  0.667081680804732E+001 -0.516712967203538E+001  0.343497615831825E+001
  0.251394119620393E+000  0.257378167019078E+002 -0.390879917707964E+001  0.638520331651219E+001 -0.176805253731832E+000  0.915749758434949E+000 -0.107196927039926E+002
  0.251394119620393E+000  0.257066949493084E+002  0.126330817765399E+001 -0.610937868530341E+001 -0.124526115288412E+002 -0.276854042537273E+001  0.861305524353250E+001
  0.251394119620393E+000  0.256996747762393E+002  0.907068291283027E+001 -0.728628067148706E+001 -0.135327854179664E+001 -0.511473443941296E+001 -0.358902375034472E+000
  0.251394119620393E+000  0.256966169476281E+002 -0.447337816212846E+001 -0.584650064890615E+001 -0.407136365607620E+000 -0.281956164197489E+001 -0.576518981810224E+001
  0.251394119620393E+000  0.256942152295127E+002 -0.510024000138567E+001  0.225796051162698E+001 -0.418964315468710E+001 -0.154306161977102E+001 -0.732421392779592E+001
  0.251394119620393E+000  0.256282499219771E+002 -0.274658828006230E+001  0.112433271137743E+002 -0.618976335156070E+000  0.572076407948938E+001 -0.252703055420813E+000
  0.251394119620393E+000  0.256120635337988E+002 -0.123531409729759E+001  0.786530153267704E+001 -0.442252265597245E+001  0.593554455041741E+001  0.471555345036807E+001
  0.251394119620393E+000  0.255958702926143E+002  0.558257145460814E-001  0.793272444675564E+001  0.223301425961631E+001 -0.550392590863837E+000 -0.146730422866823E+002
  0.251394119620393E+000  0.255734656820142E+002  0.391473552046885E+001  0.634511375666096E+001  0.484154057525534E+001 -0.275137766221295E+001 -0.132711897176441E+002
  0.251394119620393E+000  0.255587453541355E+002  0.302973214243628E+001 -0.885740937636868E+000  0.290712705916109E+001 -0.178016683119366E+001  0.172064135032650E+001
  0.251394119620393E+000  0.255168748090121E+002 -0.330377168243504E+001  0.756989103759594E+001 -0.371885178989598E+001  0.545278560492520E+001  0.327539178613768E+001
  0.251394119620393E+000  0.255141110611639E+002  0.120604586827096E+002 -0.563121877478505E+001  0.115504170929388E+002 -0.103989597747556E+002 -0.551808150977843E+001
  0.251394119620393E+000  0.255001593100717E+002  0.225556994040453E+001  0.657501594162967E+001 -0.501374112165282E+001  0.383312342090536E+001 -0.486629192226624E+001
  0.251394119620393E+000  0.254863760783244E+002  0.465684490162099E+001 -0.478577878886392E+001 -0.104533890229217E+001 -0.444619908029233E+001 -0.356839377307375E+001
  0.251394119620393E+000  0.254846247171238E+002  0.162115863048885E+002 -0.961011142595638E+001  0.104340720045644E+002 -0.816752498156472E+001  0.789287668897913E+000
  0.251394119620393E+000  0.254556885630315E+002  0.215189720980359E+000  0.473524916581439E+001 -0.719282617616947E+001  0.166653286221620E+001  0.287251090226450E+001
  0.251394119620393E+000  0.254471244982360E+002 -0.401640721364245E+001  0.118159034541928E+002  0.613654565317962E+000  0.741732381431120E+000 -0.347887513369401E+001
  0.251394119620393E+000  0.254104832098648E+002  0.254968640006631E+000 -0.631200429803637E+001 -0.455202048215490E+000 -0.503952094849172E+001 -0.406104053287824E+001
  0.251394119620393E+000  0.254095750217905E+002  0.907534604422411E+001 -0.110747245206487E+002  0.134313285849784E+002 -0.623220044161593E+001 -0.759411513555852E+001
  0.251394119620393E+000  0.253790654116090E+002  0.144731721645960E+001 -0.705348427702339E+001 -0.662926031229159E+001  0.426192340249065E+001  0.423266686424599E+001
  0.251394119620393E+000  0.253760998111748E+002  0.728259176911944E+001 -0.131869372724704E+002  0.149556602870427E+002 -0.537460205869259E+001 -0.175241955175170E+001
  0.251394119620393E+000  0.253748621787556E+002  0.975130199114913E+001 -0.154645307175881E+002  0.134710542636404E+002 -0.439855527218598E+001 -0.232939463779065E+000
  0.251394119620393E+000  0.253583275870909E+002  0.457201410857596E+001 -0.209639543425858E+001  0.345724620139992E+001 -0.974692879107941E+000  0.397127306899736E+001
  0.251394119620393E+000  0.253547210806165E+002 -0.389780709363725E+001  0.222183705513678E+001 -0.467287077771338E+001  0.316213357294259E+000 -0.174614129226523E+000
  0.251394119620393E+000  0.253493611390169E+002 -0.467879933955107E+000  0.921116452504243E+001 -0.514688043726107E+001  0.226993984405192E+001  0.412991770249340E+001
  0.251394119620393E+000  0.253444432082770E+002 -0.420550697493016E+001 -0.511729954664141E+001 -0.259624745588926E+001  0.603558888548680E+001  0.427681951764126E+001
  0.251394119620393E+000  0.253245922279471E+002 -0.820250639978441E+001 -0.721848023780913E+001 -0.102859384572973E+002 -0.510389646019224E+001  0.119026018085317E+002
  0.251394119620393E+000  0.252977586934828E+002  0.707944007745892E+001 -0.996906008714545E+001  0.631504964858926E+001 -0.805504092799192E+001 -0.112886046194397E+001
  0.251394119620393E+000  0.252938506857488E+002  0.862024015790428E+001 -0.636257538748925E+001  0.238606174385097E+001 -0.824711689375343E+001 -0.209652630811218E+001
  0.251394119620393E+000  0.252814162084595E+002 -0.206989145677123E+001 -0.120987672842538E+002 -0.148714306831803E+002  0.429979635009008E+000  0.657835626393586E+001
  0.251394119620393E+000  0.252765238979112E+002 -0.132107879111195E+001  0.309426474414610E+001 -0.576802720844580E+001  0.742151385782865E+001  0.368192256126240E+001
  0.251394119620393E+000  0.252647009764241E+002  0.139805123933044E+002 -0.592093383322588E+001  0.927572844148101E+001 -0.101931118309993E+002 -0.154352497646213E+001
  0.251394119620393E+000  0.252643733271481E+002 -0.397462745277321E+001  0.374628816074381E+001 -0.194645106395539E+001  0.702846738400751E+000 -0.101768332881697E+002
  0.251394119620393E+000  0.252635478899888E+002  0.126756107859717E+002  0.144716884339091E+001  0.585710728952915E+001 -0.596844058612155E+001  0.562494238018905E+001
  0.251394119620393E+000  0.252617006784146E+002  0.357223907294811E+001  0.480778440392338E+001 -0.603902537631157E+001  0.922097416709048E+001 -0.133936583556128E+000
  0.251394119620393E+000  0.252424485374157E+002  0.166382035700675E+002 -0.876860951659499E+000  0.115144299560809E+002 -0.123186371378234E+002  0.449200508150036E+001
  0.251394119620393E+000  0.252207171823192E+002  0.949136945598433E+001 -0.952855301861964E+001  0.117012764874237E+002 -0.499263324123836E+001 -0.897981129275976E+001
  0.251394119620393E+000  0.252144059560343E+002  0.621090813753419E+001 -0.104012034293127E+002 -0.431327237802273E+001 -0.159486877156398E+001  0.110327153322391E+001
  0.251394119620393E+000  0.251998428963664E+002  0.515599998063610E+000  0.535117574116287E+001 -0.478520680031127E+001  0.278115909606160E+001 -0.651541869104442E+000
  0.251394119620393E+000  0.251774596088956E+002  0.153332072372712E+001 -0.678624127125215E+001 -0.715277632706696E+001 -0.255231795244501E+001  0.732243008952908E+001
  0.251394119620393E+000  0.251709882057817E+002 -0.519908760192483E+001 -0.646286891696902E+001 -0.831037976208354E+001 -0.387991168043348E+001  0.945484146862808E+001
  0.251394119620393E+000  0.251470180021748E+002  0.142371711413093E+002 -0.110285274055444E+002  0.758282636488172E+001 -0.920359167446363E+001  0.440953557858574E+001
  0.251394119620393E+000  0.251392688720898E+002  0.110810005563196E+002 -0.806094064253786E+001  0.100144036312474E+002 -0.581594258718055E+001 -0.398558191847815E+001
  0.251394119620393E+000  0.251231832507756E+002  0.911992940268700E+001 -0.101076932367909E+002  0.813670674435407E+001 -0.242866671994529E+001 -0.678242994766522E+001
  0.251394119620393E+000  0.251171335044310E+002  0.152758699869452E+001  0.106483223009059E+002 -0.184412836732807E+001  0.416664284042129E+001 -0.452272447208364E+001
  0.251394119620393E+000  0.251109805565010E+002  0.259970181971953E+001  0.904835664740204E+000 -0.680617430953060E+001  0.949049163067561E+001 -0.520521900947303E+001
  0.251394119620393E+000  0.250964001478327E+002  0.503112086445930E+001 -0.640560879642003E+001  0.407536385299250E+001 -0.463187050098330E+001 -0.683081645760905E+001
  0.251394119620393E+000  0.250816225592443E+002 -0.608998432761171E+001 -0.898764953730282E+001 -0.246894743075640E+001 -0.383926504034555E+001  0.733963724904211E+001
  0.251394119620393E+000  0.250641789648761E+002  0.583118832514955E+001  0.268422572829902E+001  0.118098703339113E+001 -0.977457495521008E+001 -0.393871881940204E+001
  0.251394119620393E+000  0.250575204399158E+002 -0.117892053787472E+000 -0.113907040441897E+002 -0.379257447751864E+001 -0.274824542454915E+001 -0.194236887429156E+000
  0.251394119620393E+000  0.250253279767041E+002  0.543739814744367E+001 -0.120996533969340E+002  0.142579583414867E+002 -0.410635572020741E+001 -0.752534663115180E+001
  0.251394119620393E+000  0.250127175198412E+002  0.951669087922797E+001  0.541221740755496E+001  0.734206273520122E+001  0.311009297108560E+001 -0.210276883764368E+001
  0.251394119620393E+000  0.250061564610363E+002  0.246770748568636E+001 -0.887871231120645E+001 -0.382227806202096E+000 -0.224791554654032E+001 -0.152481419920727E+001
  0.251394119620393E+000  0.249989928983679E+002 -0.276328063203164E+001  0.285673328197508E+001 -0.760397341556494E+000 -0.611043678645449E+001 -0.920912177102942E+001
  0.251394119620393E+000  0.249741410904037E+002  0.178915010149474E+002 -0.498907113910221E-001  0.114173538527759E+002 -0.612992110077379E+001  0.718765429635027E+001
  0.251394119620393E+000  0.249622696334244E+002  0.413579882262713E+001 -0.382664660417518E+000  0.324985564894653E+001 -0.102281403563126E+002 -0.106643631016898E+001
  0.251394119620393E+000  0.249261194713869E+002  0.270584313442829E+001 -0.606089728241869E+001 -0.854363521178657E+001 -0.145923196124774E+001  0.809177269018618E+001
  0.251394119620393E+000  0.249198486818446E+002 -0.375035667939341E+001  0.939542200932221E+001 -0.268260303293168E+000  0.448474282644861E+001 -0.209990410928422E+001
  0.251394119620393E+000  0.248951295653803E+002 -0.447407109178543E+001 -0.959767236013543E+001 -0.133542782643680E+002 -0.144350541518376E+001  0.906475833077411E+001
  0.251394119620393E+000  0.248708192495136E+002  0.162332536285359E+002  0.109739151336793E+001  0.910787007999614E+001 -0.976492628708165E+001  0.235232950052319E+001
  0.251394119620393E+000  0.248465649130467E+002 -0.419044324526918E+001 -0.781414721130170E+001 -0.126674076205129E+002 -0.729110721047847E+001  0.559510443708444E+001
  0.251394119620393E+000  0.248114961517690E+002  0.379824220724775E+001  0.225408471390539E+001  0.575387393889801E+001 -0.112904275142253E+002 -0.785009735628588E+001
  0.251394119620393E+000  0.247918000102417E+002 -0.611941446871825E+001 -0.612315376414417E+001  0.203849437075367E+001  0.255188238518039E+001  0.676122074911678E+000
  0.251394119620393E+000  0.247717178347210E+002 -0.281523235243558E+001 -0.831020003915592E+001 -0.114071013066368E+002 -0.175771426113656E+000  0.111448424932808E+002
  0.251394119620393E+000  0.247528004179548E+002  0.594310767835701E+001  0.514992427820098E+001  0.770685005117951E+001 -0.490192737158306E+000 -0.684472166617703E+001
  0.251394119620393E+000  0.247513299385720E+002 -0.720817972758088E+000  0.418194377221395E+001 -0.114600041385610E+001 -0.707073486251803E+001 -0.108426025899099E+002
  0.251394119620393E+000  0.247292478939609E+002  0.813057555737245E+000 -0.644836098771651E+001 -0.106998343842752E+002 -0.978659314675173E+000  0.980725554837756E+001
  0.251394119620393E+000  0.246850884792043E+002 -0.495770648837623E+001 -0.818137687449282E+001 -0.686232392410110E+001 -0.143737492585941E+001  0.101007989518661E+002
  0.251394119620393E+000  0.246828775839384E+002 -0.275859779433196E+001  0.416091040003984E+000  0.301494454452149E+001  0.723903509975500E+000  0.820465269237104E+000
  0.251394119620393E+000  0.246682544298191E+002 -0.321065478696361E+001 -0.907401963453518E+001 -0.393175782875499E+001 -0.666572924191044E+001  0.107961214914456E+001
  0.251394119620393E+000  0.246586897140946E+002  0.563287923003912E-001  0.823614686638729E+001 -0.415519596081378E+001  0.911006998092335E+001 -0.259128275257315E+001
  0.251394119620393E+000  0.246423283487178E+002 -0.585059696256324E+001  0.486445346205219E+001 -0.274918768704496E+001  0.352070491226339E+001 -0.331904604742097E+001
  0.251394119620393E+000  0.246420079687036E+002  0.115860937849337E+002  0.387781098812159E+001  0.731201349775050E+001 -0.708618749921515E+001 -0.166323300600894E+001
  0.251394119620393E+000  0.246385917521077E+002  0.124841240005408E+002 -0.669559815436990E+001  0.608827484173806E+001 -0.104935285636750E+002  0.140126542837488E+001
  0.251394119620393E+000  0.246318302078590E+002 -0.185317926299259E+001 -0.744755606848419E+001  0.730523272840340E+000 -0.215977940090769E+001 -0.361156290116780E+001
  0.251394119620393E+000  0.245820778273376E+002  0.860530845583503E+001  0.145381865290157E+001  0.570629325361471E+001 -0.819721927751205E+001 -0.370302180424219E+001
  0.251394119620393E+000  0.245777299124659E+002  0.102226982130142E+001 -0.753284176228388E+001  0.167297292519898E+000  0.502199399253288E+001  0.791450266813860E+001
  0.251394119620393E+000  0.259469318996796E+002 -0.304281593082565E+001  0.668819391691564E+001 -0.307546849742596E+001 -0.117894508219448E+001 -0.702777578810975E+001
  0.251394119620393E+000  0.258253512166472E+002  0.176637915723990E+001  0.966242103705419E+001 -0.494573495624762E+001  0.848631292873519E+001  0.292373239264876E+000
  0.251394119620393E+000  0.256371767733995E+002 -0.167337306268606E+001  0.636617460047797E+001 -0.189810475259743E+001  0.925312303690607E+000 -0.782932295043686E+001
  0.251394119620393E+000  0.256115250986000E+002 -0.132347197010081E+001  0.989635731984329E+000 -0.671791225506556E+001  0.188566082352272E+001 -0.238965623705763E+000
  0.251394119620393E+000  0.255941743601037E+002  0.155903374834636E+001  0.361299689304605E+000 -0.809363802712284E+001  0.889287494247603E+001 -0.302079022090339E+001
  0.251394119620393E+000  0.254609588044559E+002 -0.111944164159389E+001  0.130530954950956E-001 -0.549376223641329E+001  0.723029296206310E+001 -0.173979569556243E+001
  0.251394119620393E+000  0.254444182928671E+002 -0.146465380560782E+001  0.455804531026547E+001 -0.391394061429535E+001  0.207998673703447E+001 -0.837606523791814E+001
  0.251394119620393E+000  0.254205540770047E+002 -0.378575714270847E+001  0.398705667796900E+001 -0.163130322192336E+001  0.251590756183859E+001 -0.959476019856463E+001
  0.251394119620393E+000  0.253566384279469E+002 -0.373419343834971E+000  0.962436960729230E+001 -0.377399960336255E+001  0.208067706232766E+001  0.148663093694872E+001
  0.251394119620393E+000  0.251830607051273E+002 -0.556903953355848E+001  0.520208231882576E+001 -0.333576093593017E+001 -0.193947864818840E+001 -0.414485954906216E+001
  0.251394119620393E+000  0.251217427940967E+002 -0.327663301518169E+001  0.776960191512278E+001 -0.415068705078813E+001 -0.429087937643100E+000 -0.241326951157123E+001
  0.251394119620393E+000  0.250554609999874E+002 -0.109791198523454E+001  0.671032610702877E+001 -0.611617165011287E+001  0.536856133973925E+001  0.129730552800894E+001
  0.251394119620393E+000  0.249245369391410E+002 -0.407216995564863E+001  0.519087686736521E+001 -0.259131718321366E+001  0.611754557126496E+001 -0.502969905560496E+001
  0.251394119620393E+000  0.248196923163202E+002 -0.214548708777587E+001  0.781649739922104E+001 -0.519335195418944E+001  0.338538705192054E+001  0.274149335521335E+001
  0.251394119620393E+000  0.248126335730161E+002  0.432744442509129E+000  0.940728469601044E+001 -0.112987056978019E+001  0.642171899695482E+001 -0.485196218703311E+001
  0.251394119620393E+000  0.247120149063120E+002 -0.361053243778814E+001  0.517140450362201E+001 -0.138617312285481E+001  0.519405663023738E+001 -0.845980907715208E+001
  0.251394119620393E+000  0.246239334580807E+002 -0.494881557214024E+001  0.343607675382360E+001 -0.244929210343257E+001  0.179391980457300E+000 -0.684773891366207E+001
  0.251394119620393E+000  0.246235659007940E+002  0.607448469953699E+000  0.669928059673563E+000 -0.801707350528354E+001  0.702235592756485E+001  0.187196171660535E+001
  0.251394119620393E+000  0.246166523195124E+002 -0.199524098689556E+001 -0.109605159728091E+001 -0.739671435114834E+001  0.764827821432480E+001 -0.170016609861054E+000
  0.251394119620393E+000  0.245834440164038E+002 -0.841840330634401E+000  0.638613407161806E+001 -0.226934603899247E+001  0.281768333869736E+001 -0.571160471882880E+001
  0.251394119620393E+000  0.245177114800118E+002 -0.402113654499130E+001  0.943213823071429E+001 -0.142331464097335E+001  0.970557783862951E+000 -0.532520991816519E+001
  0.251394119620393E+000  0.245128547272486E+002 -0.120197182180665E+001  0.597732765812576E+001 -0.309608359743119E+001  0.671877432285178E+001 -0.757743924535755E+001
  0.251394119620393E+000  0.244975857554698E+002  0.502213118329980E+000  0.219655343120951E+001 -0.594487409947607E+001  0.418517264461439E+001 -0.530179462922677E+001
  0.251394119620393E+000  0.244143111998334E+002 -0.105327413042078E+001  0.661553671380706E+001 -0.384073767521057E+001  0.227918675845257E+001 -0.932292252618900E-001
  0.251394119620393E+000  0.242781135897063E+002  0.104392444709127E+000  0.465399260436106E+001 -0.653113980010828E+001  0.801639389401315E+001  0.353121989076661E+001
  0.251394119620393E+000  0.242623009052242E+002 -0.130867363544912E+001 -0.350633933168325E+000 -0.724903792443469E+001  0.287634960626732E+001 -0.243793699800231E+001
  0.251394119620393E+000  0.241855422130616E+002 -0.488094337819546E+001  0.585236959105779E+001 -0.252158416081768E+001 -0.132494552228098E+001 -0.388445389489473E+001
  0.251394119620393E+000  0.240623008210103E+002 -0.529192433059162E+000  0.675153866057410E+001 -0.454994935675813E+001  0.631419415742343E+001  0.257169900417256E+001
  0.251394119620393E+000  0.240405644076794E+002 -0.171986586123900E+000  0.512675724535012E+001 -0.670045295510051E+001  0.336601680518959E+001  0.268786032750589E+001
  0.251394119620393E+000  0.240235405242401E+002  0.652351860926043E+000  0.828114254646459E+001 -0.403252159323506E+001  0.265318868918229E+001 -0.337905067317348E+001
  0.251394119620393E+000  0.240007876581548E+002  0.177610612008186E+001  0.514631280733670E+001 -0.500381370172553E+001  0.100201488256023E+002 -0.205986357414229E+000
  0.251394119620393E+000  0.239331421455753E+002 -0.266628663543097E+001  0.494066887896489E+001 -0.571432758021633E+001  0.141859778699207E+000 -0.159183564747800E+001
  0.251394119620393E+000  0.238752848010050E+002  0.159804049046114E+001  0.936798307180568E+001 -0.315949241821948E+001  0.901423144953376E+001 -0.324358083694191E+001
  0.251394119620393E+000  0.236862851329643E+002  0.363112463813486E-001  0.412618620868340E+001 -0.385994822273570E+001  0.100223910232423E+002 -0.558652964144584E+001
  0.251394119620393E+000  0.236627462595397E+002 -0.159441171922362E+001  0.871938862706376E+001 -0.190168570789150E+001  0.249896482871324E+001 -0.708391723259870E+001
  0.251394119620393E+000  0.236316528417227E+002  0.266570784267561E+000  0.182241054888068E+001 -0.776535593924051E+001  0.844328925014833E+001  0.688556082708651E+000
  0.251394119620393E+000  0.235208868787784E+002  0.688321101069850E+000  0.313088111845123E+001 -0.449305210057370E+001  0.996502525810549E+001 -0.367817122171817E+001
  0.251394119620393E+000  0.235208240921501E+002 -0.259452256934573E+001  0.458934491264402E+001 -0.624853427875966E+001  0.283089857502041E+001  0.636257000559663E+000
  0.251394119620393E+000  0.234562724467285E+002 -0.128631018596791E+001  0.611119619969496E+001 -0.481895680241572E+001  0.276851734676783E+001 -0.432646955609362E+001
  0.251394119620393E+000  0.234111665376317E+002  0.141379072034417E+001  0.315969256611205E+001 -0.741652090123118E+001  0.880738513953479E+001  0.105845853819268E+001
  0.251394119620393E+000  0.232157807104069E+002 -0.145944581447263E+001 -0.101089098750510E+000 -0.777242401959824E+001  0.486710757351126E+001 -0.831006949913327E+000
  0.251394119620393E+000  0.232124657626742E+002 -0.302157287686350E+001  0.111550714505467E+001 -0.417028463923158E+001  0.507315829510625E+001 -0.635640639590593E+001
  0.251394119620393E+000  0.231177672659302E+002 -0.248986692158982E+001  0.779854691864336E+001 -0.296585799905125E+001  0.627961010455197E+001 -0.108356824399185E+001
  0.251394119620393E+000  0.230858154481819E+002 -0.195803188442055E+001  0.729106831510912E+001 -0.171618417791202E+001  0.714315920759041E+001 -0.572584392632372E+001
  0.251394119620393E+000  0.230824308423651E+002 -0.491897301285831E+001  0.478070418141452E+001 -0.364265834886154E+001  0.134503637048241E+001 -0.188855760850812E+001
  0.251394119620393E+000  0.229726009693973E+002  0.560997295285620E+000  0.671520610896609E+001 -0.293620157554561E+001  0.912382058201287E+001 -0.336572884749667E+001
  0.251394119620393E+000  0.229641269453166E+002 -0.197628789211516E+001  0.326349421676771E+001 -0.561712520093602E+001  0.548064564637614E+001 -0.357481012299178E+001
  0.251394119620393E+000  0.229018113086507E+002 -0.248205916289373E+001  0.125698072482611E+001 -0.540932522666374E+001  0.703926661547295E+001 -0.140026498205446E+001
  0.251394119620393E+000  0.228460723377093E+002 -0.108767378216648E+001  0.375546456872251E+001 -0.446989305227552E+001  0.814793765753156E+001 -0.635768490425569E+000
  0.251394119620393E+000  0.228298449024942E+002 -0.305478030218269E+001  0.600728889414433E+001 -0.181862952985564E+001  0.207788031516348E+001 -0.673809127475096E+001
  0.251394119620393E+000  0.227636708270215E+002 -0.294446017694300E+001  0.479725889487903E+001 -0.207568003284711E+001  0.462617051576608E+001 -0.545806031577990E+001
  0.251394119620393E+000  0.227023813001155E+002 -0.207289040616354E+001  0.251322883671708E+001 -0.609407542607299E+001  0.153550526044543E+001 -0.130080995251788E+001
  0.251394119620393E+000  0.226782961058673E+002 -0.111678270372602E+001  0.213349179524166E+001 -0.461967953294861E+001  0.618527925118807E+001 -0.651172086087289E+001
  0.251394119620393E+000  0.226742347013879E+002 -0.197022854532675E+001  0.823404660044208E+001 -0.406739136048412E+001  0.158373561556889E+001 -0.935859821585066E+000
  0.251394119620393E+000  0.226413715853508E+002 -0.377151377094882E+001  0.307383899686983E+001 -0.473227639369424E+001  0.434680140340305E+000 -0.309662965535530E+001
  0.251394119620393E+000  0.225781503715454E+002 -0.335309509535765E+001  0.391995417839375E+001 -0.559701527333511E+001  0.258095543153387E+001  0.200720350055455E+000
  0.251394119620393E+000  0.225041179137472E+002  0.983668119672771E+000  0.720071570757803E+001 -0.425801498405344E+001  0.556999627295335E+001 -0.408635885023674E+001
  0.251394119620393E+000  0.224946045753498E+002 -0.288131819842752E+001  0.369969387008054E+001 -0.284795520836944E+001  0.577585565183372E+001 -0.598499606797691E+001
  0.251394119620393E+000  0.224883781607623E+002 -0.235602783324502E+001  0.741174632806704E+001 -0.231327721155900E+001  0.566524729025440E+001 -0.508283421091602E+001
  0.251394119620393E+000  0.224825256222672E+002  0.172944780845228E-001  0.112640988631962E+001 -0.682358356423624E+001  0.674289375260901E+001 -0.941821665045534E+000
  0.251394119620393E+000  0.224372487912554E+002 -0.376915285253098E+001  0.650981268100395E+001 -0.220819346470338E+001  0.431075420386724E+001 -0.340393104326991E+001
  0.251394119620393E+000  0.223112852993309E+002 -0.145366103643932E+001  0.678585104560177E+001 -0.372147620511946E+001  0.132950400355911E+001 -0.307841458267455E+001
  0.251394119620393E+000  0.223012285969308E+002 -0.121222216467253E+001  0.671355359628064E+001 -0.443224074052739E+001  0.148100008270715E+001 -0.212790678990634E+001
  0.251394119620393E+000  0.221173053515567E+002 -0.196922334638896E+001  0.506813051503882E+001 -0.413900776697414E+001  0.699557727216263E+001 -0.301274338042995E+001
  0.251394119620393E+000  0.221146735171761E+002 -0.675258090127091E+000  0.449728063824407E+001 -0.352805557000379E+001  0.618675849199852E+001 -0.656135083424940E+001
  0.251394119620393E+000  0.220952346761116E+002  0.190334685803933E+000  0.816842426668016E+001 -0.376003795750395E+001  0.513537738306277E+001 -0.668050449945369E+000
  0.251394119620393E+000  0.219762950948409E+002 -0.123144253822894E+001  0.198484574332606E+001 -0.639106137401303E+001  0.611986524448535E+001  0.263812364218975E+000
  0.251394119620393E+000  0.219739860733580E+002  0.948449442623879E+000  0.349656002331785E+001 -0.654947266900033E+001  0.739737670815014E+001 -0.923408174714591E+000
  0.251394119620393E+000  0.219171343548567E+002  0.561582854382536E+000  0.747353650289205E+001 -0.317088370150157E+001  0.617593704329063E+001 -0.415408295320450E+001
  0.251394119620393E+000  0.218416565166720E+002 -0.239432154912621E+001  0.412434920975580E+001 -0.376289044126757E+001  0.257926791147298E+001 -0.579042390127408E+001
  0.251394119620393E+000  0.218150946065940E+002 -0.157591428834472E+000  0.290042072139019E+001 -0.556772259749060E+001  0.767556317959425E+001 -0.102543001303009E+001
  0.251394119620393E+000  0.216778407583564E+002 -0.355202898325234E+001  0.503294623937223E+001 -0.365824841703526E+001  0.372177433044657E+001 -0.312686286494475E+001
  0.251394119620393E+000  0.216369129575037E+002 -0.112327809415154E+001  0.609037069980253E+001 -0.533463777180370E+001  0.454181714095957E+001  0.569316245508674E+000
  0.251394119620393E+000  0.213928837482349E+002 -0.101058581381279E+001  0.593005017219572E+001 -0.283636022442619E+001  0.570476573250928E+001 -0.465197411664297E+001
  0.251394119620393E+000  0.212563630563003E+002 -0.108914847089018E+001  0.731022340055728E+001 -0.328877660975220E+001  0.601101911995712E+001 -0.349823657099338E+001
  0.251394119620393E+000  0.211819896760203E+002 -0.319578388025125E+001  0.520295659207144E+001 -0.368176246828429E+001  0.229595032718544E+001 -0.304880079138816E+001
  0.251394119620393E+000  0.210883264176236E+002 -0.322525201265833E-002  0.652017145162643E+001 -0.362925051262656E+001  0.612991211719619E+001 -0.345510205009849E+001
  0.251394119620393E+000  0.210749574696824E+002 -0.146242940921443E+001  0.300216984626442E+001 -0.519564616385927E+001  0.594811711368046E+001 -0.152336482190881E+001
