  0.226531150920158E-001  0.404282640445294E+002  0.438252115722912E+001  0.413459519320227E+001  0.496400520590193E+001  0.519332107027087E+001 -0.166165007813390E+002 -0.450998201712158E+001  0.784995213721682E+001
  0.226531150920158E-001  0.476810921357602E+002  0.559027791624714E+001  0.823867497720521E-001 -0.847166165416391E+001  0.495752849662658E+001 -0.166223694507612E+002 -0.113140441912436E+001  0.142711218966987E+002
  0.226531150920158E-001  0.358971629866855E+002 -0.236627708458852E+001  0.107402577496595E+002 -0.141772484878189E+002 -0.487606511574448E+001  0.139655350728288E+002  0.749768222051497E+001 -0.853870623258738E+001
  0.226531150920158E-001  0.479071809594737E+002 -0.106369052164715E+002  0.111220279050845E+002 -0.583217187789565E+001 -0.700519320993745E+001 -0.209744188961846E+001 -0.315503456928749E+001  0.548312445970299E+001
  0.226531150920158E-001  0.404706529826442E+002 -0.148201551962454E+002 -0.932214367378072E+001  0.152401996237479E+002  0.455940471915017E+001 -0.106619924169543E+002 -0.868987889138835E+001  0.213032604614514E+001
  0.226531150920158E-001  0.395653491758499E+002  0.371486069882647E+001 -0.678169456251357E+000  0.323103231558066E+001  0.959275916193045E+001  0.730709044204347E+001 -0.979057308251333E+001  0.927930092130026E+001
  0.226531150920158E-001  0.367418719048716E+002  0.796723400290342E+001  0.135093592444356E+001  0.473101601588762E+001  0.172006192801316E+000 -0.201598294882056E+002 -0.381828177622188E+001  0.795607007156048E+001
  0.226531150920158E-001  0.388355153724395E+002 -0.732460308815929E+001 -0.101742081074736E+002 -0.467686314753522E+000  0.941746440907927E+000 -0.102224677390814E+002  0.526037610563738E+001  0.401332743657710E+001
  0.226531150920158E-001  0.489021869394987E+002 -0.104017011892621E+002 -0.416792026607678E+001  0.131731451028518E+002  0.163578607312601E+002 -0.715479826799396E+001 -0.914734035646210E+001 -0.827677910173639E+001
  0.226531150920158E-001  0.374474130349587E+002 -0.372739307906135E+001 -0.637603182948575E+001  0.570405040393950E+001  0.251451219723394E+001 -0.821267771413584E+001 -0.546409867910673E+001 -0.361872761571146E+001
  0.226531150920158E-001  0.367101929429758E+002 -0.179898941613829E+001  0.786491537041022E+001  0.418306418290812E+001 -0.102357544736916E+001 -0.963784000372985E+001 -0.541820261759714E+001  0.987938989728644E+001
  0.226531150920158E-001  0.394368331812793E+002  0.229629668852954E+000  0.101619806065556E+002 -0.114524597237955E+002  0.313892382298871E+000  0.907338039525099E+001 -0.400039593962493E+001 -0.653047315498094E+001
  0.226531150920158E-001  0.373317439481962E+002  0.383105215241392E+001 -0.120517622204574E+002  0.284788913384915E+001 -0.522202413786250E+001  0.944235516344889E+000 -0.672966559312894E+001  0.955237902240286E+001
  0.226531150920158E-001  0.401742518329285E+002  0.133907084677653E+002 -0.384813646063299E+001  0.702123874910988E+001  0.259691906191994E+001 -0.450402278437496E+001 -0.950508978895290E+001 -0.635725461732140E+001
  0.226531150920158E-001  0.367843961418502E+002 -0.894816903990419E+001  0.147390413743701E+001 -0.132460308626160E+002  0.984681967672305E+001  0.223761213904867E+001 -0.675569999894011E+001 -0.254403773863883E+001
  0.226531150920158E-001  0.366623834210954E+002 -0.377398675488250E+001 -0.413735971591162E+000 -0.385389375795318E+001  0.968786807905218E+001  0.387076096419078E+001  0.966658262059138E+000  0.482538094402725E+001
  0.226531150920158E-001  0.408467898614005E+002 -0.770912693162307E+001  0.450451010358324E+001 -0.171365050752116E+002 -0.540227702931947E+001  0.121835417042962E+002  0.597696852976755E+001 -0.115765327283347E+002
  0.226531150920158E-001  0.396151030787121E+002 -0.290811505842596E+001  0.398207623050157E+001 -0.121374042415167E+002  0.119955588897935E+002  0.236988612265361E+001 -0.571241971847752E+001 -0.242475922159321E+001
  0.226531150920158E-001  0.359586127008067E+002 -0.160947587083538E+001  0.578427371996275E+001 -0.744184492048011E+001  0.130287579613898E+001 -0.161121822484613E+001 -0.382985676829384E+001 -0.614256068581179E+001
  0.226531150920158E-001  0.393375425938124E+002 -0.301802327300238E+001  0.106977193962228E+002 -0.160112661424536E+002 -0.733145876661819E+001  0.145836208167530E+002  0.470508270670055E+001 -0.543734822483190E+001
  0.226531150920158E-001  0.368874161703912E+002 -0.928336532845653E+001 -0.345444476603928E+001  0.446574883871948E+001  0.229857429131979E+001 -0.114650795985567E+002 -0.245341937184666E+001 -0.161304611756678E+001
  0.226531150920158E-001  0.376234470263699E+002  0.220112551207108E+001 -0.116511591915639E+000  0.189374275761056E+001  0.369886985784876E+001  0.540102567782693E+001 -0.101169574634817E+002  0.880560851231997E+001
  0.226531150920158E-001  0.411398085508486E+002  0.147705206322342E+001 -0.989486484250102E+001 -0.378970417133135E+001 -0.920701971992057E+001 -0.101722126681756E+001 -0.353949754009260E+000  0.349341576390553E+001
  0.226531150920158E-001  0.388569403506834E+002 -0.230001516132359E+001 -0.374674192794690E+001 -0.369720443686518E+000  0.347345855667579E+001  0.236824606905135E+001  0.428384010234320E+001  0.911071072187729E+001
  0.226531150920158E-001  0.376318648276169E+002 -0.458156564538097E+001 -0.139315366883950E+002  0.113122670614621E+002  0.319780435917679E+000 -0.992143394341479E+000 -0.857419278529980E+001  0.769545231537344E+001
  0.226531150920158E-001  0.369137829386739E+002 -0.111322092998712E+002 -0.696196373835753E+001  0.161686229335740E+002  0.123963214805634E+002 -0.107199767593548E+002 -0.252627749722649E+001 -0.251328214922088E+001
  0.226531150920158E-001  0.398212746433056E+002  0.219728620059163E+001 -0.196810696744459E+002  0.104474203926209E+002  0.157947240484789E+001 -0.719173733600138E+001 -0.802505493702725E+001  0.105817311819918E+002
  0.226531150920158E-001  0.369699753216413E+002  0.593775465411201E+001  0.206653192178611E+001  0.230384711631950E+001  0.248397427397792E+001 -0.651932673945532E+001  0.240548141416136E+001 -0.674864417637298E+001
  0.226531150920158E-001  0.377085044763546E+002  0.327405537154439E+001  0.664293866600997E+001  0.438500604771768E+001  0.505583780907014E+001 -0.641726546189964E+001  0.144408105545327E+001 -0.583781768514690E+001
  0.226531150920158E-001  0.391765004647743E+002 -0.810277853492371E+001 -0.629289390023045E+001  0.159529961175641E+002  0.756208538704228E+001 -0.453562249322849E+001 -0.130337502367740E+002 -0.289644621186088E+001
  0.226531150920158E-001  0.385830499264875E+002 -0.113721254831387E+002 -0.150455677969522E+002  0.193945995442118E+002  0.511620511217175E+001 -0.120647788391149E+002 -0.968818878217411E+001 -0.800011902896706E+001
  0.226531150920158E-001  0.377567345844761E+002 -0.613169359252162E+001 -0.995219808485416E+001  0.373914524749602E+001  0.691306792345331E+001 -0.648119332576180E+001  0.536499159832349E+001  0.977327824672422E+001
  0.226531150920158E-001  0.423937971923616E+002 -0.141839944373892E+001  0.860728597486923E+001  0.720055862900288E+001  0.692504102549719E+001  0.477089098920365E+001 -0.842064406939447E+001  0.115839216531910E+002
  0.226531150920158E-001  0.372861926245119E+002  0.606655222010852E+001 -0.237955837694543E+001 -0.231220730310529E+000  0.398007072715745E+001  0.215733798924171E+001 -0.114422242772125E+002  0.122787883922887E+002
  0.226531150920158E-001  0.413770325165857E+002  0.395255816283854E+001  0.887938484718801E+001 -0.192947662950007E+001  0.390938654555330E+001 -0.522311841762868E+001 -0.139919849836173E+002  0.688174543537614E+001
  0.226531150920158E-001  0.414153318691791E+002  0.472161282575339E+001 -0.106721809539013E+002 -0.628774757780446E+001 -0.769031916414606E+001 -0.139041057367337E+002  0.395194210265315E+001  0.137343161147818E+002
  0.226531150920158E-001  0.415997626665669E+002 -0.547653529358654E+001 -0.807367906573464E+001  0.885811711187123E+001  0.231077306799554E+001 -0.128615538212693E+002 -0.620938319164976E+001  0.967262979718947E+001
  0.226531150920158E-001  0.364848368566548E+002 -0.299761343514763E+001  0.631655909342728E+001 -0.138745372429742E+002  0.344576557211055E+001  0.625065093089228E+001 -0.598949387992875E+001 -0.491343165196887E+001
  0.226531150920158E-001  0.364685172963599E+002 -0.851861639404914E+001 -0.855266538962690E+001  0.546870190374766E+001  0.203413915931571E+001 -0.835265028424878E+001 -0.234354264646362E+001 -0.421698442394193E+001
  0.226531150920158E-001  0.424754897804948E+002  0.108682487439279E+002 -0.322995223255510E+001 -0.120093186787772E+002  0.646092302903902E+001 -0.658351503837889E+001  0.948972122288477E+001 -0.421580738072193E+001
  0.226531150920158E-001  0.384445940531493E+002 -0.935394493255383E+001 -0.106267814242466E+002  0.103526109911747E+002  0.126207067626299E+002 -0.665101596200259E+001  0.407617095429689E+001 -0.143916848809920E+001
  0.226531150920158E-001  0.418523028420661E+002  0.654491990639398E+001  0.185801767051913E+000 -0.226297840827889E+001  0.151636489662394E+002  0.794132237396612E+001 -0.101667411005222E+002  0.104974578551598E+002
  0.226531150920158E-001  0.420526186103043E+002  0.150317529900428E+001 -0.971595456956315E+001  0.110761762390940E+001 -0.580261861572852E+001 -0.139605199752045E+002 -0.540558658698593E+001  0.212994101138448E+001
  0.226531150920158E-001  0.388953121418802E+002 -0.573491375190592E+001 -0.137259481237895E+002  0.171777682835657E+002  0.249175700675256E+001 -0.988062387667487E+001 -0.476353095726083E+001 -0.960199677604129E+001
  0.226531150920158E-001  0.390597338350839E+002  0.223342683198621E+001  0.106033670522520E+002 -0.148161083582834E+002 -0.210764801287009E+000  0.181587540570069E+001 -0.101848448065094E+001 -0.474982495555556E+001
  0.226531150920158E-001  0.382946644083542E+002 -0.152744656102652E+001 -0.109587101578366E+002  0.105526569674357E+002  0.746892469060883E+001 -0.624306035671399E+001 -0.550693049497299E+001  0.119009724447936E+002
  0.226531150920158E-001  0.370467827537100E+002  0.221879925889248E+001 -0.738502454135179E+001  0.184689001481132E+001  0.121214488746017E+001 -0.476064575771859E+001 -0.541996277695287E+001  0.232865063370232E+001
  0.226531150920158E-001  0.361816394538855E+002 -0.249231221942620E+001 -0.144808616552024E+002  0.170042668206266E+001  0.117275285654259E+001 -0.385649178792399E+000  0.108107158088749E+001  0.555135204572969E+001
  0.226531150920158E-001  0.362505290128742E+002 -0.126847118322832E+001  0.666829287266960E+001 -0.818213993449733E+001  0.919723840496647E+001  0.409883532559807E+001  0.464009808213446E+001 -0.283155543066672E+001
  0.226531150920158E-001  0.442352771922884E+002 -0.426959424694209E+001  0.917624915771367E+001  0.976587491490224E+001  0.177474614557073E+001 -0.961915426079719E+001 -0.177454929311075E+002 -0.676488820800987E+001
  0.226531150920158E-001  0.370804316848883E+002 -0.832126992849680E+001 -0.763230792088184E+001  0.115846062663930E+002  0.471269819144894E+001 -0.517837060338803E+000 -0.807681837155583E+001  0.103539483831079E+001
  0.226531150920158E-001  0.362275475511193E+002 -0.827014880395809E+001 -0.112193435655854E-001 -0.128140847367075E+002  0.107476921218894E+002  0.598715523846018E+001  0.246219365821674E+001 -0.180741353812272E+001
  0.226531150920158E-001  0.427652135185696E+002  0.320260582915494E+001 -0.491483810435703E+001  0.728694230723826E+001  0.684761346145309E+001 -0.556943654714055E+001 -0.100388652327519E+002 -0.788740053365895E+001
  0.226531150920158E-001  0.362215095917552E+002  0.372291146829529E+001  0.106230449879497E+002 -0.631282140645081E+001  0.139215906516618E+001 -0.741693031877233E-001 -0.112898279316312E+002 -0.324715980827976E+001
  0.226531150920158E-001  0.355693220161258E+002 -0.108069037776114E+002 -0.149084883052692E+001 -0.923911034455510E+001  0.517129859644683E+001  0.646139073148676E+001  0.417772704174610E+001 -0.179862306392243E+001
