  0.100000000000000E+001  0.259260569012470E+002 -0.469725942310952E+001  0.758347635743596E+001 -0.781406207986170E+001
  0.100000000000000E+001  0.163769374560105E+002  0.832928165128831E+001  0.132122522385431E+001 -0.114200373801001E+002
  0.100000000000000E+001  0.201505609716164E+002 -0.128801559537712E+002 -0.453856867428546E+001 -0.289039149241994E+000
  0.100000000000000E+001  0.205439539671229E+002 -0.805838189878092E+000  0.874723519720988E+001 -0.180249960576128E+001
  0.100000000000000E+001  0.208552998331739E+002 -0.507618323036063E+001  0.653361468210308E+001 -0.859278572413590E+001
  0.100000000000000E+001  0.208828187855426E+002 -0.437804366273976E+000  0.165777091097024E+000 -0.105592075157339E+002
  0.100000000000000E+001  0.242472858099963E+002  0.910487198887382E+001 -0.162410925259485E+002  0.246011959045483E+001
  0.100000000000000E+001  0.212407798295598E+002  0.881752826546342E+001  0.195667494031618E+001 -0.126012299478611E+002
  0.100000000000000E+001  0.212828600523123E+002 -0.127624424562424E+002 -0.327964004389378E+001 -0.148092271262201E+002
  0.100000000000000E+001  0.236881352877804E+002 -0.662881295183560E+000  0.828760571688694E+001 -0.645167437926028E+001
  0.100000000000000E+001  0.236742992729667E+002 -0.521560058376853E+000  0.987208940296007E+001  0.231119109768585E-001
  0.100000000000000E+001  0.216981639830362E+002  0.979529779573005E+001  0.645056984751531E+001 -0.934247187137652E+001
  0.100000000000000E+001  0.164205482195841E+002  0.933936587543373E+001  0.220407476668751E+001 -0.106204737374306E+002
  0.100000000000000E+001  0.234310516693775E+002  0.124263206811758E+001  0.149708238945025E+001 -0.979257955924958E+001
  0.100000000000000E+001  0.218012149881485E+002  0.363965773613610E+001  0.772732377745466E+000 -0.855750267778043E+001
  0.100000000000000E+001  0.221752433694921E+002 -0.159170195203683E+002 -0.726080733563387E+001 -0.107252041119049E+002
  0.100000000000000E+001  0.222725482860601E+002 -0.353711589992790E+001  0.329010183149802E+001 -0.643947790282845E+001
  0.100000000000000E+001  0.226982326976044E+002  0.392889621019340E+001 -0.966464196997633E+001  0.110143944657038E+002
  0.100000000000000E+001  0.228165083542788E+002  0.151513585708488E+001 -0.500389528971418E+001  0.430201710107277E+001
  0.100000000000000E+001  0.201243681543294E+002  0.103657211907952E+002  0.189578477188322E+001 -0.104051800233958E+002
  0.100000000000000E+001  0.199177804397056E+002  0.109091789316482E+002  0.668734479454497E+001 -0.658516811041161E+001
  0.100000000000000E+001  0.198843907758307E+002  0.470390001211872E+001 -0.102331799870082E+002  0.104544905236181E+002
  0.100000000000000E+001  0.198555445530090E+002 -0.298036598808908E+001  0.651479398698489E+001 -0.133747638479666E+002
  0.100000000000000E+001  0.198250740074576E+002 -0.933341197666547E+000 -0.649081744748293E+001 -0.740635186478332E+001
  0.100000000000000E+001  0.198124206331339E+002  0.224255103711300E+001  0.896268363861818E+000 -0.131595692646785E+002
  0.100000000000000E+001  0.164645405558587E+002 -0.884050960567359E+001  0.618092329399950E+000 -0.136345250303765E+002
  0.100000000000000E+001  0.196133209585714E+002 -0.696814384270089E+001  0.278311244181470E+001 -0.161320946640397E+002
  0.100000000000000E+001  0.195172807074832E+002  0.119739825248324E+002  0.691567812153167E+000 -0.129019055976798E+002
  0.100000000000000E+001  0.189901784465001E+002 -0.700640710114417E+001 -0.475129847934554E+000 -0.686716870123949E+001
  0.100000000000000E+001  0.188855429728766E+002  0.130110341640084E+002  0.309662407333800E+000 -0.143593430627689E+002
  0.100000000000000E+001  0.187615736865431E+002  0.650115133125439E+000  0.115110614208563E+002  0.387340438226740E+000
  0.100000000000000E+001  0.164667017036872E+002 -0.648178255383842E+001  0.368269819408279E+001 -0.139750712341379E+002
  0.100000000000000E+001  0.185615602378070E+002 -0.885778433534240E+001 -0.236608001505667E+001 -0.751352373766950E+001
  0.100000000000000E+001  0.185386106428773E+002  0.885845371600318E+001 -0.332671278251279E+001 -0.460538881905881E+001
  0.100000000000000E+001  0.185030973566209E+002  0.814041705678935E+001 -0.102230044705200E+002 -0.378848787164670E+001
  0.100000000000000E+001  0.184555588542554E+002  0.100553395106368E+002  0.290864209611570E+000 -0.136630338714584E+002
  0.100000000000000E+001  0.182719198914303E+002 -0.948666495531553E+001 -0.176629371010266E+001  0.387048443238349E-001
  0.100000000000000E+001  0.182678978135716E+002 -0.540427992979645E+001  0.273667987444500E+001 -0.113766833753301E+002
  0.100000000000000E+001  0.182110110053591E+002 -0.121045862184077E+002 -0.192303063157625E+001 -0.131295939508919E+002
  0.100000000000000E+001  0.179652512142644E+002  0.151206936011894E+002  0.506514651099493E+001 -0.104560615144841E+002
  0.100000000000000E+001  0.178544595076719E+002 -0.536332327167890E+001  0.494086346433925E+001 -0.148461187577560E+002
  0.100000000000000E+001  0.177831718743941E+002  0.151459560914867E+001  0.107055910631231E+002 -0.488038014032881E+000
  0.100000000000000E+001  0.176228506695078E+002  0.838805310551681E+000 -0.704306137141170E+000 -0.362107694977563E+000
  0.100000000000000E+001  0.164969934190420E+002  0.457217561562682E+001  0.170227173265679E+001 -0.107979541638298E+002
  0.100000000000000E+001  0.165991778220818E+002  0.742037482192298E+001  0.866732211361219E+001 -0.385548356851855E+001
  0.100000000000000E+001  0.175750082410566E+002  0.659041125567531E+001 -0.389589752736087E+001 -0.891325859555210E+001
  0.100000000000000E+001  0.174090020092787E+002 -0.383361917160822E+001 -0.174691167782029E+001  0.608356814061048E+001
  0.100000000000000E+001  0.173987252541401E+002 -0.106438468126599E+002 -0.304086027839390E+001 -0.104560886500355E+002
  0.100000000000000E+001  0.166009001060564E+002 -0.135587582204859E+002 -0.567283275162237E+001 -0.368156576292725E+001
  0.100000000000000E+001  0.171990908266298E+002 -0.301421867157724E+001 -0.676064552296673E+000 -0.289653166006261E+001
  0.100000000000000E+001  0.171881540179596E+002  0.108739847172875E+002  0.360114697891242E+001 -0.115513071018707E+002
  0.100000000000000E+001  0.171683373763966E+002 -0.801368784255638E+001  0.308039036659497E+001 -0.917723242872309E+001
  0.100000000000000E+001  0.170076519271984E+002  0.237529455677027E+001 -0.771932790899821E+001 -0.665696878854709E+001
  0.100000000000000E+001  0.170011177869069E+002  0.106728580174723E+002 -0.756222720285729E+001 -0.230891999403683E+001
  0.100000000000000E+001  0.169684548813747E+002  0.454298236387817E+001 -0.938127005391340E+001 -0.504934819339708E+001
  0.100000000000000E+001  0.169120136274694E+002  0.149604121081595E+001 -0.131099449131864E+001 -0.942600088783365E-001
  0.100000000000000E+001  0.168357960331287E+002  0.272385088813724E+001  0.699754546028267E+001 -0.411339994901697E+001
  0.100000000000000E+001  0.167913853569663E+002  0.357235863279003E+001 -0.929514042392164E+000 -0.849705848225458E+001
  0.100000000000000E+001  0.162720351385761E+002  0.250713773801060E+001  0.630154759244108E+001 -0.512526367143197E+001
  0.100000000000000E+001  0.162579522141305E+002  0.461311408699488E+001 -0.463743762295978E+001  0.343080704189357E+001
  0.100000000000000E+001  0.162458467724828E+002  0.102399468585933E+002 -0.205343368079535E+001 -0.707611541123360E+001
  0.100000000000000E+001  0.162120458192921E+002  0.130756610077694E+002  0.112477000023287E+002 -0.477120105664606E+001
  0.100000000000000E+001  0.160844563409785E+002 -0.387828682782223E+001 -0.444635071637790E+001  0.956643699205672E+001
  0.100000000000000E+001  0.159801999409132E+002  0.529759548757929E+001  0.172620229260454E+001 -0.107646799472914E+002
  0.100000000000000E+001  0.159714690783004E+002  0.786472389719914E+001 -0.380215322862266E+001 -0.515637607910780E+001
  0.100000000000000E+001  0.159115805726064E+002  0.596960497019778E+001 -0.804471875151226E+001 -0.559564395395333E+001
  0.100000000000000E+001  0.158393906288642E+002  0.220574718166105E+001 -0.121700739619910E+001 -0.970412590916107E+001
  0.100000000000000E+001  0.157954917499693E+002  0.385415598591726E+001 -0.117442949608446E+001 -0.126257580884808E+001
  0.100000000000000E+001  0.157569451518350E+002  0.778366559150204E+001 -0.282501857154800E+001 -0.598063415188697E+001
  0.100000000000000E+001  0.157447033787078E+002  0.813849536569205E+001 -0.181934024101707E+001 -0.882028420647709E+001
  0.100000000000000E+001  0.157436376657843E+002  0.976848385936238E+001 -0.840830041633483E+001 -0.246284272132737E+001
  0.100000000000000E+001  0.157379991535268E+002  0.628864570464718E+001 -0.100376342215585E+002 -0.302231220962527E+001
  0.100000000000000E+001  0.156844865051539E+002 -0.849447115162167E+000 -0.805525237050461E+001  0.122191712898387E+002
  0.100000000000000E+001  0.155390410025257E+002 -0.202084925510787E+001 -0.995187501348685E+000  0.274192059033746E+001
  0.100000000000000E+001  0.154332285395292E+002  0.519426584020393E+001 -0.300800063181569E+001 -0.664549307865207E+001
  0.100000000000000E+001  0.154242381956874E+002  0.113249585467053E+002  0.352434333466697E+001 -0.113903850219224E+002
  0.100000000000000E+001  0.154223845937996E+002  0.107878092684114E+002  0.109894276176347E+002 -0.352550712081032E+001
  0.100000000000000E+001  0.153714752127228E+002  0.567663343631575E+001 -0.398329974297811E+001 -0.851116453003592E+001
  0.100000000000000E+001  0.153546511476677E+002  0.711050730923662E+001  0.652493871487426E+001 -0.582692690278903E+001
  0.100000000000000E+001  0.153005992939265E+002  0.100688807798290E+002 -0.500731895975438E+001 -0.485754589103683E+001
  0.100000000000000E+001  0.152937927143123E+002  0.291612648284805E+001  0.103941560099716E+002 -0.153239370576686E+001
  0.100000000000000E+001  0.152604033201441E+002  0.708870000859699E+001  0.135350795195712E+002 -0.910806396030981E+000
  0.100000000000000E+001  0.152566871916156E+002 -0.334549084525370E+001 -0.322084225665930E+001  0.695571884362588E+001
  0.100000000000000E+001  0.151911941040725E+002  0.404142009012201E+001 -0.462828055733612E+001 -0.613475813464493E+001
  0.100000000000000E+001  0.151064548472990E+002  0.676479099826311E+001  0.136281915462476E+002 -0.202458978097848E+000
  0.100000000000000E+001  0.150733415660666E+002  0.153881891505473E+001 -0.907552012436925E+001  0.113178564400900E+002
  0.100000000000000E+001  0.150411842377766E+002  0.484594238049417E+001 -0.491858691566297E+001 -0.796708412713291E+001
  0.100000000000000E+001  0.150249154693868E+002  0.355474253578597E+001  0.118212171779082E+002 -0.707321122658257E+000
  0.100000000000000E+001  0.149942806701124E+002  0.405642636689405E+001 -0.527084502131554E+000 -0.101129827667728E+002
  0.100000000000000E+001  0.149925927493128E+002 -0.128203932659429E+001 -0.786080583380589E+001  0.118328650282605E+002
  0.100000000000000E+001  0.149593398895155E+002  0.758537081150952E+001 -0.719186453285810E+001 -0.533047753134629E+001
  0.100000000000000E+001  0.148429100839312E+002  0.142790110545299E-001 -0.779723563680712E+001  0.102590453069384E+002
  0.100000000000000E+001  0.148345868461174E+002  0.270640802596598E+001 -0.451769332276441E+001  0.494008526900252E+001
  0.100000000000000E+001  0.147681553990266E+002  0.749850315752631E+001 -0.609784305151799E+001 -0.420346891903658E+001
  0.100000000000000E+001  0.147114236673948E+002  0.820711538994144E+001 -0.803775628466233E+001 -0.352190684598653E+001
  0.100000000000000E+001  0.146897503740214E+002  0.502926134247154E+001 -0.129804681603748E+001 -0.973760779556581E+001
  0.100000000000000E+001  0.146678894462428E+002  0.128407961276644E+002  0.623565710902303E+001 -0.874001668596872E+001
  0.100000000000000E+001  0.146619171886024E+002  0.462614997986613E+001  0.103187270498595E+002 -0.303542619670739E+001
  0.100000000000000E+001  0.146117559709059E+002  0.127016842167908E+002  0.880370318413905E+001 -0.651458023834953E+001
  0.100000000000000E+001  0.145966546854588E+002  0.111035507563999E+002  0.837298584548395E+001 -0.589955105518989E+001
  0.100000000000000E+001  0.145085232693336E+002  0.111843490786715E+002  0.338963961602281E+001 -0.110095304827275E+002
  0.100000000000000E+001  0.145014036885473E+002  0.879758817126500E+001  0.719023273381945E+001 -0.594605180332993E+001
  0.100000000000000E+001  0.144888876597692E+002  0.697369673352137E+001 -0.188260362874141E+001 -0.868578167730120E+001
  0.100000000000000E+001  0.144731056083613E+002  0.622162216473530E+001 -0.765061590361904E+001 -0.510095996223207E+001
  0.100000000000000E+001  0.144214410348848E+002  0.109312226564922E+002  0.412565075076894E+001 -0.982090302916771E+001
  0.100000000000000E+001  0.144201473321585E+002  0.116153037521701E+002  0.101750722788975E+002 -0.552261069567616E+001
  0.100000000000000E+001  0.144165357536147E+002  0.545649979774299E+001  0.845452777027962E+001 -0.508271064588978E+001
  0.100000000000000E+001  0.144037139673182E+002  0.730693631794843E+001  0.342943278046640E+001 -0.940565285305152E+001
  0.100000000000000E+001  0.143938198788496E+002  0.376839320750377E+001 -0.579918596866763E+001 -0.619779177028204E+001
  0.100000000000000E+001  0.143745595568982E+002  0.104546339115503E+002  0.439549165770791E+001 -0.102842753267703E+002
  0.100000000000000E+001  0.143453263790710E+002  0.389964967487379E+001 -0.265735392544267E+001 -0.900960237256977E+001
  0.100000000000000E+001  0.143297137593341E+002  0.788082225477446E+001 -0.748700809734800E+001 -0.416382014374469E+001
  0.100000000000000E+001  0.143178769911079E+002  0.502594945226499E+001 -0.556130097586725E+001 -0.710570234542100E+001
  0.100000000000000E+001  0.162360986899846E+002 -0.839848665526696E+001  0.182447997423040E+001 -0.639369088386805E+001
  0.100000000000000E+001  0.161899960034002E+002 -0.714245900238665E+001  0.343637747523139E+001 -0.137132568719778E+002
  0.100000000000000E+001  0.159560192463222E+002 -0.105533357655755E+002 -0.384950892928523E+001 -0.336527602897498E+001
  0.100000000000000E+001  0.159168749327990E+002 -0.101894057644527E+002  0.391714842850622E+000 -0.106949640948137E+002
  0.100000000000000E+001  0.158100352207534E+002 -0.108459141274543E+002 -0.349505563342089E+001 -0.802874708866396E+001
  0.100000000000000E+001  0.157638384266319E+002 -0.571965749058050E+001  0.485545124393148E+001 -0.107082051372078E+002
  0.100000000000000E+001  0.156723320806790E+002 -0.967202936163560E+001 -0.108732821566367E+000 -0.127438275457946E+002
  0.100000000000000E+001  0.154025577299903E+002 -0.573419905748502E+001  0.376406369127800E+001 -0.676959847953140E+001
  0.100000000000000E+001  0.152342653025335E+002 -0.105656360262101E+002 -0.139127738055316E+001 -0.114751208774614E+002
  0.100000000000000E+001  0.151325581068947E+002 -0.522485336250572E+001  0.430988170338300E+001 -0.885507233160671E+001
  0.100000000000000E+001  0.150350049120193E+002 -0.120531859202605E+002 -0.367102890324907E+001 -0.463791100715401E+001
  0.100000000000000E+001  0.147484490984995E+002 -0.100373745782261E+002 -0.280872352466983E+001 -0.480272782509005E+001
  0.100000000000000E+001  0.145863847197683E+002 -0.873118752399491E+001 -0.107346263276310E+001 -0.396159850032977E+001
  0.100000000000000E+001  0.145647004538271E+002 -0.636450943451384E+001  0.210430409057790E+001 -0.834939495541742E+001
  0.100000000000000E+001  0.145557285730497E+002 -0.110235267924816E+002 -0.355831619446571E+001 -0.509235571351154E+001
  0.100000000000000E+001  0.144648397580366E+002 -0.861724118854677E+001 -0.710264188740346E+000 -0.839901336368601E+001
  0.100000000000000E+001  0.143582309857559E+002 -0.102456612296349E+002 -0.580032126537020E+000 -0.779443552132086E+001
  0.100000000000000E+001  0.143004002259683E+002 -0.645358327102437E+001  0.281564944602874E+001 -0.100704761254243E+002
  0.100000000000000E+001  0.142491925893882E+002 -0.932223664413852E+001 -0.156498806648855E+001 -0.747114730263951E+001
  0.100000000000000E+001  0.140408041258677E+002 -0.104486143744616E+002 -0.206833039799807E+001 -0.490732508637061E+001
  0.100000000000000E+001  0.140064822834340E+002 -0.709525640515985E+001  0.162569212817755E+001 -0.908008690061895E+001
  0.100000000000000E+001  0.139803655262232E+002 -0.100586497322744E+002 -0.153796914081331E+001 -0.917409792634359E+001
  0.100000000000000E+001  0.139704476389638E+002 -0.927146736103633E+001 -0.145847922318168E+001 -0.503909888901264E+001
  0.100000000000000E+001  0.139368999826233E+002 -0.778942431586531E+001  0.152454949123842E+001 -0.105259313047770E+002
  0.100000000000000E+001  0.139181703350369E+002 -0.679344895047128E+001  0.228397095910521E+001 -0.771998483812631E+001
  0.100000000000000E+001  0.133434513111597E+002 -0.851771072403191E+001  0.427577033578821E-001 -0.710082604458714E+001
  0.100000000000000E+001  0.132948897848863E+002 -0.894596102957689E+001 -0.390027239647686E+000 -0.726902447201578E+001
  0.100000000000000E+001  0.142489055585493E+002  0.524476474457775E+001 -0.472837578828150E+001 -0.763370086753928E+001
  0.100000000000000E+001  0.142024156856501E+002  0.537934043592105E+001 -0.666071673518899E+001 -0.603691016616258E+001
  0.100000000000000E+001  0.142008580858065E+002  0.664480007175303E+001 -0.723456621741919E+001 -0.424227271068854E+001
  0.100000000000000E+001  0.141529466469367E+002  0.406792082633915E+001 -0.248859335114556E+001 -0.876932238774991E+001
  0.100000000000000E+001  0.140023489529460E+002  0.567632528138145E+001 -0.523454585500618E+001 -0.702173232345186E+001
  0.100000000000000E+001  0.139950968233969E+002  0.384714720984980E+001 -0.447774967553086E+001  0.248512749626051E+001
  0.100000000000000E+001  0.139260027736682E+002  0.429970906996135E+001 -0.412154625281950E+001 -0.129132424752205E+001
  0.100000000000000E+001  0.139112598342953E+002  0.615009705449934E+001 -0.682434084611666E+001 -0.485287318010074E+001
  0.100000000000000E+001  0.138576784342307E+002 -0.254663676695683E+001 -0.261614977722509E+001  0.550801554270503E+001
  0.100000000000000E+001  0.138534780402749E+002  0.448044950168082E+001 -0.548535093950539E+001 -0.647712740965370E+001
  0.100000000000000E+001  0.136954104500130E+002  0.546059500848163E+001 -0.291022460566091E+001 -0.804802698669168E+001
  0.100000000000000E+001  0.136827272344772E+002  0.698288535094470E+001 -0.540379164464511E+001 -0.547383329942861E+001
  0.100000000000000E+001  0.136606767167250E+002  0.615132401747778E+001 -0.366888513813252E+001 -0.683459153411588E+001
  0.100000000000000E+001  0.136318785626367E+002  0.700930053937782E+001 -0.556500778111511E+001 -0.550087013188761E+001
  0.100000000000000E+001  0.135754515972305E+002  0.700970106050329E+001 -0.499943647549836E+001 -0.621576284611750E+001
  0.100000000000000E+001  0.135393837852072E+002  0.607670254199449E+001 -0.422667279383709E+001 -0.714687597446143E+001
  0.100000000000000E+001  0.135142196621685E+002 -0.863405540035668E+000 -0.607605697613209E+001  0.859304769468355E+001
  0.100000000000000E+001  0.135068503683482E+002  0.593563357855830E+001 -0.371649297272267E+001 -0.722068049510876E+001
  0.100000000000000E+001  0.134740096999366E+002 -0.143601029729407E+000 -0.659288988779724E+001  0.982703712265536E+001
  0.100000000000000E+001  0.134701034493314E+002  0.736447636733294E+001 -0.739892566027556E+001 -0.278709508267358E+001
  0.100000000000000E+001  0.134431739800034E+002  0.409131413073824E+001 -0.738564951223145E+001  0.706490639445627E+001
  0.100000000000000E+001  0.133890939217909E+002  0.138982830502395E+001 -0.831713854182919E+001  0.103257010633089E+002
  0.100000000000000E+001  0.133270816501097E+002  0.242281094344654E+001 -0.132411820188183E+001 -0.163228475102706E-001
  0.100000000000000E+001  0.141750722390793E+002  0.439574862645941E+001  0.784152167580967E+001 -0.495672332513229E+001
  0.100000000000000E+001  0.141747797761652E+002  0.432406562427545E+001  0.113681524043184E+002 -0.148822511145853E+001
  0.100000000000000E+001  0.141683498268437E+002  0.535483467995612E+001  0.110193399059974E+002 -0.168855439548686E+001
  0.100000000000000E+001  0.140823102024895E+002  0.897453829089084E+001  0.878153855238214E+001 -0.615210289006978E+001
  0.100000000000000E+001  0.140326369976204E+002  0.115259185296460E+002  0.597646421253969E+001 -0.837192468562362E+001
  0.100000000000000E+001  0.139710565502731E+002  0.851749467066386E+001  0.354850440121192E+001 -0.973447078040381E+001
  0.100000000000000E+001  0.139508276833927E+002  0.443037485368824E+001  0.767086327638339E+001 -0.502786985700219E+001
  0.100000000000000E+001  0.138905023515853E+002  0.117527939425126E+002  0.958188393606973E+001 -0.559290287739777E+001
  0.100000000000000E+001  0.137611497863792E+002  0.106432499717815E+002  0.841889959935605E+001 -0.689804593028684E+001
  0.100000000000000E+001  0.136782317570035E+002  0.647511683541730E+001  0.115691594499297E+002 -0.175521692094714E+001
  0.100000000000000E+001  0.136582895973939E+002  0.120284428851457E+002  0.839135444092612E+001 -0.678627497360875E+001
  0.100000000000000E+001  0.136256489859750E+002  0.101230551123216E+002  0.454438522126022E+001 -0.926384783181600E+001
  0.100000000000000E+001  0.136043389733956E+002  0.509576293139941E+001  0.106904893777448E+002 -0.257925058745056E+001
  0.100000000000000E+001  0.135261862202395E+002  0.858925501598809E+001  0.413186025329663E+001 -0.945979053776830E+001
  0.100000000000000E+001  0.134894614619178E+002  0.632612155483364E+001  0.941213902051939E+001 -0.337701372064134E+001
  0.100000000000000E+001  0.134214517267372E+002  0.601556977258990E+001  0.108011107491409E+002 -0.224613631251916E+001
  0.100000000000000E+001  0.133755777929602E+002  0.954453502899773E+001  0.663273157854841E+001 -0.697601663315094E+001
  0.100000000000000E+001  0.133358975314292E+002  0.689764816286434E+001  0.105088588175789E+002 -0.358857708377734E+001
  0.100000000000000E+001  0.133332037310990E+002  0.887168370045583E+001  0.528924199157342E+001 -0.803380519988790E+001
  0.100000000000000E+001  0.132519680970802E+002  0.796344198748438E+001 -0.782587849923079E+001 -0.323106963414056E+001
  0.100000000000000E+001  0.132132322660993E+002  0.755971948635893E+001 -0.774841450967477E+001 -0.310555249499879E+001
  0.100000000000000E+001  0.131821023249601E+002  0.301643045453378E+001 -0.480401711934401E+001 -0.309518723361064E+001
  0.100000000000000E+001  0.130927553838440E+002  0.274481634221680E+001 -0.358505039536843E+001  0.340503342209853E+001
  0.100000000000000E+001  0.130473318823695E+002 -0.209653399408879E+001 -0.208289905909340E+001  0.461867275832515E+001
  0.100000000000000E+001  0.132783209054153E+002  0.861893204367381E+001  0.541319795100177E+001 -0.864426308438928E+001
  0.100000000000000E+001  0.130520847206516E+002  0.973460250625867E+001  0.489484291573928E+001 -0.902315501321598E+001
  0.100000000000000E+001  0.130297116513610E+002  0.202305117322825E+001 -0.191041577776207E+001 -0.402634978074197E-001
  0.100000000000000E+001  0.129084591037809E+002  0.672008506764715E+000 -0.636537660665824E+001  0.887760478683848E+001
  0.100000000000000E+001  0.128490248158049E+002  0.258422833472946E+001 -0.763362004659391E+001  0.813084783827711E+001
  0.100000000000000E+001  0.126048198255906E+002  0.339308356126730E+001 -0.791761716185484E+001 -0.756803408914599E+001
  0.100000000000000E+001  0.124845538861164E+002  0.173965229896930E+001 -0.752887205539329E+001  0.868754816600205E+001
  0.100000000000000E+001  0.124704464559378E+002  0.188081988046685E+001 -0.586592233607606E+001  0.721565856950900E+001
  0.100000000000000E+001  0.123554026504313E+002 -0.924581715048689E+000 -0.649461371126498E+001  0.957245960059844E+001
  0.100000000000000E+001  0.123468213003679E+002  0.377195795720741E+001 -0.663870381216869E+001  0.633413616878054E+001
  0.100000000000000E+001  0.123450568959786E+002  0.377150259375393E+001 -0.635671698081205E+001  0.542692496717815E+001
  0.100000000000000E+001  0.123231103712546E+002  0.188951400603598E+001 -0.763086179224350E+001  0.880736399760605E+001
  0.100000000000000E+001  0.123108135953707E+002 -0.168150949706062E+001 -0.273357935949067E+001  0.501427692998025E+001
  0.100000000000000E+001  0.122790570999833E+002  0.976793521525170E+000 -0.737265328159784E+001  0.913008767388350E+001
  0.100000000000000E+001  0.121902928968750E+002 -0.278886389782954E+000 -0.144883386456657E+001  0.239164575726945E+001
  0.100000000000000E+001  0.121321421196698E+002  0.982698269628708E+001 -0.107047585365635E+002 -0.544499785752141E+001
  0.100000000000000E+001  0.121248986574362E+002  0.103683720539078E+002 -0.794248315570545E+001 -0.922588574952922E+000
  0.100000000000000E+001  0.121183383461161E+002  0.241136779176335E+001 -0.217010314332059E+001  0.132857162761625E+001
  0.100000000000000E+001  0.121126928371166E+002  0.669854868498323E+001 -0.113821345760123E+002 -0.925220603109136E+001
  0.100000000000000E+001  0.120686327996603E+002 -0.801160537652692E+000 -0.653456076025850E+001  0.981423023261339E+001
  0.100000000000000E+001  0.120576781963798E+002 -0.231195649752330E+000 -0.155635616717577E+001  0.238979977438621E+001
  0.100000000000000E+001  0.120534071299786E+002 -0.154712473852708E+001 -0.559512762902543E+001  0.895413608842221E+001
  0.100000000000000E+001  0.130206134437972E+002  0.521452754200633E+001  0.960738082628871E+001 -0.326153867417389E+001
  0.100000000000000E+001  0.129827168160254E+002  0.738541232559773E+001  0.519917734024984E+001 -0.796773149848885E+001
  0.100000000000000E+001  0.129608267643877E+002  0.781041358893671E+001  0.893185267088838E+001 -0.438048861752162E+001
  0.100000000000000E+001  0.128435298753873E+002  0.105912847613224E+002  0.919317196020384E+001 -0.569222034335709E+001
  0.100000000000000E+001  0.127518324587824E+002  0.104613009590385E+002  0.905809311178167E+001 -0.581383918204621E+001
  0.100000000000000E+001  0.127325213114663E+002  0.932337813733925E+001  0.774394916720222E+001 -0.686848235353809E+001
  0.100000000000000E+001  0.127010565677561E+002  0.758195876958440E+001  0.615422993126047E+001 -0.694833264124143E+001
  0.100000000000000E+001  0.126921750197832E+002  0.100776137843859E+002  0.611407207555265E+001 -0.799091190387550E+001
  0.100000000000000E+001  0.126823115034111E+002  0.814134123838718E+001  0.544431273584196E+001 -0.801570735273070E+001
  0.100000000000000E+001  0.125305077035670E+002  0.850814537155568E+001  0.981921677935198E+001 -0.412077336768578E+001
  0.100000000000000E+001  0.124500940214457E+002  0.843911617063289E+001  0.805243117163768E+001 -0.621694394427701E+001
  0.100000000000000E+001  0.124286094361159E+002  0.982139477683636E+001  0.717718818442645E+001 -0.733728891007969E+001
  0.100000000000000E+001  0.124051673918434E+002  0.751219449421909E+001  0.719320592588969E+001 -0.654131812670875E+001
  0.100000000000000E+001  0.123602604221965E+002  0.815384034237464E+001  0.937911002591287E+001 -0.483535152465300E+001
  0.100000000000000E+001  0.123089393979795E+002  0.837719460555390E+001  0.943651507905191E+001 -0.446093155705999E+001
  0.100000000000000E+001  0.120303499070744E+002  0.771227076201886E+001  0.779471797502710E+001 -0.582419112046563E+001
  0.100000000000000E+001  0.120019269054924E+002  0.810111717532711E+001 -0.994103764466809E+001 -0.605115048421973E+001
  0.100000000000000E+001  0.119130237522666E+002  0.162613174928824E+001 -0.266663462363220E+001  0.202879910386752E+001
  0.100000000000000E+001  0.118766576493305E+002  0.398698151312332E+001 -0.420117844898164E+001  0.263550954022087E+001
  0.100000000000000E+001  0.118738588187619E+002  0.835672301103954E+001 -0.111534651272294E+002 -0.745069599985217E+001
  0.100000000000000E+001  0.117817081999612E+002  0.357334508410213E+001 -0.352099856324497E+001  0.212308565890716E+001
  0.100000000000000E+001  0.116795581143227E+002  0.660256310762164E+001 -0.103845017058470E+002 -0.785039248581447E+001
  0.100000000000000E+001  0.116285923761164E+002  0.811687808927971E+001 -0.110659244541516E+002 -0.754439059997091E+001
  0.100000000000000E+001  0.115468454842465E+002  0.212525962396812E+001 -0.608499540625011E+001  0.714160175898010E+001
  0.100000000000000E+001  0.114249704859284E+002  0.106158424137667E+001 -0.645101925082227E+001  0.843979886220102E+001
  0.100000000000000E+001  0.113606375050171E+002 -0.487893532197177E+000 -0.382688016440293E+001  0.620010707825390E+001
  0.100000000000000E+001  0.113410429767347E+002  0.783768012264481E+001 -0.103630007051207E+002 -0.670544642964808E+001
  0.100000000000000E+001  0.113259898405111E+002  0.369374087075924E+001 -0.458015877180206E+001  0.330874425940839E+001
  0.100000000000000E+001  0.112894119779078E+002  0.100685340394633E+002 -0.787994369716039E+001 -0.114625315735357E+001
  0.100000000000000E+001  0.111998176922256E+002  0.366292376630581E+001 -0.508400984946757E+001  0.407970665690502E+001
  0.100000000000000E+001  0.111773028509114E+002  0.756202297615187E+001 -0.796086645901608E+001 -0.346047870890818E+001
  0.100000000000000E+001  0.111339179836893E+002  0.218583585796458E+001 -0.365958785306269E+001  0.373812362668185E+001
  0.100000000000000E+001  0.110254701415167E+002  0.848319234285689E+001 -0.101677193533064E+002 -0.596428605875430E+001
  0.100000000000000E+001  0.110065607276001E+002  0.329152931385010E+001 -0.463525830351004E+001  0.359100423999342E+001
  0.100000000000000E+001  0.109952707120686E+002  0.326284437444480E+001 -0.525953254844653E+001  0.484137015472276E+001
  0.100000000000000E+001  0.109534361252611E+002  0.841756935061015E+001 -0.833512251059376E+001 -0.323436346811977E+001
  0.100000000000000E+001  0.109280885631304E+002  0.191825716747724E+001 -0.375959575047749E+001  0.409570652431876E+001
  0.100000000000000E+001  0.107736930328185E+002 -0.103627913177705E+001 -0.455942891626676E+001  0.729768349074676E+001
  0.100000000000000E+001  0.105998037713989E+002  0.749726464082338E+001 -0.673567882357690E+001 -0.201334207927149E+001
  0.100000000000000E+001  0.105377078224507E+002  0.700758237818071E+000 -0.624996170314155E+001  0.819136373203077E+001
  0.100000000000000E+001  0.103999689092875E+002  0.812474979415487E+001 -0.809686495393775E+001 -0.337793331668370E+001
  0.100000000000000E+001  0.102529534287403E+002  0.219793980417611E+001 -0.363510091826203E+001  0.339230624884251E+001
  0.100000000000000E+001  0.100914890545367E+002  0.472676145273009E+000 -0.320445371145005E+001  0.406427244037267E+001
  0.100000000000000E+001  0.100622675663464E+002  0.425396925651875E+001 -0.683015604855130E+001 -0.489577581325674E+001
  0.100000000000000E+001  0.982206015739299E+001  0.826036560165281E+001 -0.777862821363045E+001 -0.263077581159265E+001
  0.100000000000000E+001  0.980023617516325E+001  0.704774822494348E+001 -0.998496190587506E+001 -0.695166273439148E+001
  0.100000000000000E+001  0.978424428118580E+001  0.700652433701205E+001 -0.772252855280245E+001 -0.366697943984050E+001
  0.100000000000000E+001  0.975762854050921E+001 -0.379932399021541E+000 -0.720573796101184E+001 -0.984652679347281E+001
  0.100000000000000E+001  0.972598798138436E+001  0.736578710057620E+001 -0.728430642055953E+001 -0.290222479959948E+001
  0.100000000000000E+001  0.960699788997100E+001  0.598899106606921E+001 -0.493783610113484E+001 -0.705532584402789E+000
  0.100000000000000E+001  0.100017618451174E+002  0.135403643700932E+001 -0.576029360822776E+001  0.698180626135596E+001
  0.100000000000000E+001  0.999117613474201E+001  0.432140676395438E+000 -0.333689240140901E+001  0.440179054466461E+001
  0.100000000000000E+001  0.976592952493161E+001  0.143737781596123E+001 -0.511743755997429E+001  0.608024570819520E+001
  0.100000000000000E+001  0.968078332454621E+001  0.160795808827546E+001 -0.467508340621785E+001  0.511840440105591E+001
  0.100000000000000E+001  0.959975443275588E+001  0.785035684547314E+000 -0.425392955089041E+001  0.528929447610915E+001
  0.100000000000000E+001  0.959474222735321E+001  0.715535205538905E+001 -0.651611494274682E+001 -0.183880820992863E+001
  0.100000000000000E+001  0.951336332567909E+001  0.490046490251127E+001 -0.558696156540816E+001 -0.275575889212834E+001
  0.100000000000000E+001  0.942884006125472E+001  0.712715669615764E+001 -0.748076388806626E+001 -0.322968380031219E+001
  0.100000000000000E+001  0.939145128415109E+001  0.747436446923358E+001 -0.689579441940886E+001 -0.221600501273105E+001
  0.100000000000000E+001  0.935312718134546E+001  0.753616063437496E+001 -0.904458839720071E+001 -0.521856450695766E+001
  0.100000000000000E+001  0.932847810895670E+001  0.463059074020326E+001 -0.662553216997830E+001 -0.428169158013694E+001
  0.100000000000000E+001  0.926074309862036E+001  0.251697594069544E+001 -0.876570203778898E+001 -0.945106861447889E+001
  0.100000000000000E+001  0.923888710377681E+001  0.367410947901072E+001 -0.614101683299684E+001 -0.447556232363654E+001
  0.100000000000000E+001  0.922493508684104E+001  0.423523114917047E+001 -0.841844934749362E+001 -0.741615089101685E+001
  0.100000000000000E+001  0.919343761762961E+001  0.275404247006627E+000 -0.705804921868228E+001 -0.906276122193229E+001
  0.100000000000000E+001  0.916998937690616E+001  0.726604916563024E+001 -0.926155343787541E+001 -0.575388060555808E+001
  0.100000000000000E+001  0.915726800043319E+001  0.531293682882965E+001 -0.806334317055222E+001 -0.572287415857311E+001
  0.100000000000000E+001  0.905344216819474E+001  0.155246160183172E+001 -0.794573886624321E+001 -0.907471532059186E+001
  0.100000000000000E+001  0.895974910519882E+001  0.771000206915362E+001 -0.786692578368591E+001 -0.329171530414127E+001
  0.100000000000000E+001  0.893363790840556E+001  0.525194682825346E+001 -0.764052186558410E+001 -0.517494209508858E+001
  0.100000000000000E+001  0.892116546429940E+001  0.702721969545387E+001 -0.891870777245836E+001 -0.543121638633021E+001
  0.100000000000000E+001  0.891356410667855E+001  0.777666027526244E+001 -0.851031417575273E+001 -0.418384535004519E+001
  0.100000000000000E+001  0.866136270823782E+001  0.749930329614066E+001 -0.805496537496109E+001 -0.381308897009868E+001
  0.100000000000000E+001  0.864083399111633E+001  0.490471211013507E+001 -0.555708604425623E+001 -0.266663471550386E+001
  0.100000000000000E+001  0.862560175178460E+001  0.620207108194470E+001 -0.685784063712679E+001 -0.334079669175127E+001
  0.100000000000000E+001  0.860854361037446E+001  0.399921247036186E+001 -0.884253875009951E+001 -0.811427715430034E+001
  0.100000000000000E+001  0.859488401759818E+001  0.576914881334576E+001 -0.587438223498578E+001 -0.230644879345247E+001
  0.100000000000000E+001  0.856763706586372E+001  0.245361393388749E+001 -0.592058639764866E+001 -0.547111916762099E+001
  0.100000000000000E+001  0.852708160563241E+001  0.472538854624435E+001 -0.550704831062617E+001 -0.265990172048939E+001
  0.100000000000000E+001  0.839220411018112E+001  0.452910632560851E+001 -0.774223105963870E+001 -0.600996126484361E+001
  0.100000000000000E+001  0.820398190312349E+001  0.616001015103378E+001 -0.659327084332429E+001 -0.295470580456566E+001
  0.100000000000000E+001  0.815875745459913E+001  0.512217982239872E+001 -0.858720365761767E+001 -0.672753998201225E+001
  0.100000000000000E+001  0.811304029949500E+001  0.441356962760815E+001 -0.719326860469503E+001 -0.533696431032158E+001
  0.100000000000000E+001  0.806279413427263E+001  0.469003410408677E+001 -0.576163246791216E+001 -0.312526095829015E+001
  0.100000000000000E+001  0.801363944936708E+001  0.486337611060627E+001 -0.663996397734193E+001 -0.414635444419759E+001
  0.100000000000000E+001  0.778868234986470E+001  0.352828457270968E+001 -0.788116033087734E+001 -0.720322798886291E+001
  0.100000000000000E+001  0.805534404799314E+001  0.579362952944364E+001 -0.782675011467651E+001 -0.499628408042928E+001
  0.100000000000000E+001  0.774787608975307E+001  0.357166419700893E+001 -0.700938885601346E+001 -0.587323966238507E+001
  0.100000000000000E+001  0.766754290047087E+001  0.482076172683805E+001 -0.713273763706860E+001 -0.490868699110577E+001
  0.100000000000000E+001  0.763216169498028E+001  0.469229774380287E+001 -0.762089784880850E+001 -0.578551424558938E+001
  0.100000000000000E+001  0.756134983184052E+001  0.399596845219847E+001 -0.750550453600371E+001 -0.622261844758578E+001
  0.100000000000000E+001  0.755250635751248E+001  0.314576308041278E+001 -0.705731219740849E+001 -0.636572935247120E+001
