  0.602745548141451E-001  0.222891983498299E+000  0.474615314233964E+000  0.144073088260916E+001
  0.602745548141451E-001  0.359664515314186E+000  0.290866319331279E+000  0.202637148763074E+001
  0.602745548141451E-001 -0.628626118510638E+001  0.250137572166642E+000  0.204027004155093E+001
  0.602745548141451E-001 -0.281136545058083E+001  0.136711597948527E+000  0.228357725505674E+001
  0.602745548141451E-001 -0.217175308100983E+001  0.398892419234067E+000  0.163707201317975E+001
  0.602745548141451E-001 -0.627736669102641E+001  0.166821027279388E+000  0.227738204562263E+001
  0.602745548141451E-001 -0.106145881074715E+001  0.437634712171227E+000  0.154454550152310E+001
  0.602745548141451E-001 -0.164847846617381E+001  0.430884160133462E+000  0.151406483592290E+001
  0.602745548141451E-001 -0.314525887469013E+001  0.313877989020050E+000  0.159386825105544E+001
  0.602745548141451E-001 -0.320114765232776E+001  0.137098712485498E+000  0.233925563890348E+001
  0.602745548141451E-001 -0.371629731947630E+001  0.364327914219114E+000  0.157079159312848E+001
  0.602745548141451E-001 -0.386508928088275E+001  0.272721732937597E+000  0.167505203664232E+001
  0.602745548141451E-001 -0.391937202032726E+001  0.292696887539597E+000  0.194568269649063E+001
  0.602745548141451E-001 -0.406842610353616E+001  0.144281106191943E+000  0.227282750627236E+001
  0.602745548141451E-001 -0.622736663493484E+001  0.165262304654416E+000  0.227562474979354E+001
  0.602745548141451E-001 -0.411426653170373E+001  0.144693791577661E+000  0.237347714145060E+001
  0.602745548141451E-001 -0.442635850175815E+001  0.191648791652520E+000  0.192027432412090E+001
  0.602745548141451E-001 -0.467352594598444E+001  0.327211274149086E+000  0.180294238214305E+001
  0.602745548141451E-001 -0.613944288779626E+001  0.165312493811649E+000  0.217201433613064E+001
  0.602745548141451E-001 -0.469085220957986E+001  0.152848691262736E+000  0.219460121075929E+001
  0.602745548141451E-001 -0.608808954270263E+001  0.242806754971874E+000  0.180168690123980E+001
  0.602745548141451E-001 -0.478756643568552E+001  0.336236948278497E+000  0.176411045434994E+001
  0.602745548141451E-001 -0.479489144367836E+001  0.185897258023406E+000  0.195887787999731E+001
  0.602745548141451E-001 -0.601751268520669E+001  0.278353066613104E+000  0.172871480610252E+001
  0.602745548141451E-001 -0.496616633153845E+001  0.351270565814710E+000  0.165751921064454E+001
  0.602745548141451E-001 -0.600258421853206E+001  0.262795388171123E+000  0.175506362138593E+001
  0.602745548141451E-001 -0.514595506339630E+001  0.251586709640784E+000  0.175182102806363E+001
  0.602745548141451E-001 -0.528000265809999E+001  0.203182951327825E+000  0.224507191647202E+001
  0.602745548141451E-001 -0.528278197711863E+001  0.337539965718348E+000  0.165471844453087E+001
  0.602745548141451E-001 -0.528426252200668E+001  0.217877669487872E+000  0.184712215865425E+001
  0.602745548141451E-001 -0.534860679917131E+001  0.165039202653706E+000  0.211342915370250E+001
  0.602745548141451E-001 -0.541836034099700E+001  0.154539424739582E+000  0.228920074067136E+001
  0.602745548141451E-001 -0.554714129974964E+001  0.160137848569895E+000  0.232643276346802E+001
  0.602745548141451E-001 -0.560210351243185E+001  0.225432851947537E+000  0.183331550334486E+001
  0.602745548141451E-001 -0.563379674894960E+001  0.231001422728512E+000  0.181811034063661E+001
  0.602745548141451E-001 -0.564254598510150E+001  0.330277003744504E+000  0.167826259466192E+001
  0.602745548141451E-001 -0.564655596570541E+001  0.164082771545450E+000  0.232623554591737E+001
  0.602745548141451E-001 -0.572743847839118E+001  0.322415065323379E+000  0.177418500851057E+001
  0.602745548141451E-001 -0.574444577170915E+001  0.164813111071604E+000  0.214160581323615E+001
  0.602745548141451E-001 -0.584667739548652E+001  0.328301901284727E+000  0.172296721510003E+001
  0.602745548141451E-001 -0.592582643118405E+001  0.250770182328984E+000  0.177754256370444E+001
  0.602745548141451E-001 -0.588048434788931E+001  0.310857340110235E+000  0.179014027473760E+001
  0.602745548141451E-001 -0.595233485339595E+001  0.294459231351024E+000  0.172463206869397E+001
  0.602745548141451E-001 -0.600863696157410E+001  0.201192849003003E+000  0.194941890270034E+001
  0.602745548141451E-001 -0.612108075185434E+001  0.259292949983752E+000  0.199655994429523E+001
  0.602745548141451E-001 -0.623772390518773E+001  0.289002707652125E+000  0.174481010895009E+001
  0.602745548141451E-001 -0.624458262240133E+001  0.292022410654418E+000  0.185732447502683E+001
  0.602745548141451E-001 -0.636282683915678E+001  0.276371863436652E+000  0.191866253449321E+001
  0.602745548141451E-001 -0.638917129735107E+001  0.298321479904934E+000  0.181222863397382E+001
  0.602745548141451E-001 -0.641984561425311E+001  0.231443359682323E+000  0.185956122087440E+001
  0.602745548141451E-001 -0.647601210188684E+001  0.284686312939642E+000  0.176278025068549E+001
  0.602745548141451E-001 -0.652738108696702E+001  0.292125358678061E+000  0.176622078425511E+001
  0.602745548141451E-001 -0.653146263377511E+001  0.297120662315852E+000  0.178369205690874E+001
  0.602745548141451E-001 -0.656913880930525E+001  0.194681331608257E+000  0.200729308079652E+001
  0.602745548141451E-001 -0.664130919289312E+001  0.222798224053554E+000  0.189540731521125E+001
  0.602745548141451E-001 -0.666300686865372E+001  0.289427879183845E+000  0.183587810809552E+001
  0.602745548141451E-001 -0.670953539625272E+001  0.235433728608699E+000  0.186109706809360E+001
  0.602745548141451E-001 -0.678634476882478E+001  0.271290403199553E+000  0.191748007634568E+001
  0.602745548141451E-001 -0.678718596214938E+001  0.255091106400451E+000  0.198542250826306E+001
  0.602745548141451E-001 -0.688867309522939E+001  0.263405824591100E+000  0.194567198589774E+001
  0.602745548141451E-001 -0.694923971538367E+001  0.199141401386527E+000  0.200709440863799E+001
  0.602745548141451E-001 -0.698676139852101E+001  0.269852365215155E+000  0.181065423777100E+001
  0.602745548141451E-001 -0.698986050192669E+001  0.262310473942391E+000  0.181935177263633E+001
  0.602745548141451E-001 -0.703255427570788E+001  0.272392123825667E+000  0.189381359756285E+001
  0.602745548141451E-001 -0.712082213033233E+001  0.276765597227485E+000  0.183344973710692E+001
  0.602745548141451E-001 -0.714270686297007E+001  0.230223482162782E+000  0.189773548831211E+001
  0.602745548141451E-001 -0.715900814059204E+001  0.275535879206299E+000  0.184038077743930E+001
  0.602745548141451E-001 -0.716146959505193E+001  0.248259329296397E+000  0.185435159195666E+001
  0.602745548141451E-001 -0.716845947691887E+001  0.211511797109671E+000  0.196414553421612E+001
  0.602745548141451E-001 -0.717538323190418E+001  0.265281092406382E+000  0.183045628606728E+001
  0.602745548141451E-001 -0.719029654814949E+001  0.256563537999698E+000  0.195613918542079E+001
  0.602745548141451E-001 -0.722994897596572E+001  0.270132196909659E+000  0.188302452316593E+001
  0.602745548141451E-001 -0.726366062308952E+001  0.253678297911246E+000  0.185156006149132E+001
  0.602745548141451E-001 -0.728343553647913E+001  0.248372445288886E+000  0.186230277668479E+001
  0.602745548141451E-001 -0.735219716250437E+001  0.224057753927632E+000  0.192973383488550E+001
  0.602745548141451E-001 -0.737077508440554E+001  0.258231972179033E+000  0.193325986708086E+001
  0.602745548141451E-001 -0.738732628091006E+001  0.205728204414016E+000  0.200619146261043E+001
  0.602745548141451E-001 -0.751277472510730E+001  0.230306144553059E+000  0.192206134485592E+001
  0.602745548141451E-001 -0.751300253035364E+001  0.259274949538407E+000  0.190512675358509E+001
  0.602745548141451E-001 -0.753137229335804E+001  0.251635087715847E+000  0.194876278073346E+001
  0.602745548141451E-001 -0.755756635273762E+001  0.257619230836259E+000  0.190565036260145E+001
  0.602745548141451E-001 -0.756030784641346E+001  0.257986198504264E+000  0.189765158111179E+001
  0.602745548141451E-001 -0.756127151640357E+001  0.257055084510896E+000  0.191002901396740E+001
  0.602745548141451E-001 -0.757667171468858E+001  0.239292527306348E+000  0.200026823009636E+001
  0.602745548141451E-001 -0.761560942674108E+001  0.255009834160730E+000  0.190197585980487E+001
  0.602745548141451E-001 -0.764301145608172E+001  0.250720189989507E+000  0.193670725058170E+001
  0.602745548141451E-001 -0.767860870089442E+001  0.221229992853047E+000  0.196629052091629E+001
  0.602745548141451E-001 -0.775220983513171E+001  0.245690210890166E+000  0.192358982867668E+001
  0.602745548141451E-001 -0.776370957603819E+001  0.235175221656835E+000  0.193510486204238E+001
  0.602745548141451E-001 -0.778218733433440E+001  0.234378009927966E+000  0.199756546915467E+001
  0.602745548141451E-001 -0.779483182127835E+001  0.233221099363879E+000  0.194423821804144E+001
  0.602745548141451E-001 -0.651882140428270E+001  0.228452246339756E+000  0.200622002208901E+001
