  0.194783302314684E+000  0.134838211240570E+001  0.474615314233964E+000  0.144073088260916E+001
  0.194783302314684E+000  0.148515464422159E+001  0.290866319331279E+000  0.202637148763074E+001
  0.194783302314684E+000  0.501622065749150E+001  0.466125117658216E+000  0.159409944971901E+001
  0.194783302314684E+000 -0.168587532167342E+001  0.136711597948527E+000  0.228357725505674E+001
  0.194783302314684E+000 -0.104626295210243E+001  0.398892419234067E+000  0.163707201317975E+001
  0.194783302314684E+000 -0.656358592565701E+000  0.333538498903020E+000  0.185272810455163E+001
  0.194783302314684E+000  0.640313181602532E-001  0.437634712171227E+000  0.154454550152310E+001
  0.194783302314684E+000 -0.522988337266407E+000  0.430884160133462E+000  0.151406483592290E+001
  0.194783302314684E+000 -0.201976874578272E+001  0.313877989020050E+000  0.159386825105544E+001
  0.194783302314684E+000 -0.207565752342035E+001  0.137098712485498E+000  0.233925563890348E+001
  0.194783302314684E+000 -0.259080719056890E+001  0.364327914219114E+000  0.157079159312848E+001
  0.194783302314684E+000 -0.273959915197534E+001  0.272721732937597E+000  0.167505203664232E+001
  0.194783302314684E+000 -0.279388189141986E+001  0.292696887539597E+000  0.194568269649063E+001
  0.194783302314684E+000 -0.294293597462875E+001  0.144281106191943E+000  0.227282750627236E+001
  0.194783302314684E+000 -0.296651834563242E+001  0.347627618763820E+000  0.174845131658232E+001
  0.194783302314684E+000 -0.298877640279633E+001  0.144693791577661E+000  0.237347714145060E+001
  0.194783302314684E+000 -0.330086837285074E+001  0.191648791652520E+000  0.192027432412090E+001
  0.194783302314684E+000 -0.354803581707704E+001  0.327211274149086E+000  0.180294238214305E+001
  0.194783302314684E+000 -0.355051142453610E+001  0.221098117724448E+000  0.181928500528371E+001
  0.194783302314684E+000 -0.356536208067245E+001  0.152848691262736E+000  0.219460121075929E+001
  0.194783302314684E+000 -0.361114589433712E+001  0.307093502131590E+000  0.187408801916332E+001
  0.194783302314684E+000 -0.366207630677812E+001  0.336236948278497E+000  0.176411045434994E+001
  0.194783302314684E+000 -0.366940131477096E+001  0.185897258023406E+000  0.195887787999731E+001
  0.194783302314684E+000 -0.379100110670078E+001  0.152437320279592E+000  0.222184051555182E+001
  0.194783302314684E+000 -0.384067620263104E+001  0.351270565814710E+000  0.165751921064454E+001
  0.194783302314684E+000 -0.388542175027508E+001  0.347363773152355E+000  0.164493399346680E+001
  0.194783302314684E+000 -0.402046493448890E+001  0.251586709640784E+000  0.175182102806363E+001
  0.194783302314684E+000 -0.415451252919259E+001  0.203182951327825E+000  0.224507191647202E+001
  0.194783302314684E+000 -0.415729184821123E+001  0.337539965718348E+000  0.165471844453087E+001
  0.194783302314684E+000 -0.415877239309928E+001  0.217877669487872E+000  0.184712215865425E+001
  0.194783302314684E+000 -0.422311667026391E+001  0.165039202653706E+000  0.211342915370250E+001
  0.194783302314684E+000 -0.429287021208960E+001  0.154539424739582E+000  0.228920074067136E+001
  0.194783302314684E+000 -0.442165117084224E+001  0.160137848569895E+000  0.232643276346802E+001
  0.194783302314684E+000 -0.447661338352445E+001  0.225432851947537E+000  0.183331550334486E+001
  0.194783302314684E+000 -0.450830662004220E+001  0.231001422728512E+000  0.181811034063661E+001
  0.194783302314684E+000 -0.451705585619410E+001  0.330277003744504E+000  0.167826259466192E+001
  0.194783302314684E+000 -0.452106583679801E+001  0.164082771545450E+000  0.232623554591737E+001
  0.194783302314684E+000 -0.460194834948378E+001  0.322415065323379E+000  0.177418500851057E+001
  0.194783302314684E+000 -0.461895564280175E+001  0.164813111071604E+000  0.214160581323615E+001
  0.194783302314684E+000 -0.472118726657911E+001  0.328301901284727E+000  0.172296721510003E+001
  0.194783302314684E+000 -0.480033630227664E+001  0.250770182328984E+000  0.177754256370444E+001
  0.194783302314684E+000 -0.486680258936641E+001  0.188949694618670E+000  0.198894874161020E+001
  0.194783302314684E+000 -0.487709408962465E+001  0.262795388171123E+000  0.175506362138593E+001
  0.194783302314684E+000 -0.489202255629929E+001  0.278353066613104E+000  0.172871480610252E+001
  0.194783302314684E+000 -0.496259941379522E+001  0.242806754971874E+000  0.180168690123980E+001
  0.194783302314684E+000 -0.501395275888885E+001  0.165312493811649E+000  0.217201433613064E+001
  0.194783302314684E+000 -0.510187650602743E+001  0.165262304654416E+000  0.227562474979354E+001
  0.194783302314684E+000 -0.515187656211901E+001  0.166821027279388E+000  0.227738204562263E+001
  0.194783302314684E+000 -0.516077105619898E+001  0.250137572166642E+000  0.204027004155093E+001
  0.194783302314684E+000 -0.434066188952388E+001  0.187552963554316E+000  0.224852330802126E+001
  0.194783302314684E+000 -0.434648235891885E+001  0.170252695097208E+000  0.215812621202841E+001
  0.194783302314684E+000 -0.436190343720337E+001  0.169052664341670E+000  0.224964644105128E+001
  0.194783302314684E+000 -0.450125814107563E+001  0.241776956077129E+000  0.205778900650106E+001
  0.194783302314684E+000 -0.464074260803269E+001  0.181881798306310E+000  0.224146814132212E+001
  0.194783302314684E+000 -0.499813366904702E+001  0.194980106644821E+000  0.219580418998393E+001
  0.194783302314684E+000 -0.510221656047928E+001  0.184806073615380E+000  0.220132248989141E+001
  0.194783302314684E+000 -0.515838430135317E+001  0.181134041870855E+000  0.217835083097263E+001
  0.194783302314684E+000 -0.517345503077725E+001  0.227656300287984E+000  0.208306461788521E+001
  0.194783302314684E+000 -0.521901287984612E+001  0.183410741408024E+000  0.218174156777257E+001
  0.194783302314684E+000 -0.524041213638555E+001  0.206536886706115E+000  0.215087641455018E+001
  0.194783302314684E+000 -0.530087096232513E+001  0.186809162295214E+000  0.217879777418894E+001
  0.194783302314684E+000 -0.530905203997904E+001  0.232661521475746E+000  0.205773485578268E+001
  0.194783302314684E+000 -0.532736177710980E+001  0.238443536968438E+000  0.203472009675176E+001
  0.194783302314684E+000 -0.533223270487836E+001  0.189588411530533E+000  0.217720877145398E+001
  0.194783302314684E+000 -0.533479024370900E+001  0.232222772180768E+000  0.205802968849174E+001
  0.194783302314684E+000 -0.535320630715125E+001  0.214426095590127E+000  0.211990267768050E+001
  0.194783302314684E+000 -0.551277694820271E+001  0.198545235497438E+000  0.215099719768806E+001
  0.194783302314684E+000 -0.563231816524057E+001  0.226547779887353E+000  0.206126214371012E+001
  0.194783302314684E+000 -0.566086973114105E+001  0.228987228471171E+000  0.205040310472293E+001
  0.194783302314684E+000 -0.569513172815211E+001  0.213777829507520E+000  0.209916605872039E+001
  0.194783302314684E+000 -0.570199901756079E+001  0.207121004927619E+000  0.211638892634071E+001
  0.194783302314684E+000 -0.576103631298794E+001  0.200546657019942E+000  0.205516731111618E+001
  0.194783302314684E+000 -0.582941570841212E+001  0.204354499804520E+000  0.203960975536210E+001
  0.194783302314684E+000 -0.588430953752537E+001  0.215040174016979E+000  0.207794346887564E+001
  0.194783302314684E+000 -0.590839783220942E+001  0.211459709168075E+000  0.208385072329478E+001
  0.194783302314684E+000 -0.595329300151645E+001  0.228343467532551E+000  0.202700285283795E+001
  0.194783302314684E+000 -0.596641587038242E+001  0.208153003352358E+000  0.207767859638516E+001
  0.194783302314684E+000 -0.601349883148487E+001  0.209851943419389E+000  0.206301239136250E+001
  0.194783302314684E+000 -0.601511110468839E+001  0.209439833257217E+000  0.205978356903378E+001
  0.194783302314684E+000 -0.550007744444989E+001  0.215683300701811E+000  0.203199431867622E+001
  0.194783302314684E+000 -0.551343450693923E+001  0.217669943900285E+000  0.202585297367655E+001
  0.194783302314684E+000 -0.552016781051445E+001  0.218928701282733E+000  0.202032415689288E+001
