  0.110924660120005E-001 -0.146795522377112E+001  0.474615314233964E+000  0.144073088260916E+001
  0.110924660120005E-001 -0.133118269195523E+001  0.290866319331279E+000  0.202637148763074E+001
  0.110924660120005E-001 -0.797710839237580E+001  0.250137572166642E+000  0.204027004155093E+001
  0.110924660120005E-001 -0.450221265785024E+001  0.136711597948527E+000  0.228357725505674E+001
  0.110924660120005E-001 -0.386260028827925E+001  0.398892419234067E+000  0.163707201317975E+001
  0.110924660120005E-001 -0.796821389829583E+001  0.166821027279388E+000  0.227738204562263E+001
  0.110924660120005E-001 -0.275230601801656E+001  0.437634712171227E+000  0.154454550152310E+001
  0.110924660120005E-001 -0.333932567344322E+001  0.430884160133462E+000  0.151406483592290E+001
  0.110924660120005E-001 -0.483610608195954E+001  0.313877989020050E+000  0.159386825105544E+001
  0.110924660120005E-001 -0.489199485959717E+001  0.137098712485498E+000  0.233925563890348E+001
  0.110924660120005E-001 -0.540714452674572E+001  0.364327914219114E+000  0.157079159312848E+001
  0.110924660120005E-001 -0.555593648815216E+001  0.272721732937597E+000  0.167505203664232E+001
  0.110924660120005E-001 -0.561021922759668E+001  0.292696887539597E+000  0.194568269649063E+001
  0.110924660120005E-001 -0.575927331080557E+001  0.144281106191943E+000  0.227282750627236E+001
  0.110924660120005E-001 -0.791821384220425E+001  0.165262304654416E+000  0.227562474979354E+001
  0.110924660120005E-001 -0.580511373897315E+001  0.144693791577661E+000  0.237347714145060E+001
  0.110924660120005E-001 -0.611720570902756E+001  0.191648791652520E+000  0.192027432412090E+001
  0.110924660120005E-001 -0.636437315325386E+001  0.327211274149086E+000  0.180294238214305E+001
  0.110924660120005E-001 -0.783029009506567E+001  0.165312493811649E+000  0.217201433613064E+001
  0.110924660120005E-001 -0.638169941684927E+001  0.152848691262736E+000  0.219460121075929E+001
  0.110924660120005E-001 -0.777893674997204E+001  0.242806754971874E+000  0.180168690123980E+001
  0.110924660120005E-001 -0.647841364295494E+001  0.336236948278497E+000  0.176411045434994E+001
  0.110924660120005E-001 -0.648573865094778E+001  0.185897258023406E+000  0.195887787999731E+001
  0.110924660120005E-001 -0.770835989247611E+001  0.278353066613104E+000  0.172871480610252E+001
  0.110924660120005E-001 -0.665701353880786E+001  0.351270565814710E+000  0.165751921064454E+001
  0.110924660120005E-001 -0.769343142580147E+001  0.262795388171123E+000  0.175506362138593E+001
  0.110924660120005E-001 -0.683680227066571E+001  0.251586709640784E+000  0.175182102806363E+001
  0.110924660120005E-001 -0.697084986536941E+001  0.203182951327825E+000  0.224507191647202E+001
  0.110924660120005E-001 -0.697362918438805E+001  0.337539965718348E+000  0.165471844453087E+001
  0.110924660120005E-001 -0.697510972927609E+001  0.217877669487872E+000  0.184712215865425E+001
  0.110924660120005E-001 -0.703945400644073E+001  0.165039202653706E+000  0.211342915370250E+001
  0.110924660120005E-001 -0.710920754826642E+001  0.154539424739582E+000  0.228920074067136E+001
  0.110924660120005E-001 -0.723798850701906E+001  0.160137848569895E+000  0.232643276346802E+001
  0.110924660120005E-001 -0.729295071970126E+001  0.225432851947537E+000  0.183331550334486E+001
  0.110924660120005E-001 -0.732464395621901E+001  0.231001422728512E+000  0.181811034063661E+001
  0.110924660120005E-001 -0.733339319237091E+001  0.330277003744504E+000  0.167826259466192E+001
  0.110924660120005E-001 -0.733740317297483E+001  0.164082771545450E+000  0.232623554591737E+001
  0.110924660120005E-001 -0.741828568566060E+001  0.322415065323379E+000  0.177418500851057E+001
  0.110924660120005E-001 -0.743529297897857E+001  0.164813111071604E+000  0.214160581323615E+001
  0.110924660120005E-001 -0.753752460275593E+001  0.328301901284727E+000  0.172296721510003E+001
  0.110924660120005E-001 -0.761667363845346E+001  0.250770182328984E+000  0.177754256370444E+001
  0.110924660120005E-001 -0.757133155515872E+001  0.310857340110235E+000  0.179014027473760E+001
  0.110924660120005E-001 -0.764318206066537E+001  0.294459231351024E+000  0.172463206869397E+001
  0.110924660120005E-001 -0.769948416884352E+001  0.201192849003003E+000  0.194941890270034E+001
  0.110924660120005E-001 -0.781192795912376E+001  0.259292949983752E+000  0.199655994429523E+001
  0.110924660120005E-001 -0.792857111245715E+001  0.289002707652125E+000  0.174481010895009E+001
  0.110924660120005E-001 -0.793542982967075E+001  0.292022410654418E+000  0.185732447502683E+001
  0.110924660120005E-001 -0.805367404642619E+001  0.276371863436652E+000  0.191866253449321E+001
  0.110924660120005E-001 -0.808001850462048E+001  0.298321479904934E+000  0.181222863397382E+001
  0.110924660120005E-001 -0.811069282152252E+001  0.231443359682323E+000  0.185956122087440E+001
  0.110924660120005E-001 -0.816685930915625E+001  0.284686312939642E+000  0.176278025068549E+001
  0.110924660120005E-001 -0.821822829423643E+001  0.292125358678061E+000  0.176622078425511E+001
  0.110924660120005E-001 -0.822230984104453E+001  0.297120662315852E+000  0.178369205690874E+001
  0.110924660120005E-001 -0.825998601657467E+001  0.194681331608257E+000  0.200729308079652E+001
  0.110924660120005E-001 -0.833215640016254E+001  0.222798224053554E+000  0.189540731521125E+001
  0.110924660120005E-001 -0.835385407592313E+001  0.289427879183845E+000  0.183587810809552E+001
  0.110924660120005E-001 -0.840038260352214E+001  0.235433728608699E+000  0.186109706809360E+001
  0.110924660120005E-001 -0.847719197609420E+001  0.271290403199553E+000  0.191748007634568E+001
  0.110924660120005E-001 -0.847803316941880E+001  0.255091106400451E+000  0.198542250826306E+001
  0.110924660120005E-001 -0.857952030249881E+001  0.263405824591100E+000  0.194567198589774E+001
  0.110924660120005E-001 -0.864008692265308E+001  0.199141401386527E+000  0.200709440863799E+001
  0.110924660120005E-001 -0.867760860579043E+001  0.269852365215155E+000  0.181065423777100E+001
  0.110924660120005E-001 -0.868070770919611E+001  0.262310473942391E+000  0.181935177263633E+001
  0.110924660120005E-001 -0.872340148297730E+001  0.272392123825667E+000  0.189381359756285E+001
  0.110924660120005E-001 -0.881166933760175E+001  0.276765597227485E+000  0.183344973710692E+001
  0.110924660120005E-001 -0.883355407023948E+001  0.230223482162782E+000  0.189773548831211E+001
  0.110924660120005E-001 -0.884985534786145E+001  0.275535879206299E+000  0.184038077743930E+001
  0.110924660120005E-001 -0.885231680232135E+001  0.248259329296397E+000  0.185435159195666E+001
  0.110924660120005E-001 -0.885930668418829E+001  0.211511797109671E+000  0.196414553421612E+001
  0.110924660120005E-001 -0.886623043917359E+001  0.265281092406382E+000  0.183045628606728E+001
  0.110924660120005E-001 -0.888114375541890E+001  0.256563537999698E+000  0.195613918542079E+001
  0.110924660120005E-001 -0.892079618323513E+001  0.270132196909659E+000  0.188302452316593E+001
  0.110924660120005E-001 -0.895450783035893E+001  0.253678297911246E+000  0.185156006149132E+001
  0.110924660120005E-001 -0.897428274374854E+001  0.248372445288886E+000  0.186230277668479E+001
  0.110924660120005E-001 -0.904304436977379E+001  0.224057753927632E+000  0.192973383488550E+001
  0.110924660120005E-001 -0.906162229167495E+001  0.258231972179033E+000  0.193325986708086E+001
  0.110924660120005E-001 -0.907817348817947E+001  0.205728204414016E+000  0.200619146261043E+001
  0.110924660120005E-001 -0.920362193237672E+001  0.230306144553059E+000  0.192206134485592E+001
  0.110924660120005E-001 -0.920384973762306E+001  0.259274949538407E+000  0.190512675358509E+001
  0.110924660120005E-001 -0.922221950062745E+001  0.251635087715847E+000  0.194876278073346E+001
  0.110924660120005E-001 -0.924841356000704E+001  0.257619230836259E+000  0.190565036260145E+001
  0.110924660120005E-001 -0.925115505368288E+001  0.257986198504264E+000  0.189765158111179E+001
  0.110924660120005E-001 -0.925211872367299E+001  0.257055084510896E+000  0.191002901396740E+001
  0.110924660120005E-001 -0.926751892195800E+001  0.239292527306348E+000  0.200026823009636E+001
  0.110924660120005E-001 -0.930645663401050E+001  0.255009834160730E+000  0.190197585980487E+001
  0.110924660120005E-001 -0.933385866335113E+001  0.250720189989507E+000  0.193670725058170E+001
  0.110924660120005E-001 -0.936945590816383E+001  0.221229992853047E+000  0.196629052091629E+001
  0.110924660120005E-001 -0.944305704240113E+001  0.245690210890166E+000  0.192358982867668E+001
  0.110924660120005E-001 -0.945455678330761E+001  0.235175221656835E+000  0.193510486204238E+001
  0.110924660120005E-001 -0.947303454160381E+001  0.234378009927966E+000  0.199756546915467E+001
  0.110924660120005E-001 -0.948567902854776E+001  0.233221099363879E+000  0.194423821804144E+001
  0.110924660120005E-001 -0.820966861155211E+001  0.228452246339756E+000  0.200622002208901E+001
  0.110924660120005E-001 -0.690036767352445E+001  0.225315896196786E+000  0.201494353300898E+001
