  0.152682382959890E+000  0.111418872490491E+001  0.474615314233964E+000  0.144073088260916E+001
  0.152682382959890E+000  0.125096125672079E+001  0.290866319331279E+000  0.202637148763074E+001
  0.152682382959890E+000  0.478202726999071E+001  0.466125117658216E+000  0.159409944971901E+001
  0.152682382959890E+000 -0.192006870917422E+001  0.136711597948527E+000  0.228357725505674E+001
  0.152682382959890E+000 -0.128045633960322E+001  0.398892419234067E+000  0.163707201317975E+001
  0.152682382959890E+000 -0.890551980066495E+000  0.333538498903020E+000  0.185272810455163E+001
  0.152682382959890E+000 -0.170162069340541E+000  0.437634712171227E+000  0.154454550152310E+001
  0.152682382959890E+000 -0.757181724767201E+000  0.430884160133462E+000  0.151406483592290E+001
  0.152682382959890E+000 -0.225396213328352E+001  0.313877989020050E+000  0.159386825105544E+001
  0.152682382959890E+000 -0.230985091092115E+001  0.137098712485498E+000  0.233925563890348E+001
  0.152682382959890E+000 -0.282500057806970E+001  0.364327914219114E+000  0.157079159312848E+001
  0.152682382959890E+000 -0.297379253947614E+001  0.272721732937597E+000  0.167505203664232E+001
  0.152682382959890E+000 -0.302807527892065E+001  0.292696887539597E+000  0.194568269649063E+001
  0.152682382959890E+000 -0.317712936212955E+001  0.144281106191943E+000  0.227282750627236E+001
  0.152682382959890E+000 -0.320071173313321E+001  0.347627618763820E+000  0.174845131658232E+001
  0.152682382959890E+000 -0.322296979029712E+001  0.144693791577661E+000  0.237347714145060E+001
  0.152682382959890E+000 -0.353506176035154E+001  0.191648791652520E+000  0.192027432412090E+001
  0.152682382959890E+000 -0.378222920457783E+001  0.327211274149086E+000  0.180294238214305E+001
  0.152682382959890E+000 -0.378470481203689E+001  0.221098117724448E+000  0.181928500528371E+001
  0.152682382959890E+000 -0.379955546817325E+001  0.152848691262736E+000  0.219460121075929E+001
  0.152682382959890E+000 -0.384533928183791E+001  0.307093502131590E+000  0.187408801916332E+001
  0.152682382959890E+000 -0.389626969427891E+001  0.336236948278497E+000  0.176411045434994E+001
  0.152682382959890E+000 -0.390359470227175E+001  0.185897258023406E+000  0.195887787999731E+001
  0.152682382959890E+000 -0.402519449420157E+001  0.152437320279592E+000  0.222184051555182E+001
  0.152682382959890E+000 -0.407486959013184E+001  0.351270565814710E+000  0.165751921064454E+001
  0.152682382959890E+000 -0.411961513777587E+001  0.347363773152355E+000  0.164493399346680E+001
  0.152682382959890E+000 -0.425465832198969E+001  0.251586709640784E+000  0.175182102806363E+001
  0.152682382959890E+000 -0.438870591669338E+001  0.203182951327825E+000  0.224507191647202E+001
  0.152682382959890E+000 -0.439148523571203E+001  0.337539965718348E+000  0.165471844453087E+001
  0.152682382959890E+000 -0.439296578060007E+001  0.217877669487872E+000  0.184712215865425E+001
  0.152682382959890E+000 -0.445731005776470E+001  0.165039202653706E+000  0.211342915370250E+001
  0.152682382959890E+000 -0.452706359959039E+001  0.154539424739582E+000  0.228920074067136E+001
  0.152682382959890E+000 -0.465584455834304E+001  0.160137848569895E+000  0.232643276346802E+001
  0.152682382959890E+000 -0.471080677102524E+001  0.225432851947537E+000  0.183331550334486E+001
  0.152682382959890E+000 -0.474250000754299E+001  0.231001422728512E+000  0.181811034063661E+001
  0.152682382959890E+000 -0.475124924369489E+001  0.330277003744504E+000  0.167826259466192E+001
  0.152682382959890E+000 -0.475525922429880E+001  0.164082771545450E+000  0.232623554591737E+001
  0.152682382959890E+000 -0.483614173698458E+001  0.322415065323379E+000  0.177418500851057E+001
  0.152682382959890E+000 -0.485314903030255E+001  0.164813111071604E+000  0.214160581323615E+001
  0.152682382959890E+000 -0.495538065407991E+001  0.328301901284727E+000  0.172296721510003E+001
  0.152682382959890E+000 -0.503452968977744E+001  0.250770182328984E+000  0.177754256370444E+001
  0.152682382959890E+000 -0.510099597686721E+001  0.188949694618670E+000  0.198894874161020E+001
  0.152682382959890E+000 -0.511128747712545E+001  0.262795388171123E+000  0.175506362138593E+001
  0.152682382959890E+000 -0.512621594380009E+001  0.278353066613104E+000  0.172871480610252E+001
  0.152682382959890E+000 -0.519679280129602E+001  0.242806754971874E+000  0.180168690123980E+001
  0.152682382959890E+000 -0.524814614638965E+001  0.165312493811649E+000  0.217201433613064E+001
  0.152682382959890E+000 -0.533606989352823E+001  0.165262304654416E+000  0.227562474979354E+001
  0.152682382959890E+000 -0.538606994961980E+001  0.166821027279388E+000  0.227738204562263E+001
  0.152682382959890E+000 -0.539496444369978E+001  0.250137572166642E+000  0.204027004155093E+001
  0.152682382959890E+000 -0.457485527702468E+001  0.187552963554316E+000  0.224852330802126E+001
  0.152682382959890E+000 -0.458067574641964E+001  0.170252695097208E+000  0.215812621202841E+001
  0.152682382959890E+000 -0.459609682470417E+001  0.169052664341670E+000  0.224964644105128E+001
  0.152682382959890E+000 -0.473545152857643E+001  0.241776956077129E+000  0.205778900650106E+001
  0.152682382959890E+000 -0.487493599553349E+001  0.181881798306310E+000  0.224146814132212E+001
  0.152682382959890E+000 -0.523232705654781E+001  0.194980106644821E+000  0.219580418998393E+001
  0.152682382959890E+000 -0.533640994798008E+001  0.184806073615380E+000  0.220132248989141E+001
  0.152682382959890E+000 -0.539257768885397E+001  0.181134041870855E+000  0.217835083097263E+001
  0.152682382959890E+000 -0.540764841827804E+001  0.227656300287984E+000  0.208306461788521E+001
  0.152682382959890E+000 -0.545320626734691E+001  0.183410741408024E+000  0.218174156777257E+001
  0.152682382959890E+000 -0.547460552388635E+001  0.206536886706115E+000  0.215087641455018E+001
  0.152682382959890E+000 -0.553506434982593E+001  0.186809162295214E+000  0.217879777418894E+001
  0.152682382959890E+000 -0.554324542747984E+001  0.232661521475746E+000  0.205773485578268E+001
  0.152682382959890E+000 -0.556155516461059E+001  0.238443536968438E+000  0.203472009675176E+001
  0.152682382959890E+000 -0.556642609237915E+001  0.189588411530533E+000  0.217720877145398E+001
  0.152682382959890E+000 -0.556898363120979E+001  0.232222772180768E+000  0.205802968849174E+001
  0.152682382959890E+000 -0.558739969465204E+001  0.214426095590127E+000  0.211990267768050E+001
  0.152682382959890E+000 -0.574697033570350E+001  0.198545235497438E+000  0.215099719768806E+001
  0.152682382959890E+000 -0.586651155274137E+001  0.226547779887353E+000  0.206126214371012E+001
  0.152682382959890E+000 -0.589506311864185E+001  0.228987228471171E+000  0.205040310472293E+001
  0.152682382959890E+000 -0.592932511565290E+001  0.213777829507520E+000  0.209916605872039E+001
  0.152682382959890E+000 -0.593619240506159E+001  0.207121004927619E+000  0.211638892634071E+001
  0.152682382959890E+000 -0.599522970048873E+001  0.200546657019942E+000  0.205516731111618E+001
  0.152682382959890E+000 -0.606360909591292E+001  0.204354499804520E+000  0.203960975536210E+001
  0.152682382959890E+000 -0.611850292502617E+001  0.215040174016979E+000  0.207794346887564E+001
  0.152682382959890E+000 -0.614259121971021E+001  0.211459709168075E+000  0.208385072329478E+001
  0.152682382959890E+000 -0.618748638901724E+001  0.228343467532551E+000  0.202700285283795E+001
  0.152682382959890E+000 -0.620060925788321E+001  0.208153003352358E+000  0.207767859638516E+001
  0.152682382959890E+000 -0.624769221898566E+001  0.209851943419389E+000  0.206301239136250E+001
  0.152682382959890E+000 -0.624930449218919E+001  0.209439833257217E+000  0.205978356903378E+001
  0.152682382959890E+000 -0.545100123167923E+001  0.216203646048235E+000  0.205314747697867E+001
