  0.373498176679603E+000  0.204761240366242E+001  0.474615314233964E+000  0.144073088260916E+001
  0.373498176679603E+000  0.218438493547831E+001  0.290866319331279E+000  0.202637148763074E+001
  0.373498176679603E+000 -0.446154076494226E+001  0.250137572166642E+000  0.204027004155093E+001
  0.373498176679603E+000 -0.986645030416705E+000  0.136711597948527E+000  0.228357725505674E+001
  0.373498176679603E+000 -0.347032660845710E+000  0.398892419234067E+000  0.163707201317975E+001
  0.373498176679603E+000 -0.445264627086229E+001  0.166821027279388E+000  0.227738204562263E+001
  0.373498176679603E+000  0.763261609416972E+000  0.437634712171227E+000  0.154454550152310E+001
  0.373498176679603E+000  0.176241953990312E+000  0.430884160133462E+000  0.151406483592290E+001
  0.373498176679603E+000 -0.132053845452601E+001  0.313877989020050E+000  0.159386825105544E+001
  0.373498176679603E+000 -0.137642723216364E+001  0.137098712485498E+000  0.233925563890348E+001
  0.373498176679603E+000 -0.189157689931218E+001  0.364327914219114E+000  0.157079159312848E+001
  0.373498176679603E+000 -0.204036886071863E+001  0.272721732937597E+000  0.167505203664232E+001
  0.373498176679603E+000 -0.209465160016314E+001  0.292696887539597E+000  0.194568269649063E+001
  0.373498176679603E+000 -0.224370568337204E+001  0.144281106191943E+000  0.227282750627236E+001
  0.373498176679603E+000 -0.440264621477072E+001  0.165262304654416E+000  0.227562474979354E+001
  0.373498176679603E+000 -0.228954611153961E+001  0.144693791577661E+000  0.237347714145060E+001
  0.373498176679603E+000 -0.260163808159403E+001  0.191648791652520E+000  0.192027432412090E+001
  0.373498176679603E+000 -0.284880552582032E+001  0.327211274149086E+000  0.180294238214305E+001
  0.373498176679603E+000 -0.431472246763214E+001  0.165312493811649E+000  0.217201433613064E+001
  0.373498176679603E+000 -0.286613178941573E+001  0.152848691262736E+000  0.219460121075929E+001
  0.373498176679603E+000 -0.426336912253851E+001  0.242806754971874E+000  0.180168690123980E+001
  0.373498176679603E+000 -0.296284601552140E+001  0.336236948278497E+000  0.176411045434994E+001
  0.373498176679603E+000 -0.297017102351424E+001  0.185897258023406E+000  0.195887787999731E+001
  0.373498176679603E+000 -0.419279226504257E+001  0.278353066613104E+000  0.172871480610252E+001
  0.373498176679603E+000 -0.314144591137433E+001  0.351270565814710E+000  0.165751921064454E+001
  0.373498176679603E+000 -0.417786379836793E+001  0.262795388171123E+000  0.175506362138593E+001
  0.373498176679603E+000 -0.332123464323218E+001  0.251586709640784E+000  0.175182102806363E+001
  0.373498176679603E+000 -0.345528223793587E+001  0.203182951327825E+000  0.224507191647202E+001
  0.373498176679603E+000 -0.345806155695451E+001  0.337539965718348E+000  0.165471844453087E+001
  0.373498176679603E+000 -0.345954210184256E+001  0.217877669487872E+000  0.184712215865425E+001
  0.373498176679603E+000 -0.352388637900719E+001  0.165039202653706E+000  0.211342915370250E+001
  0.373498176679603E+000 -0.359363992083288E+001  0.154539424739582E+000  0.228920074067136E+001
  0.373498176679603E+000 -0.372242087958552E+001  0.160137848569895E+000  0.232643276346802E+001
  0.373498176679603E+000 -0.377738309226773E+001  0.225432851947537E+000  0.183331550334486E+001
  0.373498176679603E+000 -0.380907632878548E+001  0.231001422728512E+000  0.181811034063661E+001
  0.373498176679603E+000 -0.381782556493738E+001  0.330277003744504E+000  0.167826259466192E+001
  0.373498176679603E+000 -0.382183554554129E+001  0.164082771545450E+000  0.232623554591737E+001
  0.373498176679603E+000 -0.390271805822706E+001  0.322415065323379E+000  0.177418500851057E+001
  0.373498176679603E+000 -0.391972535154503E+001  0.164813111071604E+000  0.214160581323615E+001
  0.373498176679603E+000 -0.402195697532240E+001  0.328301901284727E+000  0.172296721510003E+001
  0.373498176679603E+000 -0.410110601101992E+001  0.250770182328984E+000  0.177754256370444E+001
  0.373498176679603E+000 -0.405576392772518E+001  0.310857340110235E+000  0.179014027473760E+001
  0.373498176679603E+000 -0.412761443323183E+001  0.294459231351024E+000  0.172463206869397E+001
  0.373498176679603E+000 -0.418391654140998E+001  0.201192849003003E+000  0.194941890270034E+001
  0.373498176679603E+000 -0.429636033169022E+001  0.259292949983752E+000  0.199655994429523E+001
  0.373498176679603E+000 -0.441300348502361E+001  0.289002707652125E+000  0.174481010895009E+001
  0.373498176679603E+000 -0.441986220223721E+001  0.292022410654418E+000  0.185732447502683E+001
  0.373498176679603E+000 -0.453810641899266E+001  0.276371863436652E+000  0.191866253449321E+001
  0.373498176679603E+000 -0.456445087718695E+001  0.298321479904934E+000  0.181222863397382E+001
  0.373498176679603E+000 -0.459512519408898E+001  0.231443359682323E+000  0.185956122087440E+001
  0.373498176679603E+000 -0.465129168172272E+001  0.284686312939642E+000  0.176278025068549E+001
  0.373498176679603E+000 -0.470266066680290E+001  0.292125358678061E+000  0.176622078425511E+001
  0.373498176679603E+000 -0.470674221361099E+001  0.297120662315852E+000  0.178369205690874E+001
  0.373498176679603E+000 -0.474441838914113E+001  0.194681331608257E+000  0.200729308079652E+001
  0.373498176679603E+000 -0.481658877272900E+001  0.222798224053554E+000  0.189540731521125E+001
  0.373498176679603E+000 -0.483828644848960E+001  0.289427879183845E+000  0.183587810809552E+001
  0.373498176679603E+000 -0.488481497608860E+001  0.235433728608699E+000  0.186109706809360E+001
  0.373498176679603E+000 -0.496162434866066E+001  0.271290403199553E+000  0.191748007634568E+001
  0.373498176679603E+000 -0.496246554198526E+001  0.255091106400451E+000  0.198542250826306E+001
  0.373498176679603E+000 -0.506395267506527E+001  0.263405824591100E+000  0.194567198589774E+001
  0.373498176679603E+000 -0.512451929521955E+001  0.199141401386527E+000  0.200709440863799E+001
  0.373498176679603E+000 -0.516204097835689E+001  0.269852365215155E+000  0.181065423777100E+001
  0.373498176679603E+000 -0.516514008176257E+001  0.262310473942391E+000  0.181935177263633E+001
  0.373498176679603E+000 -0.520783385554376E+001  0.272392123825667E+000  0.189381359756285E+001
  0.373498176679603E+000 -0.529610171016821E+001  0.276765597227485E+000  0.183344973710692E+001
  0.373498176679603E+000 -0.531798644280595E+001  0.230223482162782E+000  0.189773548831211E+001
  0.373498176679603E+000 -0.533428772042792E+001  0.275535879206299E+000  0.184038077743930E+001
  0.373498176679603E+000 -0.533674917488781E+001  0.248259329296397E+000  0.185435159195666E+001
  0.373498176679603E+000 -0.534373905675475E+001  0.211511797109671E+000  0.196414553421612E+001
  0.373498176679603E+000 -0.535066281174006E+001  0.265281092406382E+000  0.183045628606728E+001
  0.373498176679603E+000 -0.536557612798536E+001  0.256563537999698E+000  0.195613918542079E+001
  0.373498176679603E+000 -0.540522855580160E+001  0.270132196909659E+000  0.188302452316593E+001
  0.373498176679603E+000 -0.543894020292539E+001  0.253678297911246E+000  0.185156006149132E+001
  0.373498176679603E+000 -0.545871511631501E+001  0.248372445288886E+000  0.186230277668479E+001
  0.373498176679603E+000 -0.552747674234025E+001  0.224057753927632E+000  0.192973383488550E+001
  0.373498176679603E+000 -0.554605466424141E+001  0.258231972179033E+000  0.193325986708086E+001
  0.373498176679603E+000 -0.556260586074594E+001  0.205728204414016E+000  0.200619146261043E+001
  0.373498176679603E+000 -0.568805430494318E+001  0.230306144553059E+000  0.192206134485592E+001
  0.373498176679603E+000 -0.568828211018952E+001  0.259274949538407E+000  0.190512675358509E+001
  0.373498176679603E+000 -0.570665187319392E+001  0.251635087715847E+000  0.194876278073346E+001
  0.373498176679603E+000 -0.573284593257350E+001  0.257619230836259E+000  0.190565036260145E+001
  0.373498176679603E+000 -0.573558742624934E+001  0.257986198504264E+000  0.189765158111179E+001
  0.373498176679603E+000 -0.573655109623945E+001  0.257055084510896E+000  0.191002901396740E+001
  0.373498176679603E+000 -0.575195129452446E+001  0.239292527306348E+000  0.200026823009636E+001
  0.373498176679603E+000 -0.579088900657696E+001  0.255009834160730E+000  0.190197585980487E+001
  0.373498176679603E+000 -0.581829103591760E+001  0.250720189989507E+000  0.193670725058170E+001
  0.373498176679603E+000 -0.585388828073030E+001  0.221229992853047E+000  0.196629052091629E+001
  0.373498176679603E+000 -0.592748941496759E+001  0.245690210890166E+000  0.192358982867668E+001
  0.373498176679603E+000 -0.593898915587407E+001  0.235175221656835E+000  0.193510486204238E+001
  0.373498176679603E+000 -0.595746691417028E+001  0.234378009927966E+000  0.199756546915467E+001
  0.373498176679603E+000 -0.597011140111423E+001  0.233221099363879E+000  0.194423821804144E+001
  0.373498176679603E+000 -0.552611891111937E+001  0.227004907302056E+000  0.198513680717949E+001
