  0.104247432625267E+000  0.773435340663235E+000  0.474615314233964E+000  0.144073088260916E+001
  0.104247432625267E+000  0.910207872479122E+000  0.290866319331279E+000  0.202637148763074E+001
  0.104247432625267E+000 -0.573571782794145E+001  0.250137572166642E+000  0.204027004155093E+001
  0.104247432625267E+000 -0.226082209341589E+001  0.136711597948527E+000  0.228357725505674E+001
  0.104247432625267E+000 -0.162120972384490E+001  0.398892419234067E+000  0.163707201317975E+001
  0.104247432625267E+000 -0.572682333386147E+001  0.166821027279388E+000  0.227738204562263E+001
  0.104247432625267E+000 -0.510915453582214E+000  0.437634712171227E+000  0.154454550152310E+001
  0.104247432625267E+000 -0.109793510900887E+001  0.430884160133462E+000  0.151406483592290E+001
  0.104247432625267E+000 -0.259471551752519E+001  0.313877989020050E+000  0.159386825105544E+001
  0.104247432625267E+000 -0.265060429516282E+001  0.137098712485498E+000  0.233925563890348E+001
  0.104247432625267E+000 -0.316575396231137E+001  0.364327914219114E+000  0.157079159312848E+001
  0.104247432625267E+000 -0.331454592371781E+001  0.272721732937597E+000  0.167505203664232E+001
  0.104247432625267E+000 -0.336882866316233E+001  0.292696887539597E+000  0.194568269649063E+001
  0.104247432625267E+000 -0.351788274637122E+001  0.144281106191943E+000  0.227282750627236E+001
  0.104247432625267E+000 -0.567682327776990E+001  0.165262304654416E+000  0.227562474979354E+001
  0.104247432625267E+000 -0.356372317453880E+001  0.144693791577661E+000  0.237347714145060E+001
  0.104247432625267E+000 -0.387581514459321E+001  0.191648791652520E+000  0.192027432412090E+001
  0.104247432625267E+000 -0.412298258881951E+001  0.327211274149086E+000  0.180294238214305E+001
  0.104247432625267E+000 -0.558889953063132E+001  0.165312493811649E+000  0.217201433613064E+001
  0.104247432625267E+000 -0.414030885241492E+001  0.152848691262736E+000  0.219460121075929E+001
  0.104247432625267E+000 -0.553754618553769E+001  0.242806754971874E+000  0.180168690123980E+001
  0.104247432625267E+000 -0.423702307852058E+001  0.336236948278497E+000  0.176411045434994E+001
  0.104247432625267E+000 -0.424434808651343E+001  0.185897258023406E+000  0.195887787999731E+001
  0.104247432625267E+000 -0.546696932804176E+001  0.278353066613104E+000  0.172871480610252E+001
  0.104247432625267E+000 -0.441562297437351E+001  0.351270565814710E+000  0.165751921064454E+001
  0.104247432625267E+000 -0.545204086136712E+001  0.262795388171123E+000  0.175506362138593E+001
  0.104247432625267E+000 -0.459541170623136E+001  0.251586709640784E+000  0.175182102806363E+001
  0.104247432625267E+000 -0.472945930093505E+001  0.203182951327825E+000  0.224507191647202E+001
  0.104247432625267E+000 -0.473223861995370E+001  0.337539965718348E+000  0.165471844453087E+001
  0.104247432625267E+000 -0.473371916484174E+001  0.217877669487872E+000  0.184712215865425E+001
  0.104247432625267E+000 -0.479806344200638E+001  0.165039202653706E+000  0.211342915370250E+001
  0.104247432625267E+000 -0.486781698383207E+001  0.154539424739582E+000  0.228920074067136E+001
  0.104247432625267E+000 -0.499659794258471E+001  0.160137848569895E+000  0.232643276346802E+001
  0.104247432625267E+000 -0.505156015526691E+001  0.225432851947537E+000  0.183331550334486E+001
  0.104247432625267E+000 -0.508325339178466E+001  0.231001422728512E+000  0.181811034063661E+001
  0.104247432625267E+000 -0.509200262793656E+001  0.330277003744504E+000  0.167826259466192E+001
  0.104247432625267E+000 -0.509601260854048E+001  0.164082771545450E+000  0.232623554591737E+001
  0.104247432625267E+000 -0.517689512122625E+001  0.322415065323379E+000  0.177418500851057E+001
  0.104247432625267E+000 -0.519390241454422E+001  0.164813111071604E+000  0.214160581323615E+001
  0.104247432625267E+000 -0.529613403832158E+001  0.328301901284727E+000  0.172296721510003E+001
  0.104247432625267E+000 -0.537528307401911E+001  0.250770182328984E+000  0.177754256370444E+001
  0.104247432625267E+000 -0.532994099072437E+001  0.310857340110235E+000  0.179014027473760E+001
  0.104247432625267E+000 -0.540179149623102E+001  0.294459231351024E+000  0.172463206869397E+001
  0.104247432625267E+000 -0.545809360440917E+001  0.201192849003003E+000  0.194941890270034E+001
  0.104247432625267E+000 -0.557053739468941E+001  0.259292949983752E+000  0.199655994429523E+001
  0.104247432625267E+000 -0.568718054802280E+001  0.289002707652125E+000  0.174481010895009E+001
  0.104247432625267E+000 -0.569403926523640E+001  0.292022410654418E+000  0.185732447502683E+001
  0.104247432625267E+000 -0.581228348199184E+001  0.276371863436652E+000  0.191866253449321E+001
  0.104247432625267E+000 -0.583862794018613E+001  0.298321479904934E+000  0.181222863397382E+001
  0.104247432625267E+000 -0.586930225708817E+001  0.231443359682323E+000  0.185956122087440E+001
  0.104247432625267E+000 -0.592546874472190E+001  0.284686312939642E+000  0.176278025068549E+001
  0.104247432625267E+000 -0.597683772980208E+001  0.292125358678061E+000  0.176622078425511E+001
  0.104247432625267E+000 -0.598091927661017E+001  0.297120662315852E+000  0.178369205690874E+001
  0.104247432625267E+000 -0.601859545214032E+001  0.194681331608257E+000  0.200729308079652E+001
  0.104247432625267E+000 -0.609076583572818E+001  0.222798224053554E+000  0.189540731521125E+001
  0.104247432625267E+000 -0.611246351148878E+001  0.289427879183845E+000  0.183587810809552E+001
  0.104247432625267E+000 -0.615899203908779E+001  0.235433728608699E+000  0.186109706809360E+001
  0.104247432625267E+000 -0.623580141165985E+001  0.271290403199553E+000  0.191748007634568E+001
  0.104247432625267E+000 -0.623664260498445E+001  0.255091106400451E+000  0.198542250826306E+001
  0.104247432625267E+000 -0.633812973806446E+001  0.263405824591100E+000  0.194567198589774E+001
  0.104247432625267E+000 -0.639869635821873E+001  0.199141401386527E+000  0.200709440863799E+001
  0.104247432625267E+000 -0.643621804135608E+001  0.269852365215155E+000  0.181065423777100E+001
  0.104247432625267E+000 -0.643931714476176E+001  0.262310473942391E+000  0.181935177263633E+001
  0.104247432625267E+000 -0.648201091854295E+001  0.272392123825667E+000  0.189381359756285E+001
  0.104247432625267E+000 -0.657027877316739E+001  0.276765597227485E+000  0.183344973710692E+001
  0.104247432625267E+000 -0.659216350580513E+001  0.230223482162782E+000  0.189773548831211E+001
  0.104247432625267E+000 -0.660846478342710E+001  0.275535879206299E+000  0.184038077743930E+001
  0.104247432625267E+000 -0.661092623788699E+001  0.248259329296397E+000  0.185435159195666E+001
  0.104247432625267E+000 -0.661791611975394E+001  0.211511797109671E+000  0.196414553421612E+001
  0.104247432625267E+000 -0.662483987473924E+001  0.265281092406382E+000  0.183045628606728E+001
  0.104247432625267E+000 -0.663975319098455E+001  0.256563537999698E+000  0.195613918542079E+001
  0.104247432625267E+000 -0.667940561880078E+001  0.270132196909659E+000  0.188302452316593E+001
  0.104247432625267E+000 -0.671311726592458E+001  0.253678297911246E+000  0.185156006149132E+001
  0.104247432625267E+000 -0.673289217931419E+001  0.248372445288886E+000  0.186230277668479E+001
  0.104247432625267E+000 -0.680165380533944E+001  0.224057753927632E+000  0.192973383488550E+001
  0.104247432625267E+000 -0.682023172724060E+001  0.258231972179033E+000  0.193325986708086E+001
  0.104247432625267E+000 -0.683678292374512E+001  0.205728204414016E+000  0.200619146261043E+001
  0.104247432625267E+000 -0.696223136794237E+001  0.230306144553059E+000  0.192206134485592E+001
  0.104247432625267E+000 -0.696245917318871E+001  0.259274949538407E+000  0.190512675358509E+001
  0.104247432625267E+000 -0.698082893619310E+001  0.251635087715847E+000  0.194876278073346E+001
  0.104247432625267E+000 -0.700702299557269E+001  0.257619230836259E+000  0.190565036260145E+001
  0.104247432625267E+000 -0.700976448924852E+001  0.257986198504264E+000  0.189765158111179E+001
  0.104247432625267E+000 -0.701072815923864E+001  0.257055084510896E+000  0.191002901396740E+001
  0.104247432625267E+000 -0.702612835752365E+001  0.239292527306348E+000  0.200026823009636E+001
  0.104247432625267E+000 -0.706506606957615E+001  0.255009834160730E+000  0.190197585980487E+001
  0.104247432625267E+000 -0.709246809891678E+001  0.250720189989507E+000  0.193670725058170E+001
  0.104247432625267E+000 -0.712806534372948E+001  0.221229992853047E+000  0.196629052091629E+001
  0.104247432625267E+000 -0.720166647796677E+001  0.245690210890166E+000  0.192358982867668E+001
  0.104247432625267E+000 -0.721316621887325E+001  0.235175221656835E+000  0.193510486204238E+001
  0.104247432625267E+000 -0.723164397716946E+001  0.234378009927966E+000  0.199756546915467E+001
  0.104247432625267E+000 -0.724428846411341E+001  0.233221099363879E+000  0.194423821804144E+001
